{"learner":{"attributes":{"scikit_learn":"{\"_estimator_type\": \"classifier\"}"},"feature_names":["rsi","trend_signal","volatility","momentum_24h","qqq_mom"],"feature_types":["float","float","float","float","float"],"gradient_booster":{"model":{"cats":{"enc":[],"feature_segments":[],"sorted_idx":[]},"gbtree_model_param":{"num_parallel_tree":"1","num_trees":"900"},"iteration_indptr":[0,3,6,9,12,15,18,21,24,27,30,33,36,39,42,45,48,51,54,57,60,63,66,69,72,75,78,81,84,87,90,93,96,99,102,105,108,111,114,117,120,123,126,129,132,135,138,141,144,147,150,153,156,159,162,165,168,171,174,177,180,183,186,189,192,195,198,201,204,207,210,213,216,219,222,225,228,231,234,237,240,243,246,249,252,255,258,261,264,267,270,273,276,279,282,285,288,291,294,297,300,303,306,309,312,315,318,321,324,327,330,333,336,339,342,345,348,351,354,357,360,363,366,369,372,375,378,381,384,387,390,393,396,399,402,405,408,411,414,417,420,423,426,429,432,435,438,441,444,447,450,453,456,459,462,465,468,471,474,477,480,483,486,489,492,495,498,501,504,507,510,513,516,519,522,525,528,531,534,537,540,543,546,549,552,555,558,561,564,567,570,573,576,579,582,585,588,591,594,597,600,603,606,609,612,615,618,621,624,627,630,633,636,639,642,645,648,651,654,657,660,663,666,669,672,675,678,681,684,687,690,693,696,699,702,705,708,711,714,717,720,723,726,729,732,735,738,741,744,747,750,753,756,759,762,765,768,771,774,777,780,783,786,789,792,795,798,801,804,807,810,813,816,819,822,825,828,831,834,837,840,843,846,849,852,855,858,861,864,867,870,873,876,879,882,885,888,891,894,897,900],"tree_info":[0,1,2,0,1,2,0,1,2,0,1,2,0,1,2,0,1,2,0,1,2,0,1,2,0,1,2,0,1,2,0,1,2,0,1,2,0,1,2,0,1,2,0,1,2,0,1,2,0,1,2,0,1,2,0,1,2,0,1,2,0,1,2,0,1,2,0,1,2,0,1,2,0,1,2,0,1,2,0,1,2,0,1,2,0,1,2,0,1,2,0,1,2,0,1,2,0,1,2,0,1,2,0,1,2,0,1,2,0,1,2,0,1,2,0,1,2,0,1,2,0,1,2,0,1,2,0,1,2,0,1,2,0,1,2,0,1,2,0,1,2,0,1,2,0,1,2,0,1,2,0,1,2,0,1,2,0,1,2,0,1,2,0,1,2,0,1,2,0,1,2,0,1,2,0,1,2,0,1,2,0,1,2,0,1,2,0,1,2,0,1,2,0,1,2,0,1,2,0,1,2,0,1,2,0,1,2,0,1,2,0,1,2,0,1,2,0,1,2,0,1,2,0,1,2,0,1,2,0,1,2,0,1,2,0,1,2,0,1,2,0,1,2,0,1,2,0,1,2,0,1,2,0,1,2,0,1,2,0,1,2,0,1,2,0,1,2,0,1,2,0,1,2,0,1,2,0,1,2,0,1,2,0,1,2,0,1,2,0,1,2,0,1,2,0,1,2,0,1,2,0,1,2,0,1,2,0,1,2,0,1,2,0,1,2,0,1,2,0,1,2,0,1,2,0,1,2,0,1,2,0,1,2,0,1,2,0,1,2,0,1,2,0,1,2,0,1,2,0,1,2,0,1,2,0,1,2,0,1,2,0,1,2,0,1,2,0,1,2,0,1,2,0,1,2,0,1,2,0,1,2,0,1,2,0,1,2,0,1,2,0,1,2,0,1,2,0,1,2,0,1,2,0,1,2,0,1,2,0,1,2,0,1,2,0,1,2,0,1,2,0,1,2,0,1,2,0,1,2,0,1,2,0,1,2,0,1,2,0,1,2,0,1,2,0,1,2,0,1,2,0,1,2,0,1,2,0,1,2,0,1,2,0,1,2,0,1,2,0,1,2,0,1,2,0,1,2,0,1,2,0,1,2,0,1,2,0,1,2,0,1,2,0,1,2,0,1,2,0,1,2,0,1,2,0,1,2,0,1,2,0,1,2,0,1,2,0,1,2,0,1,2,0,1,2,0,1,2,0,1,2,0,1,2,0,1,2,0,1,2,0,1,2,0,1,2,0,1,2,0,1,2,0,1,2,0,1,2,0,1,2,0,1,2,0,1,2,0,1,2,0,1,2,0,1,2,0,1,2,0,1,2,0,1,2,0,1,2,0,1,2,0,1,2,0,1,2,0,1,2,0,1,2,0,1,2,0,1,2,0,1,2,0,1,2,0,1,2,0,1,2,0,1,2,0,1,2,0,1,2,0,1,2,0,1,2,0,1,2,0,1,2,0,1,2,0,1,2,0,1,2,0,1,2,0,1,2,0,1,2,0,1,2,0,1,2,0,1,2,0,1,2,0,1,2,0,1,2,0,1,2,0,1,2,0,1,2,0,1,2,0,1,2,0,1,2,0,1,2,0,1,2,0,1,2,0,1,2,0,1,2,0,1,2,0,1,2,0,1,2,0,1,2,0,1,2,0,1,2,0,1,2,0,1,2,0,1,2,0,1,2,0,1,2,0,1,2,0,1,2,0,1,2,0,1,2,0,1,2,0,1,2,0,1,2,0,1,2,0,1,2,0,1,2,0,1,2,0,1,2,0,1,2,0,1,2,0,1,2,0,1,2,0,1,2,0,1,2,0,1,2,0,1,2,0,1,2,0,1,2,0,1,2,0,1,2,0,1,2,0,1,2,0,1,2,0,1,2,0,1,2,0,1,2,0,1,2,0,1,2,0,1,2,0,1,2,0,1,2,0,1,2,0,1,2,0,1,2,0,1,2,0,1,2,0,1,2,0,1,2,0,1,2,0,1,2,0,1,2,0,1,2,0,1,2,0,1,2,0,1,2,0,1,2,0,1,2,0,1,2],"trees":[{"base_weights":[2.794341E-1,4.099475E-1,1.2563725E-2,6.227472E-1,3.431847E-1,7.180559E-2,-2.0553276E-1,8.252976E-1,5.6469315E-1,2.0498176E-1,3.7098053E-1,-1.4688098E-1,1.038333E-1,-4.6480727E-1,-1.6498598E-1,6.8925184E-1,9.840547E-1,3.5803947E-1,6.070184E-1,-4.0056667E-1,2.2378986E-1,3.6577556E-1,6.315636E-1,1.4023551E-1,-2.3904338E-1,6.268029E-1,9.62113E-2,-5.855224E-1,-3.4065884E-1,-1.4273162E-1,-3.9561927E-1,3.0231444E-2,4.7087144E-2,5.1087767E-2,3.3767463E-3,-1.9023959E-3,1.9774612E-2,4.8999786E-2,2.8940922E-2,1.9344212E-3,-2.5273565E-2,2.1610573E-2,9.543755E-3,1.8961076E-2,1.021879E-2,4.6753284E-2,2.3922846E-2,-1.658155E-3,1.3592842E-2,-1.6641987E-2,-1.7341379E-3,3.728507E-2,-5.4808026E-3,3.4882755E-3,1.0505638E-2,-3.332579E-2,7.37153E-3,-5.0344924E-3,-2.8051281E-2,-5.2958615E-3,-1.5088237E-2,-2.936776E-2,-1.9023959E-3],"categories":[],"categories_nodes":[],"categories_segments":[],"categories_sizes":[],"default_left":[0,0,0,0,0,0,0,0,0,0,0,0,0,0,0,0,0,0,0,0,0,0,0,0,0,0,0,0,0,0,0,0,0,0,0,0,0,0,0,0,0,0,0,0,0,0,0,0,0,0,0,0,0,0,0,0,0,0,0,0,0,0,0],"id":0,"left_children":[1,3,5,7,9,11,13,15,17,19,21,23,25,27,29,31,33,35,37,39,41,43,45,47,49,51,53,55,57,59,61,-1,-1,-1,-1,-1,-1,-1,-1,-1,-1,-1,-1,-1,-1,-1,-1,-1,-1,-1,-1,-1,-1,-1,-1,-1,-1,-1,-1,-1,-1,-1,-1],"loss_changes":[2.3534851E2,6.425635E1,2.8702053E1,1.2262543E1,1.3201599E1,1.2249667E1,4.911976E0,4.4831085E0,7.1692505E0,6.706732E0,3.6703186E0,5.949128E0,6.015318E0,7.5404453E-1,2.057704E0,2.2515984E0,3.6607742E0,2.1808796E0,6.7900696E0,8.425584E-1,3.7875576E0,6.0477295E0,2.106186E0,1.2632079E0,3.2394629E0,1.9830112E0,4.5141983E0,1.9306593E0,1.7286339E0,2.1765885E0,2.424131E0,0E0,0E0,0E0,0E0,0E0,0E0,0E0,0E0,0E0,0E0,0E0,0E0,0E0,0E0,0E0,0E0,0E0,0E0,0E0,0E0,0E0,0E0,0E0,0E0,0E0,0E0,0E0,0E0,0E0,0E0,0E0,0E0],"parents":[2147483647,0,0,1,1,2,2,3,3,4,4,5,5,6,6,7,7,8,8,9,9,10,10,11,11,12,12,13,13,14,14,15,15,16,16,17,17,18,18,19,19,20,20,21,21,22,22,23,23,24,24,25,25,26,26,27,27,28,28,29,29,30,30],"right_children":[2,4,6,8,10,12,14,16,18,20,22,24,26,28,30,32,34,36,38,40,42,44,46,48,50,52,54,56,58,60,62,-1,-1,-1,-1,-1,-1,-1,-1,-1,-1,-1,-1,-1,-1,-1,-1,-1,-1,-1,-1,-1,-1,-1,-1,-1,-1,-1,-1,-1,-1,-1,-1],"split_conditions":[5.0701117E-3,2.507364E-3,8.049124E-3,1.5434752E-3,-1.5057558E-2,-2.6547179E-2,-5.5180926E-2,1.5585631E-3,3.7544724E1,-3.5536394E-2,4.168131E-2,5.666552E-3,2.0895473E1,3.1292944E1,7.6064835E1,5.3241543E1,8.171453E1,-1.482688E-2,-7.411217E-3,-4.6873488E-2,3.1174666E-3,7.491217E1,3.0425407E-2,-3.620783E-2,7.5891605E-3,-4.3114414E-3,3.4216408E-2,1.4723209E-2,3.932331E1,1.1670706E-2,7.973486E1,3.0231444E-2,4.7087144E-2,5.1087767E-2,3.3767463E-3,-1.9023959E-3,1.9774612E-2,4.8999786E-2,2.8940922E-2,1.9344212E-3,-2.5273565E-2,2.1610573E-2,9.543755E-3,1.8961076E-2,1.021879E-2,4.6753284E-2,2.3922846E-2,-1.658155E-3,1.3592842E-2,-1.6641987E-2,-1.7341379E-3,3.728507E-2,-5.4808026E-3,3.4882755E-3,1.0505638E-2,-3.332579E-2,7.37153E-3,-5.0344924E-3,-2.8051281E-2,-5.2958615E-3,-1.5088237E-2,-2.936776E-2,-1.9023959E-3],"split_indices":[2,2,2,2,3,1,3,3,0,1,3,2,0,0,0,0,0,1,3,3,2,0,1,3,2,1,3,2,0,2,0,0,0,0,0,0,0,0,0,0,0,0,0,0,0,0,0,0,0,0,0,0,0,0,0,0,0,0,0,0,0,0,0],"split_type":[0,0,0,0,0,0,0,0,0,0,0,0,0,0,0,0,0,0,0,0,0,0,0,0,0,0,0,0,0,0,0,0,0,0,0,0,0,0,0,0,0,0,0,0,0,0,0,0,0,0,0,0,0,0,0,0,0,0,0,0,0,0,0],"sum_hessian":[6.7561797E3,4.536877E3,2.2193027E3,1.0814705E3,3.4554067E3,1.745768E3,4.7353476E2,2.3797168E2,8.4349884E2,5.799958E2,2.875411E3,2.2255652E2,1.5232114E3,6.2624126E1,4.109106E2,1.3102895E2,1.0694274E2,1.4499895E2,6.984999E2,1.6860342E1,5.6313544E2,2.8214578E3,5.3953094E1,5.3953094E1,1.6860342E2,2.0714134E1,1.5024973E3,2.9866892E1,3.2757236E1,3.7622647E2,3.468413E1,1.0068033E2,3.0348616E1,1.0260722E2,4.3355165E0,1.2524825E1,1.3247412E2,4.6727234E1,6.5177264E2,3.3720684E0,1.3488274E1,7.514895E1,4.8798648E2,2.6032368E3,2.18221E2,1.6378618E1,3.7574474E1,2.3604479E1,3.0348616E1,1.1513205E2,5.347137E1,1.782379E1,2.8903444E0,1.2206887E3,2.8180856E2,2.6976547E1,2.8903444E0,1.6378618E1,1.6378618E1,3.0685822E2,6.936826E1,2.2159306E1,1.2524825E1],"tree_param":{"num_deleted":"0","num_feature":"5","num_nodes":"63","size_leaf_vector":"1"}},{"base_weights":[-1.3207954E-1,-2.3025197E-1,5.6705713E-2,-3.2434642E-1,-1.977997E-1,3.517697E-1,1.2625284E-2,-3.3418766E-1,-2.8558467E-2,-1.5498011E-1,-2.867896E-1,2.4140942E-1,5.9307325E-1,1.0528993E-1,-8.4707014E-2,-4.090949E-1,-3.118579E-1,2.1422765E-1,-5.5574065E-1,-2.555899E-1,-1.1437998E-1,1.8770647E-1,-2.9837924E-1,-6.35617E-2,3.9210582E-1,7.153045E-1,2.1238713E-1,3.6307758E-1,7.2004616E-2,-3.8059735E-1,-6.283174E-2,-3.2714505E-2,-1.5675545E-2,-3.6634027E-3,-1.6029524E-2,-8.349582E-3,2.0421913E-2,2.0829975E-3,-3.2013293E-2,-3.9117486E-4,-1.6060527E-2,-2.5245363E-3,-8.290358E-3,-7.1625835E-3,6.693288E-2,-1.5580404E-2,6.5756673E-3,4.2054303E-2,-9.998421E-3,6.088909E-2,1.7290073E-2,5.681569E-2,2.9595068E-2,-8.349582E-3,2.177853E-2,5.274902E-2,1.51690515E-2,-2.9750066E-3,7.31947E-3,1.0404304E-2,-2.4168132E-2,-2.262469E-3,-2.1261694E-2],"categories":[],"categories_nodes":[],"categories_segments":[],"categories_sizes":[],"default_left":[0,0,0,0,0,0,0,0,0,0,0,0,0,0,0,0,0,0,0,0,0,0,0,0,0,0,0,0,0,0,0,0,0,0,0,0,0,0,0,0,0,0,0,0,0,0,0,0,0,0,0,0,0,0,0,0,0,0,0,0,0,0,0],"id":1,"left_children":[1,3,5,7,9,11,13,15,17,19,21,23,25,27,29,31,33,35,37,39,41,43,45,47,49,51,53,55,57,59,61,-1,-1,-1,-1,-1,-1,-1,-1,-1,-1,-1,-1,-1,-1,-1,-1,-1,-1,-1,-1,-1,-1,-1,-1,-1,-1,-1,-1,-1,-1,-1,-1],"loss_changes":[1.0914848E2,1.1765961E1,2.6208433E1,2.877945E0,1.0942131E1,6.8315773E0,1.5832766E1,1.4780426E0,4.347183E0,7.931011E0,5.2004013E0,8.361855E0,3.6407375E0,7.689666E0,5.5181828E0,4.886051E0,1.5259857E0,1.7961975E0,5.6669974E-1,9.094021E0,4.5595665E0,8.921659E0,5.236328E0,7.6774945E0,4.2260265E0,2.5108795E0,1.8704827E0,3.9170103E0,7.811181E0,3.654482E0,5.068596E0,0E0,0E0,0E0,0E0,0E0,0E0,0E0,0E0,0E0,0E0,0E0,0E0,0E0,0E0,0E0,0E0,0E0,0E0,0E0,0E0,0E0,0E0,0E0,0E0,0E0,0E0,0E0,0E0,0E0,0E0,0E0,0E0],"parents":[2147483647,0,0,1,1,2,2,3,3,4,4,5,5,6,6,7,7,8,8,9,9,10,10,11,11,12,12,13,13,14,14,15,15,16,16,17,17,18,18,19,19,20,20,21,21,22,22,23,23,24,24,25,25,26,26,27,27,28,28,29,29,30,30],"right_children":[2,4,6,8,10,12,14,16,18,20,22,24,26,28,30,32,34,36,38,40,42,44,46,48,50,52,54,56,58,60,62,-1,-1,-1,-1,-1,-1,-1,-1,-1,-1,-1,-1,-1,-1,-1,-1,-1,-1,-1,-1,-1,-1,-1,-1,-1,-1,-1,-1,-1,-1,-1,-1],"split_conditions":[4.9993903E-3,2.552921E-3,-3.743731E-2,1.6143579E-2,3.4028108E-3,8.633047E-3,1.7595598E-4,-3.7330491E-3,1.9349858E-5,-2.6909963E-3,-2.3033569E-2,-1.568016E-2,-4.6873488E-2,-2.5954032E-2,8.7589154E-4,1.7374281E-3,-3.187805E-3,2.2025893E-3,1.714257E-2,-1.3801308E-2,-9.0456085E-4,1.2807855E-2,2.7160985E-2,-3.409062E-2,-1.2696529E-2,-2.4210623E-2,-3.920713E-2,-3.004428E-2,-7.678337E-3,-2.192281E-2,6.620448E-2,-3.2714505E-2,-1.5675545E-2,-3.6634027E-3,-1.6029524E-2,-8.349582E-3,2.0421913E-2,2.0829975E-3,-3.2013293E-2,-3.9117486E-4,-1.6060527E-2,-2.5245363E-3,-8.290358E-3,-7.1625835E-3,6.693288E-2,-1.5580404E-2,6.5756673E-3,4.2054303E-2,-9.998421E-3,6.088909E-2,1.7290073E-2,5.681569E-2,2.9595068E-2,-8.349582E-3,2.177853E-2,5.274902E-2,1.51690515E-2,-2.9750066E-3,7.31947E-3,1.0404304E-2,-2.4168132E-2,-2.262469E-3,-2.1261694E-2],"split_indices":[2,2,3,3,4,2,4,1,4,4,1,4,3,3,4,2,4,2,3,4,3,4,4,4,4,4,1,4,4,3,3,0,0,0,0,0,0,0,0,0,0,0,0,0,0,0,0,0,0,0,0,0,0,0,0,0,0,0,0,0,0,0,0],"split_type":[0,0,0,0,0,0,0,0,0,0,0,0,0,0,0,0,0,0,0,0,0,0,0,0,0,0,0,0,0,0,0,0,0,0,0,0,0,0,0,0,0,0,0,0,0,0,0,0,0,0,0,0,0,0,0,0,0,0,0,0,0,0,0],"sum_hessian":[5.887546E3,3.8731855E3,2.01436E3,9.9095215E2,2.8822334E3,2.6091E2,1.7534501E3,9.5891797E2,3.2034184E1,1.9477627E3,9.344708E2,1.8040303E2,8.050696E1,8.982216E2,8.552284E2,2.1623074E2,7.4268726E2,2.2339628E1,9.694555E0,5.584907E2,1.389272E3,2.1918125E1,9.1255273E2,5.9853344E1,1.2054969E2,6.0274845E1,2.0232117E1,1.01582085E2,7.966396E2,5.774583E1,7.9748254E2,5.9010338E1,1.572204E2,2.6554651E1,7.1613257E2,7.5870433E0,1.4752584E1,1.2645073E0,8.430048E0,1.1717767E2,4.4131302E2,6.2045154E2,7.688204E2,1.7703102E1,4.215024E0,8.8557654E2,2.6976154E1,7.165541E0,5.26878E1,5.058029E0,1.1549166E2,1.1802068E1,4.847278E1,7.5870433E0,1.2645072E1,6.7440386E0,9.483804E1,2.8788614E2,5.0875342E2,8.430048E0,4.931578E1,7.6165485E2,3.5827705E1],"tree_param":{"num_deleted":"0","num_feature":"5","num_nodes":"63","size_leaf_vector":"1"}},{"base_weights":[-1.8212938E-1,-3.782004E-1,-1.2913053E-1,-4.4193593E-1,-2.8515527E-1,-1.5697515E-1,2.8520193E-2,-2.916339E-1,-5.036664E-1,-3.4623894E-1,-1.5638635E-1,-1.592276E-1,6.872054E-1,-1.3311471E-1,1.19497515E-1,-2.3885265E-1,-5.685334E-1,-5.120716E-1,6.136382E-1,-2.3160517E-2,-3.780242E-1,-3.0452825E-4,-3.47099E-1,-2.2518212E-1,-1.2896292E-1,5.9491076E-2,-3.1248435E-1,3.0032292E-1,-1.928366E-1,9.923676E-2,5.48212E-1,-2.602551E-2,-9.06612E-3,-3.229664E-2,-9.729554E-3,-3.0995457E-2,-2.3196086E-2,8.643422E-3,4.7198385E-2,1.5206183E-2,-1.5874142E-2,-1.9492272E-2,2.003303E-2,1.6399417E-2,-1.0217831E-2,-3.3596504E-2,-1.1269606E-2,9.152285E-3,-1.2372349E-2,-1.8406212E-3,-7.3732324E-3,2.6481303E-3,-2.3882966E-2,2.7965482E-3,3.3068385E-2,-1.1286776E-2,2.2592638E-2,8.685791E-3,-2.7065717E-3,3.58518E-2,-6.7950557E-3],"categories":[],"categories_nodes":[],"categories_segments":[],"categories_sizes":[],"default_left":[0,0,0,0,0,0,0,0,0,0,0,0,0,0,0,0,0,0,0,0,0,0,0,0,0,0,0,0,0,0,0,0,0,0,0,0,0,0,0,0,0,0,0,0,0,0,0,0,0,0,0,0,0,0,0,0,0,0,0,0,0],"id":2,"left_children":[1,3,5,7,9,11,13,15,17,19,21,23,25,27,29,31,33,35,37,39,41,43,45,47,49,-1,51,53,55,57,59,-1,-1,-1,-1,-1,-1,-1,-1,-1,-1,-1,-1,-1,-1,-1,-1,-1,-1,-1,-1,-1,-1,-1,-1,-1,-1,-1,-1,-1,-1],"loss_changes":[6.0362823E1,7.206955E0,2.0100708E1,6.645035E0,3.9219627E0,7.5079803E0,1.013376E1,3.0136948E0,5.174469E0,3.5036545E0,4.895482E0,7.718643E0,5.668919E0,6.4846034E0,3.7742362E0,2.8663816E0,8.518801E-1,2.3823853E0,4.6567297E-1,3.1502676E0,3.0220299E0,6.1928215E0,2.774867E0,1.1129665E1,4.5346756E0,0E0,2.8600955E-1,2.6504135E0,4.7429667E0,4.8310323E0,2.3692083E0,0E0,0E0,0E0,0E0,0E0,0E0,0E0,0E0,0E0,0E0,0E0,0E0,0E0,0E0,0E0,0E0,0E0,0E0,0E0,0E0,0E0,0E0,0E0,0E0,0E0,0E0,0E0,0E0,0E0,0E0],"parents":[2147483647,0,0,1,1,2,2,3,3,4,4,5,5,6,6,7,7,8,8,9,9,10,10,11,11,12,12,13,13,14,14,15,15,16,16,17,17,18,18,19,19,20,20,21,21,22,22,23,23,24,24,26,26,27,27,28,28,29,29,30,30],"right_children":[2,4,6,8,10,12,14,16,18,20,22,24,26,28,30,32,34,36,38,40,42,44,46,48,50,-1,52,54,56,58,60,-1,-1,-1,-1,-1,-1,-1,-1,-1,-1,-1,-1,-1,-1,-1,-1,-1,-1,-1,-1,-1,-1,-1,-1,-1,-1,-1,-1,-1,-1],"split_conditions":[2.788609E-3,2.282567E-3,7.1127443E-3,4.451661E1,5.6530596E-3,7.345299E-2,-6.889976E-3,1.9349858E-5,1.8000184E-2,2.7965702E1,1.9349858E-5,0E0,8.690421E1,7.4135E-3,2.7160985E-2,1.3244695E-3,8.3518075E-3,1.5434752E-3,5.7096046E1,2.530467E-3,1.8000184E-2,6.230409E1,2.7298033E-3,-2.4210623E-2,3.5562366E1,5.9491076E-2,5.843028E-3,4.7469524E1,7.529195E1,4.852117E-3,1.2527184E-2,-2.602551E-2,-9.06612E-3,-3.229664E-2,-9.729554E-3,-3.0995457E-2,-2.3196086E-2,8.643422E-3,4.7198385E-2,1.5206183E-2,-1.5874142E-2,-1.9492272E-2,2.003303E-2,1.6399417E-2,-1.0217831E-2,-3.3596504E-2,-1.1269606E-2,9.152285E-3,-1.2372349E-2,-1.8406212E-3,-7.3732324E-3,2.6481303E-3,-2.3882966E-2,2.7965482E-3,3.3068385E-2,-1.1286776E-2,2.2592638E-2,8.685791E-3,-2.7065717E-3,3.58518E-2,-6.7950557E-3],"split_indices":[2,2,2,0,3,3,4,4,4,0,4,4,0,2,4,2,4,2,0,2,4,0,4,4,0,0,2,0,0,4,2,0,0,0,0,0,0,0,0,0,0,0,0,0,0,0,0,0,0,0,0,0,0,0,0,0,0,0,0,0,0],"split_type":[0,0,0,0,0,0,0,0,0,0,0,0,0,0,0,0,0,0,0,0,0,0,0,0,0,0,0,0,0,0,0,0,0,0,0,0,0,0,0,0,0,0,0,0,0,0,0,0,0,0,0,0,0,0,0,0,0,0,0,0,0],"sum_hessian":[5.812544E3,1.2355287E3,4.5770156E3,7.31028E2,5.045006E2,3.8899653E3,6.870502E2,2.1449574E2,5.165323E2,3.4103577E2,1.6346484E2,3.8804229E3,9.542363E0,2.4727168E2,4.397785E2,1.8171979E2,3.2775944E1,5.132132E2,3.319083E0,3.0701517E1,3.1033426E2,9.044501E1,7.301983E1,1.2185183E3,2.6619045E3,6.2232804E0,3.319083E0,2.9456861E1,2.1781482E2,4.2110864E2,1.8669842E1,2.9456861E1,1.5226292E2,2.6552664E1,6.2232804E0,1.5475224E2,3.5846097E2,2.074427E0,1.2446561E0,1.4520988E1,1.6180529E1,3.061854E2,4.148854E0,3.4435486E1,5.6009525E1,1.8669842E1,5.4349983E1,6.264769E1,1.1558706E3,4.4558688E2,2.2163176E3,1.2446561E0,2.074427E0,1.8254957E1,1.1201905E1,2.0785757E2,9.957249E0,2.833667E2,1.3774194E2,1.4935873E1,3.7339683E0],"tree_param":{"num_deleted":"0","num_feature":"5","num_nodes":"61","size_leaf_vector":"1"}},{"base_weights":[2.590153E-1,3.782333E-1,1.3287378E-2,5.5391014E-1,3.0057997E-1,-2.9936004E-1,5.509047E-2,7.644932E-1,5.1164657E-1,3.890097E-1,2.6349658E-1,-3.2867947E-1,9.104186E-3,1.02952845E-1,-1.4647427E-1,3.873857E-1,8.300727E-1,4.6449274E-1,6.355411E-1,-3.3599254E-2,4.1343415E-1,1.4298852E-1,3.2436785E-1,-3.8231215E-1,-2.0038089E-1,4.3598938E-1,-2.9062784E-1,7.615113E-2,2.0821287E-1,-2.1365233E-1,3.1022951E-2,-1.3665427E-2,2.3794653E-2,-5.235746E-3,4.18826E-2,3.2992844E-2,2.0467622E-2,3.2748405E-2,-2.3014713E-3,2.1374444E-2,-1.2080554E-2,1.42197E-2,2.3140663E-2,-7.7611557E-3,8.806409E-3,5.949222E-3,1.7176555E-2,-1.5569645E-2,-2.4515495E-2,1.393916E-2,-1.3926605E-2,2.4203318E-3,3.1060183E-2,-1.9216256E-2,1.6374111E-2,1.0067318E-2,1.9616436E-3,2.399748E-2,4.6061776E-3,-4.5946315E-3,-1.605331E-2,2.078726E-2,-4.3896507E-3],"categories":[],"categories_nodes":[],"categories_segments":[],"categories_sizes":[],"default_left":[0,0,0,0,0,0,0,0,0,0,0,0,0,0,0,0,0,0,0,0,0,0,0,0,0,0,0,0,0,0,0,0,0,0,0,0,0,0,0,0,0,0,0,0,0,0,0,0,0,0,0,0,0,0,0,0,0,0,0,0,0,0,0],"id":3,"left_children":[1,3,5,7,9,11,13,15,17,19,21,23,25,27,29,31,33,35,37,39,41,43,45,47,49,51,53,55,57,59,61,-1,-1,-1,-1,-1,-1,-1,-1,-1,-1,-1,-1,-1,-1,-1,-1,-1,-1,-1,-1,-1,-1,-1,-1,-1,-1,-1,-1,-1,-1,-1,-1],"loss_changes":[1.9758133E2,6.1785828E1,2.8826368E1,1.1987549E1,1.0231995E1,2.355608E0,1.8781216E1,5.377884E0,6.4898987E0,9.603165E0,1.6263672E1,1.5581627E0,3.1402395E0,4.4204865E0,4.462324E0,2.236123E0,1.4724426E0,8.832092E0,4.2335205E0,5.0603037E0,5.4649963E0,7.4193726E0,5.770218E0,1.1220989E0,2.779039E0,6.960672E-1,9.6197355E-1,5.792535E0,1.0005178E1,3.5175276E0,4.7662325E0,0E0,0E0,0E0,0E0,0E0,0E0,0E0,0E0,0E0,0E0,0E0,0E0,0E0,0E0,0E0,0E0,0E0,0E0,0E0,0E0,0E0,0E0,0E0,0E0,0E0,0E0,0E0,0E0,0E0,0E0,0E0,0E0],"parents":[2147483647,0,0,1,1,2,2,3,3,4,4,5,5,6,6,7,7,8,8,9,9,10,10,11,11,12,12,13,13,14,14,15,15,16,16,17,17,18,18,19,19,20,20,21,21,22,22,23,23,24,24,25,25,26,26,27,27,28,28,29,29,30,30],"right_children":[2,4,6,8,10,12,14,16,18,20,22,24,26,28,30,32,34,36,38,40,42,44,46,48,50,52,54,56,58,60,62,-1,-1,-1,-1,-1,-1,-1,-1,-1,-1,-1,-1,-1,-1,-1,-1,-1,-1,-1,-1,-1,-1,-1,-1,-1,-1,-1,-1,-1,-1,-1,-1],"split_conditions":[5.0701117E-3,2.7683002E-3,-3.998865E-2,1.5434752E-3,0E0,4.958241E1,7.950744E-3,3.9105736E1,1.9349858E-5,-2.3676157E-2,2.496773E-4,-4.6873488E-2,5.360788E1,9.466746E-3,4.0501407E-3,2.597824E1,-5.5268323E-3,0E0,2.2905689E-2,-3.219468E-2,-1.4724799E-2,-1.8556744E-2,-2.0554584E-2,0E0,2.214E1,-1.3801308E-2,6.5620186E1,-7.678337E-3,1.2136104E-2,-5.087201E-3,7.5973407E-3,-1.3665427E-2,2.3794653E-2,-5.235746E-3,4.18826E-2,3.2992844E-2,2.0467622E-2,3.2748405E-2,-2.3014713E-3,2.1374444E-2,-1.2080554E-2,1.42197E-2,2.3140663E-2,-7.7611557E-3,8.806409E-3,5.949222E-3,1.7176555E-2,-1.5569645E-2,-2.4515495E-2,1.393916E-2,-1.3926605E-2,2.4203318E-3,3.1060183E-2,-1.9216256E-2,1.6374111E-2,1.0067318E-2,1.9616436E-3,2.399748E-2,4.6061776E-3,-4.5946315E-3,-1.605331E-2,2.078726E-2,-4.3896507E-3],"split_indices":[2,2,3,2,4,0,2,0,4,4,4,3,0,4,4,0,4,4,3,3,3,3,3,4,0,4,0,4,4,4,4,0,0,0,0,0,0,0,0,0,0,0,0,0,0,0,0,0,0,0,0,0,0,0,0,0,0,0,0,0,0,0,0],"split_type":[0,0,0,0,0,0,0,0,0,0,0,0,0,0,0,0,0,0,0,0,0,0,0,0,0,0,0,0,0,0,0,0,0,0,0,0,0,0,0,0,0,0,0,0,0,0,0,0,0,0,0,0,0,0,0,0,0,0,0,0,0,0,0],"sum_hessian":[6.743668E3,4.54033E3,2.203338E3,1.3898685E3,3.1504614E3,2.5913004E2,1.9442079E3,2.2946156E2,1.160407E3,9.280136E2,2.2224478E3,2.3657785E2,2.2552183E1,1.5715306E3,3.726772E2,3.501558E1,1.9444598E2,8.439513E2,3.1645563E2,5.0683094E1,8.7733057E2,7.469821E2,1.4754657E3,1.6543933E2,7.113852E1,9.115328E0,1.3436855E1,1.2539647E3,3.1756592E2,2.7020715E2,1.02470024E2,3.8899205E0,3.112566E1,1.4608212E0,1.9298517E2,1.833541E2,6.6059717E2,3.0772354E2,8.732106E0,1.5428496E1,3.5254597E1,2.446798E2,6.3265076E2,7.433999E1,6.726421E2,1.2653433E2,1.3489314E3,1.0220641E2,6.3232925E1,9.615613E0,6.1522903E1,3.3553066E0,5.7600207E0,1.1996561E1,1.4402938E0,2.845523E2,9.694124E2,9.411991E1,2.23446E2,1.2751603E2,1.4269113E2,2.3589365E1,7.888066E1],"tree_param":{"num_deleted":"0","num_feature":"5","num_nodes":"63","size_leaf_vector":"1"}},{"base_weights":[-1.3249274E-1,-2.346291E-1,5.519721E-2,-9.102101E-2,-2.5862104E-1,3.159974E-1,-2.1697488E-3,-7.015718E-2,-5.2506834E-1,-2.8566054E-1,-1.732832E-1,2.4347788E-1,5.864406E-1,1.443147E-2,-2.0489681E-1,6.555424E-1,-8.097378E-2,-5.974569E-1,1.4975834E-2,-2.0433691E-1,-3.0574796E-1,-3.8837564E-1,-1.5001051E-1,3.7085417E-1,1.16952375E-1,7.305795E-1,3.223039E-1,2.8993008E-3,5.1301926E-1,6.749961E-2,-3.050173E-1,2.8121935E-3,6.0650434E-2,-6.1821025E-3,3.6280614E-3,-3.173342E-2,-3.763266E-3,-3.2320302E-2,-8.890285E-3,-2.1349043E-2,-1.4354916E-2,2.4490288E-2,-2.0984914E-2,-5.2989023E-3,-1.3543339E-2,-6.137E-3,2.0756958E-2,2.6001388E-2,-1.0695775E-3,2.0591922E-3,3.9371513E-2,1.9283764E-2,-2.2561608E-2,-1.7292447E-3,6.9446894E-3,-2.6257146E-2,4.1673012E-2,-2.3167362E-3,4.946002E-2,-2.1637833E-2,-8.306269E-3],"categories":[],"categories_nodes":[],"categories_segments":[],"categories_sizes":[],"default_left":[0,0,0,0,0,0,0,0,0,0,0,0,0,0,0,0,0,0,0,0,0,0,0,0,0,0,0,0,0,0,0,0,0,0,0,0,0,0,0,0,0,0,0,0,0,0,0,0,0,0,0,0,0,0,0,0,0,0,0,0,0],"id":4,"left_children":[1,3,5,7,9,11,13,15,17,19,21,23,25,27,29,31,33,35,-1,37,39,41,43,45,47,49,51,53,55,57,59,-1,-1,-1,-1,-1,-1,-1,-1,-1,-1,-1,-1,-1,-1,-1,-1,-1,-1,-1,-1,-1,-1,-1,-1,-1,-1,-1,-1,-1,-1],"loss_changes":[1.12800575E2,1.3104767E1,3.1033554E1,4.9166894E0,7.4830017E0,7.192173E0,5.728413E0,4.158913E0,1.6672058E0,3.9845123E0,3.8862457E0,4.737129E0,2.7483196E0,9.045128E0,3.5341687E0,2.5349026E0,3.3910964E0,4.041052E-1,0E0,5.6758423E0,4.3645935E0,2.30451E0,3.763916E0,3.2719479E0,8.390618E0,1.9238148E0,1.6180592E0,7.849139E0,1.2268535E1,3.7647467E0,1.6027317E0,0E0,0E0,0E0,0E0,0E0,0E0,0E0,0E0,0E0,0E0,0E0,0E0,0E0,0E0,0E0,0E0,0E0,0E0,0E0,0E0,0E0,0E0,0E0,0E0,0E0,0E0,0E0,0E0,0E0,0E0],"parents":[2147483647,0,0,1,1,2,2,3,3,4,4,5,5,6,6,7,7,8,8,9,9,10,10,11,11,12,12,13,13,14,14,15,15,16,16,17,17,19,19,20,20,21,21,22,22,23,23,24,24,25,25,26,26,27,27,28,28,29,29,30,30],"right_children":[2,4,6,8,10,12,14,16,18,20,22,24,26,28,30,32,34,36,-1,38,40,42,44,46,48,50,52,54,56,58,60,-1,-1,-1,-1,-1,-1,-1,-1,-1,-1,-1,-1,-1,-1,-1,-1,-1,-1,-1,-1,-1,-1,-1,-1,-1,-1,-1,-1,-1,-1],"split_conditions":[4.932585E-3,-1.40438955E-2,-3.0416021E-2,5.7242027E1,6.45198E1,9.2272E-3,5.5611324E-2,-3.7543222E-2,-4.463597E-3,-6.5219104E-3,2.144402E-3,6.971025E-3,-4.6873488E-2,4.2641338E-2,6.380709E-3,4.7554765E-3,-1.0603973E-2,4.7360435E-3,1.4975834E-2,1.8757598E-3,-4.3114414E-3,-1.1145228E-2,2.6475366E-2,-5.073956E-2,-5.5180926E-2,2.0895473E1,6.5620186E1,7.4135E-3,6.876922E1,6.243133E-3,5.188042E-2,2.8121935E-3,6.0650434E-2,-6.1821025E-3,3.6280614E-3,-3.173342E-2,-3.763266E-3,-3.2320302E-2,-8.890285E-3,-2.1349043E-2,-1.4354916E-2,2.4490288E-2,-2.0984914E-2,-5.2989023E-3,-1.3543339E-2,-6.137E-3,2.0756958E-2,2.6001388E-2,-1.0695775E-3,2.0591922E-3,3.9371513E-2,1.9283764E-2,-2.2561608E-2,-1.7292447E-3,6.9446894E-3,-2.6257146E-2,4.1673012E-2,-2.3167362E-3,4.946002E-2,-2.1637833E-2,-8.306269E-3],"split_indices":[2,3,3,0,0,2,3,1,1,3,1,2,3,1,2,2,1,2,0,2,1,1,3,1,3,0,0,2,0,2,1,0,0,0,0,0,0,0,0,0,0,0,0,0,0,0,0,0,0,0,0,0,0,0,0,0,0,0,0,0,0],"split_type":[0,0,0,0,0,0,0,0,0,0,0,0,0,0,0,0,0,0,0,0,0,0,0,0,0,0,0,0,0,0,0,0,0,0,0,0,0,0,0,0,0,0,0,0,0,0,0,0,0,0,0,0,0,0,0,0,0,0,0,0,0],"sum_hessian":[5.882559E3,3.8093516E3,2.0732075E3,5.45995E2,3.2633567E3,3.7299573E2,1.7002119E3,5.220621E2,2.3932898E1,2.4763665E3,7.869901E2,2.9562424E2,7.7371506E1,1.5723794E3,1.2783255E2,6.7917247E0,5.152704E2,2.2254654E1,1.6782439E0,4.9272992E2,1.9836366E3,7.530583E1,7.116843E2,1.4635452E2,1.492697E2,4.891356E1,2.8457947E1,1.537816E3,3.4563354E1,3.444482E1,9.338773E1,3.8035975E0,2.9881272E0,4.0336703E2,1.1190333E2,2.057321E1,1.6814429E0,2.6574564E1,4.6615536E2,2.6154672E2,1.7220898E3,2.089372E0,7.321646E1,5.2300934E2,1.8867497E2,1.19038925E1,1.3445064E2,3.7436554E1,1.1183315E2,3.8577147E0,4.5055843E1,2.676653E1,1.6914169E0,1.2061188E3,3.3169717E2,8.001463E0,2.6561892E1,3.1503695E1,2.9411237E0,4.7544827E1,4.5842903E1],"tree_param":{"num_deleted":"0","num_feature":"5","num_nodes":"61","size_leaf_vector":"1"}},{"base_weights":[-1.7478338E-1,-3.5198277E-1,-1.2797233E-1,-4.3717417E-1,-2.6657864E-1,-1.5635431E-1,3.50526E-2,-2.4204306E-1,-5.216334E-1,-2.8042367E-1,4.513045E-1,1.7342232E-1,-1.6235632E-1,-1.2751275E-1,1.2767276E-1,-4.8023102E-1,-1.9346614E-1,-5.571506E-1,-4.2855173E-1,-3.3970347E-1,-1.6050708E-1,9.08027E-1,-2.2296527E-1,4.839285E-1,-2.3377848E-1,-2.390053E-1,-1.2815759E-1,4.4074334E-2,-2.833496E-1,9.4124585E-2,5.346178E-1,7.6854634E-3,-2.9811013E-2,-6.885566E-3,-2.169221E-2,-1.9851794E-2,-2.8928755E-2,-1.6694156E-2,-3.1437963E-2,-1.5270817E-2,-2.5417332E-2,-8.965199E-4,-1.7879354E-2,2.5935324E-3,5.387205E-2,-2.5357151E-2,8.656954E-3,-2.3547228E-2,4.1732028E-2,-1.5739672E-2,4.6991136E-2,-1.4817714E-2,-8.1030065E-3,-1.999088E-3,-7.5203865E-3,3.1524718E-2,-7.538171E-3,-1.5451729E-2,5.228115E-2,3.4988378E-3,3.4706023E-2,-1.8732833E-2,4.003234E-2],"categories":[],"categories_nodes":[],"categories_segments":[],"categories_sizes":[],"default_left":[0,0,0,0,0,0,0,0,0,0,0,0,0,0,0,0,0,0,0,0,0,0,0,0,0,0,0,0,0,0,0,0,0,0,0,0,0,0,0,0,0,0,0,0,0,0,0,0,0,0,0,0,0,0,0,0,0,0,0,0,0,0,0],"id":5,"left_children":[1,3,5,7,9,11,13,15,17,19,21,23,25,27,29,31,33,35,37,39,41,43,45,47,49,51,53,55,57,59,61,-1,-1,-1,-1,-1,-1,-1,-1,-1,-1,-1,-1,-1,-1,-1,-1,-1,-1,-1,-1,-1,-1,-1,-1,-1,-1,-1,-1,-1,-1,-1,-1],"loss_changes":[4.7791275E1,8.647324E0,2.11203E1,9.786148E0,6.130604E0,7.721657E0,1.0217055E1,2.0309095E0,1.1461258E0,4.162796E0,3.8403442E0,8.959029E0,9.977425E0,6.6009917E0,5.8486843E0,2.3283606E0,2.0060291E0,7.9896545E-1,2.064991E0,2.1351967E0,5.5615306E0,9.942093E-1,7.151561E-1,1.3795086E1,3.2378337E0,5.144722E0,5.177803E0,1.359297E1,4.73532E0,5.752598E0,8.208549E0,0E0,0E0,0E0,0E0,0E0,0E0,0E0,0E0,0E0,0E0,0E0,0E0,0E0,0E0,0E0,0E0,0E0,0E0,0E0,0E0,0E0,0E0,0E0,0E0,0E0,0E0,0E0,0E0,0E0,0E0,0E0,0E0],"parents":[2147483647,0,0,1,1,2,2,3,3,4,4,5,5,6,6,7,7,8,8,9,9,10,10,11,11,12,12,13,13,14,14,15,15,16,16,17,17,18,18,19,19,20,20,21,21,22,22,23,23,24,24,25,25,26,26,27,27,28,28,29,29,30,30],"right_children":[2,4,6,8,10,12,14,16,18,20,22,24,26,28,30,32,34,36,38,40,42,44,46,48,50,52,54,56,58,60,62,-1,-1,-1,-1,-1,-1,-1,-1,-1,-1,-1,-1,-1,-1,-1,-1,-1,-1,-1,-1,-1,-1,-1,-1,-1,-1,-1,-1,-1,-1,-1,-1],"split_conditions":[2.788609E-3,2.1515694E-3,7.1127443E-3,4.451661E1,1.8000184E-2,-2.4210623E-2,-6.889976E-3,1.3244695E-3,1.9038775E-3,5.6530596E-3,6.0251625E1,4.9993903E-3,0E0,-1.8298777E-2,1.2527184E-2,-3.0169485E-3,2.0136295E-3,-1.66388E-3,6.2741653E1,2.6858675E-3,1.9349858E-5,3.505717E1,1.8496274E-3,-3.41463E-2,7.082439E1,-9.0456085E-4,3.7957108E1,7.7380324E-3,5.8293488E-2,2.7160985E-2,-3.3188496E-2,7.6854634E-3,-2.9811013E-2,-6.885566E-3,-2.169221E-2,-1.9851794E-2,-2.8928755E-2,-1.6694156E-2,-3.1437963E-2,-1.5270817E-2,-2.5417332E-2,-8.965199E-4,-1.7879354E-2,2.5935324E-3,5.387205E-2,-2.5357151E-2,8.656954E-3,-2.3547228E-2,4.1732028E-2,-1.5739672E-2,4.6991136E-2,-1.4817714E-2,-8.1030065E-3,-1.999088E-3,-7.5203865E-3,3.1524718E-2,-7.538171E-3,-1.5451729E-2,5.228115E-2,3.4988378E-3,3.4706023E-2,-1.8732833E-2,4.003234E-2],"split_indices":[2,2,2,0,4,4,4,2,2,3,0,2,4,4,2,3,2,3,0,2,4,0,3,3,0,3,0,2,3,4,3,0,0,0,0,0,0,0,0,0,0,0,0,0,0,0,0,0,0,0,0,0,0,0,0,0,0,0,0,0,0,0,0],"split_type":[0,0,0,0,0,0,0,0,0,0,0,0,0,0,0,0,0,0,0,0,0,0,0,0,0,0,0,0,0,0,0,0,0,0,0,0,0,0,0,0,0,0,0,0,0,0,0,0,0,0,0,0,0,0,0,0,0,0,0,0,0,0,0],"sum_hessian":[5.7659634E3,1.2035403E3,4.5624233E3,6.004585E2,6.030818E2,3.8859382E3,6.76485E2,1.8255556E2,4.1790295E2,5.922687E2,1.0813076E1,6.896213E1,3.816976E3,2.4539503E2,4.3108997E2,2.9418993E1,1.5313657E2,2.9887543E2,1.1902751E2,3.951143E2,1.971544E2,6.239807E0,4.5732694E0,3.901969E1,2.9942436E1,1.1757655E3,2.6412107E3,1.1713668E2,1.2825835E2,3.9939548E2,3.1694502E1,4.499845E0,2.4919147E1,1.2558132E2,2.755524E1,3.757707E1,2.6129837E2,8.262552E1,3.6401993E1,3.3069177E2,6.442249E1,1.15028496E2,8.212591E1,1.2465212E0,4.9932857E0,2.4996295E0,2.0736399E0,1.0389552E1,2.863014E1,2.8693466E1,1.2489699E0,6.720328E2,5.0373264E2,5.3275104E2,2.1084597E3,2.8655064E1,8.848161E1,1.2657942E2,1.6789304E0,3.8501645E2,1.4379E1,7.081599E0,2.4612902E1],"tree_param":{"num_deleted":"0","num_feature":"5","num_nodes":"63","size_leaf_vector":"1"}},{"base_weights":[2.5966614E-1,3.7276137E-1,3.0471168E-2,5.5141526E-1,3.1200024E-1,9.849583E-2,-1.1634398E-1,3.2533422E-1,5.93467E-1,1.3265224E-1,3.3390146E-1,-8.094878E-3,1.4396992E-1,-1.6985957E-1,6.1023254E-2,8.296697E-1,2.8744084E-1,7.697179E-1,5.413115E-1,-4.6508655E-1,1.5890773E-1,-2.9981378E-1,3.3846006E-1,1.4611575E-1,-1.5820846E-1,3.4556544E-1,1.13947935E-1,-8.854851E-2,-3.6130124E-1,2.7097136E-1,-6.6442415E-2,4.630813E-2,2.2506922E-2,-2.3831135E-2,1.5982237E-2,3.899336E-2,-1.1853262E-2,3.8967606E-2,2.535828E-2,-1.1487542E-2,-2.8063891E-2,2.9821156E-3,1.6561305E-2,-2.2771783E-2,2.462461E-3,2.0994203E-2,1.5466439E-2,1.349576E-2,-9.906371E-4,-1.3385399E-2,2.9271623E-4,9.097146E-3,3.0868549E-2,2.8645345E-3,1.260168E-2,-5.776608E-3,2.735719E-2,-2.4241112E-2,-3.618161E-3,1.1755388E-3,2.4088431E-2,-9.554329E-3,1.3727498E-3],"categories":[],"categories_nodes":[],"categories_segments":[],"categories_sizes":[],"default_left":[0,0,0,0,0,0,0,0,0,0,0,0,0,0,0,0,0,0,0,0,0,0,0,0,0,0,0,0,0,0,0,0,0,0,0,0,0,0,0,0,0,0,0,0,0,0,0,0,0,0,0,0,0,0,0,0,0,0,0,0,0,0,0],"id":6,"left_children":[1,3,5,7,9,11,13,15,17,19,21,23,25,27,29,31,33,35,37,39,41,43,45,47,49,51,53,55,57,59,61,-1,-1,-1,-1,-1,-1,-1,-1,-1,-1,-1,-1,-1,-1,-1,-1,-1,-1,-1,-1,-1,-1,-1,-1,-1,-1,-1,-1,-1,-1,-1,-1],"loss_changes":[1.7599542E2,4.91817E1,2.242848E1,1.0764496E1,1.3291016E1,7.438775E0,6.7607117E0,3.2582989E0,8.505493E0,5.898283E0,8.839844E0,1.0667358E1,6.470648E0,8.476452E0,4.448989E0,3.1968117E-2,4.377548E0,2.4253082E0,5.719803E0,2.30304E-1,6.0740404E0,1.2247913E0,6.994934E0,4.675143E0,4.1960135E0,6.066366E0,7.3216963E0,6.6667404E0,5.768873E0,3.2617898E0,1.2204301E0,0E0,0E0,0E0,0E0,0E0,0E0,0E0,0E0,0E0,0E0,0E0,0E0,0E0,0E0,0E0,0E0,0E0,0E0,0E0,0E0,0E0,0E0,0E0,0E0,0E0,0E0,0E0,0E0,0E0,0E0,0E0,0E0],"parents":[2147483647,0,0,1,1,2,2,3,3,4,4,5,5,6,6,7,7,8,8,9,9,10,10,11,11,12,12,13,13,14,14,15,15,16,16,17,17,18,18,19,19,20,20,21,21,22,22,23,23,24,24,25,25,26,26,27,27,28,28,29,29,30,30],"right_children":[2,4,6,8,10,12,14,16,18,20,22,24,26,28,30,32,34,36,38,40,42,44,46,48,50,52,54,56,58,60,62,-1,-1,-1,-1,-1,-1,-1,-1,-1,-1,-1,-1,-1,-1,-1,-1,-1,-1,-1,-1,-1,-1,-1,-1,-1,-1,-1,-1,-1,-1,-1,-1],"split_conditions":[5.0430377E-3,2.552921E-3,7.315898E-3,3.7544724E1,-1.5534437E-2,-1.0397667E-2,4.0501407E-3,1.3244695E-3,1.5434752E-3,-3.5536394E-2,-2.4210623E-2,5.809645E-3,-8.103221E-3,0E0,7.5973407E-3,-2.5770434E-3,1.3969608E-3,8.323712E1,0E0,-9.863962E-3,4.3971282E-3,-1.23271775E-5,0E0,3.776415E1,2.496773E-4,5.992463E-3,9.466746E-3,-2.8911934E-4,2.9024577E-3,6.872311E-3,8.091006E-3,4.630813E-2,2.2506922E-2,-2.3831135E-2,1.5982237E-2,3.899336E-2,-1.1853262E-2,3.8967606E-2,2.535828E-2,-1.1487542E-2,-2.8063891E-2,2.9821156E-3,1.6561305E-2,-2.2771783E-2,2.462461E-3,2.0994203E-2,1.5466439E-2,1.349576E-2,-9.906371E-4,-1.3385399E-2,2.9271623E-4,9.097146E-3,3.0868549E-2,2.8645345E-3,1.260168E-2,-5.776608E-3,2.735719E-2,-2.4241112E-2,-3.618161E-3,1.1755388E-3,2.4088431E-2,-9.554329E-3,1.3727498E-3],"split_indices":[2,2,2,0,1,1,4,2,2,1,4,2,4,4,4,1,2,0,4,4,2,1,4,0,4,2,4,4,1,4,1,0,0,0,0,0,0,0,0,0,0,0,0,0,0,0,0,0,0,0,0,0,0,0,0,0,0,0,0,0,0,0,0],"split_type":[0,0,0,0,0,0,0,0,0,0,0,0,0,0,0,0,0,0,0,0,0,0,0,0,0,0,0,0,0,0,0,0,0,0,0,0,0,0,0,0,0,0,0,0,0,0,0,0,0,0,0,0,0,0,0,0,0,0,0,0,0,0,0],"sum_hessian":[6.78916E3,4.545552E3,2.2436084E3,1.1515662E3,3.3939858E3,1.5334403E3,7.1016815E2,1.8197234E2,9.695938E2,3.701231E2,3.0238625E3,4.5881216E2,1.0746282E3,5.455931E2,1.645751E2,1.1256819E1,1.7071552E2,2.182604E2,7.513334E2,1.487022E1,3.552529E2,2.1134033E1,3.0027285E3,2.2633078E2,2.3248138E2,1.379297E2,9.366984E2,3.8397137E2,1.6162172E2,6.1746643E1,1.0282845E2,7.8266687E0,3.4301498E0,6.346212E0,1.6436931E2,2.1630524E2,1.9551702E0,9.151723E1,6.5981616E2,5.2976913E0,9.572529E0,2.2626004E2,1.2899286E2,1.4406487E1,6.7275457E0,7.8768445E2,2.2150442E3,1.2926175E2,9.706904E1,1.3904655E2,9.343482E1,8.714138E1,5.0788322E1,6.651847E2,2.7151373E2,3.691213E2,1.4850073E1,1.127452E2,4.8876514E1,2.8914574E1,3.283207E1,4.3736008E1,5.9092445E1],"tree_param":{"num_deleted":"0","num_feature":"5","num_nodes":"63","size_leaf_vector":"1"}},{"base_weights":[-1.3088174E-1,-2.1840566E-1,3.9260887E-2,-1.2264069E-1,-2.44824E-1,3.978992E-1,7.065391E-3,-1.10576764E-1,-3.5246605E-1,-2.4857171E-1,2.8126895E-1,2.027645E-1,6.8392754E-1,8.4948964E-2,-7.980347E-2,-5.4410785E-1,-1.0447539E-1,-4.4746643E-1,4.022745E-1,-2.7390108E-1,-1.7842776E-1,-2.4798667E-1,6.833779E-1,3.2058135E-1,-1.8532239E-1,1.4419815E-1,7.539229E-1,3.178066E-2,2.66596E-1,-6.669408E-2,-3.95469E-1,-3.0697538E-2,-1.2926667E-2,2.131388E-2,-5.448041E-3,-2.5962686E-2,-6.1853733E-3,-2.1899436E-2,4.6156134E-2,-1.3948532E-2,4.7553494E-3,-6.4661712E-3,-1.981945E-2,7.327699E-3,-2.3068773E-2,6.0232252E-2,1.1976768E-2,2.1117846E-2,-6.6418434E-3,1.8518435E-2,-1.7986082E-2,5.0043073E-2,-1.0331772E-2,4.092706E-2,6.4737536E-3,1.0495842E-2,-4.6982337E-4,1.5988017E-2,-1.720005E-2,-1.0059494E-2,-1.904803E-3,-2.7060157E-2,-1.2432654E-2],"categories":[],"categories_nodes":[],"categories_segments":[],"categories_sizes":[],"default_left":[0,0,0,0,0,0,0,0,0,0,0,0,0,0,0,0,0,0,0,0,0,0,0,0,0,0,0,0,0,0,0,0,0,0,0,0,0,0,0,0,0,0,0,0,0,0,0,0,0,0,0,0,0,0,0,0,0,0,0,0,0,0,0],"id":7,"left_children":[1,3,5,7,9,11,13,15,17,19,21,23,25,27,29,31,33,35,37,39,41,43,45,47,49,51,53,55,57,59,61,-1,-1,-1,-1,-1,-1,-1,-1,-1,-1,-1,-1,-1,-1,-1,-1,-1,-1,-1,-1,-1,-1,-1,-1,-1,-1,-1,-1,-1,-1,-1,-1],"loss_changes":[8.711653E1,9.742386E0,2.2949352E1,2.282218E0,6.037094E0,8.999731E0,1.2354555E1,2.0510473E0,3.1410055E0,5.2912292E0,4.8251615E0,4.5746074E0,2.3838673E0,9.28998E0,3.5460386E0,5.71208E-2,1.9201994E0,7.9927063E-1,2.6553824E0,4.153961E0,8.513903E0,9.245648E-1,2.649189E0,3.5687876E0,2.4233727E0,2.8548505E0,2.2411423E0,5.473406E0,7.1823063E0,3.185014E0,5.9758425E-1,0E0,0E0,0E0,0E0,0E0,0E0,0E0,0E0,0E0,0E0,0E0,0E0,0E0,0E0,0E0,0E0,0E0,0E0,0E0,0E0,0E0,0E0,0E0,0E0,0E0,0E0,0E0,0E0,0E0,0E0,0E0,0E0],"parents":[2147483647,0,0,1,1,2,2,3,3,4,4,5,5,6,6,7,7,8,8,9,9,10,10,11,11,12,12,13,13,14,14,15,15,16,16,17,17,18,18,19,19,20,20,21,21,22,22,23,23,24,24,25,25,26,26,27,27,28,28,29,29,30,30],"right_children":[2,4,6,8,10,12,14,16,18,20,22,24,26,28,30,32,34,36,38,40,42,44,46,48,50,52,54,56,58,60,62,-1,-1,-1,-1,-1,-1,-1,-1,-1,-1,-1,-1,-1,-1,-1,-1,-1,-1,-1,-1,-1,-1,-1,-1,-1,-1,-1,-1,-1,-1,-1,-1],"split_conditions":[5.019656E-3,-9.683083E-3,-4.6873488E-2,5.853306E1,2.7160985E-2,8.633047E-3,1.9349858E-5,1.8119747E-3,5.1848073E-3,6.45198E1,9.161324E-3,3.579828E1,2.2830956E1,0E0,6.620448E-2,-1.044213E-2,1.9038775E-3,1.1949863E-3,-1.4724799E-2,4.9535404E-3,6.483466E-3,2.9901378E-3,1.714257E-2,8.049124E-3,-2.1408902E-2,1.7272793E1,1.9343497E-3,-2.5954032E-2,1.2527184E-2,1.6623526E-3,7.529195E1,-3.0697538E-2,-1.2926667E-2,2.131388E-2,-5.448041E-3,-2.5962686E-2,-6.1853733E-3,-2.1899436E-2,4.6156134E-2,-1.3948532E-2,4.7553494E-3,-6.4661712E-3,-1.981945E-2,7.327699E-3,-2.3068773E-2,6.0232252E-2,1.1976768E-2,2.1117846E-2,-6.6418434E-3,1.8518435E-2,-1.7986082E-2,5.0043073E-2,-1.0331772E-2,4.092706E-2,6.4737536E-3,1.0495842E-2,-4.6982337E-4,1.5988017E-2,-1.720005E-2,-1.0059494E-2,-1.904803E-3,-2.7060157E-2,-1.2432654E-2],"split_indices":[2,3,3,0,4,2,4,2,4,0,3,0,0,4,3,3,2,4,3,2,4,2,3,2,4,0,4,3,2,4,0,0,0,0,0,0,0,0,0,0,0,0,0,0,0,0,0,0,0,0,0,0,0,0,0,0,0,0,0,0,0,0,0],"split_type":[0,0,0,0,0,0,0,0,0,0,0,0,0,0,0,0,0,0,0,0,0,0,0,0,0,0,0,0,0,0,0,0,0,0,0,0,0,0,0,0,0,0,0,0,0,0,0,0,0,0,0,0,0,0,0,0,0,0,0,0,0,0,0],"sum_hessian":[5.8484883E3,3.8616921E3,1.9867963E3,8.3619073E2,3.0255015E3,1.6272948E2,1.8240668E3,7.9589404E2,4.029672E1,3.004625E3,2.0876362E1,9.775072E1,6.497876E1,9.617856E2,8.622811E2,9.821937E0,7.860721E2,3.6153183E1,4.1435337E0,2.2053545E3,7.992705E2,9.178677E0,1.1697685E1,7.511958E1,2.2631136E1,7.8107467E0,5.7168015E1,7.449212E2,2.1686436E2,8.29062E2,3.3219135E1,6.9679165E0,2.85402E0,5.7994485E0,7.8027264E2,2.9097538E1,7.055646E0,1.6464571E0,2.4970767E0,2.175708E3,2.9646507E1,6.5361206E2,1.4565845E2,3.3317378E0,5.846939E0,4.5913205E0,7.1063643E0,6.1404953E1,1.3714631E1,5.137561E0,1.7493576E1,1.731056E0,6.079691E0,5.152532E1,5.6426983E0,1.3909314E2,6.0582806E2,1.9993266E2,1.6931705E1,1.4431535E2,6.8474664E2,1.5322884E1,1.7896252E1],"tree_param":{"num_deleted":"0","num_feature":"5","num_nodes":"63","size_leaf_vector":"1"}},{"base_weights":[-1.8039373E-1,-3.5615817E-1,-1.3865578E-1,-5.941421E-1,-3.289383E-1,-1.7184615E-1,-3.0087791E-2,-3.138362E-1,-6.226401E-1,-3.9166304E-1,-2.7089375E-1,-2.4652694E-1,-1.3676044E-1,-3.8571246E-2,4.303529E-1,-4.5301774E-1,2.653629E-2,3.4408176E-3,-3.1591393E-2,-2.2174257E-1,-4.689942E-1,-2.4952434E-1,-4.5586696E-1,1.5384603E-1,-2.66327E-1,-5.3824198E-2,-1.5385178E-1,2.7544755E-1,-5.222866E-2,5.468793E-1,-1.0066016E-1,-2.9826825E-2,-8.143042E-3,-7.811474E-3,-2.5997803E-2,-2.3714578E-2,2.5287226E-2,-1.319806E-2,4.2437352E-2,-3.366045E-2,-8.879839E-3,-1.7285883E-2,2.0350408E-2,-1.0167728E-2,-1.5986383E-2,-4.8611877E-3,9.343731E-3,-7.173816E-3,-1.4849195E-2,1.9522091E-2,-1.3257875E-2,-4.4847815E-3,1.5596872E-3,4.450312E-2,1.5714271E-2,-2.4448644E-2,2.3833944E-2],"categories":[],"categories_nodes":[],"categories_segments":[],"categories_sizes":[],"default_left":[0,0,0,0,0,0,0,0,0,0,0,0,0,0,0,0,0,0,0,0,0,0,0,0,0,0,0,0,0,0,0,0,0,0,0,0,0,0,0,0,0,0,0,0,0,0,0,0,0,0,0,0,0,0,0,0,0],"id":8,"left_children":[1,3,5,7,9,11,13,15,17,19,21,23,25,27,29,31,-1,-1,-1,33,35,37,39,41,43,45,47,49,51,53,55,-1,-1,-1,-1,-1,-1,-1,-1,-1,-1,-1,-1,-1,-1,-1,-1,-1,-1,-1,-1,-1,-1,-1,-1,-1,-1],"loss_changes":[4.1977173E1,6.9217834E0,1.6682526E1,6.95488E-1,3.4916458E0,9.25914E0,4.2567134E0,1.6872696E0,6.801605E-1,6.1072693E0,1.9277496E0,9.017807E0,3.4152374E0,4.5894794E0,1.2752912E0,3.653605E-1,0E0,0E0,0E0,2.8441787E0,1.9126282E0,7.5999794E0,3.0422144E0,6.9695787E0,3.5647125E0,4.345136E0,2.930458E0,2.877549E0,3.200771E0,1.0235353E0,1.2180068E0,0E0,0E0,0E0,0E0,0E0,0E0,0E0,0E0,0E0,0E0,0E0,0E0,0E0,0E0,0E0,0E0,0E0,0E0,0E0,0E0,0E0,0E0,0E0,0E0,0E0,0E0],"parents":[2147483647,0,0,1,1,2,2,3,3,4,4,5,5,6,6,7,7,8,8,9,9,10,10,11,11,12,12,13,13,14,14,15,15,19,19,20,20,21,21,22,22,23,23,24,24,25,25,26,26,27,27,28,28,29,29,30,30],"right_children":[2,4,6,8,10,12,14,16,18,20,22,24,26,28,30,32,-1,-1,-1,34,36,38,40,42,44,46,48,50,52,54,56,-1,-1,-1,-1,-1,-1,-1,-1,-1,-1,-1,-1,-1,-1,-1,-1,-1,-1,-1,-1,-1,-1,-1,-1,-1,-1],"split_conditions":[2.7078446E-3,1.3244695E-3,6.14909E-3,-4.1755256E-3,2.1515694E-3,0E0,2.5642246E-2,4.942179E1,3.0580656E1,4.451661E1,8.3518075E-3,-2.4210623E-2,-1.0083537E-2,6.243133E-3,1.2527184E-2,-6.9894535E-3,2.653629E-2,3.4408176E-3,-3.1591393E-2,2.0136295E-3,1.6382204E-2,7.3656393E-3,1.2807855E-2,-2.365694E-2,-5.3696376E-3,7.890526E-3,5.6377095E-3,2.3244707E-2,1.11985905E-2,3.4487102E-2,7.277044E1,-2.9826825E-2,-8.143042E-3,-7.811474E-3,-2.5997803E-2,-2.3714578E-2,2.5287226E-2,-1.319806E-2,4.2437352E-2,-3.366045E-2,-8.879839E-3,-1.7285883E-2,2.0350408E-2,-1.0167728E-2,-1.5986383E-2,-4.8611877E-3,9.343731E-3,-7.173816E-3,-1.4849195E-2,1.9522091E-2,-1.3257875E-2,-4.4847815E-3,1.5596872E-3,4.450312E-2,1.5714271E-2,-2.4448644E-2,2.3833944E-2],"split_indices":[2,2,2,1,2,4,4,0,0,0,4,4,1,2,2,1,0,0,0,2,4,4,4,1,4,4,2,1,1,1,0,0,0,0,0,0,0,0,0,0,0,0,0,0,0,0,0,0,0,0,0,0,0,0,0,0,0],"split_type":[0,0,0,0,0,0,0,0,0,0,0,0,0,0,0,0,0,0,0,0,0,0,0,0,0,0,0,0,0,0,0,0,0,0,0,0,0,0,0,0,0,0,0,0,0,0,0,0,0,0,0,0,0,0,0,0,0],"sum_hessian":[5.7277754E3,1.0976942E3,4.630081E3,1.10526955E2,9.8716724E2,3.5455781E3,1.084503E3,1.1308571E1,9.921838E1,4.716934E2,5.154739E2,1.1313804E3,2.4141975E3,1.0657826E3,1.8720436E1,1.0106631E1,1.2019397E0,1.215971E0,9.800241E1,1.4873785E2,3.2295554E2,4.641957E2,5.127817E1,5.29957E1,1.0783848E3,4.1321365E2,2.000984E3,4.362245E1,1.02216016E3,1.5327143E1,3.3932924E0,6.0555143E0,4.0511174E0,1.2319715E2,2.5540707E1,3.2172052E2,1.2350216E0,4.589228E2,5.272908E0,2.799416E1,2.3284012E1,1.7700933E1,3.529477E1,4.9704962E2,5.813351E2,3.5059515E2,6.26185E1,1.8676061E3,1.3337785E2,3.6199978E1,7.422474E0,7.053125E2,3.168477E2,5.049752E0,1.0277391E1,2.120274E0,1.2730184E0],"tree_param":{"num_deleted":"0","num_feature":"5","num_nodes":"57","size_leaf_vector":"1"}},{"base_weights":[2.4225347E-1,3.4710616E-1,2.3500467E-2,5.062181E-1,2.7943492E-1,-2.604649E-1,6.0122974E-2,7.200505E-1,4.6019715E-1,1.2386727E-1,3.0044326E-1,-5.094568E-1,-2.267783E-1,1.0656975E-1,-6.0641363E-2,4.7224873E-1,8.182072E-1,4.6932992E-1,-3.4993863E-1,1.8704178E-2,2.843587E-1,1.4419292E-1,3.0720928E-1,-3.5312768E-2,-2.0032173E-1,2.3647085E-2,-2.3495716E-1,1.411311E-1,-1.3636779E-2,1.4574812E-1,-8.742877E-2,-1.038752E-2,2.6279435E-2,4.135724E-2,-6.34576E-3,1.6094027E-2,2.5403058E-2,4.1389097E-2,-3.473412E-2,8.277561E-3,-6.0471334E-3,-9.587939E-4,2.2221262E-2,2.9648114E-2,1.5343406E-4,1.7489152E-2,1.36704715E-2,-2.5084442E-2,2.068316E-2,-4.642714E-3,-1.3624342E-2,6.0911044E-3,2.1743204E-2,-1.5300771E-3,1.7733075E-2,-1.4104656E-2,1.1395103E-2,-8.104664E-3,-1.1603068E-4],"categories":[],"categories_nodes":[],"categories_segments":[],"categories_sizes":[],"default_left":[0,0,0,0,0,0,0,0,0,0,0,0,0,0,0,0,0,0,0,0,0,0,0,0,0,0,0,0,0,0,0,0,0,0,0,0,0,0,0,0,0,0,0,0,0,0,0,0,0,0,0,0,0,0,0,0,0,0,0],"id":9,"left_children":[1,3,5,7,9,11,13,15,17,19,21,23,25,27,29,31,33,35,37,39,41,43,45,-1,47,-1,49,51,53,55,57,-1,-1,-1,-1,-1,-1,-1,-1,-1,-1,-1,-1,-1,-1,-1,-1,-1,-1,-1,-1,-1,-1,-1,-1,-1,-1,-1,-1],"loss_changes":[1.5649695E2,4.9521545E1,2.3018555E1,1.3200592E1,1.0546249E1,2.005436E0,1.1000613E1,5.4940643E0,8.556839E0,6.526085E0,2.9711914E0,1.6429868E0,1.3961172E0,5.884548E0,3.0263324E0,2.6829405E0,1.5562286E0,6.2447205E0,5.941598E0,4.83624E0,7.4480686E0,7.615183E0,3.8371582E0,0E0,2.5769825E0,0E0,1.1618881E0,6.185047E0,1.9921982E0,2.2784789E0,3.069464E0,0E0,0E0,0E0,0E0,0E0,0E0,0E0,0E0,0E0,0E0,0E0,0E0,0E0,0E0,0E0,0E0,0E0,0E0,0E0,0E0,0E0,0E0,0E0,0E0,0E0,0E0,0E0,0E0],"parents":[2147483647,0,0,1,1,2,2,3,3,4,4,5,5,6,6,7,7,8,8,9,9,10,10,11,11,12,12,13,13,14,14,15,15,16,16,17,17,18,18,19,19,20,20,21,21,22,22,24,24,26,26,27,27,28,28,29,29,30,30],"right_children":[2,4,6,8,10,12,14,16,18,20,22,24,26,28,30,32,34,36,38,40,42,44,46,-1,48,-1,50,52,54,56,58,-1,-1,-1,-1,-1,-1,-1,-1,-1,-1,-1,-1,-1,-1,-1,-1,-1,-1,-1,-1,-1,-1,-1,-1,-1,-1,-1,-1],"split_conditions":[5.0701117E-3,2.7273013E-3,-3.998865E-2,1.5434752E-3,-1.5534437E-2,-6.363798E-2,7.315898E-3,4.4869278E1,2.3352401E-2,4.3971282E-3,-1.8996492E-2,-7.848616E-2,5.151574E-3,6.795472E1,3.220502E1,2.6850897E1,1.0773711E-2,3.8852398E1,1.3331137E-2,-2.4387993E-2,-2.5753705E-2,3.4334674E-3,5.195555E1,-3.5312768E-2,2.5466333E1,2.3647085E-2,-5.073956E-2,3.826328E-2,7.047535E-3,-3.7543222E-2,5.9314505E-3,-1.038752E-2,2.6279435E-2,4.135724E-2,-6.34576E-3,1.6094027E-2,2.5403058E-2,4.1389097E-2,-3.473412E-2,8.277561E-3,-6.0471334E-3,-9.587939E-4,2.2221262E-2,2.9648114E-2,1.5343406E-4,1.7489152E-2,1.36704715E-2,-2.5084442E-2,2.068316E-2,-4.642714E-3,-1.3624342E-2,6.0911044E-3,2.1743204E-2,-1.5300771E-3,1.7733075E-2,-1.4104656E-2,1.1395103E-2,-8.104664E-3,-1.1603068E-4],"split_indices":[2,2,3,2,1,1,2,0,3,2,3,3,2,0,0,0,1,0,1,3,1,2,0,0,0,0,1,3,2,1,1,0,0,0,0,0,0,0,0,0,0,0,0,0,0,0,0,0,0,0,0,0,0,0,0,0,0,0,0],"split_type":[0,0,0,0,0,0,0,0,0,0,0,0,0,0,0,0,0,0,0,0,0,0,0,0,0,0,0,0,0,0,0,0,0,0,0,0,0,0,0,0,0,0,0,0,0,0,0,0,0,0,0,0,0,0,0,0,0,0,0],"sum_hessian":[6.822308E3,4.61139E3,2.2109182E3,1.3740874E3,3.2373025E3,2.5186703E2,1.9590511E3,2.4076183E2,1.1333256E3,3.859825E2,2.85132E3,2.8331749E1,2.235353E2,1.414964E3,5.4408716E2,6.995864E1,1.7080319E2,1.1211079E3,1.2217727E1,2.3386043E2,1.5212207E2,1.1927056E2,2.7320493E3,1.6526312E1,1.1805436E1,1.9261239E0,2.2160916E2,1.0988519E3,3.16112E2,6.199466E1,4.820925E2,4.8779325E0,6.50807E1,1.6932677E2,1.4764208E0,2.3516164E2,8.859462E2,2.4492834E0,9.768443E0,1.139011E2,1.1995933E2,5.2826744E1,9.929532E1,2.776794E1,9.150262E1,1.2049562E3,1.5270933E3,8.041339E0,3.7640972E0,4.7025448E1,1.7458372E2,1.0324001E3,6.6451744E1,3.030688E2,1.3043213E1,9.594535E0,5.2400124E1,2.5632053E2,2.2577196E2],"tree_param":{"num_deleted":"0","num_feature":"5","num_nodes":"59","size_leaf_vector":"1"}},{"base_weights":[-1.210414E-1,-2.115593E-1,5.455798E-2,-2.933108E-1,-1.8432485E-1,2.874983E-1,-1.10725835E-2,-3.9001685E-1,-2.4611752E-1,-1.029743E-1,-2.1253237E-1,2.1223229E-1,5.1683116E-1,-1.873324E-1,7.2578792E-3,-5.7056534E-1,-2.8151706E-1,-1.4377348E-1,-3.2361498E-1,6.2230647E-1,-1.1455052E-1,-2.4994782E-1,-8.378232E-2,3.0888927E-1,9.5028326E-2,5.4691577E-1,-2.5713077E-2,-5.4515757E-2,-2.7026096E-1,9.751288E-2,-4.6077542E-2,1.5889168E-2,-2.9307509E-2,-1.0880855E-2,-2.3822764E-2,-1.6527874E-2,-1.8311844E-3,-1.819317E-2,-8.5064685E-3,3.8987335E-2,-1.9687206E-2,-7.0449985E-3,9.467877E-3,-1.2748775E-2,-1.3941829E-3,3.2016804E-4,-8.612481E-3,1.3469586E-2,3.6377635E-2,5.2756008E-2,3.1100165E-3,6.76151E-3,2.8960222E-2,-8.497969E-3,1.7934293E-2,-1.7554175E-2,-4.0329443E-3,1.105156E-3,1.6599257E-2,-1.6229561E-3,-1.27419075E-2],"categories":[],"categories_nodes":[],"categories_segments":[],"categories_sizes":[],"default_left":[0,0,0,0,0,0,0,0,0,0,0,0,0,0,0,0,0,0,0,0,0,0,0,0,0,0,0,0,0,0,0,0,0,0,0,0,0,0,0,0,0,0,0,0,0,0,0,0,0,0,0,0,0,0,0,0,0,0,0,0,0],"id":10,"left_children":[1,3,5,7,9,11,13,15,17,19,21,23,25,27,29,31,33,35,37,39,41,43,45,47,49,51,-1,53,55,57,59,-1,-1,-1,-1,-1,-1,-1,-1,-1,-1,-1,-1,-1,-1,-1,-1,-1,-1,-1,-1,-1,-1,-1,-1,-1,-1,-1,-1,-1,-1],"loss_changes":[9.214595E1,8.46225E0,3.015765E1,4.2586365E0,6.56826E0,7.374798E0,4.976399E0,5.9358826E0,5.060787E0,6.295747E0,1.0247231E1,3.6882353E0,3.583252E0,1.5833158E0,6.7232437E0,1.790123E0,2.342371E0,5.577471E0,2.1969337E0,2.1950197E0,5.8768415E0,1.8362732E0,3.8424542E0,2.7705956E0,4.654498E0,1.3029785E0,0E0,2.7810044E0,1.3365483E0,9.16499E0,2.4878097E0,0E0,0E0,0E0,0E0,0E0,0E0,0E0,0E0,0E0,0E0,0E0,0E0,0E0,0E0,0E0,0E0,0E0,0E0,0E0,0E0,0E0,0E0,0E0,0E0,0E0,0E0,0E0,0E0,0E0,0E0],"parents":[2147483647,0,0,1,1,2,2,3,3,4,4,5,5,6,6,7,7,8,8,9,9,10,10,11,11,12,12,13,13,14,14,15,15,16,16,17,17,18,18,19,19,20,20,21,21,22,22,23,23,24,24,25,25,27,27,28,28,29,29,30,30],"right_children":[2,4,6,8,10,12,14,16,18,20,22,24,26,28,30,32,34,36,38,40,42,44,46,48,50,52,-1,54,56,58,60,-1,-1,-1,-1,-1,-1,-1,-1,-1,-1,-1,-1,-1,-1,-1,-1,-1,-1,-1,-1,-1,-1,-1,-1,-1,-1,-1,-1,-1,-1],"split_conditions":[5.019656E-3,2.552921E-3,-2.6641546E-2,-1.9034483E-3,-9.948103E-3,8.633047E-3,3.4273605E1,1.8448349E-3,5.4124767E1,2.6482171E-3,6.725071E1,6.971025E-3,6.5620186E1,2.7249308E1,3.5479146E-3,1.3872471E1,-2.3412544E-3,-9.0456085E-4,1.1767136E-2,-2.444336E-3,-2.1798266E-3,4.9535404E-3,3.7738534E-3,6.661137E-3,-6.363798E-2,2.2830956E1,-2.5713077E-2,-8.27382E-3,8.5391646E-4,7.4135E-3,1.0848526E-2,1.5889168E-2,-2.9307509E-2,-1.0880855E-2,-2.3822764E-2,-1.6527874E-2,-1.8311844E-3,-1.819317E-2,-8.5064685E-3,3.8987335E-2,-1.9687206E-2,-7.0449985E-3,9.467877E-3,-1.2748775E-2,-1.3941829E-3,3.2016804E-4,-8.612481E-3,1.3469586E-2,3.6377635E-2,5.2756008E-2,3.1100165E-3,6.76151E-3,2.8960222E-2,-8.497969E-3,1.7934293E-2,-1.7554175E-2,-4.0329443E-3,1.105156E-3,1.6599257E-2,-1.6229561E-3,-1.27419075E-2],"split_indices":[2,2,3,1,3,2,0,2,0,2,0,2,0,0,3,0,3,3,3,1,1,2,2,2,1,0,0,1,3,2,2,0,0,0,0,0,0,0,0,0,0,0,0,0,0,0,0,0,0,0,0,0,0,0,0,0,0,0,0,0,0],"split_type":[0,0,0,0,0,0,0,0,0,0,0,0,0,0,0,0,0,0,0,0,0,0,0,0,0,0,0,0,0,0,0,0,0,0,0,0,0,0,0,0,0,0,0,0,0,0,0,0,0,0,0,0,0,0,0,0,0,0,0,0,0],"sum_hessian":[5.7954814E3,3.8240547E3,1.9714266E3,9.531497E2,2.870905E3,4.326074E2,1.5388193E3,3.1021298E2,6.429367E2,7.403592E2,2.130546E3,3.2716028E2,1.0544711E2,1.4408873E2,1.3947306E3,1.14845795E2,1.9536717E2,2.7828525E2,3.646515E2,1.0802413E1,7.295568E2,1.650082E3,4.8046387E2,1.7840002E2,1.4876025E2,1.02913925E2,2.5331857E0,5.6022167E1,8.806657E1,5.17753E2,8.769776E2,1.645755E0,1.1320004E2,1.4873033E2,4.6636845E1,1.00685265E2,1.7759999E2,2.8780887E2,7.68426E1,9.554486E0,1.2479265E0,6.71843E2,5.7713787E1,1.6134053E3,3.6676727E1,2.383806E2,2.4208328E2,1.6452213E2,1.3877892E1,3.8887417E0,1.448715E2,7.8618827E0,9.505204E1,4.4248375E1,1.1773793E1,6.1148735E1,2.6917831E1,3.9258582E2,1.2516716E2,8.243565E2,5.26211E1],"tree_param":{"num_deleted":"0","num_feature":"5","num_nodes":"61","size_leaf_vector":"1"}},{"base_weights":[-1.6530317E-1,-3.1652257E-1,-1.253303E-1,-5.5959916E-1,-2.9292873E-1,-1.3375121E-1,2.0615312E-1,-2.146691E-1,-3.2390393E-2,-5.095146E-2,-3.1388527E-1,-1.5371273E-1,-6.214032E-2,-4.9412794E-2,6.1147976E-1,3.2187153E-2,-3.0271798E-2,5.088156E-1,-1.05770305E-1,-3.8364455E-1,-2.5609428E-1,-1.5639117E-1,1.5515336E-1,2.14458E-1,-7.680513E-2,4.856086E-1,-8.741529E-2,1.0131074E0,5.07936E-1,-1.153594E-2,4.9556747E-2,4.331015E-2,-1.0516223E-2,2.1481808E-2,-6.984209E-3,-1.0820717E-2,-2.268825E-2,-1.6232695E-2,-6.2380186E-3,-7.5956057E-3,-1.6413268E-2,3.3168387E-2,-6.1671957E-3,2.3015844E-2,-2.695517E-3,-4.5382413E-3,1.0342029E-2,-2.2029946E-2,5.599874E-2,-2.3808165E-2,-2.2512939E-5,2.0051084E-3,5.966943E-2,4.774719E-3,3.557163E-2],"categories":[],"categories_nodes":[],"categories_segments":[],"categories_sizes":[],"default_left":[0,0,0,0,0,0,0,0,0,0,0,0,0,0,0,0,0,0,0,0,0,0,0,0,0,0,0,0,0,0,0,0,0,0,0,0,0,0,0,0,0,0,0,0,0,0,0,0,0,0,0,0,0,0,0],"id":11,"left_children":[1,3,5,7,9,11,13,15,-1,17,19,21,23,25,27,29,-1,31,33,35,37,39,41,43,45,47,49,51,53,-1,-1,-1,-1,-1,-1,-1,-1,-1,-1,-1,-1,-1,-1,-1,-1,-1,-1,-1,-1,-1,-1,-1,-1,-1,-1],"loss_changes":[3.436154E1,6.656288E0,1.2597115E1,3.0287857E0,5.491562E0,6.268654E0,1.162701E1,2.2091112E0,0E0,2.7467382E0,3.9305115E0,2.8650742E0,3.9067302E0,1.4572682E0,1.2888355E0,3.975229E0,0E0,2.2382236E0,1.526396E0,5.187668E0,4.907814E0,2.57135E0,4.3313675E0,3.228323E0,3.6280456E0,3.2945635E0,2.2249236E0,1.3349686E0,2.9940968E0,0E0,0E0,0E0,0E0,0E0,0E0,0E0,0E0,0E0,0E0,0E0,0E0,0E0,0E0,0E0,0E0,0E0,0E0,0E0,0E0,0E0,0E0,0E0,0E0,0E0,0E0],"parents":[2147483647,0,0,1,1,2,2,3,3,4,4,5,5,6,6,7,7,9,9,10,10,11,11,12,12,13,13,14,14,15,15,17,17,18,18,19,19,20,20,21,21,22,22,23,23,24,24,25,25,26,26,27,27,28,28],"right_children":[2,4,6,8,10,12,14,16,-1,18,20,22,24,26,28,30,-1,32,34,36,38,40,42,44,46,48,50,52,54,-1,-1,-1,-1,-1,-1,-1,-1,-1,-1,-1,-1,-1,-1,-1,-1,-1,-1,-1,-1,-1,-1,-1,-1,-1,-1],"split_conditions":[2.788609E-3,1.3244695E-3,1.1245813E-2,-1.3554023E-3,3.0580656E1,6.14909E-3,1.1544544E-2,-9.387149E-4,-3.2390393E-2,1.5767342E-3,2.1515694E-3,4.5007024E-2,6.243133E-3,2.0136177E1,4.63176E1,4.612687E1,-3.0271798E-2,-6.7774863E-3,-2.3865854E-2,4.612687E1,5.821415E-3,4.2852715E-2,7.973486E1,-8.7343964E-5,6.620448E-2,1.7272793E1,-5.073956E-2,1.8623356E-3,5.9849854E1,-1.153594E-2,4.9556747E-2,4.331015E-2,-1.0516223E-2,2.1481808E-2,-6.984209E-3,-1.0820717E-2,-2.268825E-2,-1.6232695E-2,-6.2380186E-3,-7.5956057E-3,-1.6413268E-2,3.3168387E-2,-6.1671957E-3,2.3015844E-2,-2.695517E-3,-4.5382413E-3,1.0342029E-2,-2.2029946E-2,5.599874E-2,-2.3808165E-2,-2.2512939E-5,2.0051084E-3,5.966943E-2,4.774719E-3,3.557163E-2],"split_indices":[2,2,2,3,0,2,3,1,0,2,2,1,2,0,0,0,0,1,3,0,3,3,0,3,3,0,1,1,0,0,0,0,0,0,0,0,0,0,0,0,0,0,0,0,0,0,0,0,0,0,0,0,0,0,0],"split_type":[0,0,0,0,0,0,0,0,0,0,0,0,0,0,0,0,0,0,0,0,0,0,0,0,0,0,0,0,0,0,0,0,0,0,0,0,0,0,0,0,0,0,0,0,0,0,0,0,0,0,0,0,0,0,0],"sum_hessian":[5.690161E3,1.1882046E3,4.5019565E3,1.031171E2,1.0850875E3,4.391005E3,1.1095151E2,2.1699047E1,8.141806E1,8.675792E1,9.983296E2,3.4329302E3,9.5807477E2,6.85853E1,4.2366207E1,1.3860616E1,7.8384323E0,6.999791E0,7.975813E1,4.497726E2,5.4855695E2,3.4039058E3,2.9024418E1,4.755216E1,9.105226E2,3.7673936E0,6.481791E1,6.883192E0,3.5483013E1,1.1474235E1,2.3863816E0,4.5393796E0,2.4604115E0,4.056039E0,7.5702095E1,1.3408344E2,3.1568918E2,3.5944537E2,1.8911159E2,3.3192886E3,8.4617294E1,9.7854805E0,1.923894E1,2.4443563E1,2.3108593E1,8.6846106E2,4.206152E1,1.6555924E0,2.1118011E0,1.1031216E1,5.378669E1,1.2670689E0,5.616123E0,1.2208468E1,2.3274546E1],"tree_param":{"num_deleted":"0","num_feature":"5","num_nodes":"55","size_leaf_vector":"1"}},{"base_weights":[2.3452567E-1,3.3684745E-1,2.2296535E-2,4.8102343E-1,2.744493E-1,6.8336755E-2,-1.5500683E-1,2.560687E-1,5.318006E-1,1.07082136E-1,2.977856E-1,-1.5832596E-1,1.0140031E-1,-2.9178113E-1,-1.22544274E-1,5.013473E-2,2.864349E-1,7.2561145E-1,4.869207E-1,-6.0946286E-1,1.31032E-1,2.9138997E-1,5.760951E-1,1.2376309E-1,-2.4305096E-1,7.097901E-1,9.373225E-2,-5.9227836E-1,-2.3484866E-1,-9.489774E-2,-3.2121632E-1,-1.3583955E-2,8.584125E-3,-2.908977E-2,1.4835265E-2,3.6960173E-2,-8.523178E-3,2.4848444E-2,-1.085896E-2,-3.6374185E-2,-1.6846245E-2,2.7596322E-4,1.50646465E-2,1.5492797E-2,9.644141E-3,3.1858575E-2,6.6731856E-3,-5.2924943E-3,1.6722495E-2,-1.5751813E-2,-4.037451E-3,3.9100043E-2,-4.8142457E-3,-1.0318163E-2,4.9719834E-3,-1.9444555E-2,-3.4671288E-2,-5.4535405E-3,-1.704747E-2,-5.3114383E-3,1.4513145E-2,-5.5490118E-3,-2.6298752E-2],"categories":[],"categories_nodes":[],"categories_segments":[],"categories_sizes":[],"default_left":[0,0,0,0,0,0,0,0,0,0,0,0,0,0,0,0,0,0,0,0,0,0,0,0,0,0,0,0,0,0,0,0,0,0,0,0,0,0,0,0,0,0,0,0,0,0,0,0,0,0,0,0,0,0,0,0,0,0,0,0,0,0,0],"id":12,"left_children":[1,3,5,7,9,11,13,15,17,19,21,23,25,27,29,31,33,35,37,39,41,43,45,47,49,51,53,55,57,59,61,-1,-1,-1,-1,-1,-1,-1,-1,-1,-1,-1,-1,-1,-1,-1,-1,-1,-1,-1,-1,-1,-1,-1,-1,-1,-1,-1,-1,-1,-1,-1,-1],"loss_changes":[1.4816751E2,4.1284485E1,1.8138296E1,1.5732971E1,1.2526794E1,1.3233044E1,1.9981441E0,1.5975914E0,9.497498E0,6.8591037E0,4.8541565E0,5.40521E0,7.116477E0,1.3517642E0,2.0124183E0,1.3897765E0,2.173912E0,2.694664E0,6.6353455E0,1.7154646E-1,8.184742E0,4.960846E0,1.6007366E0,2.580444E0,1.9991894E0,1.1819649E0,2.6268349E0,2.3674965E-3,9.6263313E-1,1.461972E0,1.8794475E0,0E0,0E0,0E0,0E0,0E0,0E0,0E0,0E0,0E0,0E0,0E0,0E0,0E0,0E0,0E0,0E0,0E0,0E0,0E0,0E0,0E0,0E0,0E0,0E0,0E0,0E0,0E0,0E0,0E0,0E0,0E0,0E0],"parents":[2147483647,0,0,1,1,2,2,3,3,4,4,5,5,6,6,7,7,8,8,9,9,10,10,11,11,12,12,13,13,14,14,15,15,16,16,17,17,18,18,19,19,20,20,21,21,22,22,23,23,24,24,25,25,26,26,27,27,28,28,29,29,30,30],"right_children":[2,4,6,8,10,12,14,16,18,20,22,24,26,28,30,32,34,36,38,40,42,44,46,48,50,52,54,56,58,60,62,-1,-1,-1,-1,-1,-1,-1,-1,-1,-1,-1,-1,-1,-1,-1,-1,-1,-1,-1,-1,-1,-1,-1,-1,-1,-1,-1,-1,-1,-1,-1,-1],"split_conditions":[5.0701117E-3,2.7273013E-3,8.049124E-3,3.8635567E1,-1.5534437E-2,-2.6547179E-2,-4.6873488E-2,2.2830956E1,1.5434752E-3,-3.7543222E-2,4.048335E-2,5.666552E-3,2.0895473E1,2.0136177E1,7.491217E1,-1.5948575E-2,-2.2346504E-2,8.171453E1,2.3352401E-2,4.9113934E-3,4.323297E-3,6.8255974E1,4.8921504E-3,-3.620783E-2,7.5891605E-3,-4.1755256E-3,-3.998865E-2,1.5697641E1,-5.073956E-2,8.23477E-2,4.2641338E-2,-1.3583955E-2,8.584125E-3,-2.908977E-2,1.4835265E-2,3.6960173E-2,-8.523178E-3,2.4848444E-2,-1.085896E-2,-3.6374185E-2,-1.6846245E-2,2.7596322E-4,1.50646465E-2,1.5492797E-2,9.644141E-3,3.1858575E-2,6.6731856E-3,-5.2924943E-3,1.6722495E-2,-1.5751813E-2,-4.037451E-3,3.9100043E-2,-4.8142457E-3,-1.0318163E-2,4.9719834E-3,-1.9444555E-2,-3.4671288E-2,-5.4535405E-3,-1.704747E-2,-5.3114383E-3,1.4513145E-2,-5.5490118E-3,-2.6298752E-2],"split_indices":[2,2,2,0,1,1,3,0,2,1,3,2,0,0,0,1,3,0,3,2,2,0,2,3,2,1,3,0,1,3,1,0,0,0,0,0,0,0,0,0,0,0,0,0,0,0,0,0,0,0,0,0,0,0,0,0,0,0,0,0,0,0,0],"split_type":[0,0,0,0,0,0,0,0,0,0,0,0,0,0,0,0,0,0,0,0,0,0,0,0,0,0,0,0,0,0,0,0,0,0,0,0,0,0,0,0,0,0,0,0,0,0,0,0,0,0,0,0,0,0,0,0,0,0,0,0,0,0,0],"sum_hessian":[6.8224155E3,4.602723E3,2.2196926E3,1.3882806E3,3.2144424E3,1.7626115E3,4.5708127E2,2.567705E2,1.1315101E3,3.9403433E2,2.820408E3,2.2390088E2,1.5387106E3,8.61438E1,3.7093747E2,3.3337425E1,2.2343307E2,2.0990063E2,9.2160944E2,1.19535675E1,3.8208078E2,2.759051E3,6.1356968E1,5.1609158E1,1.7229173E2,1.8012587E1,1.5206979E3,1.2223477E1,7.392032E1,3.2692178E2,4.4015682E1,8.800848E0,2.4536577E1,1.9615552E0,2.2147153E2,2.0693681E2,2.963827E0,9.0893225E2,1.2677181E1,7.1765265E0,4.7770414E0,2.2053758E2,1.6154318E2,2.3216865E3,4.373645E2,5.3531002E1,7.8259673E0,2.493348E1,2.667568E1,1.1870279E2,5.3588936E1,1.6559042E1,1.4535451E0,2.7725664E1,1.4929723E3,5.6690135E0,6.554464E0,3.4751682E1,3.9168636E1,3.1828244E2,8.639343E0,2.2478197E1,2.1537485E1],"tree_param":{"num_deleted":"0","num_feature":"5","num_nodes":"63","size_leaf_vector":"1"}},{"base_weights":[-1.16397135E-1,-2.0898569E-1,5.7969622E-2,-8.1146255E-2,-2.2764267E-1,2.673838E-1,-2.9359732E-3,-6.2404875E-2,-5.141149E-1,-2.4601959E-1,-1.3738231E-1,1.8622388E-1,5.0890875E-1,6.765278E-2,-6.282864E-2,-9.975198E-2,1.4974676E-1,-1.2054172E-1,-5.960013E-1,-2.0575641E-1,-2.799817E-1,-1.0249944E-1,-3.298907E-1,9.646288E-1,1.609022E-1,5.2734935E-1,-2.2324163E-2,6.927388E-3,2.6649293E-1,5.1324237E-2,-6.6268936E-2,3.4573205E-2,-5.601531E-3,-5.055587E-3,2.4401201E-2,2.5345419E-2,-2.4687734E-2,-3.2550745E-2,-7.4258307E-3,-1.479956E-2,-8.296563E-3,-2.1803642E-2,-1.2723272E-2,-1.1369052E-2,-2.3518398E-4,-2.2356069E-2,-4.0661134E-3,6.364241E-2,-8.442786E-3,1.2129395E-2,3.2990698E-3,4.4042557E-3,2.810733E-2,-2.236978E-3,8.609682E-3,-1.3732585E-2,1.8849118E-2,-5.3045256E-3,1.6559003E-3],"categories":[],"categories_nodes":[],"categories_segments":[],"categories_sizes":[],"default_left":[0,0,0,0,0,0,0,0,0,0,0,0,0,0,0,0,0,0,0,0,0,0,0,0,0,0,0,0,0,0,0,0,0,0,0,0,0,0,0,0,0,0,0,0,0,0,0,0,0,0,0,0,0,0,0,0,0,0,0],"id":13,"left_children":[1,3,5,7,9,11,13,15,17,19,21,23,25,27,29,31,33,35,37,39,41,43,45,47,49,51,-1,53,55,-1,57,-1,-1,-1,-1,-1,-1,-1,-1,-1,-1,-1,-1,-1,-1,-1,-1,-1,-1,-1,-1,-1,-1,-1,-1,-1,-1,-1,-1],"loss_changes":[9.3016884E1,8.95665E0,2.549469E1,3.8692513E0,5.412094E0,8.733318E0,6.5549517E0,3.6753206E0,5.665908E-1,3.6707764E0,3.710929E0,6.5200987E0,2.2209244E0,8.591692E0,3.2113051E0,3.8996282E0,5.9515862E0,1.3427672E0,3.007536E-1,4.4476585E0,5.7686844E0,5.7823787E0,2.4432936E0,3.8726196E0,2.5364857E0,1.6474495E0,0E0,4.6718125E0,1.0057257E1,0E0,3.3163502E0,0E0,0E0,0E0,0E0,0E0,0E0,0E0,0E0,0E0,0E0,0E0,0E0,0E0,0E0,0E0,0E0,0E0,0E0,0E0,0E0,0E0,0E0,0E0,0E0,0E0,0E0,0E0,0E0],"parents":[2147483647,0,0,1,1,2,2,3,3,4,4,5,5,6,6,7,7,8,8,9,9,10,10,11,11,12,12,13,13,14,14,15,15,16,16,17,17,18,18,19,19,20,20,21,21,22,22,23,23,24,24,25,25,27,27,28,28,30,30],"right_children":[2,4,6,8,10,12,14,16,18,20,22,24,26,28,30,32,34,36,38,40,42,44,46,48,50,52,-1,54,56,-1,58,-1,-1,-1,-1,-1,-1,-1,-1,-1,-1,-1,-1,-1,-1,-1,-1,-1,-1,-1,-1,-1,-1,-1,-1,-1,-1,-1,-1],"split_conditions":[4.9993903E-3,-1.5806451E-2,-2.5954032E-2,5.7242027E1,6.8255974E1,8.633047E-3,6.7704613E-3,-9.793922E-3,4.0128175E-3,2.5854592E-4,3.4216408E-2,5.0701117E-3,6.5620186E1,7.4135E-3,-2.5753705E-2,-3.920713E-2,3.88596E-3,-1.8109173E-2,4.7360435E-3,2.552921E-3,-9.387149E-4,1.2257847E-2,3.342712E-2,-3.219468E-2,6.971025E-3,2.2830956E1,-2.2324163E-2,1.5915628E-3,3.505717E1,5.1324237E-2,7.239759E1,3.4573205E-2,-5.601531E-3,-5.055587E-3,2.4401201E-2,2.5345419E-2,-2.4687734E-2,-3.2550745E-2,-7.4258307E-3,-1.479956E-2,-8.296563E-3,-2.1803642E-2,-1.2723272E-2,-1.1369052E-2,-2.3518398E-4,-2.2356069E-2,-4.0661134E-3,6.364241E-2,-8.442786E-3,1.2129395E-2,3.2990698E-3,4.4042557E-3,2.810733E-2,-2.236978E-3,8.609682E-3,-1.3732585E-2,1.8849118E-2,-5.3045256E-3,1.6559003E-3],"split_indices":[2,3,3,0,0,2,3,1,2,3,3,2,0,2,1,1,2,3,2,2,1,1,1,3,2,0,0,1,0,0,0,0,0,0,0,0,0,0,0,0,0,0,0,0,0,0,0,0,0,0,0,0,0,0,0,0,0,0,0],"split_type":[0,0,0,0,0,0,0,0,0,0,0,0,0,0,0,0,0,0,0,0,0,0,0,0,0,0,0,0,0,0,0,0,0,0,0,0,0,0,0,0,0,0,0,0,0,0,0,0,0,0,0,0,0,0,0,0,0,0,0],"sum_hessian":[5.7598193E3,3.7620022E3,1.9978173E3,4.7978967E2,3.2822126E3,4.493632E2,1.5484541E3,4.6097992E2,1.880974E1,2.725565E3,5.5664777E2,3.3766742E2,1.1169579E2,7.107011E2,8.37753E2,3.92427E2,6.855292E1,3.665275E0,1.5144465E1,1.2503237E3,1.4752411E3,4.7255276E2,8.409499E1,9.469635E0,3.2819778E2,1.10020256E2,1.6755344E0,5.452252E2,1.6547585E2,1.701277E0,8.360517E2,5.151598E0,3.8727542E2,3.976513E1,2.8787792E1,1.2334149E0,2.4318602E0,1.308141E1,2.063055E0,3.8088702E2,8.694367E2,2.050141E2,1.270227E3,2.0695445E2,2.655983E2,5.660158E1,2.7493408E1,7.3484716E0,2.121163E0,1.7556053E2,1.5263724E2,8.334966E0,1.01685295E2,4.1592462E2,1.2930061E2,2.780574E1,1.376701E2,5.968451E2,2.3920662E2],"tree_param":{"num_deleted":"0","num_feature":"5","num_nodes":"59","size_leaf_vector":"1"}},{"base_weights":[-1.6375883E-1,-3.231659E-1,-1.22284524E-1,-4.02605E-1,-2.4504828E-1,-1.5368953E-1,-2.1074522E-2,-1.1881716E-1,-4.4451803E-1,-2.5650346E-1,4.2223415E-1,-1.796732E-1,-7.254018E-2,-3.8668226E-2,3.667772E-1,-2.3027657E-2,-5.5908614E-1,-5.536292E-1,-3.9912143E-1,-1.974501E-1,-3.6963847E-1,7.5657856E-1,-2.4423353E-2,1.813587E-1,-1.871517E-1,8.680733E-2,-1.2624738E-1,-6.1307293E-3,-1.2949091E-1,5.6277893E-2,5.6185085E-1,1.5423218E-2,-1.0019951E-2,-3.136083E-2,3.8800358E-3,-1.3732592E-2,-3.0806938E-2,-3.2982673E-2,-1.8702546E-2,-1.3602711E-2,-1.4335032E-3,-2.6046498E-2,-1.4278556E-2,5.212712E-2,3.9528417E-3,2.6351092E-2,-9.45237E-3,-8.869581E-3,-1.921015E-2,4.255039E-2,2.9152862E-3,-3.3547678E-3,-1.1157311E-2,-1.4203199E-3,2.1616897E-2,-1.6379733E-2,3.8040846E-4,1.4987022E-2,-2.9207235E-2,1.6468694E-2,3.9631486E-2],"categories":[],"categories_nodes":[],"categories_segments":[],"categories_sizes":[],"default_left":[0,0,0,0,0,0,0,0,0,0,0,0,0,0,0,0,0,0,0,0,0,0,0,0,0,0,0,0,0,0,0,0,0,0,0,0,0,0,0,0,0,0,0,0,0,0,0,0,0,0,0,0,0,0,0,0,0,0,0,0,0],"id":14,"left_children":[1,3,5,7,9,11,13,15,17,19,21,23,25,27,29,31,33,35,37,39,41,43,-1,45,47,49,51,53,55,57,59,-1,-1,-1,-1,-1,-1,-1,-1,-1,-1,-1,-1,-1,-1,-1,-1,-1,-1,-1,-1,-1,-1,-1,-1,-1,-1,-1,-1,-1,-1],"loss_changes":[3.7578796E1,7.187706E0,1.4353561E1,6.8530807E0,4.653015E0,7.255234E0,7.3211083E0,3.1956477E0,2.28302E0,3.83638E0,3.5400076E0,7.081787E0,7.1801643E0,3.028957E0,2.788621E0,3.7970743E0,6.365237E-1,2.3758926E0,2.1084023E0,4.8603077E0,2.3890457E0,1.4692144E0,0E0,6.9471884E0,4.8511887E0,4.5627947E0,3.5785294E0,7.395071E0,7.3456836E0,3.149544E0,1.267149E0,0E0,0E0,0E0,0E0,0E0,0E0,0E0,0E0,0E0,0E0,0E0,0E0,0E0,0E0,0E0,0E0,0E0,0E0,0E0,0E0,0E0,0E0,0E0,0E0,0E0,0E0,0E0,0E0,0E0,0E0],"parents":[2147483647,0,0,1,1,2,2,3,3,4,4,5,5,6,6,7,7,8,8,9,9,10,10,11,11,12,12,13,13,14,14,15,15,16,16,17,17,18,18,19,19,20,20,21,21,23,23,24,24,25,25,26,26,27,27,28,28,29,29,30,30],"right_children":[2,4,6,8,10,12,14,16,18,20,22,24,26,28,30,32,34,36,38,40,42,44,-1,46,48,50,52,54,56,58,60,-1,-1,-1,-1,-1,-1,-1,-1,-1,-1,-1,-1,-1,-1,-1,-1,-1,-1,-1,-1,-1,-1,-1,-1,-1,-1,-1,-1,-1,-1],"split_conditions":[2.788609E-3,2.1515694E-3,6.14909E-3,-5.2490146E-3,1.8000184E-2,6.075641E-3,7.345299E-2,-3.946011E-4,1.4906025E-3,1.9349858E-5,2.4127228E-2,-2.4210623E-2,-1.2026624E-3,5.1848073E-3,-2.2522199E-4,1.6719558E-3,1.8448349E-3,-1.66388E-3,-6.101461E-4,5.290786E-3,2.7298033E-3,2.7818466E-3,-2.4423353E-2,4.7360435E-3,4.852117E-3,6.26584E-3,4.605448E-3,3.4028108E-3,2.274471E-3,-6.101461E-4,1.0848526E-2,1.5423218E-2,-1.0019951E-2,-3.136083E-2,3.8800358E-3,-1.3732592E-2,-3.0806938E-2,-3.2982673E-2,-1.8702546E-2,-1.3602711E-2,-1.4335032E-3,-2.6046498E-2,-1.4278556E-2,5.212712E-2,3.9528417E-3,2.6351092E-2,-9.45237E-3,-8.869581E-3,-1.921015E-2,4.255039E-2,2.9152862E-3,-3.3547678E-3,-1.1157311E-2,-1.4203199E-3,2.1616897E-2,-1.6379733E-2,3.8040846E-4,1.4987022E-2,-2.9207235E-2,1.6468694E-2,3.9631486E-2],"split_indices":[2,2,2,1,4,4,3,3,2,4,4,4,1,4,4,2,2,3,4,3,4,1,0,2,4,4,2,4,1,4,2,0,0,0,0,0,0,0,0,0,0,0,0,0,0,0,0,0,0,0,0,0,0,0,0,0,0,0,0,0,0],"split_type":[0,0,0,0,0,0,0,0,0,0,0,0,0,0,0,0,0,0,0,0,0,0,0,0,0,0,0,0,0,0,0,0,0,0,0,0,0,0,0,0,0,0,0,0,0,0,0,0,0,0,0,0,0,0,0,0,0,0,0,0,0],"sum_hessian":[5.689004E3,1.1731593E3,4.5158447E3,5.796002E2,5.93559E2,3.4460364E3,1.0698081E3,7.507974E1,5.045205E2,5.841466E2,9.412382E0,2.6093274E3,8.3670905E2,1.0242466E3,4.556151E1,6.2527843E1,1.2551904E1,1.44946E2,3.595745E2,3.856127E2,1.9853394E2,7.0085707E0,2.4038117E0,5.24816E1,2.5568457E3,2.1076372E2,6.259453E2,7.5487714E2,2.6936948E2,1.8076918E1,2.748459E1,2.1537325E1,4.0990517E1,1.1352023E1,1.1998807E0,2.7519852E1,1.1742614E2,2.9341944E1,3.3023257E2,2.6698715E2,1.1862553E2,6.905777E1,1.2947617E2,4.5495634E0,2.4590073E0,2.6928804E1,2.5552795E1,2.4379907E3,1.18855156E2,6.540413E0,2.042233E2,3.8972787E2,2.3621747E2,7.19271E2,3.5606144E1,1.0960474E2,1.5976476E2,1.3483142E1,4.5937757E0,1.4901086E1,1.2583504E1],"tree_param":{"num_deleted":"0","num_feature":"5","num_nodes":"61","size_leaf_vector":"1"}},{"base_weights":[2.2591081E-1,3.2261634E-1,3.0350825E-2,5.338403E-1,2.8535113E-1,7.705858E-2,-1.4142106E-1,6.401504E-1,4.7317794E-1,1.6365188E-1,3.1274688E-1,-9.607315E-2,1.0075275E-1,-1.8398297E-1,2.3091814E-2,-2.231604E-2,6.663712E-1,7.945465E-1,4.3879697E-1,2.8444898E-1,9.777777E-2,3.9555618E-1,2.889218E-1,5.129689E-2,-2.3687734E-1,6.869521E-2,2.2418436E-1,-9.502798E-2,-3.8510945E-1,4.1909644E-1,-1.2531252E-1,2.5110742E-2,-1.2587868E-2,3.375889E-2,-1.2664884E-2,8.895238E-3,4.321348E-2,1.9704046E-2,3.2536533E-2,1.2911967E-2,5.08805E-2,-4.0349626E-4,8.780643E-3,1.583289E-2,2.6975105E-2,-1.1041018E-2,1.4656357E-2,-1.032988E-3,2.2312766E-2,1.5559516E-4,-2.4373848E-2,3.0731527E-2,3.1055992E-3,2.149473E-2,6.8344227E-3,-6.348606E-3,3.6542352E-2,-2.430547E-2,-2.663985E-3,2.7123258E-2,-4.063408E-3,-1.8069955E-2,-6.409461E-5],"categories":[],"categories_nodes":[],"categories_segments":[],"categories_sizes":[],"default_left":[0,0,0,0,0,0,0,0,0,0,0,0,0,0,0,0,0,0,0,0,0,0,0,0,0,0,0,0,0,0,0,0,0,0,0,0,0,0,0,0,0,0,0,0,0,0,0,0,0,0,0,0,0,0,0,0,0,0,0,0,0,0,0],"id":15,"left_children":[1,3,5,7,9,11,13,15,17,19,21,23,25,27,29,31,33,35,37,39,41,43,45,47,49,51,53,55,57,59,61,-1,-1,-1,-1,-1,-1,-1,-1,-1,-1,-1,-1,-1,-1,-1,-1,-1,-1,-1,-1,-1,-1,-1,-1,-1,-1,-1,-1,-1,-1,-1,-1],"loss_changes":[1.2911508E2,3.5807556E1,1.8145401E1,4.1080475E0,1.2903259E1,7.302272E0,3.3901958E0,4.2820587E0,4.5053177E0,5.670063E0,6.1408386E0,4.4634347E0,6.1740246E0,6.8388004E0,5.9459066E0,1.3685213E0,2.0851517E0,1.6186161E0,3.5256805E0,4.5827103E0,3.83146E0,7.843399E0,5.350464E0,3.011394E0,6.609836E0,4.429734E0,5.7378216E0,7.157136E0,3.9126472E0,1.7457447E0,2.15804E0,0E0,0E0,0E0,0E0,0E0,0E0,0E0,0E0,0E0,0E0,0E0,0E0,0E0,0E0,0E0,0E0,0E0,0E0,0E0,0E0,0E0,0E0,0E0,0E0,0E0,0E0,0E0,0E0,0E0,0E0,0E0,0E0],"parents":[2147483647,0,0,1,1,2,2,3,3,4,4,5,5,6,6,7,7,8,8,9,9,10,10,11,11,12,12,13,13,14,14,15,15,16,16,17,17,18,18,19,19,20,20,21,21,22,22,23,23,24,24,25,25,26,26,27,27,28,28,29,29,30,30],"right_children":[2,4,6,8,10,12,14,16,18,20,22,24,26,28,30,32,34,36,38,40,42,44,46,48,50,52,54,56,58,60,62,-1,-1,-1,-1,-1,-1,-1,-1,-1,-1,-1,-1,-1,-1,-1,-1,-1,-1,-1,-1,-1,-1,-1,-1,-1,-1,-1,-1,-1,-1,-1,-1],"split_conditions":[5.019656E-3,2.077992E-3,7.950744E-3,1.5434752E-3,3.599845E1,-2.6547179E-2,4.0501407E-3,2.9920893E1,-8.550674E-5,-8.788716E-4,2.8232262E-3,-2.2522199E-4,9.466746E-3,0E0,7.5973407E-3,1.3244695E-3,8.323712E1,-6.048585E-3,1.9349858E-5,-9.789744E-4,4.7557548E-4,2.496773E-4,-2.4210623E-2,7.7380324E-3,6.243133E-3,2.0895473E1,1.2136104E-2,-2.2522199E-4,5.656969E1,1.5142991E-2,7.942534E-3,2.5110742E-2,-1.2587868E-2,3.375889E-2,-1.2664884E-2,8.895238E-3,4.321348E-2,1.9704046E-2,3.2536533E-2,1.2911967E-2,5.08805E-2,-4.0349626E-4,8.780643E-3,1.583289E-2,2.6975105E-2,-1.1041018E-2,1.4656357E-2,-1.032988E-3,2.2312766E-2,1.5559516E-4,-2.4373848E-2,3.0731527E-2,3.1055992E-3,2.149473E-2,6.8344227E-3,-6.348606E-3,3.6542352E-2,-2.430547E-2,-2.663985E-3,2.7123258E-2,-4.063408E-3,-1.8069955E-2,-6.409461E-5],"split_indices":[2,2,2,2,0,1,4,0,4,4,2,4,4,4,4,2,0,1,4,4,4,4,4,2,2,0,4,4,0,1,1,0,0,0,0,0,0,0,0,0,0,0,0,0,0,0,0,0,0,0,0,0,0,0,0,0,0,0,0,0,0,0,0],"split_type":[0,0,0,0,0,0,0,0,0,0,0,0,0,0,0,0,0,0,0,0,0,0,0,0,0,0,0,0,0,0,0,0,0,0,0,0,0,0,0,0,0,0,0,0,0,0,0,0,0,0,0,0,0,0,0,0,0,0,0,0,0,0,0],"sum_hessian":[6.8267676E3,4.5674756E3,2.259292E3,6.829728E2,3.884503E3,1.7767219E3,4.825701E2,2.4465855E2,4.3831424E2,7.150473E2,3.1694556E3,2.1351643E2,1.5632054E3,3.832892E2,9.92809E1,9.320687E0,2.3533786E2,4.0223534E1,3.9809073E2,2.5116103E2,4.638863E2,7.046584E2,2.464797E3,1.04636406E2,1.0888003E2,1.2421516E3,3.210538E2,2.6677252E2,1.1651669E2,2.656647E1,7.271443E1,2.4745967E0,6.8460903E0,2.3336902E2,1.9688516E0,4.4468136E0,3.577672E1,3.3109265E2,6.699806E1,2.4379778E2,7.3632584E0,1.9695041E2,2.6693588E2,4.5723984E2,2.4741856E2,1.9746412E1,2.4450508E3,8.931245E1,1.5323956E1,5.6121902E1,5.275812E1,1.3699675E1,1.228452E3,9.463818E1,2.2641563E2,2.5765298E2,9.119538E0,8.8971306E1,2.7545385E1,2.1244368E1,5.3221016E0,2.4384974E1,4.8329456E1],"tree_param":{"num_deleted":"0","num_feature":"5","num_nodes":"63","size_leaf_vector":"1"}},{"base_weights":[-1.1475654E-1,-2.0020993E-1,3.5562687E-2,-5.149907E-2,-2.1711761E-1,3.2086113E-1,-1.9627763E-3,9.235754E-1,-6.6653885E-2,-2.203828E-1,2.3697045E-1,4.7770415E-2,2.7921677E-1,7.651685E-2,-8.818451E-2,1.1458967E-3,5.876453E-2,-1.3098034E-1,1.1006096E-1,-1.9123977E-1,-2.8594625E-1,-3.841185E-1,7.574861E-1,1.5672493E-1,4.8734897E-1,2.7840955E-2,2.4697118E-1,-4.8055086E-1,-7.676946E-2,-8.326212E-3,1.9055666E-2,8.431147E-3,-2.1627009E-2,-1.3443463E-2,-7.6767155E-3,3.1254165E-2,-1.4477526E-2,3.7235224E-3,-2.578648E-2,-7.2469017E-3,4.663621E-2,-1.4466292E-3,1.6579479E-2,2.8022978E-2,4.227325E-3,1.6026841E-2,5.527441E-4,1.5298526E-2,-2.4285462E-2,1.598962E-2,-2.9370174E-2,-3.0563849E-3,-1.6458834E-2],"categories":[],"categories_nodes":[],"categories_segments":[],"categories_sizes":[],"default_left":[0,0,0,0,0,0,0,0,0,0,0,0,0,0,0,0,0,0,0,0,0,0,0,0,0,0,0,0,0,0,0,0,0,0,0,0,0,0,0,0,0,0,0,0,0,0,0,0,0,0,0,0,0],"id":16,"left_children":[1,3,5,7,9,11,13,15,17,19,21,-1,23,25,27,-1,-1,29,31,33,35,37,39,41,43,45,47,49,51,-1,-1,-1,-1,-1,-1,-1,-1,-1,-1,-1,-1,-1,-1,-1,-1,-1,-1,-1,-1,-1,-1,-1,-1],"loss_changes":[7.423423E1,9.252502E0,2.2432018E1,5.638965E0,4.9568024E0,6.169323E0,1.2543098E1,1.2978916E0,4.2498407E0,6.2216034E0,8.081506E0,0E0,5.7866096E0,8.044659E0,3.9190984E0,0E0,0E0,5.0437646E0,3.2497802E0,6.6236725E0,3.493393E0,7.4160767E-1,2.261674E0,4.7573843E0,2.4477558E0,3.7107494E0,9.461279E0,2.3069844E0,3.3731642E0,0E0,0E0,0E0,0E0,0E0,0E0,0E0,0E0,0E0,0E0,0E0,0E0,0E0,0E0,0E0,0E0,0E0,0E0,0E0,0E0,0E0,0E0,0E0,0E0],"parents":[2147483647,0,0,1,1,2,2,3,3,4,4,5,5,6,6,7,7,8,8,9,9,10,10,12,12,13,13,14,14,17,17,18,18,19,19,20,20,21,21,22,22,23,23,24,24,25,25,26,26,27,27,28,28],"right_children":[2,4,6,8,10,12,14,16,18,20,22,-1,24,26,28,-1,-1,30,32,34,36,38,40,42,44,46,48,50,52,-1,-1,-1,-1,-1,-1,-1,-1,-1,-1,-1,-1,-1,-1,-1,-1,-1,-1,-1,-1,-1,-1,-1,-1],"split_conditions":[4.932585E-3,-1.8109173E-2,-3.998865E-2,-3.920713E-2,2.7160985E-2,5.420347E-3,1.9349858E-5,4.6471013E-3,-2.0943454E-2,2.3174763E-3,5.462136E-3,4.7770415E-2,8.633047E-3,0E0,3.5434318E-4,1.1458967E-3,5.876453E-2,1.2564918E-2,6.431268E-3,2.4622132E-3,-1.9031394E-2,2.9901378E-3,2.6429624E-3,-8.764229E-3,-4.48051E-2,-3.004428E-2,1.2527184E-2,-2.2346504E-2,6.1423425E-2,-8.326212E-3,1.9055666E-2,8.431147E-3,-2.1627009E-2,-1.3443463E-2,-7.6767155E-3,3.1254165E-2,-1.4477526E-2,3.7235224E-3,-2.578648E-2,-7.2469017E-3,4.663621E-2,-1.4466292E-3,1.6579479E-2,2.8022978E-2,4.227325E-3,1.6026841E-2,5.527441E-4,1.5298526E-2,-2.4285462E-2,1.598962E-2,-2.9370174E-2,-3.0563849E-3,-1.6458834E-2],"split_indices":[2,3,3,1,4,2,4,2,3,4,3,0,2,4,4,0,0,4,4,2,1,2,1,4,3,4,2,3,3,0,0,0,0,0,0,0,0,0,0,0,0,0,0,0,0,0,0,0,0,0,0,0,0],"split_type":[0,0,0,0,0,0,0,0,0,0,0,0,0,0,0,0,0,0,0,0,0,0,0,0,0,0,0,0,0,0,0,0,0,0,0,0,0,0,0,0,0,0,0,0,0,0,0,0,0,0,0,0,0],"sum_hessian":[5.777548E3,3.6833228E3,2.094225E3,3.764364E2,3.3068865E3,2.4255772E2,1.8516674E3,4.84373E0,3.7159265E2,3.2837883E3,2.3097948E1,1.3586979E1,2.2897075E2,9.694132E2,8.8225415E2,1.296346E0,3.5473843E0,2.726158E2,9.897684E1,2.2760146E3,1.00777374E3,1.0651008E1,1.2446939E1,1.4524365E2,8.372709E1,7.5498016E2,2.1443304E2,2.3779793E1,8.5847437E2,2.5555298E2,1.7062849E1,8.995715E1,9.019684E0,7.420738E2,1.5339409E3,3.2918057E0,1.00448193E3,2.4719274E0,8.179081E0,2.0521069E0,1.0394833E1,7.085255E1,7.4391106E1,7.053351E1,1.3193579E1,3.9968094E1,7.150121E2,1.9899158E2,1.5441468E1,2.566142E0,2.1213652E1,8.095485E2,4.892584E1],"tree_param":{"num_deleted":"0","num_feature":"5","num_nodes":"53","size_leaf_vector":"1"}},{"base_weights":[-1.5384059E-1,-3.137384E-1,-1.12598754E-1,-7.729653E-2,-3.369075E-1,-1.462998E-1,-7.939239E-3,2.0677425E-2,-3.6437902E-1,-5.125509E-1,-2.9969487E-1,-2.2968857E-1,-1.0801916E-1,-3.2511786E-2,2.6103586E-1,1.5093715E-1,-3.9323547E-1,-5.5100644E-1,1.2904973E-1,-2.3315322E-1,-5.8495593E-1,-3.095813E-1,4.366504E-1,1.3389976E-1,-2.4915022E-1,-3.7124444E-2,-1.2891842E-1,6.740303E-2,-7.888509E-2,5.2232172E-2,1.931364E-1,-1.5189507E-3,3.0263081E-2,3.1396549E-3,-2.8338546E-2,1.0023467E-2,-3.240576E-2,-2.5190605E-2,2.7303664E-2,2.560184E-2,-1.3520091E-2,-2.9488117E-2,-1.5074966E-2,-1.381437E-2,-1.9838573E-2,5.4194022E-2,-8.633425E-3,2.3744443E-2,-7.84509E-3,-1.52280275E-2,-8.660133E-3,3.1858098E-3,-5.0869524E-3,-5.869215E-3,-1.4271154E-2,-2.1625077E-3,8.232026E-3,-1.1898222E-2,-1.4418536E-3,4.33854E-2,6.994225E-3],"categories":[],"categories_nodes":[],"categories_segments":[],"categories_sizes":[],"default_left":[0,0,0,0,0,0,0,0,0,0,0,0,0,0,0,0,0,0,0,0,0,0,0,0,0,0,0,0,0,0,0,0,0,0,0,0,0,0,0,0,0,0,0,0,0,0,0,0,0,0,0,0,0,0,0,0,0,0,0,0,0],"id":17,"left_children":[1,3,5,7,9,11,13,15,17,19,21,23,25,27,29,31,33,35,37,39,41,43,45,47,49,51,53,55,57,-1,59,-1,-1,-1,-1,-1,-1,-1,-1,-1,-1,-1,-1,-1,-1,-1,-1,-1,-1,-1,-1,-1,-1,-1,-1,-1,-1,-1,-1,-1,-1],"loss_changes":[3.742717E1,6.351898E0,1.5933136E1,2.9665098E0,6.775055E0,1.0883484E1,7.288317E0,4.339256E0,2.5410144E0,3.5841942E0,6.520584E0,7.6348495E0,3.4681015E0,4.6856093E0,4.7097716E0,5.0517297E0,1.561265E0,1.5639224E0,2.431543E0,1.2352772E0,2.0282745E-2,2.4045868E0,4.9336195E0,5.5511646E0,4.2398148E0,3.4928286E0,3.2335854E0,3.4582598E0,5.4896417E0,0E0,2.974276E0,0E0,0E0,0E0,0E0,0E0,0E0,0E0,0E0,0E0,0E0,0E0,0E0,0E0,0E0,0E0,0E0,0E0,0E0,0E0,0E0,0E0,0E0,0E0,0E0,0E0,0E0,0E0,0E0,0E0,0E0],"parents":[2147483647,0,0,1,1,2,2,3,3,4,4,5,5,6,6,7,7,8,8,9,9,10,10,11,11,12,12,13,13,14,14,15,15,16,16,17,17,18,18,19,19,20,20,21,21,22,22,23,23,24,24,25,25,26,26,27,27,28,28,30,30],"right_children":[2,4,6,8,10,12,14,16,18,20,22,24,26,28,30,32,34,36,38,40,42,44,46,48,50,52,54,56,58,-1,60,-1,-1,-1,-1,-1,-1,-1,-1,-1,-1,-1,-1,-1,-1,-1,-1,-1,-1,-1,-1,-1,-1,-1,-1,-1,-1,-1,-1,-1,-1],"split_conditions":[2.788609E-3,3.1868584E1,6.14909E-3,3.5434318E-4,1.5434752E-3,0E0,5.8293488E-2,2.530467E-3,2.6711745E-3,-1.3554023E-3,1.8000184E-2,-2.4210623E-2,-9.683083E-3,3.994299E1,4.761662E1,2.282567E-3,2.4529835E1,1.7070052E-3,3.5373585E-3,-6.7543886E-3,8.171453E1,1.9349858E-5,5.3789932E1,4.626005E-3,-9.0456085E-4,1.1949863E-3,5.6377095E-3,-3.743731E-2,-8.103221E-3,5.2232172E-2,-5.3696376E-3,-1.5189507E-3,3.0263081E-2,3.1396549E-3,-2.8338546E-2,1.0023467E-2,-3.240576E-2,-2.5190605E-2,2.7303664E-2,2.560184E-2,-1.3520091E-2,-2.9488117E-2,-1.5074966E-2,-1.381437E-2,-1.9838573E-2,5.4194022E-2,-8.633425E-3,2.3744443E-2,-7.84509E-3,-1.52280275E-2,-8.660133E-3,3.1858098E-3,-5.0869524E-3,-5.869215E-3,-1.4271154E-2,-2.1625077E-3,8.232026E-3,-1.1898222E-2,-1.4418536E-3,4.33854E-2,6.994225E-3],"split_indices":[2,0,2,4,2,4,3,2,2,3,4,4,3,0,0,2,0,2,4,3,0,4,0,2,3,4,2,3,4,0,4,0,0,0,0,0,0,0,0,0,0,0,0,0,0,0,0,0,0,0,0,0,0,0,0,0,0,0,0,0,0],"split_type":[0,0,0,0,0,0,0,0,0,0,0,0,0,0,0,0,0,0,0,0,0,0,0,0,0,0,0,0,0,0,0,0,0,0,0,0,0,0,0,0,0,0,0,0,0,0,0,0,0,0,0,0,0,0,0,0,0,0,0,0,0],"sum_hessian":[5.6798857E3,1.1632535E3,4.516632E3,1.0420201E2,1.0590515E3,3.4161965E3,1.1004354E3,7.838066E1,2.5821354E1,1.8291599E2,8.7613556E2,1.0732589E3,2.3429377E3,1.00912476E3,9.131069E1,6.0101776E1,1.8278883E1,1.8650549E1,7.170806E0,3.8514763E1,1.4440123E2,8.651E2,1.1035585E1,5.4230385E1,1.0190285E3,5.340622E2,1.8088755E3,3.197486E2,6.8937616E2,6.134069E0,8.517662E1,4.3624733E1,1.6477043E1,5.2143645E0,1.3064518E1,2.0124917E0,1.6638056E1,2.7656412E0,4.4051647E0,1.2267181E0,3.7288044E1,1.4093095E2,3.4702752E0,6.290599E2,2.3604007E2,4.9736457E0,6.0619392E0,2.4669868E1,2.9560516E1,5.8743427E2,4.3159427E2,2.085707E2,3.2549152E2,1.6863447E3,1.225307E2,1.4981691E2,1.6993169E2,1.6408179E2,5.252944E2,5.1129975E0,8.006362E1],"tree_param":{"num_deleted":"0","num_feature":"5","num_nodes":"61","size_leaf_vector":"1"}},{"base_weights":[2.1226992E-1,-3.4925915E-2,2.405417E-1,-2.1483514E-1,5.533218E-2,2.4911423E-1,-8.53666E-2,-4.796932E-2,-2.9103148E-1,1.5660846E-1,-4.3735646E-2,3.698676E-2,2.5766805E-1,-1.4368904E-1,4.9350914E-1,8.776482E-3,-5.551454E-1,-3.2942313E-1,2.6356247E-1,1.9451955E-1,-4.4091412E-1,1.1573136E-1,-1.6769227E-1,5.0048995E-1,-2.3604378E-2,1.2009696E-1,2.6914355E-1,1.3468607E-1,-2.1057059E-1,-1.5654324E-2,6.7937917E-1,-2.7974693E-3,1.5260371E-2,-2.03861E-3,-3.3263832E-2,-2.078238E-2,-9.23644E-3,2.5473826E-3,4.1689835E-2,5.2190553E-3,2.042505E-2,-3.2485608E-2,-1.8918723E-3,7.892815E-3,-2.8000353E-2,-1.1955686E-2,4.400949E-3,2.8949458E-2,-2.5686337E-2,-7.644206E-3,1.060723E-2,9.584384E-3,-1.6359094E-3,1.4874376E-2,1.04231015E-2,-1.791175E-2,1.5850298E-2,-3.5343688E-2,-7.3106433E-3,-2.4756005E-2,4.4135157E-2],"categories":[],"categories_nodes":[],"categories_segments":[],"categories_sizes":[],"default_left":[0,0,0,0,0,0,0,0,0,0,0,0,0,0,0,0,0,0,0,0,0,0,0,0,0,0,0,0,0,0,0,0,0,0,0,0,0,0,0,0,0,0,0,0,0,0,0,0,0,0,0,0,0,0,0,0,0,0,0,0,0],"id":18,"left_children":[1,3,5,7,9,11,13,15,17,19,21,23,25,27,29,31,33,35,37,39,41,43,45,47,49,51,53,55,57,-1,59,-1,-1,-1,-1,-1,-1,-1,-1,-1,-1,-1,-1,-1,-1,-1,-1,-1,-1,-1,-1,-1,-1,-1,-1,-1,-1,-1,-1,-1,-1],"loss_changes":[4.762909E1,1.1382021E1,1.7105133E1,2.9629154E0,4.6931157E0,1.0801819E1,5.387089E0,2.1516948E0,3.5049486E0,5.322655E0,4.702079E0,6.5306473E0,9.009216E0,2.7061172E0,2.407263E0,1.3231611E0,3.9897084E-1,1.8019829E0,1.2850031E0,4.1637278E0,1.1619949E0,3.054447E0,2.4627614E0,2.4375315E0,6.3180404E0,4.850123E0,9.028717E0,2.6722343E0,3.613101E0,0E0,3.3533287E0,0E0,0E0,0E0,0E0,0E0,0E0,0E0,0E0,0E0,0E0,0E0,0E0,0E0,0E0,0E0,0E0,0E0,0E0,0E0,0E0,0E0,0E0,0E0,0E0,0E0,0E0,0E0,0E0,0E0,0E0],"parents":[2147483647,0,0,1,1,2,2,3,3,4,4,5,5,6,6,7,7,8,8,9,9,10,10,11,11,12,12,13,13,14,14,15,15,16,16,17,17,18,18,19,19,20,20,21,21,22,22,23,23,24,24,25,25,26,26,27,27,28,28,30,30],"right_children":[2,4,6,8,10,12,14,16,18,20,22,24,26,28,30,32,34,36,38,40,42,44,46,48,50,52,54,56,58,-1,60,-1,-1,-1,-1,-1,-1,-1,-1,-1,-1,-1,-1,-1,-1,-1,-1,-1,-1,-1,-1,-1,-1,-1,-1,-1,-1,-1,-1,-1,-1],"split_conditions":[-2.0604812E-2,-3.5536394E-2,4.2641338E-2,-1.568016E-2,-3.97262E-4,-1.568016E-2,8.690421E1,4.5385315E1,4.5385315E1,-2.1033848E-2,3.0910656E1,3.1292944E1,-1.8109173E-2,6.538087E1,5.8293488E-2,3.5562366E1,-7.848616E-2,-4.48051E-2,-3.743731E-2,-5.087201E-3,-2.3351768E-2,1.501733E-2,6.7838184E-3,1.7299831E-3,2.6429624E-3,-2.0943454E-2,1.1767136E-2,5.5978218E1,4.4202313E-2,-1.5654324E-2,-6.9666025E-4,-2.7974693E-3,1.5260371E-2,-2.03861E-3,-3.3263832E-2,-2.078238E-2,-9.23644E-3,2.5473826E-3,4.1689835E-2,5.2190553E-3,2.042505E-2,-3.2485608E-2,-1.8918723E-3,7.892815E-3,-2.8000353E-2,-1.1955686E-2,4.400949E-3,2.8949458E-2,-2.5686337E-2,-7.644206E-3,1.060723E-2,9.584384E-3,-1.6359094E-3,1.4874376E-2,1.04231015E-2,-1.791175E-2,1.5850298E-2,-3.5343688E-2,-7.3106433E-3,-2.4756005E-2,4.4135157E-2],"split_indices":[1,1,1,4,4,4,0,0,0,1,0,0,3,0,3,0,3,3,3,4,3,4,4,1,1,3,3,0,3,0,4,0,0,0,0,0,0,0,0,0,0,0,0,0,0,0,0,0,0,0,0,0,0,0,0,0,0,0,0,0,0],"split_type":[0,0,0,0,0,0,0,0,0,0,0,0,0,0,0,0,0,0,0,0,0,0,0,0,0,0,0,0,0,0,0,0,0,0,0,0,0,0,0,0,0,0,0,0,0,0,0,0,0,0,0,0,0,0,0,0,0,0,0,0,0],"sum_hessian":[6.8129897E3,6.992062E2,6.1137837E3,2.3313123E2,4.6607492E2,5.9573203E3,1.5646298E2,7.359397E1,1.5953726E2,2.3018141E2,2.3589352E2,2.311176E2,5.726203E3,1.4282498E2,1.363801E1,6.7072235E1,6.521736E0,1.4958806E2,9.949194E0,2.1708261E2,1.3098808E1,1.0319813E2,1.3269539E2,2.5880419E1,2.0523718E2,4.4175925E2,5.284444E3,2.747102E1,1.1535396E2,2.425959E0,1.1212051E1,5.5717537E1,1.1354699E1,1.3917446E0,5.1299915E0,9.2558914E1,5.702915E1,8.04057E0,1.9086235E0,1.5378807E2,6.3294533E1,8.225849E0,4.872959E0,9.7863785E1,5.3343496E0,1.03775314E2,2.892007E1,2.4419504E1,1.4609146E0,1.3277673E2,7.246045E1,3.0065448E2,1.4110475E2,3.599321E3,1.6851227E3,7.1568503E0,2.0314169E1,1.2095372E1,1.0325858E2,1.44277E0,9.76928E0],"tree_param":{"num_deleted":"0","num_feature":"5","num_nodes":"61","size_leaf_vector":"1"}},{"base_weights":[-1.13541394E-1,1.4584348E-1,-1.4121544E-1,4.0589103E-1,7.6169826E-2,-1.4846474E-1,3.4611005E-2,1.9354035E-1,5.190804E-1,8.2056814E-1,2.7393723E-2,-7.648868E-2,-1.701782E-1,2.0534272E-1,-1.0963338E-1,6.5443605E-1,1.2333344E-2,6.103577E-1,1.118063E-1,1.600328E-1,9.770276E-1,7.916043E-3,5.12304E-2,-1.0881034E-1,8.928785E-2,1.49562E-1,-1.7464514E-1,-3.2298226E-2,3.0574828E-1,-5.5945013E-2,-4.9576885E-1,-2.0891277E-2,4.138311E-2,-1.2444779E-2,1.0284874E-2,1.380489E-2,3.9059564E-2,-1.6386684E-2,2.0762231E-2,2.9323129E-2,-6.9197933E-3,5.205484E-2,1.9124043E-4,-1.8761989E-2,2.460838E-3,-3.5487607E-3,-8.981094E-3,9.2804927E-4,2.0871166E-2,-6.2110634E-3,1.4224753E-2,-1.3570733E-2,-7.954979E-3,-1.6425671E-3,2.186215E-2,-6.0902224E-3,1.805107E-2,-8.062099E-3,-3.1076506E-2],"categories":[],"categories_nodes":[],"categories_segments":[],"categories_sizes":[],"default_left":[0,0,0,0,0,0,0,0,0,0,0,0,0,0,0,0,0,0,0,0,0,0,0,0,0,0,0,0,0,0,0,0,0,0,0,0,0,0,0,0,0,0,0,0,0,0,0,0,0,0,0,0,0,0,0,0,0,0,0],"id":19,"left_children":[1,3,5,7,9,11,13,15,17,19,21,23,25,27,29,31,33,35,37,39,41,43,-1,45,47,49,51,-1,53,55,57,-1,-1,-1,-1,-1,-1,-1,-1,-1,-1,-1,-1,-1,-1,-1,-1,-1,-1,-1,-1,-1,-1,-1,-1,-1,-1,-1,-1],"loss_changes":[4.0977272E1,9.94421E0,6.57724E0,2.6902504E0,1.5788E1,7.726433E0,5.070564E0,3.496687E0,2.725151E0,2.6074543E0,7.949688E0,6.169073E0,5.458679E0,8.250978E0,2.2891676E0,2.5419588E0,1.624193E0,3.2767372E0,2.134237E0,8.851002E-1,1.3319607E0,6.3935704E0,0E0,2.565732E0,4.357806E0,1.9912596E0,5.6006165E0,0E0,3.797031E0,2.7693648E0,4.683733E-1,0E0,0E0,0E0,0E0,0E0,0E0,0E0,0E0,0E0,0E0,0E0,0E0,0E0,0E0,0E0,0E0,0E0,0E0,0E0,0E0,0E0,0E0,0E0,0E0,0E0,0E0,0E0,0E0],"parents":[2147483647,0,0,1,1,2,2,3,3,4,4,5,5,6,6,7,7,8,8,9,9,10,10,11,11,12,12,13,13,14,14,15,15,16,16,17,17,18,18,19,19,20,20,21,21,23,23,24,24,25,25,26,26,28,28,29,29,30,30],"right_children":[2,4,6,8,10,12,14,16,18,20,22,24,26,28,30,32,34,36,38,40,42,44,-1,46,48,50,52,-1,54,56,58,-1,-1,-1,-1,-1,-1,-1,-1,-1,-1,-1,-1,-1,-1,-1,-1,-1,-1,-1,-1,-1,-1,-1,-1,-1,-1,-1,-1],"split_conditions":[-2.7348705E-2,-4.3714248E-2,3.6891222E-2,-1.8736253E-2,-2.6608013E-2,-8.429441E-3,5.5611324E-2,-6.363798E-2,-4.6873488E-2,-3.7543222E-2,1.501733E-2,-3.6031152E-3,-1.5534437E-2,-3.4289963E-3,2.7160985E-2,1.1338302E1,2.597824E1,2.0136177E1,-4.3068685E-2,-5.1921856E-2,4.9915947E1,-1.8736253E-2,5.12304E-2,-1.3664413E-2,5.874601E1,-8.103221E-3,-3.7330491E-3,-3.2298226E-2,6.988419E1,1.5782565E-2,4.8461925E-2,-2.0891277E-2,4.138311E-2,-1.2444779E-2,1.0284874E-2,1.380489E-2,3.9059564E-2,-1.6386684E-2,2.0762231E-2,2.9323129E-2,-6.9197933E-3,5.205484E-2,1.9124043E-4,-1.8761989E-2,2.460838E-3,-3.5487607E-3,-8.981094E-3,9.2804927E-4,2.0871166E-2,-6.2110634E-3,1.4224753E-2,-1.3570733E-2,-7.954979E-3,-1.6425671E-3,2.186215E-2,-6.0902224E-3,1.805107E-2,-8.062099E-3,-3.1076506E-2],"split_indices":[3,1,1,4,4,3,3,1,3,1,4,1,1,4,4,0,0,0,3,3,0,4,0,3,0,4,1,0,0,4,1,0,0,0,0,0,0,0,0,0,0,0,0,0,0,0,0,0,0,0,0,0,0,0,0,0,0,0,0],"split_type":[0,0,0,0,0,0,0,0,0,0,0,0,0,0,0,0,0,0,0,0,0,0,0,0,0,0,0,0,0,0,0,0,0,0,0,0,0,0,0,0,0,0,0,0,0,0,0,0,0,0,0,0,0,0,0,0,0,0,0],"sum_hessian":[5.704679E3,5.495505E2,5.1551284E3,1.1510625E2,4.344442E2,4.951149E3,2.0397961E2,4.0964344E1,7.41419E1,2.574302E1,4.087012E2,1.1485256E3,3.8026235E3,9.3219185E1,1.1076042E2,1.0823498E1,3.0140846E1,6.0160282E1,1.3981619E1,5.31733E0,2.042569E1,4.0185995E2,6.841227E0,9.6142E2,1.8710562E2,5.1945087E1,3.7506785E3,9.261371E0,8.395782E1,9.824526E1,1.25151615E1,1.3089756E0,9.514522E0,1.2698448E1,1.7442398E1,2.123236E1,3.892792E1,5.6775055E0,8.304112E0,1.7918115E0,3.5255184E0,1.90986E1,1.3270897E0,3.831527E1,3.6354468E2,6.2792E2,3.335E2,1.5479698E2,3.2308636E1,1.717529E1,3.47698E1,5.168545E2,3.2338237E3,2.3694504E1,6.026331E1,8.545553E1,1.2789738E1,4.042959E0,8.472202E0],"tree_param":{"num_deleted":"0","num_feature":"5","num_nodes":"59","size_leaf_vector":"1"}},{"base_weights":[-1.5067847E-1,-3.149347E-1,-1.08961545E-1,-5.5557555E-1,-2.905826E-1,-1.3149647E-1,1.5361098E-2,-2.189245E-1,-3.179459E-2,-1.859333E-1,-3.2974556E-1,-1.3304296E-1,3.723209E-1,-5.874232E-2,2.526942E-1,1.828381E-1,-3.7213844E-1,2.5167686E-1,-2.1820454E-1,-4.298577E-1,-2.5101835E-1,-1.2532209E-1,-2.8858593E-1,5.893312E-2,-3.2039574E-1,-3.6389592E-1,-3.26878E-2,1.4154325E-1,6.202353E-1,-1.5715932E-2,4.381947E-2,-3.0154822E-2,1.668962E-3,3.3260252E-2,-5.1037692E-3,-7.030686E-3,-1.5013617E-2,-9.3087945E-3,-2.236907E-2,-1.994908E-2,-7.960223E-3,-6.726166E-3,-1.8271704E-3,2.6350284E-2,-1.4860458E-2,2.2371511E-3,-2.0326568E-2,-8.47828E-3,-2.2569926E-2,3.546567E-3,-4.683596E-3,1.2245479E-2,-1.33481845E-2,4.70615E-2,2.0286597E-2],"categories":[],"categories_nodes":[],"categories_segments":[],"categories_sizes":[],"default_left":[0,0,0,0,0,0,0,0,0,0,0,0,0,0,0,0,0,0,0,0,0,0,0,0,0,0,0,0,0,0,0,0,0,0,0,0,0,0,0,0,0,0,0,0,0,0,0,0,0,0,0,0,0,0,0],"id":20,"left_children":[1,3,5,7,9,11,13,15,-1,17,19,21,23,25,27,29,31,33,35,37,39,41,43,-1,45,47,49,51,53,-1,-1,-1,-1,-1,-1,-1,-1,-1,-1,-1,-1,-1,-1,-1,-1,-1,-1,-1,-1,-1,-1,-1,-1,-1,-1],"loss_changes":[3.810193E1,6.4410324E0,1.2440601E1,2.63068E0,4.1405106E0,2.9780655E0,1.2012359E1,1.3765583E0,0E0,4.0301285E0,5.761902E0,4.46476E0,6.949308E0,4.1277437E0,6.550968E0,2.5301914E0,1.4922698E0,2.9638953E0,1.6305065E0,1.3106956E0,5.6328106E0,2.9132805E0,1.3977633E0,0E0,2.4195951E-1,6.182537E-1,3.04493E0,5.3887033E0,2.195859E0,0E0,0E0,0E0,0E0,0E0,0E0,0E0,0E0,0E0,0E0,0E0,0E0,0E0,0E0,0E0,0E0,0E0,0E0,0E0,0E0,0E0,0E0,0E0,0E0,0E0,0E0],"parents":[2147483647,0,0,1,1,2,2,3,3,4,4,5,5,6,6,7,7,9,9,10,10,11,11,12,12,13,13,14,14,15,15,16,16,17,17,18,18,19,19,20,20,21,21,22,22,24,24,25,25,26,26,27,27,28,28],"right_children":[2,4,6,8,10,12,14,16,-1,18,20,22,24,26,28,30,32,34,36,38,40,42,44,-1,46,48,50,52,54,-1,-1,-1,-1,-1,-1,-1,-1,-1,-1,-1,-1,-1,-1,-1,-1,-1,-1,-1,-1,-1,-1,-1,-1,-1,-1],"split_conditions":[2.788609E-3,1.3244695E-3,7.1127443E-3,-1.3554023E-3,4.292148E1,7.345299E-2,1.7558644E-2,-5.079527E-3,-3.179459E-2,1.5767342E-3,2.1515694E-3,3.342712E-2,8.528132E1,-5.634048E-2,1.0848526E-2,4.0993885E1,1.1476519E-3,-4.9335165E-3,2.3597546E-3,4.5070896E1,1.289576E-3,6.14909E-3,3.354904E-3,5.893312E-2,8.690421E1,2.2830956E1,-2.2494856E-2,9.778389E-3,3.4487102E-2,-1.5715932E-2,4.381947E-2,-3.0154822E-2,1.668962E-3,3.3260252E-2,-5.1037692E-3,-7.030686E-3,-1.5013617E-2,-9.3087945E-3,-2.236907E-2,-1.994908E-2,-7.960223E-3,-6.726166E-3,-1.8271704E-3,2.6350284E-2,-1.4860458E-2,2.2371511E-3,-2.0326568E-2,-8.47828E-3,-2.2569926E-2,3.546567E-3,-4.683596E-3,1.2245479E-2,-1.33481845E-2,4.70615E-2,2.0286597E-2],"split_indices":[2,2,2,3,0,3,1,1,0,2,2,1,0,1,2,0,2,1,2,0,3,2,2,0,0,0,1,2,1,0,0,0,0,0,0,0,0,0,0,0,0,0,0,0,0,0,0,0,0,0,0,0,0,0,0],"split_type":[0,0,0,0,0,0,0,0,0,0,0,0,0,0,0,0,0,0,0,0,0,0,0,0,0,0,0,0,0,0,0,0,0,0,0,0,0,0,0,0,0,0,0,0,0,0,0,0,0,0,0,0,0,0,0],"sum_hessian":[5.564493E3,1.125682E3,4.438811E3,1.0144229E2,1.0242397E3,3.7576377E3,6.8117334E2,2.0257473E1,8.1184814E1,2.8048618E2,7.4375354E2,3.7468726E3,1.0765249E1,5.1966797E2,1.6150542E2,5.539159E0,1.4718313E1,1.8796726E1,2.6168945E2,3.2544586E2,4.183077E2,3.5714001E3,1.7547221E2,4.650468E0,6.1147814E0,3.9859707E1,4.7980826E2,1.250678E2,3.643761E1,3.5448852E0,1.9942735E0,9.067051E0,5.6512623E0,8.260254E0,1.0536472E1,1.3590845E2,1.25781006E2,2.2613298E1,3.0283258E2,1.5889455E2,2.5941315E2,3.2355457E3,3.3585458E2,1.2069066E0,1.742653E2,1.2588634E0,4.855918E0,1.3287645E1,2.6572062E1,1.7770448E2,3.0210376E2,1.00131546E2,2.4936253E1,1.3238636E1,2.3198975E1],"tree_param":{"num_deleted":"0","num_feature":"5","num_nodes":"55","size_leaf_vector":"1"}},{"base_weights":[1.9516593E-1,2.7935097E-1,-2.30829E-2,4.1127095E-1,2.2352514E-1,3.0112648E-2,-1.89543E-1,5.901965E-1,3.747186E-1,-5.562095E-1,2.2684693E-1,-1.8405244E-1,6.470004E-2,-2.3725489E-1,-1.1404723E-2,4.5804843E-1,7.797148E-1,5.5997825E-1,3.3879358E-1,-2.1506995E-1,-6.500265E-1,3.0288538E-1,1.9467402E-1,-2.6671922E-2,-2.8959513E-1,3.7469205E-2,1.654911E-1,-1.4501551E-1,-3.1410116E-1,1.2914696E-1,-3.7063545E-1,2.385219E-2,1.877715E-4,3.9708328E-2,2.0175616E-3,2.3274465E-2,3.677044E-2,1.3715384E-2,2.3929108E-2,-2.3074934E-2,1.2203496E-3,-3.6398526E-2,-2.9546493E-3,3.5161357E-3,1.7221874E-2,2.5170192E-3,1.3342067E-2,-1.1641574E-2,2.1593478E-2,-4.3954416E-3,-1.9299682E-2,8.572197E-3,-6.942061E-5,-2.2409707E-2,1.096809E-2,-1.250107E-2,7.8083756E-3,-1.9326705E-2,-9.931789E-3,1.1379491E-2,-8.780319E-3,-3.5070222E-2,-1.2762752E-2],"categories":[],"categories_nodes":[],"categories_segments":[],"categories_sizes":[],"default_left":[0,0,0,0,0,0,0,0,0,0,0,0,0,0,0,0,0,0,0,0,0,0,0,0,0,0,0,0,0,0,0,0,0,0,0,0,0,0,0,0,0,0,0,0,0,0,0,0,0,0,0,0,0,0,0,0,0,0,0,0,0,0,0],"id":21,"left_children":[1,3,5,7,9,11,13,15,17,19,21,23,25,27,29,31,33,35,37,39,41,43,45,47,49,51,53,55,57,59,61,-1,-1,-1,-1,-1,-1,-1,-1,-1,-1,-1,-1,-1,-1,-1,-1,-1,-1,-1,-1,-1,-1,-1,-1,-1,-1,-1,-1,-1,-1,-1,-1],"loss_changes":[1.267825E2,3.6579254E1,1.7021385E1,9.454514E0,9.194153E0,1.0805234E1,3.9537716E0,5.8844986E0,8.004517E0,3.4478855E-1,8.471191E0,3.361855E0,3.4389577E0,2.556652E0,5.0661497E0,1.2862415E0,1.0467415E0,2.9471016E0,9.187485E0,2.9218888E-1,4.8118258E-1,9.976463E0,2.553695E1,7.9026723E0,2.3249264E0,5.1517024E0,8.915398E0,5.374489E0,1.5909882E0,2.2054546E0,8.975625E-1,0E0,0E0,0E0,0E0,0E0,0E0,0E0,0E0,0E0,0E0,0E0,0E0,0E0,0E0,0E0,0E0,0E0,0E0,0E0,0E0,0E0,0E0,0E0,0E0,0E0,0E0,0E0,0E0,0E0,0E0,0E0,0E0],"parents":[2147483647,0,0,1,1,2,2,3,3,4,4,5,5,6,6,7,7,8,8,9,9,10,10,11,11,12,12,13,13,14,14,15,15,16,16,17,17,18,18,19,19,20,20,21,21,22,22,23,23,24,24,25,25,26,26,27,27,28,28,29,29,30,30],"right_children":[2,4,6,8,10,12,14,16,18,20,22,24,26,28,30,32,34,36,38,40,42,44,46,48,50,52,54,56,58,60,62,-1,-1,-1,-1,-1,-1,-1,-1,-1,-1,-1,-1,-1,-1,-1,-1,-1,-1,-1,-1,-1,-1,-1,-1,-1,-1,-1,-1,-1,-1,-1,-1],"split_conditions":[5.3336127E-3,2.788609E-3,8.049124E-3,1.5434752E-3,-3.7543222E-2,-2.6547179E-2,4.2867484E-3,2.0128684E-3,0E0,-4.9148016E-2,0E0,-9.010904E-3,9.245811E-3,-5.5268323E-3,4.2641338E-2,3.3195172E-3,1.0773711E-2,-2.0694365E-3,3.5434318E-4,-4.6798047E-2,-3.3188496E-2,-1.4239831E-2,3.5434318E-4,7.5891605E-3,6.243133E-3,-8.103221E-3,-1.1966383E-2,4.2005386E-3,1.0492029E-2,1.1999511E-2,6.1423425E-2,2.385219E-2,1.877715E-4,3.9708328E-2,2.0175616E-3,2.3274465E-2,3.677044E-2,1.3715384E-2,2.3929108E-2,-2.3074934E-2,1.2203496E-3,-3.6398526E-2,-2.9546493E-3,3.5161357E-3,1.7221874E-2,2.5170192E-3,1.3342067E-2,-1.1641574E-2,2.1593478E-2,-4.3954416E-3,-1.9299682E-2,8.572197E-3,-6.942061E-5,-2.2409707E-2,1.096809E-2,-1.250107E-2,7.8083756E-3,-1.9326705E-2,-9.931789E-3,1.1379491E-2,-8.780319E-3,-3.5070222E-2,-1.2762752E-2],"split_indices":[2,2,2,2,1,1,4,3,4,3,4,4,4,4,1,1,1,4,4,1,3,4,4,2,2,4,1,1,2,4,3,0,0,0,0,0,0,0,0,0,0,0,0,0,0,0,0,0,0,0,0,0,0,0,0,0,0,0,0,0,0,0,0],"split_type":[0,0,0,0,0,0,0,0,0,0,0,0,0,0,0,0,0,0,0,0,0,0,0,0,0,0,0,0,0,0,0,0,0,0,0,0,0,0,0,0,0,0,0,0,0,0,0,0,0,0,0,0,0,0,0,0,0,0,0,0,0,0,0],"sum_hessian":[6.8990234E3,4.97842E3,1.9206036E3,1.4784293E3,3.4999905E3,1.4560983E3,4.6450534E2,2.4822241E2,1.2302069E3,1.4141214E1,3.4858494E3,2.0185999E2,1.2542383E3,3.661147E2,9.839067E1,1.4826004E2,9.996237E1,1.9744208E2,1.0327649E3,3.760314E0,1.03809E1,1.0338954E3,2.4519539E3,8.153354E1,1.2032644E2,9.885362E2,2.6570215E2,1.677044E2,1.9841026E2,7.1181046E1,2.7209621E1,1.4226158E2,5.9984584E0,9.797326E1,1.9891156E0,1.3069931E2,6.674275E1,7.087661E2,3.2399878E2,1.3963344E0,2.3639796E0,8.966344E0,1.4145566E0,1.571328E2,8.767626E2,8.178876E2,1.6340663E3,5.6585167E1,2.4948372E1,3.953102E1,8.0795425E1,2.2148387E2,7.670523E2,2.0851044E1,2.448511E2,1.2447628E2,4.3228134E1,1.2048245E2,7.79278E1,5.3993134E1,1.7187916E1,5.7232704E0,2.1486351E1],"tree_param":{"num_deleted":"0","num_feature":"5","num_nodes":"63","size_leaf_vector":"1"}},{"base_weights":[-1.0015582E-1,-1.8364194E-1,4.789609E-2,-6.407984E-2,-2.0461212E-1,2.4368155E-1,-5.794019E-3,8.214217E-1,-7.507175E-2,-1.784777E-1,-2.8112578E-1,6.6984385E-1,2.0066035E-1,6.440165E-2,-7.916207E-2,2.9096955E-1,5.4240484E-2,-8.7076366E-2,3.6354148E-1,-1.8417624E-1,6.4568716E-1,-2.9183003E-1,1.1491442E-1,2.2654048E-1,1.1402524E0,-1.554807E-1,2.5456437E-1,-7.8316435E-2,1.3991937E-1,-2.8039572E-1,-4.547477E-2,2.2647383E-2,2.6680093E-4,3.8933802E-2,-4.662248E-3,-2.7362222E-2,3.57433E-2,-1.319131E-2,-6.9650263E-3,-2.625966E-2,4.863677E-2,-3.24085E-2,-1.4165066E-2,-1.1793244E-2,5.269587E-2,-8.017967E-3,4.445679E-2,6.015833E-2,2.7161354E-2,1.8292932E-2,-1.55907E-2,2.5151704E-2,9.398839E-3,-1.1876213E-3,-2.244774E-2,7.910853E-3,-1.5367964E-2,-1.7425625E-2,1.5147845E-2,1.1312706E-2,-3.6581412E-3],"categories":[],"categories_nodes":[],"categories_segments":[],"categories_sizes":[],"default_left":[0,0,0,0,0,0,0,0,0,0,0,0,0,0,0,0,0,0,0,0,0,0,0,0,0,0,0,0,0,0,0,0,0,0,0,0,0,0,0,0,0,0,0,0,0,0,0,0,0,0,0,0,0,0,0,0,0,0,0,0,0],"id":22,"left_children":[1,3,5,7,9,11,13,15,17,19,21,23,25,27,29,31,-1,33,35,37,39,41,43,45,47,49,51,53,55,57,59,-1,-1,-1,-1,-1,-1,-1,-1,-1,-1,-1,-1,-1,-1,-1,-1,-1,-1,-1,-1,-1,-1,-1,-1,-1,-1,-1,-1,-1,-1],"loss_changes":[7.094539E1,9.188286E0,2.1762222E1,5.4060774E0,6.192398E0,8.034176E0,8.377133E0,6.366544E-1,2.8921595E0,1.106073E1,3.3957024E0,8.171827E0,7.8359833E0,8.970629E0,5.3785205E0,1.6543865E-1,0E0,2.9009194E0,5.0840635E0,8.236214E0,6.722078E0,2.164093E0,7.359679E0,5.797954E0,7.379532E-2,4.5159154E0,5.7476196E0,5.8199005E0,4.500866E0,4.6295195E0,5.150977E0,0E0,0E0,0E0,0E0,0E0,0E0,0E0,0E0,0E0,0E0,0E0,0E0,0E0,0E0,0E0,0E0,0E0,0E0,0E0,0E0,0E0,0E0,0E0,0E0,0E0,0E0,0E0,0E0,0E0,0E0],"parents":[2147483647,0,0,1,1,2,2,3,3,4,4,5,5,6,6,7,7,8,8,9,9,10,10,11,11,12,12,13,13,14,14,15,15,17,17,18,18,19,19,20,20,21,21,22,22,23,23,24,24,25,25,26,26,27,27,28,28,29,29,30,30],"right_children":[2,4,6,8,10,12,14,16,18,20,22,24,26,28,30,32,-1,34,36,38,40,42,44,46,48,50,52,54,56,58,60,-1,-1,-1,-1,-1,-1,-1,-1,-1,-1,-1,-1,-1,-1,-1,-1,-1,-1,-1,-1,-1,-1,-1,-1,-1,-1,-1,-1,-1,-1],"split_conditions":[4.9535404E-3,-1.40438955E-2,-2.6641546E-2,-3.920713E-2,4.1158167E-3,-2.6608013E-2,1.9349858E-5,4.7554765E-3,2.0088737E-3,4.0501407E-3,2.7160985E-2,-3.920713E-2,-1.8736253E-2,-7.893166E-3,1.6623526E-3,-4.6873488E-2,5.4240484E-2,1.8757598E-3,3.1358094E-3,2.5768904E-3,2.9495026E-3,4.2867484E-3,2.227969E-2,-3.004428E-2,-3.129508E-2,-5.634048E-2,-4.3714248E-2,2.840006E-2,1.1670706E-2,7.5037605E-3,2.6260675E-3,2.2647383E-2,2.6680093E-4,3.8933802E-2,-4.662248E-3,-2.7362222E-2,3.57433E-2,-1.319131E-2,-6.9650263E-3,-2.625966E-2,4.863677E-2,-3.24085E-2,-1.4165066E-2,-1.1793244E-2,5.269587E-2,-8.017967E-3,4.445679E-2,6.015833E-2,2.7161354E-2,1.8292932E-2,-1.55907E-2,2.5151704E-2,9.398839E-3,-1.1876213E-3,-2.244774E-2,7.910853E-3,-1.5367964E-2,-1.7425625E-2,1.5147845E-2,1.1312706E-2,-3.6581412E-3],"split_indices":[2,3,3,1,4,4,4,2,1,4,4,1,4,4,4,3,0,2,2,2,2,4,1,4,3,1,1,3,2,2,4,0,0,0,0,0,0,0,0,0,0,0,0,0,0,0,0,0,0,0,0,0,0,0,0,0,0,0,0,0,0],"split_type":[0,0,0,0,0,0,0,0,0,0,0,0,0,0,0,0,0,0,0,0,0,0,0,0,0,0,0,0,0,0,0,0,0,0,0,0,0,0,0,0,0,0,0,0,0,0,0,0,0,0,0,0,0,0,0,0,0,0,0,0,0],"sum_hessian":[5.7380757E3,3.6689326E3,2.0691428E3,5.4808215E2,3.1208506E3,4.4454257E2,1.6246002E3,5.81604E0,5.422661E2,2.3287595E3,7.920911E2,3.94258E1,4.051168E2,8.3031226E2,7.9428796E2,2.6280265E0,3.1880136E0,5.286001E2,1.3666031E1,2.3135393E3,1.5220022E1,7.7150195E2,2.0589157E1,2.1060446E1,1.8365355E1,5.3008453E1,3.5210834E2,2.8730615E2,5.430061E2,1.1284948E2,6.814385E2,1.3032243E0,1.3248022E0,2.8537073E0,5.257464E2,3.648882E0,1.0017149E1,8.319794E2,1.48156E3,3.1907637E0,1.2029259E1,1.628057E1,7.5522144E2,1.5534728E1,5.054428E0,1.3774994E1,7.2854524E0,1.5696044E1,2.66931E0,1.1919415E1,4.108904E1,7.303307E1,2.7907526E2,2.5136519E2,3.5940968E1,5.222862E2,2.0719904E1,1.0141056E2,1.1438918E1,6.2351635E1,6.1908685E2],"tree_param":{"num_deleted":"0","num_feature":"5","num_nodes":"61","size_leaf_vector":"1"}},{"base_weights":[-1.4834931E-1,-2.9219446E-1,-9.942413E-2,-3.8586134E-1,-2.3095824E-1,-1.2273171E-1,1.7426735E-2,-2.3188119E-1,-4.6189147E-1,-1.8154603E-1,-3.1534433E-1,-1.7698757E-1,-9.70797E-2,-4.824336E-2,2.3773645E-1,1.8764624E-1,-2.657159E-1,-5.065538E-1,-3.4891093E-1,-2.4852978E-1,-7.067135E-2,-5.234777E-1,-2.2534354E-1,1.0895923E-1,-1.9331856E-1,-3.3044662E-2,-1.2622069E-1,1.7927243E-1,-8.4732756E-2,7.1033216E-1,1.5219165E-1,-2.6989136E-2,2.3847064E-2,-2.3475599E-2,-1.1118887E-2,2.083693E-5,-2.5472192E-2,-1.0478687E-2,-2.629642E-2,1.7078255E-3,-1.4317617E-2,2.2078163E-3,-1.0629648E-2,4.3986198E-3,-2.660806E-2,1.8650431E-2,-1.2648264E-2,2.3095753E-2,-6.0491865E-3,-1.0047234E-2,2.241097E-2,2.3039138E-2,-2.4729983E-3,-8.087295E-3,-2.6095114E-3,2.6319085E-3,3.1297896E-2,-9.736921E-3,-3.8784954E-5,2.2773793E-2,5.3553283E-2,-1.5121584E-2,1.123285E-2],"categories":[],"categories_nodes":[],"categories_segments":[],"categories_sizes":[],"default_left":[0,0,0,0,0,0,0,0,0,0,0,0,0,0,0,0,0,0,0,0,0,0,0,0,0,0,0,0,0,0,0,0,0,0,0,0,0,0,0,0,0,0,0,0,0,0,0,0,0,0,0,0,0,0,0,0,0,0,0,0,0,0,0],"id":23,"left_children":[1,3,5,7,9,11,13,15,17,19,21,23,25,27,29,31,33,35,37,39,41,43,45,47,49,51,53,55,57,59,61,-1,-1,-1,-1,-1,-1,-1,-1,-1,-1,-1,-1,-1,-1,-1,-1,-1,-1,-1,-1,-1,-1,-1,-1,-1,-1,-1,-1,-1,-1,-1,-1],"loss_changes":[3.9188766E1,8.020195E0,1.1331306E1,6.418625E0,3.5178185E0,4.8096886E0,1.0032159E1,2.6937695E0,1.7011185E0,4.0160103E0,5.7879333E0,5.2144775E0,4.394123E0,4.451776E0,6.3287287E0,3.3060985E0,1.421565E0,3.8774872E-1,2.5696163E0,3.6254768E0,3.3654888E0,5.481472E-1,3.7611494E0,4.9842153E0,5.2388916E0,6.009445E0,4.250759E0,4.1632967E0,4.259576E0,1.7305603E0,4.5512447E0,0E0,0E0,0E0,0E0,0E0,0E0,0E0,0E0,0E0,0E0,0E0,0E0,0E0,0E0,0E0,0E0,0E0,0E0,0E0,0E0,0E0,0E0,0E0,0E0,0E0,0E0,0E0,0E0,0E0,0E0,0E0,0E0],"parents":[2147483647,0,0,1,1,2,2,3,3,4,4,5,5,6,6,7,7,8,8,9,9,10,10,11,11,12,12,13,13,14,14,15,15,16,16,17,17,18,18,19,19,20,20,21,21,22,22,23,23,24,24,25,25,26,26,27,27,28,28,29,29,30,30],"right_children":[2,4,6,8,10,12,14,16,18,20,22,24,26,28,30,32,34,36,38,40,42,44,46,48,50,52,54,56,58,60,62,-1,-1,-1,-1,-1,-1,-1,-1,-1,-1,-1,-1,-1,-1,-1,-1,-1,-1,-1,-1,-1,-1,-1,-1,-1,-1,-1,-1,-1,-1,-1,-1],"split_conditions":[3.0441622E-3,2.1515694E-3,7.1127443E-3,4.5070896E1,3.5434318E-4,0E0,1.7927362E-2,-1.0872486E-2,1.9038775E-3,3.6055993E-3,3.1956735E-3,-2.4210623E-2,6.81855E-4,7.4135E-3,4.6639E1,-1.4449132E-2,1.3244695E-3,-1.0083537E-2,6.7052683E-3,2.8458363E1,6.615807E1,-1.7463226E-2,3.6615285E-3,4.626005E-3,5.7053085E-2,2.0136177E1,1.0448405E-2,5.616152E1,-5.5268323E-3,6.872311E-3,-9.863962E-3,-2.6989136E-2,2.3847064E-2,-2.3475599E-2,-1.1118887E-2,2.083693E-5,-2.5472192E-2,-1.0478687E-2,-2.629642E-2,1.7078255E-3,-1.4317617E-2,2.2078163E-3,-1.0629648E-2,4.3986198E-3,-2.660806E-2,1.8650431E-2,-1.2648264E-2,2.3095753E-2,-6.0491865E-3,-1.0047234E-2,2.241097E-2,2.3039138E-2,-2.4729983E-3,-8.087295E-3,-2.6095114E-3,2.6319085E-3,3.1297896E-2,-9.736921E-3,-3.8784954E-5,2.2773793E-2,5.3553283E-2,-1.5121584E-2,1.123285E-2],"split_indices":[2,2,2,0,4,4,1,1,2,1,4,4,4,2,0,1,2,1,1,0,0,1,4,2,1,0,4,0,4,4,4,0,0,0,0,0,0,0,0,0,0,0,0,0,0,0,0,0,0,0,0,0,0,0,0,0,0,0,0,0,0,0,0],"split_type":[0,0,0,0,0,0,0,0,0,0,0,0,0,0,0,0,0,0,0,0,0,0,0,0,0,0,0,0,0,0,0,0,0,0,0,0,0,0,0,0,0,0,0,0,0,0,0,0,0,0,0,0,0,0,0,0,0,0,0,0,0,0,0],"sum_hessian":[5.5715723E3,1.4128052E3,4.158767E3,5.564137E2,8.5639154E2,3.467145E3,6.916221E2,1.8526178E2,3.711519E2,5.421106E2,3.1428088E2,1.1111283E3,2.3560166E3,5.334052E2,1.5821683E2,1.34869375E1,1.7177484E2,2.6350296E2,1.07648926E2,3.3717093E2,2.049397E2,9.342123E1,2.2085968E2,5.9723866E1,1.0514044E3,7.375162E2,1.6185005E3,7.31836E1,4.6022162E2,2.3130089E1,1.3508673E2,3.5911577E0,9.895781E0,2.839847E1,1.4337637E2,1.4984577E0,2.6200452E2,6.1457382E1,4.6191544E1,3.9800247E1,2.9737067E2,1.1366394E2,9.127575E1,1.1802782E0,9.2240944E1,9.193897E0,2.1166577E2,2.3162016E1,3.656185E1,1.0397317E3,1.1672766E1,2.2856155E1,7.1466003E2,1.0928748E3,5.2562573E2,5.788982E1,1.5293783E1,1.9863649E2,2.6158514E2,1.4880049E1,8.250039E0,1.8135738E1,1.16951004E2],"tree_param":{"num_deleted":"0","num_feature":"5","num_nodes":"63","size_leaf_vector":"1"}},{"base_weights":[2.0133734E-1,2.9199848E-1,1.217909E-2,4.5036703E-1,2.4185121E-1,5.8353268E-2,-1.4503442E-1,2.608018E-1,4.853205E-1,3.103703E-1,2.1356562E-1,-1.63517E-1,8.0740295E-2,-2.0218053E-1,5.7356663E-2,2.074643E-1,5.187163E-1,6.2241185E-1,4.410016E-1,7.348949E-2,3.4150448E-1,9.745188E-2,2.775119E-1,-2.0875734E-1,1.5636952E-1,4.0450055E-2,1.5492761E-1,-9.0281546E-2,-3.0118248E-1,3.634802E-1,-4.30127E-2,2.4728408E-2,6.509079E-3,3.2333534E-2,-2.2891054E-2,2.4073958E-2,3.6243748E-2,3.358533E-2,1.9602323E-2,7.920632E-3,-2.1524591E-2,2.3180759E-2,1.49599435E-2,-2.4307707E-2,5.3315237E-3,-4.124908E-3,1.4385466E-2,