{"learner":{"attributes":{"scikit_learn":"{\"_estimator_type\": \"classifier\"}"},"feature_names":["rsi","trend_signal","volatility","momentum_24h","qqq_mom"],"feature_types":["float","float","float","float","float"],"gradient_booster":{"model":{"cats":{"enc":[],"feature_segments":[],"sorted_idx":[]},"gbtree_model_param":{"num_parallel_tree":"1","num_trees":"900"},"iteration_indptr":[0,3,6,9,12,15,18,21,24,27,30,33,36,39,42,45,48,51,54,57,60,63,66,69,72,75,78,81,84,87,90,93,96,99,102,105,108,111,114,117,120,123,126,129,132,135,138,141,144,147,150,153,156,159,162,165,168,171,174,177,180,183,186,189,192,195,198,201,204,207,210,213,216,219,222,225,228,231,234,237,240,243,246,249,252,255,258,261,264,267,270,273,276,279,282,285,288,291,294,297,300,303,306,309,312,315,318,321,324,327,330,333,336,339,342,345,348,351,354,357,360,363,366,369,372,375,378,381,384,387,390,393,396,399,402,405,408,411,414,417,420,423,426,429,432,435,438,441,444,447,450,453,456,459,462,465,468,471,474,477,480,483,486,489,492,495,498,501,504,507,510,513,516,519,522,525,528,531,534,537,540,543,546,549,552,555,558,561,564,567,570,573,576,579,582,585,588,591,594,597,600,603,606,609,612,615,618,621,624,627,630,633,636,639,642,645,648,651,654,657,660,663,666,669,672,675,678,681,684,687,690,693,696,699,702,705,708,711,714,717,720,723,726,729,732,735,738,741,744,747,750,753,756,759,762,765,768,771,774,777,780,783,786,789,792,795,798,801,804,807,810,813,816,819,822,825,828,831,834,837,840,843,846,849,852,855,858,861,864,867,870,873,876,879,882,885,888,891,894,897,900],"tree_info":[0,1,2,0,1,2,0,1,2,0,1,2,0,1,2,0,1,2,0,1,2,0,1,2,0,1,2,0,1,2,0,1,2,0,1,2,0,1,2,0,1,2,0,1,2,0,1,2,0,1,2,0,1,2,0,1,2,0,1,2,0,1,2,0,1,2,0,1,2,0,1,2,0,1,2,0,1,2,0,1,2,0,1,2,0,1,2,0,1,2,0,1,2,0,1,2,0,1,2,0,1,2,0,1,2,0,1,2,0,1,2,0,1,2,0,1,2,0,1,2,0,1,2,0,1,2,0,1,2,0,1,2,0,1,2,0,1,2,0,1,2,0,1,2,0,1,2,0,1,2,0,1,2,0,1,2,0,1,2,0,1,2,0,1,2,0,1,2,0,1,2,0,1,2,0,1,2,0,1,2,0,1,2,0,1,2,0,1,2,0,1,2,0,1,2,0,1,2,0,1,2,0,1,2,0,1,2,0,1,2,0,1,2,0,1,2,0,1,2,0,1,2,0,1,2,0,1,2,0,1,2,0,1,2,0,1,2,0,1,2,0,1,2,0,1,2,0,1,2,0,1,2,0,1,2,0,1,2,0,1,2,0,1,2,0,1,2,0,1,2,0,1,2,0,1,2,0,1,2,0,1,2,0,1,2,0,1,2,0,1,2,0,1,2,0,1,2,0,1,2,0,1,2,0,1,2,0,1,2,0,1,2,0,1,2,0,1,2,0,1,2,0,1,2,0,1,2,0,1,2,0,1,2,0,1,2,0,1,2,0,1,2,0,1,2,0,1,2,0,1,2,0,1,2,0,1,2,0,1,2,0,1,2,0,1,2,0,1,2,0,1,2,0,1,2,0,1,2,0,1,2,0,1,2,0,1,2,0,1,2,0,1,2,0,1,2,0,1,2,0,1,2,0,1,2,0,1,2,0,1,2,0,1,2,0,1,2,0,1,2,0,1,2,0,1,2,0,1,2,0,1,2,0,1,2,0,1,2,0,1,2,0,1,2,0,1,2,0,1,2,0,1,2,0,1,2,0,1,2,0,1,2,0,1,2,0,1,2,0,1,2,0,1,2,0,1,2,0,1,2,0,1,2,0,1,2,0,1,2,0,1,2,0,1,2,0,1,2,0,1,2,0,1,2,0,1,2,0,1,2,0,1,2,0,1,2,0,1,2,0,1,2,0,1,2,0,1,2,0,1,2,0,1,2,0,1,2,0,1,2,0,1,2,0,1,2,0,1,2,0,1,2,0,1,2,0,1,2,0,1,2,0,1,2,0,1,2,0,1,2,0,1,2,0,1,2,0,1,2,0,1,2,0,1,2,0,1,2,0,1,2,0,1,2,0,1,2,0,1,2,0,1,2,0,1,2,0,1,2,0,1,2,0,1,2,0,1,2,0,1,2,0,1,2,0,1,2,0,1,2,0,1,2,0,1,2,0,1,2,0,1,2,0,1,2,0,1,2,0,1,2,0,1,2,0,1,2,0,1,2,0,1,2,0,1,2,0,1,2,0,1,2,0,1,2,0,1,2,0,1,2,0,1,2,0,1,2,0,1,2,0,1,2,0,1,2,0,1,2,0,1,2,0,1,2,0,1,2,0,1,2,0,1,2,0,1,2,0,1,2,0,1,2,0,1,2,0,1,2,0,1,2,0,1,2,0,1,2,0,1,2,0,1,2,0,1,2,0,1,2,0,1,2,0,1,2,0,1,2,0,1,2,0,1,2,0,1,2,0,1,2,0,1,2,0,1,2,0,1,2,0,1,2,0,1,2,0,1,2,0,1,2,0,1,2,0,1,2,0,1,2,0,1,2,0,1,2,0,1,2,0,1,2,0,1,2,0,1,2,0,1,2,0,1,2,0,1,2,0,1,2,0,1,2,0,1,2,0,1,2,0,1,2,0,1,2,0,1,2,0,1,2,0,1,2,0,1,2,0,1,2,0,1,2,0,1,2,0,1,2,0,1,2,0,1,2,0,1,2,0,1,2,0,1,2,0,1,2,0,1,2,0,1,2,0,1,2,0,1,2],"trees":[{"base_weights":[2.828457E-1,4.0760472E-1,2.4946151E-2,5.8137894E-1,3.3389413E-1,8.075896E-2,-1.8044525E-1,8.202835E-1,5.2929723E-1,1.5403748E-1,3.5851324E-1,-1.3327715E-1,1.1186983E-1,-4.758215E-1,-1.324399E-1,6.672614E-1,1.002583E0,4.7286215E-1,6.852463E-1,4.7456935E-2,3.0758032E-1,7.609533E-2,3.6612636E-1,1.1788263E-1,-2.2214435E-1,7.5593404E-2,2.0888151E-1,-2.950094E-1,-3.823686E-2,-1.8820718E-1,6.048082E-2,-3.2325133E-4,3.398232E-2,-4.360063E-3,5.0909515E-2,3.347507E-2,2.102139E-2,3.5101518E-2,-2.30259E-2,6.6320198E-3,-1.1952578E-2,-1.9221189E-2,1.774706E-2,9.750398E-3,-1.5152778E-2,2.3410145E-2,1.6598476E-2,-7.141725E-3,2.0290544E-2,-1.701838E-2,1.0196022E-3,1.0732117E-2,1.5784057E-3,1.5975842E-2,5.369074E-3,-9.328316E-3,-2.6692046E-2,-4.0756855E-3,-1.3772226E-2,3.175095E-2,2.2247306E-5],"categories":[],"categories_nodes":[],"categories_segments":[],"categories_sizes":[],"default_left":[0,0,0,0,0,0,0,0,0,0,0,0,0,0,0,0,0,0,0,0,0,0,0,0,0,0,0,0,0,0,0,0,0,0,0,0,0,0,0,0,0,0,0,0,0,0,0,0,0,0,0,0,0,0,0,0,0,0,0,0,0],"id":0,"left_children":[1,3,5,7,9,11,13,15,17,19,21,23,25,27,29,31,33,35,37,39,41,43,45,47,49,51,53,55,-1,57,59,-1,-1,-1,-1,-1,-1,-1,-1,-1,-1,-1,-1,-1,-1,-1,-1,-1,-1,-1,-1,-1,-1,-1,-1,-1,-1,-1,-1,-1,-1],"loss_changes":[2.1757465E2,5.818457E1,2.5301283E1,1.6439056E1,1.4125397E1,1.15693865E1,6.624731E0,6.0510864E0,9.499573E0,6.3241425E0,6.0271606E0,4.951426E0,5.3177567E0,3.1987448E0,4.3911643E0,1.1221352E0,1.924736E0,8.202347E0,5.984207E0,5.640619E0,5.331891E0,3.448899E0,9.404907E0,4.4363074E0,4.690489E0,6.755404E0,4.591234E0,9.8680234E-1,0E0,2.9192066E0,3.174646E0,0E0,0E0,0E0,0E0,0E0,0E0,0E0,0E0,0E0,0E0,0E0,0E0,0E0,0E0,0E0,0E0,0E0,0E0,0E0,0E0,0E0,0E0,0E0,0E0,0E0,0E0,0E0,0E0,0E0,0E0],"parents":[2147483647,0,0,1,1,2,2,3,3,4,4,5,5,6,6,7,7,8,8,9,9,10,10,11,11,12,12,13,13,14,14,15,15,16,16,17,17,18,18,19,19,20,20,21,21,22,22,23,23,24,24,25,25,26,26,27,27,29,29,30,30],"right_children":[2,4,6,8,10,12,14,16,18,20,22,24,26,28,30,32,34,36,38,40,42,44,46,48,50,52,54,56,-1,58,60,-1,-1,-1,-1,-1,-1,-1,-1,-1,-1,-1,-1,-1,-1,-1,-1,-1,-1,-1,-1,-1,-1,-1,-1,-1,-1,-1,-1,-1,-1],"split_conditions":[5.0701117E-3,2.7273013E-3,8.049124E-3,1.5434752E-3,-1.5534437E-2,-2.6547179E-2,-5.5180926E-2,1.4057372E-3,1.9349858E-5,4.3971282E-3,-1.568016E-2,5.809645E-3,7.0021157E-3,-2.268257E-3,5.1848073E-3,-7.82645E-3,-5.087201E-3,0E0,2.227969E-2,4.0695528E-3,-3.5536394E-2,-1.8298777E-2,0E0,-3.41463E-2,7.5891605E-3,-7.893166E-3,1.2136104E-2,-4.6798047E-2,-3.823686E-2,-5.5268323E-3,-2.53753E-2,-3.2325133E-4,3.398232E-2,-4.360063E-3,5.0909515E-2,3.347507E-2,2.102139E-2,3.5101518E-2,-2.30259E-2,6.6320198E-3,-1.1952578E-2,-1.9221189E-2,1.774706E-2,9.750398E-3,-1.5152778E-2,2.3410145E-2,1.6598476E-2,-7.141725E-3,2.0290544E-2,-1.701838E-2,1.0196022E-3,1.0732117E-2,1.5784057E-3,1.5975842E-2,5.369074E-3,-9.328316E-3,-2.6692046E-2,-4.0756855E-3,-1.3772226E-2,3.175095E-2,2.2247306E-5],"split_indices":[2,2,2,2,1,1,3,3,4,2,4,2,4,4,4,3,4,4,1,2,1,4,4,3,2,4,4,1,0,4,3,0,0,0,0,0,0,0,0,0,0,0,0,0,0,0,0,0,0,0,0,0,0,0,0,0,0,0,0,0,0],"split_type":[0,0,0,0,0,0,0,0,0,0,0,0,0,0,0,0,0,0,0,0,0,0,0,0,0,0,0,0,0,0,0,0,0,0,0,0,0,0,0,0,0,0,0,0,0,0,0,0,0,0,0,0,0,0,0,0,0,0,0,0,0],"sum_hessian":[6.761479E3,4.556628E3,2.204851E3,1.3550897E3,3.201538E3,1.7342065E3,4.706444E2,2.3989857E2,1.1151912E3,3.8634268E2,2.8151953E3,2.1966617E2,1.5145404E3,6.4551025E1,4.0609338E2,1.3295584E2,1.0694274E2,8.218212E2,2.9336993E2,2.2881892E2,1.5752376E2,7.41855E1,2.7410098E3,5.732516E1,1.62341E2,1.1036298E3,4.109106E2,4.0946545E1,2.3604479E1,3.1504752E2,9.1045845E1,2.4086204E0,1.3054723E2,1.4451722E0,1.0549757E2,1.7053032E2,6.512909E2,2.8951614E2,3.8537924E0,1.7679272E2,5.20262E1,9.634481E0,1.4788928E2,5.6843437E1,1.7342066E1,6.8404816E2,2.0569617E3,3.0348616E1,2.6976547E1,1.0886964E2,5.347137E1,2.644665E2,8.391633E2,1.9557997E2,2.1533066E2,2.9385168E1,1.1561378E1,1.4259032E2,1.7245721E2,7.707585E0,8.3338264E1],"tree_param":{"num_deleted":"0","num_feature":"5","num_nodes":"61","size_leaf_vector":"1"}},{"base_weights":[-1.3823882E-1,-2.3857285E-1,4.746313E-2,-3.2131946E-1,-2.0929894E-1,5.063187E-1,2.1395715E-2,-3.3572075E-1,-2.5494648E-2,-1.6688919E-1,-3.078647E-1,1.8548654E-2,5.66485E-1,4.5933264E-1,1.1312956E-2,-4.1132843E-1,-2.967949E-1,-2.4027546E-1,2.9248667E-1,-1.7310725E-1,5.5992514E-1,4.3330237E-1,-3.1882975E-1,-2.7619908E-2,2.700463E-1,8.030932E-1,3.9446777E-1,7.146573E-2,8.717656E-1,6.0005244E-2,-4.3065947E-2,-2.8991152E-2,-1.576051E-2,4.11695E-3,-1.5874285E-2,3.424432E-2,-2.0394195E-2,4.688202E-2,-1.2742776E-3,-1.2956581E-2,-7.0274547E-3,-2.7619908E-2,4.376449E-2,-7.134234E-3,4.4190265E-2,-1.6661342E-2,2.5789181E-3,3.4586E-2,-2.6745975E-2,2.2244304E-2,5.301891E-2,-1.7237145E-3,2.3530621E-2,1.918159E-2,-3.118651E-2,-8.196824E-3,4.9723547E-2,-7.4966014E-3,4.2426945E-3,-2.3807352E-2,-1.4603212E-3],"categories":[],"categories_nodes":[],"categories_segments":[],"categories_sizes":[],"default_left":[0,0,0,0,0,0,0,0,0,0,0,0,0,0,0,0,0,0,0,0,0,0,0,0,0,0,0,0,0,0,0,0,0,0,0,0,0,0,0,0,0,0,0,0,0,0,0,0,0,0,0,0,0,0,0,0,0,0,0,0,0],"id":1,"left_children":[1,3,5,7,9,11,13,15,17,19,21,23,25,27,29,31,33,35,37,39,41,43,45,-1,47,49,51,53,55,57,59,-1,-1,-1,-1,-1,-1,-1,-1,-1,-1,-1,-1,-1,-1,-1,-1,-1,-1,-1,-1,-1,-1,-1,-1,-1,-1,-1,-1,-1,-1],"loss_changes":[1.09704475E2,9.191681E0,2.4700247E1,4.238945E0,1.17631E1,3.2474003E0,8.631426E0,2.6757584E0,3.305149E0,9.037445E0,7.0384216E0,2.0479689E0,3.7039661E0,6.97526E0,5.067717E0,5.007843E0,4.9772186E0,4.748195E0,4.0336027E0,5.4594345E0,6.4528913E0,3.448035E0,4.4821396E0,0E0,3.713955E0,3.2719574E0,1.9487267E0,5.3958416E0,2.8613377E0,5.279747E0,5.413849E0,0E0,0E0,0E0,0E0,0E0,0E0,0E0,0E0,0E0,0E0,0E0,0E0,0E0,0E0,0E0,0E0,0E0,0E0,0E0,0E0,0E0,0E0,0E0,0E0,0E0,0E0,0E0,0E0,0E0,0E0],"parents":[2147483647,0,0,1,1,2,2,3,3,4,4,5,5,6,6,7,7,8,8,9,9,10,10,11,11,12,12,13,13,14,14,15,15,16,16,17,17,18,18,19,19,20,20,21,21,22,22,24,24,25,25,26,26,27,27,28,28,29,29,30,30],"right_children":[2,4,6,8,10,12,14,16,18,20,22,24,26,28,30,32,34,36,38,40,42,44,46,-1,48,50,52,54,56,58,60,-1,-1,-1,-1,-1,-1,-1,-1,-1,-1,-1,-1,-1,-1,-1,-1,-1,-1,-1,-1,-1,-1,-1,-1,-1,-1,-1,-1,-1,-1],"split_conditions":[4.932585E-3,2.552921E-3,-4.3714248E-2,7.6064835E1,4.1158167E-3,6.284156E-3,-3.004428E-2,-1.7757651E-3,1.2800909E-2,4.0501407E-3,2.150493E1,-9.010904E-3,-5.634048E-2,7.4135E-3,1.7595598E-4,1.8119747E-3,3.7957108E1,1.3969608E-3,7.825796E1,-2.6909963E-3,2.9495026E-3,1.1999511E-2,2.5642246E-2,-2.7619908E-2,6.1100763E-3,-1.8736253E-2,1.7272793E1,5.1788162E1,-3.920713E-2,-1.8736253E-2,4.7557548E-4,-2.8991152E-2,-1.576051E-2,4.11695E-3,-1.5874285E-2,3.424432E-2,-2.0394195E-2,4.688202E-2,-1.2742776E-3,-1.2956581E-2,-7.0274547E-3,-2.7619908E-2,4.376449E-2,-7.134234E-3,4.4190265E-2,-1.6661342E-2,2.5789181E-3,3.4586E-2,-2.6745975E-2,2.2244304E-2,5.301891E-2,-1.7237145E-3,2.3530621E-2,1.918159E-2,-3.118651E-2,-8.196824E-3,4.9723547E-2,-7.4966014E-3,4.2426945E-3,-2.3807352E-2,-1.4603212E-3],"split_indices":[2,2,1,0,4,2,4,1,1,4,0,4,1,2,4,2,0,2,0,4,2,4,4,0,2,4,0,0,1,4,4,0,0,0,0,0,0,0,0,0,0,0,0,0,0,0,0,0,0,0,0,0,0,0,0,0,0,0,0,0,0],"split_type":[0,0,0,0,0,0,0,0,0,0,0,0,0,0,0,0,0,0,0,0,0,0,0,0,0,0,0,0,0,0,0,0,0,0,0,0,0,0,0,0,0,0,0,0,0,0,0,0,0,0,0,0,0,0,0,0,0,0,0,0,0],"sum_hessian":[5.8862812E3,3.8213408E3,2.0649404E3,9.960102E2,2.8253306E3,1.1001213E2,1.9549282E3,9.4964496E2,4.6365265E1,1.9772678E3,8.4806287E2,1.222357E1,9.778856E1,4.2993244E1,1.9119349E3,3.1949884E2,6.301461E2,2.7819159E1,1.8546106E1,1.9612507E3,1.6017092E1,1.1802068E1,8.362608E2,3.3720193E0,8.851551E0,3.9621227E1,5.816733E1,2.276113E1,2.0232117E1,1.0086553E3,9.0327966E2,1.1422715E2,2.0527167E2,3.2455685E1,5.976904E2,3.7935216E0,2.4025637E1,5.4795313E0,1.3066575E1,5.365726E2,1.4246781E3,3.3720193E0,1.2645072E1,5.4795313E0,6.322536E0,8.050696E2,3.119118E1,5.901034E0,2.950517E0,1.7703102E1,2.1918125E1,8.851551E0,4.931578E1,1.6017092E1,6.7440386E0,2.107512E0,1.8124603E1,1.06218605E2,9.0243665E2,2.6976154E1,8.763035E2],"tree_param":{"num_deleted":"0","num_feature":"5","num_nodes":"61","size_leaf_vector":"1"}},{"base_weights":[-1.8352713E-1,-3.6387643E-1,-1.3504982E-1,-6.152176E-1,-3.37492E-1,-1.6039874E-1,6.66135E-3,-3.5343963E-1,-3.3439618E-2,-2.1118924E-2,-3.5724977E-1,-1.627487E-1,6.2472546E-1,-8.112568E-2,2.885305E-1,-4.4651866E-1,7.533817E-2,-4.0539062E-1,2.1208365E-1,-4.2603937E-1,-2.9833007E-1,-3.981183E-2,-1.6967176E-1,6.527324E-2,-2.5498652E-1,2.0538245E-1,-1.2577334E-1,-2.3292428E-1,3.7723416E-1,-3.228349E-2,-4.5776144E-3,4.7198385E-2,-2.5251886E-2,-2.6993628E-3,-3.2986682E-2,2.6167154E-2,-2.4220783E-3,-3.9002565E-3,-2.2461535E-2,-1.7996635E-2,-8.9952685E-3,-6.298692E-3,9.734058E-3,-8.3776545E-3,-2.6531536E-2,3.4070562E-3,-2.5251886E-2,2.0489976E-2,-2.4514846E-3,-1.9237017E-3,-9.829253E-3,2.4878787E-2,-2.770105E-2,1.4002065E-2,3.8476925E-2],"categories":[],"categories_nodes":[],"categories_segments":[],"categories_sizes":[],"default_left":[0,0,0,0,0,0,0,0,0,0,0,0,0,0,0,0,0,0,0,0,0,0,0,0,0,0,0,0,0,0,0,0,0,0,0,0,0,0,0,0,0,0,0,0,0,0,0,0,0,0,0,0,0,0,0],"id":2,"left_children":[1,3,5,7,9,11,13,15,-1,17,19,21,23,25,27,29,31,33,35,37,39,41,43,-1,45,47,49,51,53,-1,-1,-1,-1,-1,-1,-1,-1,-1,-1,-1,-1,-1,-1,-1,-1,-1,-1,-1,-1,-1,-1,-1,-1,-1,-1],"loss_changes":[5.067987E1,7.9401245E0,1.643441E1,1.3835869E0,6.956726E0,7.261383E0,1.7223358E1,9.014585E-1,0E0,6.049901E0,4.1228943E0,3.2868423E0,7.3915854E0,6.8158903E0,7.7335596E0,1.2140706E0,2.8632824E0,2.24155E0,3.4371428E0,3.8508224E0,4.08004E0,4.2192163E0,2.7125473E0,0E0,5.174775E-1,3.7616982E0,2.835226E0,6.05724E0,5.1853485E0,0E0,0E0,0E0,0E0,0E0,0E0,0E0,0E0,0E0,0E0,0E0,0E0,0E0,0E0,0E0,0E0,0E0,0E0,0E0,0E0,0E0,0E0,0E0,0E0,0E0,0E0],"parents":[2147483647,0,0,1,1,2,2,3,3,4,4,5,5,6,6,7,7,9,9,10,10,11,11,12,12,13,13,14,14,15,15,16,16,17,17,18,18,19,19,20,20,21,21,22,22,24,24,25,25,26,26,27,27,28,28],"right_children":[2,4,6,8,10,12,14,16,-1,18,20,22,24,26,28,30,32,34,36,38,40,42,44,-1,46,48,50,52,54,-1,-1,-1,-1,-1,-1,-1,-1,-1,-1,-1,-1,-1,-1,-1,-1,-1,-1,-1,-1,-1,-1,-1,-1,-1,-1],"split_conditions":[2.788609E-3,1.3244695E-3,7.1127443E-3,-1.5318583E-3,-1.0083537E-2,7.345299E-2,1.7558644E-2,4.8700825E1,-3.3439618E-2,-1.5806451E-2,2.1515694E-3,-2.5753705E-2,8.528132E1,7.4135E-3,7.4135E-3,1.1476519E-3,-5.079527E-3,-1.5534437E-2,2.3062218E-3,-6.5918057E-3,6.018553E-3,6.1100763E-3,7.047535E-3,6.527324E-2,8.23477E-2,-1.4341724E-2,4.1458965E1,5.874601E1,1.1670706E-2,-3.228349E-2,-4.5776144E-3,4.7198385E-2,-2.5251886E-2,-2.6993628E-3,-3.2986682E-2,2.6167154E-2,-2.4220783E-3,-3.9002565E-3,-2.2461535E-2,-1.7996635E-2,-8.9952685E-3,-6.298692E-3,9.734058E-3,-8.3776545E-3,-2.6531536E-2,3.4070562E-3,-2.5251886E-2,2.0489976E-2,-2.4514846E-3,-1.9237017E-3,-9.829253E-3,2.4878787E-2,-2.770105E-2,1.4002065E-2,3.8476925E-2],"split_indices":[2,2,2,3,1,3,1,0,0,3,2,1,0,2,2,2,1,1,2,1,3,2,2,0,3,3,0,0,2,0,0,0,0,0,0,0,0,0,0,0,0,0,0,0,0,0,0,0,0,0,0,0,0,0,0],"split_type":[0,0,0,0,0,0,0,0,0,0,0,0,0,0,0,0,0,0,0,0,0,0,0,0,0,0,0,0,0,0,0,0,0,0,0,0,0,0,0,0,0,0,0,0,0,0,0,0,0,0,0,0,0,0,0],"sum_hessian":[5.8013423E3,1.2276459E3,4.5736963E3,1.1450836E2,1.1131375E3,3.879593E3,6.941032E2,2.0744268E1,9.376409E1,6.555189E1,1.0475856E3,3.8688062E3,1.078702E1,5.298086E2,1.642946E2,1.70103E1,3.7339683E0,2.4478237E1,4.107365E1,4.8043726E2,5.671483E2,2.0661292E2,3.662193E3,5.8083954E0,4.9786243E0,7.09454E1,4.5886322E2,2.3648466E1,1.4064615E2,1.0372134E1,6.638166E0,1.2446561E0,2.4893122E0,1.078702E1,1.3691217E1,1.8254957E1,2.2818695E1,3.0286633E1,4.5015063E2,3.717373E2,1.9541101E2,1.5143317E2,5.5179756E1,3.6422786E3,1.9914497E1,2.4893122E0,2.4893122E0,3.8999226E1,3.1946173E1,2.0619803E2,2.5266519E2,7.0530515E0,1.6595415E1,1.14093475E2,2.6552664E1],"tree_param":{"num_deleted":"0","num_feature":"5","num_nodes":"55","size_leaf_vector":"1"}},{"base_weights":[2.6553002E-1,-1.662977E-1,2.9736504E-1,-3.1379965E-1,-1.5984174E-2,3.0818066E-1,-1.2503357E-1,-1.8496114E-1,-4.1958153E-1,1.4726253E-1,-1.6765481E-1,1.5839416E-1,3.332539E-1,-1.7818257E-1,3.761748E-1,-2.0878452E-1,3.6206144E-1,-4.882853E-1,-1.1009521E-1,5.6753236E-1,8.6099856E-2,-2.1985886E-1,1.3512851E-1,-3.3417043E-1,1.8100652E-1,3.6730683E-1,2.5230154E-1,1.4803796E-1,-2.358178E-1,-4.2064688E-1,6.33371E-1,-7.4613676E-3,-2.3520788E-2,-4.3519977E-3,2.8891364E-2,-2.9945105E-2,-1.6493276E-2,1.1411527E-2,-2.2606986E-2,4.1597705E-2,8.1472825E-3,-1.5128756E-2,7.556447E-3,-5.9784255E-3,-2.6349409E-2,3.9777614E-2,-1.3633166E-2,-2.1601573E-2,3.3155445E-2,-1.3977691E-2,9.57769E-3,4.0939334E-3,1.8877259E-2,1.8720943E-2,1.1631693E-2,-2.0677341E-2,1.8514771E-2,-3.0053794E-2,-8.9687435E-3,-2.7731795E-2,-4.410618E-3,-1.0441437E-2,4.0662576E-2],"categories":[],"categories_nodes":[],"categories_segments":[],"categories_sizes":[],"default_left":[0,0,0,0,0,0,0,0,0,0,0,0,0,0,0,0,0,0,0,0,0,0,0,0,0,0,0,0,0,0,0,0,0,0,0,0,0,0,0,0,0,0,0,0,0,0,0,0,0,0,0,0,0,0,0,0,0,0,0,0,0,0,0],"id":3,"left_children":[1,3,5,7,9,11,13,15,17,19,21,23,25,27,29,31,33,35,37,39,41,43,45,47,49,51,53,55,57,59,61,-1,-1,-1,-1,-1,-1,-1,-1,-1,-1,-1,-1,-1,-1,-1,-1,-1,-1,-1,-1,-1,-1,-1,-1,-1,-1,-1,-1,-1,-1,-1,-1],"loss_changes":[9.303909E1,1.0306364E1,2.88208E1,3.1207714E0,5.7539625E0,2.3018677E1,4.2759695E0,1.4777789E0,2.669632E0,2.8294818E0,1.9330974E0,9.892899E0,1.4411133E1,2.7335525E0,3.4367888E0,1.5462813E0,5.2085465E-1,1.6340885E0,2.945227E0,1.3672109E0,2.546196E0,3.11238E0,5.152897E0,4.1022987E0,4.156702E0,1.0785492E1,3.6622467E0,2.9197233E0,2.414905E0,1.4598209E-1,2.0020132E0,0E0,0E0,0E0,0E0,0E0,0E0,0E0,0E0,0E0,0E0,0E0,0E0,0E0,0E0,0E0,0E0,0E0,0E0,0E0,0E0,0E0,0E0,0E0,0E0,0E0,0E0,0E0,0E0,0E0,0E0,0E0,0E0],"parents":[2147483647,0,0,1,1,2,2,3,3,4,4,5,5,6,6,7,7,8,8,9,9,10,10,11,11,12,12,13,13,14,14,15,15,16,16,17,17,18,18,19,19,20,20,21,21,22,22,23,23,24,24,25,25,26,26,27,27,28,28,29,29,30,30],"right_children":[2,4,6,8,10,12,14,16,18,20,22,24,26,28,30,32,34,36,38,40,42,44,46,48,50,52,54,56,58,60,62,-1,-1,-1,-1,-1,-1,-1,-1,-1,-1,-1,-1,-1,-1,-1,-1,-1,-1,-1,-1,-1,-1,-1,-1,-1,-1,-1,-1,-1,-1,-1,-1],"split_conditions":[-2.5753705E-2,-3.5536394E-2,4.2641338E-2,-7.3654167E-3,3.0580656E1,-1.5057558E-2,8.690421E1,-3.129508E-2,2.588706E-3,-2.3676157E-2,4.958241E1,-2.3676157E-2,1.1391334E-2,6.538087E1,5.8293488E-2,3.9747982E1,2.0895473E1,-4.6873488E-2,7.890526E-3,-3.8668558E-2,-1.4239831E-2,4.1458965E1,5.2465706E1,6.2741653E1,-4.3068685E-2,-1.568016E-2,-3.5107257E-3,5.5978218E1,4.5951385E-2,4.8461925E-2,-6.9666025E-4,-7.4613676E-3,-2.3520788E-2,-4.3519977E-3,2.8891364E-2,-2.9945105E-2,-1.6493276E-2,1.1411527E-2,-2.2606986E-2,4.1597705E-2,8.1472825E-3,-1.5128756E-2,7.556447E-3,-5.9784255E-3,-2.6349409E-2,3.9777614E-2,-1.3633166E-2,-2.1601573E-2,3.3155445E-2,-1.3977691E-2,9.57769E-3,4.0939334E-3,1.8877259E-2,1.8720943E-2,1.1631693E-2,-2.0677341E-2,1.8514771E-2,-3.0053794E-2,-8.9687435E-3,-2.7731795E-2,-4.410618E-3,-1.0441437E-2,4.0662576E-2],"split_indices":[1,1,1,4,0,3,0,3,4,4,0,4,1,0,3,0,0,3,4,3,4,0,0,0,3,4,4,0,3,1,4,0,0,0,0,0,0,0,0,0,0,0,0,0,0,0,0,0,0,0,0,0,0,0,0,0,0,0,0,0,0,0,0],"split_type":[0,0,0,0,0,0,0,0,0,0,0,0,0,0,0,0,0,0,0,0,0,0,0,0,0,0,0,0,0,0,0,0,0,0,0,0,0,0,0,0,0,0,0,0,0,0,0,0,0,0,0,0,0,0,0,0,0,0,0,0,0,0,0],"sum_hessian":[6.763233E3,4.6407288E2,6.29916E3,2.3367807E2,2.3039482E2,6.142159E3,1.5700087E2,1.0659622E2,1.2708184E2,1.1097686E2,1.1941796E2,8.817766E2,5.2603823E3,1.4253111E2,1.4469753E1,1.0274011E2,3.8561094E0,1.0352278E2,2.355906E1,1.3047047E1,9.792981E1,1.0209009E2,1.7327873E1,3.8098557E1,8.4367804E2,3.7002993E3,1.5600833E3,2.1165268E1,1.21365845E2,3.3757632E0,1.109399E1,8.4968445E1,1.7771662E1,1.4450141E0,2.4110951E0,5.9321213E1,4.4201572E1,1.2011196E1,1.1547863E1,7.2514696E0,5.795577E0,1.351264E1,8.4417175E1,7.800693E1,2.408316E1,6.251926E0,1.1075947E1,3.5210236E1,2.88832E0,1.831746E1,8.253606E2,1.2844566E2,3.5718535E3,2.1390466E2,1.3461786E3,5.757344E0,1.5407924E1,1.4952802E1,1.0641304E2,1.929617E0,1.4461461E0,1.9241582E0,9.169832E0],"tree_param":{"num_deleted":"0","num_feature":"5","num_nodes":"63","size_leaf_vector":"1"}},{"base_weights":[-1.3091466E-1,-2.2852618E-1,5.957698E-2,-3.1960368E-1,-2.010897E-1,1.4797331E-1,-4.788892E-2,-5.1355414E-2,-3.3437982E-1,-1.6731982E-1,-2.8041685E-1,5.281128E-1,1.2344709E-1,5.8312714E-1,-6.7592375E-2,-1.1382729E-1,5.2790154E-2,-3.4027228E-1,2.5687826E-1,-1.7382906E-1,5.950089E-1,4.010891E-1,-2.930819E-1,-3.1495266E-2,7.2960395E-1,5.487638E-1,1.02998234E-1,8.5790265E-1,-1.9915223E-2,-5.1305765E-1,-5.5165716E-2,-2.2201017E-2,4.304741E-3,-1.0941164E-2,-1.8407142E-2,3.2932814E-2,-1.6016059E-2,-1.320138E-2,-6.7184875E-3,-2.6386091E-2,4.231297E-2,-9.429841E-3,4.8086416E-2,-1.5213236E-2,4.35189E-3,-2.7633643E-2,6.094241E-3,6.694674E-2,3.1319845E-2,3.647099E-2,2.9394042E-3,-5.0696445E-4,8.555136E-3,5.7819984E-3,5.467574E-2,-1.7775109E-2,3.8815867E-2,-3.3481666E-4,-3.1158298E-2,-1.1986251E-4,-7.4169645E-3],"categories":[],"categories_nodes":[],"categories_segments":[],"categories_sizes":[],"default_left":[0,0,0,0,0,0,0,0,0,0,0,0,0,0,0,0,0,0,0,0,0,0,0,0,0,0,0,0,0,0,0,0,0,0,0,0,0,0,0,0,0,0,0,0,0,0,0,0,0,0,0,0,0,0,0,0,0,0,0,0,0],"id":4,"left_children":[1,3,5,7,9,11,13,15,17,19,21,23,25,27,29,31,-1,33,35,37,39,41,43,45,47,49,51,53,55,57,59,-1,-1,-1,-1,-1,-1,-1,-1,-1,-1,-1,-1,-1,-1,-1,-1,-1,-1,-1,-1,-1,-1,-1,-1,-1,-1,-1,-1,-1,-1],"loss_changes":[1.09412865E2,9.6571045E0,1.8950933E1,3.5459137E0,7.969368E0,1.0138418E1,1.1238796E1,3.447976E0,3.0551224E0,1.0530884E1,7.8169556E0,7.4677696E0,8.896283E0,4.553746E0,4.811986E0,3.1042554E0,0E0,2.7757416E0,2.2924058E0,7.383129E0,5.5289774E0,5.7014904E0,3.7516174E0,1.541268E0,2.216835E0,4.116578E0,7.5789566E0,3.1668587E0,2.8270922E0,1.3121576E0,4.187511E0,0E0,0E0,0E0,0E0,0E0,0E0,0E0,0E0,0E0,0E0,0E0,0E0,0E0,0E0,0E0,0E0,0E0,0E0,0E0,0E0,0E0,0E0,0E0,0E0,0E0,0E0,0E0,0E0,0E0,0E0],"parents":[2147483647,0,0,1,1,2,2,3,3,4,4,5,5,6,6,7,7,8,8,9,9,10,10,11,11,12,12,13,13,14,14,15,15,17,17,18,18,19,19,20,20,21,21,22,22,23,23,24,24,25,25,26,26,27,27,28,28,29,29,30,30],"right_children":[2,4,6,8,10,12,14,16,18,20,22,24,26,28,30,32,-1,34,36,38,40,42,44,46,48,50,52,54,56,58,60,-1,-1,-1,-1,-1,-1,-1,-1,-1,-1,-1,-1,-1,-1,-1,-1,-1,-1,-1,-1,-1,-1,-1,-1,-1,-1,-1,-1,-1,-1],"split_conditions":[5.019656E-3,2.4622132E-3,1.9349858E-5,-3.187805E-3,4.1158167E-3,-5.073956E-2,-4.1382905E-2,4.913154E-3,8.323712E1,4.0501407E-3,2.150493E1,7.800175E-3,-3.004428E-2,8.469689E-3,3.5434318E-4,-7.893166E-3,5.2790154E-2,4.0149765E1,2.3062218E-3,-2.0694365E-3,2.9495026E-3,1.1999511E-2,2.7160985E-2,-3.004428E-2,1.7272793E1,5.3789932E1,-7.678337E-3,-5.073956E-2,1.1245813E-2,1.7595598E-4,6.111868E1,-2.2201017E-2,4.304741E-3,-1.0941164E-2,-1.8407142E-2,3.2932814E-2,-1.6016059E-2,-1.320138E-2,-6.7184875E-3,-2.6386091E-2,4.231297E-2,-9.429841E-3,4.8086416E-2,-1.5213236E-2,4.35189E-3,-2.7633643E-2,6.094241E-3,6.694674E-2,3.1319845E-2,3.647099E-2,2.9394042E-3,-5.0696445E-4,8.555136E-3,5.7819984E-3,5.467574E-2,-1.7775109E-2,3.8815867E-2,-3.3481666E-4,-3.1158298E-2,-1.1986251E-4,-7.4169645E-3],"split_indices":[2,2,4,4,4,1,1,1,0,4,0,2,4,2,4,4,0,0,2,4,2,4,4,4,0,0,4,1,2,4,0,0,0,0,0,0,0,0,0,0,0,0,0,0,0,0,0,0,0,0,0,0,0,0,0,0,0,0,0,0,0],"split_type":[0,0,0,0,0,0,0,0,0,0,0,0,0,0,0,0,0,0,0,0,0,0,0,0,0,0,0,0,0,0,0,0,0,0,0,0,0,0,0,0,0,0,0,0,0,0,0,0,0,0,0,0,0,0,0,0,0,0,0,0,0],"sum_hessian":[5.882522E3,3.8893472E3,1.9931747E3,8.979345E2,2.9914126E3,1.0934104E3,8.997643E2,4.711301E1,8.508215E2,2.1003813E3,8.9103125E2,6.502564E1,1.0283848E3,2.6378557E1,8.7338574E2,4.5445896E1,1.6671138E0,8.428462E2,7.975291E0,2.0833643E3,1.7017118E1,1.5697201E1,8.7533405E2,1.743805E1,4.7587593E1,4.5990486E1,9.823943E2,1.7831179E1,8.547378E0,2.2609348E1,8.507764E2,1.667853E1,2.8767366E1,1.5896965E2,6.838765E2,4.618979E0,3.3563116E0,6.32307E2,1.4510574E3,2.9105842E0,1.4106535E1,7.97384E0,7.723361E0,8.505122E2,2.482183E1,3.3731093E0,1.40649395E1,5.1585283E0,4.2429066E1,3.3244442E1,1.2746045E1,3.6946967E2,6.129246E2,4.655499E0,1.317568E1,6.402462E0,2.144916E0,4.2277555E0,1.8381592E1,5.438148E2,3.0696155E2],"tree_param":{"num_deleted":"0","num_feature":"5","num_nodes":"61","size_leaf_vector":"1"}},{"base_weights":[-1.790232E-1,-3.2427478E-1,-1.2786765E-1,-4.2264634E-1,-2.588418E-1,-1.5805708E-1,3.015605E-2,-2.8956306E-1,-4.9661154E-1,-2.667337E-1,2.3914956E-1,-2.2686674E-1,-1.2485854E-1,-5.5491254E-2,3.0456197E-1,-1.873785E-1,-5.8012027E-1,-6.2443066E-1,-4.377403E-1,-2.1839689E-1,-3.5225487E-1,6.1592985E-2,-6.525802E-2,1.4319935E-1,-2.4719262E-1,-3.4310047E-2,-1.4721401E-1,1.935687E-1,-9.437316E-2,-2.9665324E-1,4.035139E-1,-6.3935197E-3,-2.2214008E-2,-2.9709363E-2,-7.1840114E-3,-3.161167E-2,3.2879144E-3,-3.37617E-2,-2.0416193E-2,-1.4050484E-2,-4.301066E-3,-2.907986E-2,-1.4219716E-2,4.7445815E-2,-2.1120667E-2,3.0289907E-2,-7.839045E-3,-6.013174E-4,-1.32894395E-2,4.552936E-3,-4.9408693E-3,-8.314728E-3,-4.420901E-3,-1.1656573E-2,1.4697084E-2,-9.149726E-3,-3.691403E-4,1.9736327E-2,-2.3309207E-2,-7.659896E-3,2.494896E-2],"categories":[],"categories_nodes":[],"categories_segments":[],"categories_sizes":[],"default_left":[0,0,0,0,0,0,0,0,0,0,0,0,0,0,0,0,0,0,0,0,0,0,0,0,0,0,0,0,0,0,0,0,0,0,0,0,0,0,0,0,0,0,0,0,0,0,0,0,0,0,0,0,0,0,0,0,0,0,0,0,0],"id":5,"left_children":[1,3,5,7,9,11,13,15,17,19,21,23,25,27,29,31,33,35,37,39,41,-1,43,45,47,49,51,53,55,57,59,-1,-1,-1,-1,-1,-1,-1,-1,-1,-1,-1,-1,-1,-1,-1,-1,-1,-1,-1,-1,-1,-1,-1,-1,-1,-1,-1,-1,-1,-1],"loss_changes":[4.2548325E1,9.495773E0,2.0235054E1,5.708229E0,3.5958939E0,8.105316E0,1.6022532E1,6.268141E0,2.591591E0,3.5822678E0,4.476543E0,8.742443E0,4.8612404E0,5.052706E0,9.766424E0,2.3949313E0,2.547741E-1,6.755142E-1,1.5687408E0,4.6850624E0,4.7839355E0,0E0,4.77764E0,8.546329E0,4.7970505E0,3.8690588E0,2.1478882E0,3.0892072E0,3.4704666E0,2.9376118E0,7.498932E0,0E0,0E0,0E0,0E0,0E0,0E0,0E0,0E0,0E0,0E0,0E0,0E0,0E0,0E0,0E0,0E0,0E0,0E0,0E0,0E0,0E0,0E0,0E0,0E0,0E0,0E0,0E0,0E0,0E0,0E0],"parents":[2147483647,0,0,1,1,2,2,3,3,4,4,5,5,6,6,7,7,8,8,9,9,10,10,11,11,12,12,13,13,14,14,15,15,16,16,17,17,18,18,19,19,20,20,22,22,23,23,24,24,25,25,26,26,27,27,28,28,29,29,30,30],"right_children":[2,4,6,8,10,12,14,16,18,20,22,24,26,28,30,32,34,36,38,40,42,-1,44,46,48,50,52,54,56,58,60,-1,-1,-1,-1,-1,-1,-1,-1,-1,-1,-1,-1,-1,-1,-1,-1,-1,-1,-1,-1,-1,-1,-1,-1,-1,-1,-1,-1,-1,-1],"split_conditions":[3.0441622E-3,2.1515694E-3,7.1127443E-3,-9.387149E-4,1.8000184E-2,0E0,1.7558644E-2,3.8535814E-4,1.5434752E-3,3.5434318E-4,-4.6307477E-3,-2.4210623E-2,-9.793922E-3,7.4135E-3,-9.863962E-3,1.9923681E-3,2.041821E-3,9.3476195E-3,-8.550674E-5,5.6530596E-3,2.453855E-3,6.1592985E-2,2.282567E-3,4.626005E-3,-2.5753705E-2,4.7557548E-4,1.0448405E-2,-3.0859979E-2,-2.6909963E-3,-1.7706327E-2,7.4135E-3,-6.3935197E-3,-2.2214008E-2,-2.9709363E-2,-7.1840114E-3,-3.161167E-2,3.2879144E-3,-3.37617E-2,-2.0416193E-2,-1.4050484E-2,-4.301066E-3,-2.907986E-2,-1.4219716E-2,4.7445815E-2,-2.1120667E-2,3.0289907E-2,-7.839045E-3,-6.013174E-4,-1.32894395E-2,4.552936E-3,-4.9408693E-3,-8.314728E-3,-4.420901E-3,-1.1656573E-2,1.4697084E-2,-9.149726E-3,-3.691403E-4,1.9736327E-2,-2.3309207E-2,-7.659896E-3,2.494896E-2],"split_indices":[2,2,2,1,4,4,1,3,2,4,3,4,1,2,4,2,2,1,4,3,4,0,2,2,1,4,4,1,4,4,2,0,0,0,0,0,0,0,0,0,0,0,0,0,0,0,0,0,0,0,0,0,0,0,0,0,0,0,0,0,0],"split_type":[0,0,0,0,0,0,0,0,0,0,0,0,0,0,0,0,0,0,0,0,0,0,0,0,0,0,0,0,0,0,0,0,0,0,0,0,0,0,0,0,0,0,0,0,0,0,0,0,0,0,0,0,0,0,0,0,0,0,0,0,0],"sum_hessian":[5.730815E3,1.4912388E3,4.2395767E3,5.935058E2,8.977329E2,3.5595474E3,6.8002905E2,2.1377742E2,3.797284E2,8.8418524E2,1.3547723E1,1.1565552E3,2.4029922E3,5.188758E2,1.6115323E2,1.5937318E2,5.4404232E1,1.1671475E2,2.6301364E2,5.671717E2,3.1701352E2,2.4643693E0,1.1083353E1,5.9901653E1,1.0966534E3,4.7630466E2,1.9266876E3,6.952859E1,4.4934723E2,2.24928E1,1.3866043E2,1.3061546E2,2.8757713E1,5.2355316E1,2.0489166E0,1.1549305E2,1.2217067E0,2.6567408E1,2.3644624E2,3.842847E2,1.8288701E2,7.065536E1,2.4635815E2,2.4550753E0,8.628278E0,2.3162838E1,3.6738815E1,8.048542E1,1.016168E3,1.6167697E2,3.146277E2,1.4532493E3,4.7343832E2,1.29887705E1,5.6539818E1,2.2204027E2,2.2730695E2,4.167713E0,1.8325087E1,2.020851E1,1.1845191E2],"tree_param":{"num_deleted":"0","num_feature":"5","num_nodes":"61","size_leaf_vector":"1"}},{"base_weights":[2.432378E-1,3.628184E-1,-4.6815104E-3,5.2532786E-1,2.9295146E-1,5.2131202E-2,-2.1065104E-1,7.2863483E-1,4.803018E-1,1.5936309E-1,3.1154078E-1,-1.3609855E-1,7.990772E-2,-3.2728803E-1,-1.5074886E-1,5.835389E-1,9.189097E-1,3.123088E-1,5.226435E-1,6.233166E-2,3.1403506E-1,3.023969E-1,5.82436E-1,1.260437E-1,-2.3040834E-1,5.3958213E-1,7.344695E-2,-4.6094403E-1,-2.2613624E-1,4.6443307E-1,-1.6361639E-1,-1.9422363E-2,3.0326847E-2,4.713488E-2,-1.1451135E-2,8.334059E-3,1.9843804E-2,3.5277013E-2,2.3315873E-2,5.552531E-3,-1.2406249E-2,2.6723908E-3,2.2506064E-2,1.6195448E-2,9.918698E-3,1.6184626E-2,3.557499E-2,1.1192853E-2,-1.04808295E-2,-1.6090684E-2,-1.682345E-3,3.269296E-2,-6.103686E-3,-1.6416218E-2,4.0397393E-3,-2.5056908E-2,8.7651955E-3,-4.6206648E-3,-2.9996527E-2,-2.4758983E-2,4.0846135E-2,2.84714E-2,-8.73084E-3],"categories":[],"categories_nodes":[],"categories_segments":[],"categories_sizes":[],"default_left":[0,0,0,0,0,0,0,0,0,0,0,0,0,0,0,0,0,0,0,0,0,0,0,0,0,0,0,0,0,0,0,0,0,0,0,0,0,0,0,0,0,0,0,0,0,0,0,0,0,0,0,0,0,0,0,0,0,0,0,0,0,0,0],"id":6,"left_children":[1,3,5,7,9,11,13,15,17,19,21,23,25,27,29,31,33,35,37,39,41,43,45,47,49,51,53,55,57,59,61,-1,-1,-1,-1,-1,-1,-1,-1,-1,-1,-1,-1,-1,-1,-1,-1,-1,-1,-1,-1,-1,-1,-1,-1,-1,-1,-1,-1,-1,-1,-1,-1],"loss_changes":[2.016174E2,5.1936523E1,2.59169E1,1.2265564E1,7.9235535E0,9.087496E0,3.2961464E0,6.308914E0,7.8830566E0,5.8973722E0,6.802826E0,5.5572257E0,4.455017E0,2.080782E0,2.594891E0,3.4413643E0,3.0975647E0,2.7688427E0,8.963165E0,3.7107596E0,5.3568554E0,6.039276E0,2.8057861E0,2.010563E0,2.9531069E0,1.6539855E0,4.43587E0,1.8437271E0,4.6410904E0,2.697886E0,2.6187944E0,0E0,0E0,0E0,0E0,0E0,0E0,0E0,0E0,0E0,0E0,0E0,0E0,0E0,0E0,0E0,0E0,0E0,0E0,0E0,0E0,0E0,0E0,0E0,0E0,0E0,0E0,0E0,0E0,0E0,0E0,0E0,0E0],"parents":[2147483647,0,0,1,1,2,2,3,3,4,4,5,5,6,6,7,7,8,8,9,9,10,10,11,11,12,12,13,13,14,14,15,15,16,16,17,17,18,18,19,19,20,20,21,21,22,22,23,23,24,24,25,25,26,26,27,27,28,28,29,29,30,30],"right_children":[2,4,6,8,10,12,14,16,18,20,22,24,26,28,30,32,34,36,38,40,42,44,46,48,50,52,54,56,58,60,62,-1,-1,-1,-1,-1,-1,-1,-1,-1,-1,-1,-1,-1,-1,-1,-1,-1,-1,-1,-1,-1,-1,-1,-1,-1,-1,-1,-1,-1,-1,-1,-1],"split_conditions":[5.0701117E-3,2.7273013E-3,8.049124E-3,1.5434752E-3,-1.5534437E-2,-2.6547179E-2,-2.5954032E-2,1.7368398E-3,3.8852398E1,4.3971282E-3,3.7340917E-2,5.809645E-3,2.0895473E1,3.4011017E1,2.150493E1,2.150493E1,8.323712E1,-9.948103E-3,-1.4895992E-3,4.166321E-3,-2.5753705E-2,6.725071E1,4.2170864E-3,3.4011017E1,7.5891605E-3,-8.27382E-3,-3.998865E-2,1.4723209E-2,-2.2494856E-2,-1.6213445E-2,-3.1990103E-2,-1.9422363E-2,3.0326847E-2,4.713488E-2,-1.1451135E-2,8.334059E-3,1.9843804E-2,3.5277013E-2,2.3315873E-2,5.552531E-3,-1.2406249E-2,2.6723908E-3,2.2506064E-2,1.6195448E-2,9.918698E-3,1.6184626E-2,3.557499E-2,1.1192853E-2,-1.04808295E-2,-1.6090684E-2,-1.682345E-3,3.269296E-2,-6.103686E-3,-1.6416218E-2,4.0397393E-3,-2.5056908E-2,8.7651955E-3,-4.6206648E-3,-2.9996527E-2,-2.4758983E-2,4.0846135E-2,2.84714E-2,-8.73084E-3],"split_indices":[2,2,2,2,1,1,3,3,0,2,3,2,0,0,0,0,0,3,1,2,1,0,2,0,2,1,3,2,1,3,1,0,0,0,0,0,0,0,0,0,0,0,0,0,0,0,0,0,0,0,0,0,0,0,0,0,0,0,0,0,0,0,0],"split_type":[0,0,0,0,0,0,0,0,0,0,0,0,0,0,0,0,0,0,0,0,0,0,0,0,0,0,0,0,0,0,0,0,0,0,0,0,0,0,0,0,0,0,0,0,0,0,0,0,0,0,0,0,0,0,0,0,0,0,0,0,0,0,0],"sum_hessian":[6.799695E3,4.586833E3,2.2128618E3,1.3771296E3,3.2097036E3,1.7350333E3,4.778285E2,2.4693913E2,1.1301906E3,3.9325174E2,2.816452E3,2.2260867E2,1.5124247E3,1.6061922E2,3.1720926E2,1.4240991E2,1.0452922E2,2.2920045E2,9.0099005E2,2.425157E2,1.5073604E2,2.7265356E3,8.991612E1,5.880859E1,1.6380008E2,1.9818958E1,1.4926057E3,6.766014E1,9.2959076E1,5.78001E0,3.1142926E2,2.9243698E0,1.3948553E2,1.0258226E2,1.9469628E0,8.529342E1,1.4390704E2,2.0942818E2,6.915619E2,2.1017578E2,3.233991E1,5.2190605E1,9.8545425E1,2.2575564E3,4.6897934E2,3.1091911E1,5.882421E1,4.5796352E1,1.3012236E1,1.1140941E2,5.2390675E1,1.6910128E1,2.9088292E0,2.6022825E1,1.4665829E3,6.383952E1,3.820625E0,6.93844E1,2.3574675E1,1.4440211E0,4.335989E0,3.8538308E0,3.0757544E2],"tree_param":{"num_deleted":"0","num_feature":"5","num_nodes":"63","size_leaf_vector":"1"}},{"base_weights":[-1.2043297E-1,-2.1573833E-1,6.319881E-2,-2.9644233E-1,-1.8851167E-1,4.29484E-1,3.6453947E-2,-3.1220457E-1,4.7273625E-2,-1.5229526E-1,-2.7410114E-1,2.425905E-1,5.7801527E-1,1.2128697E-1,-5.5564187E-2,-3.9088362E-1,-2.6873678E-1,-2.96282E-1,2.0299427E-1,-1.5809181E-1,6.0102576E-1,4.4816923E-1,-2.8606686E-1,-4.196398E-1,3.5013792E-1,3.1148E-1,6.960855E-1,8.077652E-2,2.6449442E-1,-4.1490715E-2,-3.385258E-1,-2.85746E-2,-1.4795217E-2,-8.215682E-3,-1.7695136E-2,3.3045527E-2,-2.419732E-2,5.869002E-3,5.1910438E-2,-1.2488574E-2,-6.2241447E-3,-2.4979882E-2,4.2265598E-2,-8.416313E-3,4.4809613E-2,-1.5073796E-2,1.0921112E-2,-5.0121127E-3,-2.9650172E-2,4.368775E-2,9.481196E-3,5.487435E-2,9.413749E-3,1.3106688E-2,4.0330052E-2,1.1952576E-3,1.3343359E-2,1.6222293E-2,-1.5031298E-2,-7.378017E-3,3.7089302E-4,4.648135E-2,-2.0026246E-2],"categories":[],"categories_nodes":[],"categories_segments":[],"categories_sizes":[],"default_left":[0,0,0,0,0,0,0,0,0,0,0,0,0,0,0,0,0,0,0,0,0,0,0,0,0,0,0,0,0,0,0,0,0,0,0,0,0,0,0,0,0,0,0,0,0,0,0,0,0,0,0,0,0,0,0,0,0,0,0,0,0,0,0],"id":7,"left_children":[1,3,5,7,9,11,13,15,17,19,21,23,25,27,29,31,33,35,37,39,41,43,45,47,49,51,53,55,57,59,61,-1,-1,-1,-1,-1,-1,-1,-1,-1,-1,-1,-1,-1,-1,-1,-1,-1,-1,-1,-1,-1,-1,-1,-1,-1,-1,-1,-1,-1,-1,-1,-1],"loss_changes":[1.017834E2,8.356323E0,1.945557E1,5.237549E0,8.840309E0,3.6117764E0,1.4475182E1,3.0477753E0,2.3679836E0,8.896877E0,7.480541E0,4.5323358E0,2.1304035E0,5.575218E0,3.5292227E0,5.420784E0,5.2512703E0,2.8097248E0,2.0431414E0,6.1347885E0,4.616619E0,4.087771E0,6.5760803E0,4.4209063E-1,4.332296E0,2.1860085E0,2.2286396E0,7.967202E0,7.289504E0,4.404155E0,3.6759162E0,0E0,0E0,0E0,0E0,0E0,0E0,0E0,0E0,0E0,0E0,0E0,0E0,0E0,0E0,0E0,0E0,0E0,0E0,0E0,0E0,0E0,0E0,0E0,0E0,0E0,0E0,0E0,0E0,0E0,0E0,0E0,0E0],"parents":[2147483647,0,0,1,1,2,2,3,3,4,4,5,5,6,6,7,7,8,8,9,9,10,10,11,11,12,12,13,13,14,14,15,15,16,16,17,17,18,18,19,19,20,20,21,21,22,22,23,23,24,24,25,25,26,26,27,27,28,28,29,29,30,30],"right_children":[2,4,6,8,10,12,14,16,18,20,22,24,26,28,30,32,34,36,38,40,42,44,46,48,50,52,54,56,58,60,62,-1,-1,-1,-1,-1,-1,-1,-1,-1,-1,-1,-1,-1,-1,-1,-1,-1,-1,-1,-1,-1,-1,-1,-1,-1,-1,-1,-1,-1,-1,-1,-1],"split_conditions":[4.9993903E-3,2.552921E-3,-4.1382905E-2,7.6064835E1,4.1158167E-3,-8.764229E-3,1.9349858E-5,-1.4895992E-3,8.921315E-3,4.0501407E-3,2.150493E1,6.612415E-3,1.9182323E1,0E0,2.5642246E-2,1.8119747E-3,5.4124767E1,1.1476519E-3,2.530467E-3,-2.9950757E-3,2.9495026E-3,1.1999511E-2,2.7160985E-2,1.5697641E1,-6.363798E-2,-7.678337E-3,-2.268257E-3,8.049124E-3,1.2527184E-2,5.6377095E-3,2.3938814E1,-2.85746E-2,-1.4795217E-2,-8.215682E-3,-1.7695136E-2,3.3045527E-2,-2.419732E-2,5.869002E-3,5.1910438E-2,-1.2488574E-2,-6.2241447E-3,-2.4979882E-2,4.2265598E-2,-8.416313E-3,4.4809613E-2,-1.5073796E-2,1.0921112E-2,-5.0121127E-3,-2.9650172E-2,4.368775E-2,9.481196E-3,5.487435E-2,9.413749E-3,1.3106688E-2,4.0330052E-2,1.1952576E-3,1.3343359E-2,1.6222293E-2,-1.5031298E-2,-7.378017E-3,3.7089302E-4,4.648135E-2,-2.0026246E-2],"split_indices":[2,2,1,0,4,4,4,1,1,4,0,2,0,4,4,2,0,2,2,4,2,4,4,0,1,4,4,2,2,2,0,0,0,0,0,0,0,0,0,0,0,0,0,0,0,0,0,0,0,0,0,0,0,0,0,0,0,0,0,0,0,0,0],"split_type":[0,0,0,0,0,0,0,0,0,0,0,0,0,0,0,0,0,0,0,0,0,0,0,0,0,0,0,0,0,0,0,0,0,0,0,0,0,0,0,0,0,0,0,0,0,0,0,0,0,0,0,0,0,0,0,0,0,0,0,0,0,0,0],"sum_hessian":[5.8140522E3,3.827431E3,1.9866212E3,9.630159E2,2.864415E3,1.3416066E2,1.8524606E3,9.208777E2,4.2138245E1,2.0146946E3,8.4972046E2,6.0574463E1,7.3586205E1,9.636956E2,8.8876495E2,3.2486404E2,5.960136E2,1.2861083E1,2.927716E1,2.0000947E3,1.4599914E1,1.3253653E1,8.3646686E2,8.057565E0,5.25169E1,2.3707127E1,4.9879074E1,7.5241644E2,2.1127917E2,8.477477E2,4.1017227E1,1.1023294E2,2.1463112E2,2.6905316E2,3.2696045E2,1.6948155E0,1.1166267E1,2.7589607E1,1.6875532E0,5.348042E2,1.4652905E3,2.4620585E0,1.2137856E1,5.840799E0,7.412854E0,8.120656E2,2.4401247E1,3.3900697E0,4.6674953E0,1.1279207E1,4.123769E1,2.140925E0,2.1566202E1,1.0808844E1,3.9070232E1,5.771588E2,1.7525766E2,1.9140016E2,1.9879013E1,2.668987E2,5.80849E2,1.2595588E0,3.9757668E1],"tree_param":{"num_deleted":"0","num_feature":"5","num_nodes":"63","size_leaf_vector":"1"}},{"base_weights":[-1.6410585E-1,-1.7382503E-1,2.3220548E-1,-4.4572484E-3,-1.869684E-1,3.288771E-1,-3.9931712E-1,-3.102431E-1,4.1164156E-2,1.1057818E-1,-1.92786E-1,5.3980064E-2,2.8320375E-1,-2.6995717E-2,-1.9752356E-1,-9.125119E-2,-4.0777537E-1,-2.5530034E-1,1.1457003E-1,3.8007206E-1,-1.5852553E-1,-2.1314473E-1,-1.02351345E-1,1.2241394E-1,4.4479936E-1,-3.6795264E-1,2.4966275E-2,1.6462183E-2,-2.17249E-2,-2.363666E-2,1.2708331E-2,1.2465382E-3,-1.852907E-2,2.6902882E-2,2.9552567E-3,-1.3378441E-2,2.949405E-2,-3.097852E-2,-3.2845028E-3,-1.2366208E-2,-6.237896E-3,1.9824168E-2,-6.16357E-3,1.4950986E-2,-3.3136127E-3,6.588506E-4,2.9169202E-2,8.540309E-3,-2.9271392E-2],"categories":[],"categories_nodes":[],"categories_segments":[],"categories_sizes":[],"default_left":[0,0,0,0,0,0,0,0,0,0,0,0,0,0,0,0,0,0,0,0,0,0,0,0,0,0,0,0,0,0,0,0,0,0,0,0,0,0,0,0,0,0,0,0,0,0,0,0,0],"id":8,"left_children":[1,3,5,7,9,11,13,15,17,19,21,-1,23,-1,25,27,29,31,33,35,37,39,41,43,45,47,-1,-1,-1,-1,-1,-1,-1,-1,-1,-1,-1,-1,-1,-1,-1,-1,-1,-1,-1,-1,-1,-1,-1],"loss_changes":[2.2093338E1,1.2440323E1,8.524273E0,5.641765E0,8.998932E0,3.8010597E0,4.2396808E-1,1.0841608E0,7.689546E0,7.319231E0,9.344513E0,0E0,2.9143667E0,0E0,1.2830828E0,2.663969E0,1.6696296E0,2.2760696E0,6.611521E0,6.9933143E0,2.1331282E0,1.2511017E1,9.824264E0,1.9743028E0,3.3783665E0,1.0388966E0,0E0,0E0,0E0,0E0,0E0,0E0,0E0,0E0,0E0,0E0,0E0,0E0,0E0,0E0,0E0,0E0,0E0,0E0,0E0,0E0,0E0,0E0,0E0],"parents":[2147483647,0,0,1,1,2,2,3,3,4,4,5,5,6,6,7,7,8,8,9,9,10,10,12,12,14,14,15,15,16,16,17,17,18,18,19,19,20,20,21,21,22,22,23,23,24,24,25,25],"right_children":[2,4,6,8,10,12,14,16,18,20,22,-1,24,-1,26,28,30,32,34,36,38,40,42,44,46,48,-1,-1,-1,-1,-1,-1,-1,-1,-1,-1,-1,-1,-1,-1,-1,-1,-1,-1,-1,-1,-1,-1,-1],"split_conditions":[5.5611324E-2,-2.5753705E-2,8.528132E1,-2.3676157E-2,-2.3676157E-2,4.4318863E1,7.345299E-2,-4.6798047E-2,-4.6798047E-2,-2.899861E-3,7.3656393E-3,5.3980064E-2,6.620448E-2,-2.6995717E-2,7.723737E-3,2.2830956E1,4.6790524E1,1.9182323E1,-1.7706327E-2,-3.0416021E-2,-1.1255168E-2,9.793564E-3,7.723737E-3,7.116323E1,6.9579765E1,-6.9666025E-4,2.4966275E-2,1.6462183E-2,-2.17249E-2,-2.363666E-2,1.2708331E-2,1.2465382E-3,-1.852907E-2,2.6902882E-2,2.9552567E-3,-1.3378441E-2,2.949405E-2,-3.097852E-2,-3.2845028E-3,-1.2366208E-2,-6.237896E-3,1.9824168E-2,-6.16357E-3,1.4950986E-2,-3.3136127E-3,6.588506E-4,2.9169202E-2,8.540309E-3,-2.9271392E-2],"split_indices":[3,1,0,4,4,0,3,1,1,1,4,0,3,0,4,0,0,0,4,3,3,3,4,0,0,4,0,0,0,0,0,0,0,0,0,0,0,0,0,0,0,0,0,0,0,0,0,0,0],"split_type":[0,0,0,0,0,0,0,0,0,0,0,0,0,0,0,0,0,0,0,0,0,0,0,0,0,0,0,0,0,0,0,0,0,0,0,0,0,0,0,0,0,0,0,0,0,0,0,0,0],"sum_hessian":[5.7243364E3,5.5878604E3,1.3647595E2,4.0250116E2,5.1853594E3,1.1877366E2,1.7702286E1,5.150163E1,3.509995E2,9.9093765E1,5.0862656E3,5.5134006E0,1.1326026E2,9.445601E0,8.256684E0,1.6465895E1,3.5035732E1,6.9168915E1,2.818306E2,4.930496E1,4.9788807E1,4.1505356E3,9.357302E2,5.7652637E1,5.5607624E1,7.013389E0,1.243295E0,7.418567E0,9.047327E0,3.2165134E1,2.8705966E0,2.0389301E1,4.8779613E1,3.1629675E1,2.5020093E2,1.1997043E1,3.730792E1,7.3940744E0,4.2394733E1,2.9918E3,1.1587352E3,3.694043E1,8.987898E2,2.947758E1,2.8175056E1,1.3781178E1,4.1826443E1,2.0785987E0,4.9347906E0],"tree_param":{"num_deleted":"0","num_feature":"5","num_nodes":"49","size_leaf_vector":"1"}},{"base_weights":[2.4221748E-1,-1.5453357E-1,2.7122086E-1,-3.110036E-1,-6.263408E-2,2.3524206E-2,2.820769E-1,-1.6767983E-1,-4.5429927E-1,6.2042158E-2,-1.7011121E-1,6.898035E-1,-2.8210275E-3,3.1258532E-1,1.8103196E-1,-1.9246593E-1,2.1026686E-2,-4.8557788E-1,1.7026947E-1,-1.7604104E-4,5.385431E-1,-1.3026437E-2,-3.490344E-1,-1.0196958E-3,9.1283613E-1,-3.3310335E-2,5.1319426E-1,2.0368658E-1,3.5248628E-1,2.0994933E-1,-4.564915E-2,-8.000365E-3,-2.3931062E-2,-1.2666185E-2,-2.6628634E-2,-1.0043349E-2,2.4129368E-2,1.5424191E-2,-3.4585074E-3,1.4187365E-2,4.4085167E-2,-6.2002386E-3,1.1907845E-2,-3.1981748E-2,-1.3584599E-2,1.523476E-2,5.0221402E-2,-1.1618718E-2,9.056058E-4,-3.2222535E-2,4.5936182E-2,1.1107064E-2,4.6378287E-4,1.8094352E-2,4.9328287E-3,2.3120517E-2,9.466986E-3,-4.032289E-3,2.0471256E-2],"categories":[],"categories_nodes":[],"categories_segments":[],"categories_sizes":[],"default_left":[0,0,0,0,0,0,0,0,0,0,0,0,0,0,0,0,0,0,0,0,0,0,0,0,0,0,0,0,0,0,0,0,0,0,0,0,0,0,0,0,0,0,0,0,0,0,0,0,0,0,0,0,0,0,0,0,0,0,0],"id":9,"left_children":[1,3,5,7,9,11,13,15,17,19,21,23,25,27,29,31,-1,33,35,37,39,41,43,-1,45,47,49,51,53,55,57,-1,-1,-1,-1,-1,-1,-1,-1,-1,-1,-1,-1,-1,-1,-1,-1,-1,-1,-1,-1,-1,-1,-1,-1,-1,-1,-1,-1],"loss_changes":[7.88696E1,6.700037E0,1.7160065E1,3.469717E0,3.9721456E0,4.7262826E0,1.8797028E1,1.3625243E0,1.757864E0,4.0796337E0,4.4654775E0,1.6408253E0,4.1061068E0,2.0333923E1,9.322357E0,7.132387E-1,0E0,7.592201E-1,6.5678966E-1,2.6345572E0,1.1393981E0,2.4192672E0,1.4964657E0,0E0,1.2929487E-1,2.5258381E0,7.4277487E0,4.5245285E0,8.162048E0,6.469181E0,2.6059463E0,0E0,0E0,0E0,0E0,0E0,0E0,0E0,0E0,0E0,0E0,0E0,0E0,0E0,0E0,0E0,0E0,0E0,0E0,0E0,0E0,0E0,0E0,0E0,0E0,0E0,0E0,0E0,0E0],"parents":[2147483647,0,0,1,1,2,2,3,3,4,4,5,5,6,6,7,7,8,8,9,9,10,10,11,11,12,12,13,13,14,14,15,15,17,17,18,18,19,19,20,20,21,21,22,22,24,24,25,25,26,26,27,27,28,28,29,29,30,30],"right_children":[2,4,6,8,10,12,14,16,18,20,22,24,26,28,30,32,-1,34,36,38,40,42,44,-1,46,48,50,52,54,56,58,-1,-1,-1,-1,-1,-1,-1,-1,-1,-1,-1,-1,-1,-1,-1,-1,-1,-1,-1,-1,-1,-1,-1,-1,-1,-1,-1,-1],"split_conditions":[-2.5753705E-2,-4.6873488E-2,-1.568016E-2,-9.010904E-3,-6.9666025E-4,2.150493E1,1.6493848E-2,-1.1148584E-2,4.612687E1,-3.5107257E-3,3.1868584E1,-3.3188496E-2,3.4216408E-2,-9.683083E-3,4.2641338E-2,4.5385315E1,2.1026686E-2,1.5697641E1,-5.1921856E-2,-4.3068685E-2,-2.794525E-2,-3.0416021E-2,3.4273605E1,-1.0196958E-3,1.8307894E1,-2.3865854E-2,-2.444336E-3,9.026489E-3,1.8303905E-2,-7.3654167E-3,8.9711685E1,-8.000365E-3,-2.3931062E-2,-1.2666185E-2,-2.6628634E-2,-1.0043349E-2,2.4129368E-2,1.5424191E-2,-3.4585074E-3,1.4187365E-2,4.4085167E-2,-6.2002386E-3,1.1907845E-2,-3.1981748E-2,-1.3584599E-2,1.523476E-2,5.0221402E-2,-1.1618718E-2,9.056058E-4,-3.2222535E-2,4.5936182E-2,1.1107064E-2,4.6378287E-4,1.8094352E-2,4.9328287E-3,2.3120517E-2,9.466986E-3,-4.032289E-3,2.0471256E-2],"split_indices":[1,3,4,4,4,0,3,4,0,4,0,3,3,3,1,0,0,0,3,3,1,3,0,0,0,3,1,4,1,4,0,0,0,0,0,0,0,0,0,0,0,0,0,0,0,0,0,0,0,0,0,0,0,0,0,0,0,0,0],"split_type":[0,0,0,0,0,0,0,0,0,0,0,0,0,0,0,0,0,0,0,0,0,0,0,0,0,0,0,0,0,0,0,0,0,0,0,0,0,0,0,0,0,0,0,0,0,0,0,0,0,0,0,0,0,0,0,0,0,0,0],"sum_hessian":[6.8493364E3,4.6629782E2,6.3830386E3,1.7165321E2,2.9464462E2,2.681426E2,6.114896E3,8.690317E1,8.4750046E1,1.3660362E2,1.58041E2,9.241402E0,2.5890118E2,4.695188E3,1.419708E3,8.4034904E1,2.8682606E0,8.0920074E1,3.8299673E0,1.2171107E2,1.489256E1,8.47276E1,7.33134E1,2.4257395E0,6.8156624E0,2.4534044E2,1.3560752E1,1.2606616E3,3.4345261E3,1.2591536E3,1.6055449E2,7.687422E1,7.160686E0,1.4693495E1,6.6226585E1,1.9132488E0,1.9167184E0,2.1601406E1,1.00109665E2,9.595089E0,5.2974706E0,5.9115417E1,2.561218E1,1.388243E1,5.9430965E1,1.4584806E0,5.3571815E0,4.964362E1,1.9569682E2,3.3651795E0,1.0195573E1,1.1512365E3,1.09425156E2,3.311459E3,1.2306719E2,9.341492E1,1.1657386E3,1.498531E2,1.0701387E1],"tree_param":{"num_deleted":"0","num_feature":"5","num_nodes":"59","size_leaf_vector":"1"}},{"base_weights":[-1.22209154E-1,-2.1254262E-1,5.0196636E-2,-1.2558216E-1,-2.3767167E-1,3.3982667E-1,6.5552653E-3,7.226779E-1,-1.3142641E-1,-3.2894582E-1,-2.1010542E-1,2.2435676E-1,5.8468825E-1,7.856185E-2,-6.803142E-2,5.3083938E-2,-4.4145593E-3,-1.4715974E-1,4.310009E-2,-5.0843334E-1,-2.9214144E-1,-2.145567E-1,4.1271365E-1,3.795487E-1,-5.0987184E-2,6.522281E-1,-1.409343E-1,3.9687988E-1,5.569296E-2,-3.649757E-1,-4.4598036E-2,-2.7185908E-2,-7.0646214E-3,-2.6519662E-2,6.530482E-3,-2.9830232E-2,-1.115335E-2,-1.1203207E-2,-1.956869E-2,-9.1445595E-3,-1.4786425E-2,7.222718E-4,5.9123594E-2,-7.3204003E-3,2.3217311E-2,3.4651756E-2,-8.19643E-3,4.509773E-2,2.4503917E-2,2.0436846E-2,-2.8826926E-2,6.271397E-2,1.2547033E-2,3.5633256E-3,-1.0806139E-2,-6.8105715E-3,-2.7279163E-2,2.2250626E-2,-2.7315966E-3],"categories":[],"categories_nodes":[],"categories_segments":[],"categories_sizes":[],"default_left":[0,0,0,0,0,0,0,0,0,0,0,0,0,0,0,0,0,0,0,0,0,0,0,0,0,0,0,0,0,0,0,0,0,0,0,0,0,0,0,0,0,0,0,0,0,0,0,0,0,0,0,0,0,0,0,0,0,0,0],"id":10,"left_children":[1,3,5,7,9,11,13,15,17,19,21,23,25,27,29,-1,-1,31,33,35,37,39,41,43,45,47,49,51,53,55,57,-1,-1,-1,-1,-1,-1,-1,-1,-1,-1,-1,-1,-1,-1,-1,-1,-1,-1,-1,-1,-1,-1,-1,-1,-1,-1,-1,-1],"loss_changes":[9.1096954E1,8.35701E0,2.542464E1,4.3709908E0,7.419815E0,7.3162823E0,9.40005E0,1.7586131E0,2.3609076E0,4.4005966E0,6.433815E0,7.7372866E0,4.1981277E0,6.460205E0,5.966304E0,0E0,0E0,1.7538624E0,3.6667438E0,2.781313E0,3.7886887E0,5.7888184E0,5.067026E0,5.225027E0,5.658546E0,2.6690063E0,2.140843E0,7.1332903E0,3.5371819E0,2.5181503E0,3.9447267E0,0E0,0E0,0E0,0E0,0E0,0E0,0E0,0E0,0E0,0E0,0E0,0E0,0E0,0E0,0E0,0E0,0E0,0E0,0E0,0E0,0E0,0E0,0E0,0E0,0E0,0E0,0E0,0E0],"parents":[2147483647,0,0,1,1,2,2,3,3,4,4,5,5,6,6,7,7,8,8,9,9,10,10,11,11,12,12,13,13,14,14,17,17,18,18,19,19,20,20,21,21,22,22,23,23,24,24,25,25,26,26,27,27,28,28,29,29,30,30],"right_children":[2,4,6,8,10,12,14,16,18,20,22,24,26,28,30,-1,-1,32,34,36,38,40,42,44,46,48,50,52,54,56,58,-1,-1,-1,-1,-1,-1,-1,-1,-1,-1,-1,-1,-1,-1,-1,-1,-1,-1,-1,-1,-1,-1,-1,-1,-1,-1,-1,-1],"split_conditions":[4.9993903E-3,-8.953739E-3,-3.743731E-2,-3.920713E-2,-1.4895992E-3,8.633047E-3,1.9349858E-5,-1.674141E-3,-9.387149E-4,1.8757598E-3,2.7160985E-2,7.5891605E-3,1.9349858E-5,-3.0416021E-2,8.7589154E-4,5.3083938E-2,-4.4145593E-3,1.8119747E-3,2.507364E-3,-2.7263563E-3,-1.8631758E-3,4.1158167E-3,2.227969E-2,-6.0257297E-2,-5.634048E-2,1.0283645E-2,-5.5180926E-2,-3.004428E-2,1.1245813E-2,5.1147244E-3,9.779294E-4,-2.7185908E-2,-7.0646214E-3,-2.6519662E-2,6.530482E-3,-2.9830232E-2,-1.115335E-2,-1.1203207E-2,-1.956869E-2,-9.1445595E-3,-1.4786425E-2,7.222718E-4,5.9123594E-2,-7.3204003E-3,2.3217311E-2,3.4651756E-2,-8.19643E-3,4.509773E-2,2.4503917E-2,2.0436846E-2,-2.8826926E-2,6.271397E-2,1.2547033E-2,3.5633256E-3,-1.0806139E-2,-6.8105715E-3,-2.7279163E-2,2.2250626E-2,-2.7315966E-3],"split_indices":[2,3,3,1,1,2,4,4,1,2,4,2,4,3,4,0,0,2,2,1,3,4,1,3,1,2,3,4,2,3,4,0,0,0,0,0,0,0,0,0,0,0,0,0,0,0,0,0,0,0,0,0,0,0,0,0,0,0,0],"split_type":[0,0,0,0,0,0,0,0,0,0,0,0,0,0,0,0,0,0,0,0,0,0,0,0,0,0,0,0,0,0,0,0,0,0,0,0,0,0,0,0,0,0,0,0,0,0,0,0,0,0,0,0,0,0,0,0,0,0,0],"sum_hessian":[5.8476074E3,3.8369646E3,2.0106427E3,8.615436E2,2.975421E3,2.624018E2,1.748241E3,5.055875E0,8.5648773E2,6.876437E2,2.2877773E3,1.7961609E2,8.278571E1,8.894782E2,8.587627E2,3.347434E0,1.7084408E0,7.858052E2,7.0682526E1,1.14829384E2,5.728143E2,2.2721936E3,1.5583827E1,1.1462923E2,6.498686E1,7.582883E1,6.956889E0,5.852326E1,8.3095496E2,6.174642E1,7.970163E2,1.0120427E1,7.7568475E2,8.687574E0,6.1994953E1,8.6891396E1,2.793799E1,3.416719E2,2.3114238E2,1.6368888E3,6.353047E2,1.0941519E1,4.6423087E0,1.5814317E1,9.881491E1,7.8878655E0,5.7098995E1,2.8056543E1,4.7772285E1,3.1030078E0,3.8538811E0,7.407765E0,5.1115494E1,7.8662354E2,4.4331417E1,2.8015337E1,3.3731087E1,1.51351595E1,7.8188116E2],"tree_param":{"num_deleted":"0","num_feature":"5","num_nodes":"59","size_leaf_vector":"1"}},{"base_weights":[-1.6326523E-1,-3.0610234E-1,-1.1389608E-1,-5.112515E-1,-2.7407694E-1,-1.5103745E-1,-5.2316682E-3,7.72444E-1,-5.482918E-1,-2.820199E-1,3.0117175E-1,-2.4117297E-1,-1.07677326E-1,-2.5215628E-2,3.1417957E-1,-2.353565E-3,5.459972E-2,-2.3441942E-1,-3.1172862E-2,-2.4571177E-1,-3.6579248E-1,5.986956E-1,-2.7995467E-2,2.4724443E-1,-2.69334E-1,-2.1964712E-2,-1.3411897E-1,-3.3326447E-2,6.3394797E-1,1.8972626E-1,7.794889E-1,2.5960026E-2,-1.3648823E-2,-1.7737458E-2,-1.0371424E-2,-2.8249864E-2,-1.4659527E-2,4.2019136E-2,-1.2340772E-2,2.8320814E-2,-5.0535607E-3,-1.6474074E-2,-9.162714E-3,-3.2185183E-3,8.667274E-3,2.5994803E-3,-7.2047315E-3,2.3602609E-2,-2.2059209E-3,3.926607E-2,-1.977456E-2,5.8855426E-2,5.711503E-3,4.5308985E-2,-3.0559103E-3],"categories":[],"categories_nodes":[],"categories_segments":[],"categories_sizes":[],"default_left":[0,0,0,0,0,0,0,0,0,0,0,0,0,0,0,0,0,0,0,0,0,0,0,0,0,0,0,0,0,0,0,0,0,0,0,0,0,0,0,0,0,0,0,0,0,0,0,0,0,0,0,0,0,0,0],"id":11,"left_children":[1,3,5,7,9,11,13,15,17,19,21,23,25,27,29,-1,-1,31,-1,33,35,37,-1,39,41,43,45,47,49,51,53,-1,-1,-1,-1,-1,-1,-1,-1,-1,-1,-1,-1,-1,-1,-1,-1,-1,-1,-1,-1,-1,-1,-1,-1],"loss_changes":[4.0016266E1,9.440506E0,1.7040432E1,9.731106E0,5.8580933E0,1.2272453E1,6.880007E0,1.5977736E0,4.3563156E0,3.702423E0,4.8678136E0,1.4113586E1,4.816469E0,5.4430814E0,3.5273824E0,0E0,0E0,1.2597206E0,0E0,3.5699997E0,5.257004E0,2.993143E0,0E0,6.3046827E0,4.9414825E0,4.173302E0,3.0242863E0,5.4899244E0,2.239286E0,3.696704E0,1.4474173E0,0E0,0E0,0E0,0E0,0E0,0E0,0E0,0E0,0E0,0E0,0E0,0E0,0E0,0E0,0E0,0E0,0E0,0E0,0E0,0E0,0E0,0E0,0E0,0E0],"parents":[2147483647,0,0,1,1,2,2,3,3,4,4,5,5,6,6,7,7,8,8,9,9,10,10,11,11,12,12,13,13,14,14,17,17,19,19,20,20,21,21,23,23,24,24,25,25,26,26,27,27,28,28,29,29,30,30],"right_children":[2,4,6,8,10,12,14,16,18,20,22,24,26,28,30,-1,-1,32,-1,34,36,38,-1,40,42,44,46,48,50,52,54,-1,-1,-1,-1,-1,-1,-1,-1,-1,-1,-1,-1,-1,-1,-1,-1,-1,-1,-1,-1,-1,-1,-1,-1],"split_conditions":[3.0441622E-3,1.5434752E-3,6.14909E-3,2.9920893E1,1.8000184E-2,0E0,6.620448E-2,1.2417122E-3,-1.5318583E-3,1.9349858E-5,2.8670363E-3,-2.4210623E-2,-9.683083E-3,2.5642246E-2,1.2527184E-2,-2.353565E-3,5.459972E-2,-7.1567935E-3,-3.1172862E-2,0E0,2.453855E-3,6.3800182E1,-2.7995467E-2,4.7554765E-3,-9.0456085E-4,8.108589E-3,3.4011017E1,6.19021E-3,1.2527184E-2,-5.3696376E-3,1.4723209E-2,2.5960026E-2,-1.3648823E-2,-1.7737458E-2,-1.0371424E-2,-2.8249864E-2,-1.4659527E-2,4.2019136E-2,-1.2340772E-2,2.8320814E-2,-5.0535607E-3,-1.6474074E-2,-9.162714E-3,-3.2185183E-3,8.667274E-3,2.5994803E-3,-7.2047315E-3,2.3602609E-2,-2.2059209E-3,3.926607E-2,-1.977456E-2,5.8855426E-2,5.711503E-3,4.5308985E-2,-3.0559103E-3],"split_indices":[2,2,2,0,4,4,3,2,3,4,2,4,3,4,2,0,0,3,0,4,4,0,0,2,3,4,0,2,2,4,2,0,0,0,0,0,0,0,0,0,0,0,0,0,0,0,0,0,0,0,0,0,0,0,0],"split_type":[0,0,0,0,0,0,0,0,0,0,0,0,0,0,0,0,0,0,0,0,0,0,0,0,0,0,0,0,0,0,0,0,0,0,0,0,0,0,0,0,0,0,0,0,0,0,0,0,0,0,0,0,0,0,0],"sum_hessian":[5.6786045E3,1.4572427E3,4.221362E3,1.9474927E2,1.2624934E3,3.145756E3,1.075606E3,4.9049683E0,1.898443E2,1.2458011E3,1.6692183E1,1.02027734E3,2.1254788E3,1.0131399E3,6.2466022E1,1.6152394E0,3.2897289E0,3.7475304E1,1.5236899E2,8.71859E2,3.739422E2,1.2632181E1,4.0600004E0,5.5195827E1,9.6508154E2,5.0153745E2,1.6239414E3,1.0017629E3,1.13769655E1,5.039495E1,1.2071074E1,1.2172709E0,3.6258034E1,2.2441628E2,6.474427E2,9.807168E1,2.7587054E2,9.82873E0,2.8034515E0,2.8476143E1,2.6719683E1,5.6645105E2,3.9863046E2,4.1262E2,8.8917435E1,8.240278E1,1.5415386E3,2.0050993E1,9.817119E2,1.0125241E1,1.2517242E0,2.5431082E0,4.785184E1,1.0422288E1,1.6487849E0],"tree_param":{"num_deleted":"0","num_feature":"5","num_nodes":"55","size_leaf_vector":"1"}},{"base_weights":[2.2749037E-1,3.3870763E-1,7.0080126E-4,5.072522E-1,2.851323E-1,6.7487955E-2,-1.3813086E-1,2.303014E-1,5.6984854E-1,3.767406E-1,2.4751166E-1,-1.6035044E-1,9.6828066E-2,-4.0349585E-1,-1.0009647E-1,1.7259273E-1,4.876677E-1,7.574733E-1,5.136924E-1,-9.585832E-2,3.9768332E-1,1.22967646E-1,3.1351006E-1,-2.695345E-1,5.259078E-2,2.3603775E-1,7.052489E-2,-2.9026347E-1,-6.101119E-1,2.8880024E-2,-1.5808393E-1,2.8868934E-2,6.427904E-3,2.9921724E-2,-2.2921376E-2,3.8576774E-2,-7.66441E-3,3.7013788E-2,2.3554444E-2,3.15724E-2,-1.4212444E-2,2.131598E-2,8.730837E-3,5.365421E-3,2.1340998E-2,1.8052729E-3,1.6615674E-2,-1.0016455E-2,-2.9599518E-2,-3.5755176E-3,4.164895E-2,4.497644E-2,1.0482869E-2,1.304798E-3,9.5920805E-3,-1.6636265E-2,6.9750473E-3,-4.207134E-3,-3.448009E-2,-1.497209E-2,6.468241E-3,-1.30063165E-2,3.514988E-4],"categories":[],"categories_nodes":[],"categories_segments":[],"categories_sizes":[],"default_left":[0,0,0,0,0,0,0,0,0,0,0,0,0,0,0,0,0,0,0,0,0,0,0,0,0,0,0,0,0,0,0,0,0,0,0,0,0,0,0,0,0,0,0,0,0,0,0,0,0,0,0,0,0,0,0,0,0,0,0,0,0,0,0],"id":12,"left_children":[1,3,5,7,9,11,13,15,17,19,21,23,25,27,29,31,33,35,37,39,41,43,45,47,49,51,53,55,57,59,61,-1,-1,-1,-1,-1,-1,-1,-1,-1,-1,-1,-1,-1,-1,-1,-1,-1,-1,-1,-1,-1,-1,-1,-1,-1,-1,-1,-1,-1,-1,-1,-1],"loss_changes":[1.7181186E2,4.1125427E1,2.0800577E1,1.895758E1,1.186673E1,1.0140789E1,7.3139734E0,2.9556284E0,9.066467E0,1.00182495E1,2.0206299E1,4.0405E0,4.8990946E0,1.9522696E0,4.781E0,2.9333143E0,4.145401E0,2.738922E0,6.3488007E0,6.1525803E0,6.0946198E0,4.02116E0,8.3819275E0,2.439722E0,5.8253436E0,3.5382042E0,6.088734E0,1.1541371E0,1.2511759E0,6.601481E0,7.4273767E0,0E0,0E0,0E0,0E0,0E0,0E0,0E0,0E0,0E0,0E0,0E0,0E0,0E0,0E0,0E0,0E0,0E0,0E0,0E0,0E0,0E0,0E0,0E0,0E0,0E0,0E0,0E0,0E0,0E0,0E0,0E0,0E0],"parents":[2147483647,0,0,1,1,2,2,3,3,4,4,5,5,6,6,7,7,8,8,9,9,10,10,11,11,12,12,13,13,14,14,15,15,16,16,17,17,18,18,19,19,20,20,21,21,22,22,23,23,24,24,25,25,26,26,27,27,28,28,29,29,30,30],"right_children":[2,4,6,8,10,12,14,16,18,20,22,24,26,28,30,32,34,36,38,40,42,44,46,48,50,52,54,56,58,60,62,-1,-1,-1,-1,-1,-1,-1,-1,-1,-1,-1,-1,-1,-1,-1,-1,-1,-1,-1,-1,-1,-1,-1,-1,-1,-1,-1,-1,-1,-1,-1,-1],"split_conditions":[5.0430377E-3,2.507364E-3,7.2430037E-3,3.8852398E1,0E0,-3.129508E-2,-5.1921856E-2,1.9349858E-5,1.5434752E-3,-2.4210623E-2,2.496773E-4,1.0958673E-3,-7.893166E-3,-2.268257E-3,-7.678337E-3,-5.5268323E-3,1.0826885E-2,8.171453E1,-4.0388256E-3,2.338163E1,4.778932E-3,4.8511615E-3,2.758514E1,-3.5042692E-2,7.047535E-3,2.214E1,9.026489E-3,-3.5107257E-3,7.800175E-3,-2.6608013E-2,4.0501407E-3,2.8868934E-2,6.427904E-3,2.9921724E-2,-2.2921376E-2,3.8576774E-2,-7.66441E-3,3.7013788E-2,2.3554444E-2,3.15724E-2,-1.4212444E-2,2.131598E-2,8.730837E-3,5.365421E-3,2.1340998E-2,1.8052729E-3,1.6615674E-2,-1.0016455E-2,-2.9599518E-2,-3.5755176E-3,4.164895E-2,4.497644E-2,1.0482869E-2,1.304798E-3,9.5920805E-3,-1.6636265E-2,6.9750473E-3,-4.207134E-3,-3.448009E-2,-1.497209E-2,6.468241E-3,-1.30063165E-2,3.514988E-4],"split_indices":[2,2,2,0,4,3,3,4,2,4,4,4,4,4,4,4,4,0,3,0,2,2,0,3,2,0,4,4,2,4,4,0,0,0,0,0,0,0,0,0,0,0,0,0,0,0,0,0,0,0,0,0,0,0,0,0,0,0,0,0,0,0,0],"split_type":[0,0,0,0,0,0,0,0,0,0,0,0,0,0,0,0,0,0,0,0,0,0,0,0,0,0,0,0,0,0,0,0,0,0,0,0,0,0,0,0,0,0,0,0,0,0,0,0,0,0,0,0,0,0,0,0,0,0,0,0,0,0,0],"sum_hessian":[6.8107446E3,4.569416E3,2.2413284E3,1.100101E3,3.469315E3,1.5136683E3,7.276601E2,2.0366881E2,8.964321E2,1.0073494E3,2.4619656E3,1.7217686E2,1.3414915E3,9.001548E1,6.3764465E2,1.6772975E2,3.5939056E1,2.0362094E2,6.928112E2,4.259359E1,9.6475586E2,8.537456E2,1.60822E3,1.13642E2,5.8534866E1,2.1192162E2,1.12957E3,5.970179E1,3.0313692E1,1.9792316E2,4.3972147E2,1.526796E1,1.5246179E2,3.250134E1,3.4377162E0,2.0067537E2,2.9455636E0,1.07057556E2,5.8575366E2,8.27913E0,3.431446E1,8.541879E2,1.1056792E2,8.131904E2,4.055516E1,1.0227596E2,1.5059441E3,9.4896576E1,1.8745419E1,5.1287277E1,7.247587E0,6.8381186E0,2.050835E2,8.2767255E2,3.0189734E2,5.4538994E1,5.162794E0,4.250104E0,2.606359E1,4.5916527E1,1.5200662E2,2.7141086E2,1.6831062E2],"tree_param":{"num_deleted":"0","num_feature":"5","num_nodes":"63","size_leaf_vector":"1"}},{"base_weights":[-1.1012587E-1,1.8464522E-1,-1.4477997E-1,4.4492906E-1,1.2328419E-1,-1.5954442E-1,-3.8841464E-2,1.05097875E-1,6.1595815E-1,8.233809E-1,7.7805944E-2,-6.751387E-2,-1.8693355E-1,3.0128956E-2,-1.855588E-1,-1.7660265E-1,3.1022978E-1,6.5866077E-1,-3.1055215E-1,9.325697E-1,-2.4442811E-1,5.4362446E-2,6.589866E-1,-9.6598476E-2,8.564217E-2,1.08720265E-1,-1.9123484E-1,-2.2087442E-2,2.3206629E-1,3.4365848E-1,-2.1804541E-1,1.2638101E-2,-1.7934699E-2,2.9964227E-2,-7.7591385E-3,1.8478198E-2,4.0338006E-2,1.078086E-3,-2.3724321E-2,9.072909E-3,5.5428367E-2,-2.0640267E-2,1.6238356E-3,6.439935E-3,-1.5144986E-2,6.466993E-2,2.3859735E-3,-4.2979117E-3,-1.425867E-2,4.1660137E-4,3.41951E-2,-1.0961173E-2,1.5380454E-2,-1.5152082E-3,-9.918957E-3,8.375553E-3,-3.52819E-3,3.1475897E-3,4.0035985E-2,2.5534956E-2,-2.2107381E-2,-1.638405E-2,-2.483555E-3],"categories":[],"categories_nodes":[],"categories_segments":[],"categories_sizes":[],"default_left":[0,0,0,0,0,0,0,0,0,0,0,0,0,0,0,0,0,0,0,0,0,0,0,0,0,0,0,0,0,0,0,0,0,0,0,0,0,0,0,0,0,0,0,0,0,0,0,0,0,0,0,0,0,0,0,0,0,0,0,0,0,0,0],"id":13,"left_children":[1,3,5,7,9,11,13,15,17,19,21,23,25,27,29,31,33,35,37,39,41,43,45,47,49,51,53,55,57,59,61,-1,-1,-1,-1,-1,-1,-1,-1,-1,-1,-1,-1,-1,-1,-1,-1,-1,-1,-1,-1,-1,-1,-1,-1,-1,-1,-1,-1,-1,-1,-1,-1],"loss_changes":[5.9059227E1,9.661497E0,8.082855E0,6.6584606E0,1.5654549E1,1.1427811E1,6.4203024E0,2.362313E0,3.2408562E0,3.7268257E0,6.295378E0,4.652184E0,4.468132E0,4.5610647E0,3.5623813E0,1.4559982E0,3.2503092E0,2.856575E0,2.3132172E-1,3.425331E0,1.8014812E-1,1.1946173E1,6.890433E0,1.7343988E0,7.7142134E0,3.3799384E0,3.957573E0,3.1755033E0,8.494714E0,1.8166984E0,3.5229769E0,0E0,0E0,0E0,0E0,0E0,0E0,0E0,0E0,0E0,0E0,0E0,0E0,0E0,0E0,0E0,0E0,0E0,0E0,0E0,0E0,0E0,0E0,0E0,0E0,0E0,0E0,0E0,0E0,0E0,0E0,0E0,0E0],"parents":[2147483647,0,0,1,1,2,2,3,3,4,4,5,5,6,6,7,7,8,8,9,9,10,10,11,11,12,12,13,13,14,14,15,15,16,16,17,17,18,18,19,19,20,20,21,21,22,22,23,23,24,24,25,25,26,26,27,27,28,28,29,29,30,30],"right_children":[2,4,6,8,10,12,14,16,18,20,22,24,26,28,30,32,34,36,38,40,42,44,46,48,50,52,54,56,58,60,62,-1,-1,-1,-1,-1,-1,-1,-1,-1,-1,-1,-1,-1,-1,-1,-1,-1,-1,-1,-1,-1,-1,-1,-1,-1,-1,-1,-1,-1,-1,-1,-1],"split_conditions":[-2.5954032E-2,-4.3714248E-2,7.239759E1,-1.8298777E-2,-2.6608013E-2,-8.953739E-3,4.1158167E-3,2.597824E1,-3.743731E-2,-3.0416021E-2,1.2564918E-2,-3.6031152E-3,-1.5534437E-2,1.9349858E-5,7.418208E-3,-6.363798E-2,3.5562366E1,2.0136177E1,-3.6395027E-3,2.338163E1,-2.5753705E-2,2.9775843E-3,2.6441816E1,5.947731E1,6.0251625E1,3.9747982E1,-1.2696529E-2,8.723368E-3,3.342712E-2,1.5782565E-2,3.5679493E-2,1.2638101E-2,-1.7934699E-2,2.9964227E-2,-7.7591385E-3,1.8478198E-2,4.0338006E-2,1.078086E-3,-2.3724321E-2,9.072909E-3,5.5428367E-2,-2.0640267E-2,1.6238356E-3,6.439935E-3,-1.5144986E-2,6.466993E-2,2.3859735E-3,-4.2979117E-3,-1.425867E-2,4.1660137E-4,3.41951E-2,-1.0961173E-2,1.5380454E-2,-1.5152082E-3,-9.918957E-3,8.375553E-3,-3.52819E-3,3.1475897E-3,4.0035985E-2,2.5534956E-2,-2.2107381E-2,-1.638405E-2,-2.483555E-3],"split_indices":[3,1,0,4,4,3,4,0,3,3,4,1,1,4,1,1,0,0,4,0,1,4,0,0,0,0,4,3,1,4,1,0,0,0,0,0,0,0,0,0,0,0,0,0,0,0,0,0,0,0,0,0,0,0,0,0,0,0,0,0,0,0,0],"split_type":[0,0,0,0,0,0,0,0,0,0,0,0,0,0,0,0,0,0,0,0,0,0,0,0,0,0,0,0,0,0,0,0,0,0,0,0,0,0,0,0,0,0,0,0,0,0,0,0,0,0,0,0,0,0,0,0,0,0,0,0,0,0,0],"sum_hessian":[5.7779854E3,6.073637E2,5.1706216E3,1.1467582E2,4.9268787E2,4.537704E3,6.329176E2,3.8932423E1,7.57434E1,2.9009394E1,4.6367847E2,1.0415254E3,3.4961785E3,4.3107025E2,2.0184737E2,1.6463184E1,2.246924E1,7.268257E1,3.0608265E0,2.6433126E1,2.5762677E0,4.467511E2,1.6927382E1,8.756141E2,1.6591138E2,4.978631E1,3.446392E3,3.4321362E2,8.785661E1,1.1120034E1,1.9072734E2,4.787151E0,1.1676033E1,1.3683289E1,8.785951E0,2.5805124E1,4.687745E1,1.2985573E0,1.7622693E0,5.403489E0,2.1029638E1,1.2968869E0,1.2793808E0,3.702486E2,7.650251E1,7.758836E0,9.168545E0,8.3022485E2,4.5389202E1,1.4782289E2,1.808849E1,1.8756634E1,3.1029675E1,1.4671715E2,3.299675E3,6.938453E1,2.738291E2,6.857382E1,1.9282787E1,9.459336E0,1.6606977E0,1.1493935E2,7.578799E1],"tree_param":{"num_deleted":"0","num_feature":"5","num_nodes":"63","size_leaf_vector":"1"}},{"base_weights":[-1.4961271E-1,-3.995034E-1,-1.2015592E-1,-2.4354428E-1,-4.678948E-1,-1.4476837E-1,3.948242E-2,-6.038522E-1,-1.650611E-1,-5.8280116E-1,-4.0780967E-1,-2.0721689E-1,-1.2347783E-1,-1.0179465E-2,2.6479414E-1,3.9046952E-3,-6.323682E-1,-1.0551313E-1,-4.9023047E-1,-3.176855E-1,-6.1046845E-1,-3.080759E-2,-3.861427E-1,6.599693E-2,-2.2686453E-1,-1.854296E-1,-9.292933E-2,-1.13326274E-1,6.319216E-2,1.5767E-1,5.443305E-1,-3.3131108E-2,-6.0995016E-3,1.4138929E-2,-7.341996E-3,-2.9854292E-2,-4.9850433E-3,-2.2042837E-2,-5.426466E-4,-3.0864391E-2,-8.686307E-3,-1.7576013E-2,-2.7591456E-2,-3.9950185E-4,4.715147E-2,-1.439634E-2,-6.9413604E-3,-1.2401532E-2,-4.950958E-3,-1.1026321E-3,-6.2004365E-3,3.3032566E-3,-1.3122129E-2,4.480611E-3,-1.6558435E-2,5.412719E-3,2.7084569E-2,3.5991892E-3,3.5471115E-2],"categories":[],"categories_nodes":[],"categories_segments":[],"categories_sizes":[],"default_left":[0,0,0,0,0,0,0,0,0,0,0,0,0,0,0,0,0,0,0,0,0,0,0,0,0,0,0,0,0,0,0,0,0,0,0,0,0,0,0,0,0,0,0,0,0,0,0,0,0,0,0,0,0,0,0,0,0,0,0],"id":14,"left_children":[1,3,5,7,9,11,13,15,17,19,21,23,25,27,29,-1,31,33,35,37,39,-1,41,43,45,47,49,51,53,55,57,-1,-1,-1,-1,-1,-1,-1,-1,-1,-1,-1,-1,-1,-1,-1,-1,-1,-1,-1,-1,-1,-1,-1,-1,-1,-1,-1,-1],"loss_changes":[4.1741684E1,6.2668304E0,1.9965393E1,5.1161785E0,2.6259918E0,5.8266068E0,7.6044936E0,6.8362045E-1,2.907619E0,8.335991E-1,1.0065689E0,6.0143967E0,6.199684E0,4.227397E0,3.5895195E0,0E0,4.0425396E-1,2.134863E0,9.162016E-1,5.7431066E-1,2.6733017E-1,0E0,1.2538795E0,4.9231668E0,5.5662537E0,5.8384895E0,4.848072E0,6.2272863E0,3.4314156E0,1.6519148E0,2.5687885E0,0E0,0E0,0E0,0E0,0E0,0E0,0E0,0E0,0E0,0E0,0E0,0E0,0E0,0E0,0E0,0E0,0E0,0E0,0E0,0E0,0E0,0E0,0E0,0E0,0E0,0E0,0E0,0E0],"parents":[2147483647,0,0,1,1,2,2,3,3,4,4,5,5,6,6,7,7,8,8,9,9,10,10,11,11,12,12,13,13,14,14,16,16,17,17,18,18,19,19,20,20,22,22,23,23,24,24,25,25,26,26,27,27,28,28,29,29,30,30],"right_children":[2,4,6,8,10,12,14,16,18,20,22,24,26,28,30,-1,32,34,36,38,40,-1,42,44,46,48,50,52,54,56,58,-1,-1,-1,-1,-1,-1,-1,-1,-1,-1,-1,-1,-1,-1,-1,-1,-1,-1,-1,-1,-1,-1,-1,-1,-1,-1,-1,-1],"split_conditions":[2.1515694E-3,4.451661E1,7.1127443E-3,1.3244695E-3,1.5434752E-3,3.236935E-3,3.826328E-2,2.8458363E1,1.9349858E-5,-1.5318583E-3,-8.550674E-5,2.758514E1,0E0,-6.889976E-3,1.0848526E-2,3.9046952E-3,4.392267E1,2.214E1,8.3518075E-3,5.2287643E1,8.171453E1,-3.080759E-2,1.9349858E-5,3.1695855E-3,4.7449064E-3,-9.0456085E-4,7.6393643E-4,-1.8736253E-2,1.3910535E-2,2.7160985E-2,-5.087201E-3,-3.3131108E-2,-6.0995016E-3,1.4138929E-2,-7.341996E-3,-2.9854292E-2,-4.9850433E-3,-2.2042837E-2,-5.426466E-4,-3.0864391E-2,-8.686307E-3,-1.7576013E-2,-2.7591456E-2,-3.9950185E-4,4.715147E-2,-1.439634E-2,-6.9413604E-3,-1.2401532E-2,-4.950958E-3,-1.1026321E-3,-6.2004365E-3,3.3032566E-3,-1.3122129E-2,4.480611E-3,-1.6558435E-2,5.412719E-3,2.7084569E-2,3.5991892E-3,3.5471115E-2],"split_indices":[2,0,2,2,2,2,3,0,4,3,4,0,4,4,2,0,0,0,4,0,0,0,4,2,3,3,4,4,4,4,4,0,0,0,0,0,0,0,0,0,0,0,0,0,0,0,0,0,0,0,0,0,0,0,0,0,0,0,0],"split_type":[0,0,0,0,0,0,0,0,0,0,0,0,0,0,0,0,0,0,0,0,0,0,0,0,0,0,0,0,0,0,0,0,0,0,0,0,0,0,0,0,0,0,0,0,0,0,0,0,0,0,0,0,0,0,0,0,0,0,0],"sum_hessian":[5.676193E3,5.9722156E2,5.078971E3,1.8344836E2,4.137732E2,4.400596E3,6.7837476E2,3.1614681E1,1.5183368E2,1.3908612E2,2.7468707E2,1.1166257E3,3.2839707E3,5.5663855E2,1.21736176E2,1.1991435E0,3.0415539E1,1.2945178E2,2.23819E1,1.4322841E1,1.24763275E2,2.3291054E1,2.5139601E2,7.475451E1,1.0418712E3,1.0828668E3,2.201104E3,2.3114594E2,3.254926E2,8.9139946E1,3.2596233E1,2.843187E1,1.9836682E0,1.18904915E1,1.17561295E2,1.7158215E1,5.2236853E0,9.908494E0,4.4143467E0,1.224381E2,2.3251724E0,2.105254E2,4.087061E1,6.985259E1,4.901916E0,6.138425E2,4.280287E2,6.2686035E2,4.5600644E2,6.7148627E2,1.5296177E3,1.05174644E2,1.259713E2,3.057798E2,1.971284E1,8.011295E1,9.026989E0,8.814102E0,2.3782131E1],"tree_param":{"num_deleted":"0","num_feature":"5","num_nodes":"59","size_leaf_vector":"1"}},{"base_weights":[2.1996431E-1,3.194318E-1,9.284242E-3,4.885314E-1,2.6453438E-1,7.1395725E-2,-1.22965306E-1,2.6148507E-1,5.3120476E-1,-3.1212796E-2,2.6798406E-1,-1.6339852E-1,9.922023E-2,-1.1633971E-2,-1.9226922E-1,2.0502594E-1,5.00917E-1,6.927714E-1,4.8289606E-1,3.4332728E-1,2.3734277E-1,3.2440167E-2,-3.550359E-1,7.0715815E-1,9.014142E-2,-5.5382565E-2,4.687328E-1,-3.1219175E-1,7.845994E-3,2.1650009E-2,6.9508064E-3,3.1772103E-2,-1.221113E-2,2.8213385E-2,4.0492546E-2,3.1661786E-2,2.1645997E-2,-4.6898685E-3,1.8375902E-2,5.442771E-3,1.5201337E-2,-2.3303118E-3,2.1858487E-2,1.042908E-2,-2.1250054E-2,4.0682785E-2,-1.4752224E-3,1.9838404E-2,3.9676405E-3,-1.5298599E-2,1.223252E-3,3.2504737E-2,6.4734453E-3,-2.1350643E-2,-9.768951E-3,-1.4783441E-3,1.9754741E-2],"categories":[],"categories_nodes":[],"categories_segments":[],"categories_sizes":[],"default_left":[0,0,0,0,0,0,0,0,0,0,0,0,0,0,0,0,0,0,0,0,0,0,0,0,0,0,0,0,0,0,0,0,0,0,0,0,0,0,0,0,0,0,0,0,0,0,0,0,0,0,0,0,0,0,0,0,0],"id":15,"left_children":[1,3,5,7,9,11,13,15,17,-1,19,21,23,25,27,29,31,33,35,37,39,41,43,45,47,49,51,53,55,-1,-1,-1,-1,-1,-1,-1,-1,-1,-1,-1,-1,-1,-1,-1,-1,-1,-1,-1,-1,-1,-1,-1,-1,-1,-1,-1,-1],"loss_changes":[1.4369598E2,4.3111786E1,1.808182E1,1.0910339E1,1.0955551E1,9.800936E0,5.4256363E0,2.362979E0,7.1506042E0,0E0,8.011856E0,5.981141E0,7.3303537E0,5.7204685E0,1.0406105E1,2.1863656E0,3.5744305E0,2.8295364E0,5.297577E0,1.0728294E1,2.1347641E1,2.5665E0,3.2621603E0,1.559001E0,4.338825E0,4.9946194E0,1.3140173E0,3.5526638E0,2.3793235E0,0E0,0E0,0E0,0E0,0E0,0E0,0E0,0E0,0E0,0E0,0E0,0E0,0E0,0E0,0E0,0E0,0E0,0E0,0E0,0E0,0E0,0E0,0E0,0E0,0E0,0E0,0E0,0E0],"parents":[2147483647,0,0,1,1,2,2,3,3,4,4,5,5,6,6,7,7,8,8,10,10,11,11,12,12,13,13,14,14,15,15,16,16,17,17,18,18,19,19,20,20,21,21,22,22,23,23,24,24,25,25,26,26,27,27,28,28],"right_children":[2,4,6,8,10,12,14,16,18,-1,20,22,24,26,28,30,32,34,36,38,40,42,44,46,48,50,52,54,56,-1,-1,-1,-1,-1,-1,-1,-1,-1,-1,-1,-1,-1,-1,-1,-1,-1,-1,-1,-1,-1,-1,-1,-1,-1,-1,-1,-1],"split_conditions":[5.0701117E-3,2.530467E-3,7.315898E-3,3.7544724E1,-3.7543222E-2,-2.6547179E-2,-5.5268323E-3,1.9349858E-5,1.5434752E-3,-3.1212796E-2,0E0,6.14909E-3,2.0895473E1,2.1913202E-2,4.2867484E-3,-4.803607E-5,6.087412E-4,5.3241543E1,-1.3182813E-3,-2.3676157E-2,2.496773E-4,3.7679495E-3,1.7272793E1,-4.3114414E-3,-2.1408902E-2,-2.6608013E-2,1.0492029E-2,4.798323E1,7.919271E1,2.1650009E-2,6.9508064E-3,3.1772103E-2,-1.221113E-2,2.8213385E-2,4.0492546E-2,3.1661786E-2,2.1645997E-2,-4.6898685E-3,1.8375902E-2,5.442771E-3,1.5201337E-2,-2.3303118E-3,2.1858487E-2,1.042908E-2,-2.1250054E-2,4.0682785E-2,-1.4752224E-3,1.9838404E-2,3.9676405E-3,-1.5298599E-2,1.223252E-3,3.2504737E-2,6.4734453E-3,-2.1350643E-2,-9.768951E-3,-1.4783441E-3,1.9754741E-2],"split_indices":[2,2,2,0,1,1,4,4,2,0,4,2,0,1,4,4,1,0,1,4,4,4,0,1,4,4,2,0,0,0,0,0,0,0,0,0,0,0,0,0,0,0,0,0,0,0,0,0,0,0,0,0,0,0,0,0,0],"split_type":[0,0,0,0,0,0,0,0,0,0,0,0,0,0,0,0,0,0,0,0,0,0,0,0,0,0,0,0,0,0,0,0,0,0,0,0,0,0,0,0,0,0,0,0,0,0,0,0,0,0,0,0,0,0,0,0,0],"sum_hessian":[6.8562324E3,4.6570176E3,2.1992148E3,1.1394113E3,3.5176064E3,1.4967302E3,7.024846E2,1.8139815E2,9.5801306E2,1.2904476E1,3.504702E3,1.5806265E2,1.3386676E3,2.6996875E2,4.3251587E2,1.4828757E2,3.311058E1,2.1744302E2,7.4057007E2,1.0102979E3,2.4944038E3,7.8585266E1,7.947738E1,1.8565834E1,1.3201018E3,2.4824496E2,2.1723783E1,2.7009604E2,1.6241983E2,3.2047462E1,1.162401E2,2.8171762E1,4.9388175E0,1.0643837E2,1.1100465E2,1.8185071E2,5.5871936E2,5.2827713E1,9.574702E2,8.5315955E2,1.6412444E3,6.648512E1,1.2100144E1,8.557737E0,7.091965E1,1.6129513E1,2.436321E0,4.3652905E1,1.2764489E3,5.9302197E1,1.8894276E2,1.355919E1,8.164594E0,1.3487001E2,1.3522604E2,1.4895285E2,1.3466982E1],"tree_param":{"num_deleted":"0","num_feature":"5","num_nodes":"57","size_leaf_vector":"1"}},{"base_weights":[-1.1549261E-1,-2.0485888E-1,5.1690087E-2,-6.3560754E-2,-2.2070976E-1,2.6889202E-1,1.4779137E-3,7.5205976E-1,-7.768713E-2,-2.3796639E-1,-1.12313576E-1,1.0460109E0,2.5074556E-1,-1.2739465E-1,1.8600082E-2,3.261413E-1,4.7058593E-2,-1.8872142E-1,4.6220206E-2,-3.4717488E-1,-2.2354044E-1,-6.2370814E-2,-3.0992556E-1,5.8510672E-2,2.3323756E-2,1.771482E-1,4.5147106E-1,2.9097421E-2,-1.4021614E-1,8.888852E-2,-2.6066905E-2,2.386702E-2,1.6232815E-3,-1.064347E-2,2.23648E-2,3.8146114E-3,-2.2198362E-2,-2.966362E-2,-1.2542269E-2,-8.865876E-3,-1.2664887E-2,3.656591E-2,-3.5330087E-3,-2.4635954E-2,-9.385219E-3,1.5067381E-2,2.7191467E-3,3.0325238E-2,6.386002E-3,-1.1138878E-2,-6.285905E-4,6.3388376E-4,1.696611E-2,-3.388378E-3,3.8508207E-3],"categories":[],"categories_nodes":[],"categories_segments":[],"categories_sizes":[],"default_left":[0,0,0,0,0,0,0,0,0,0,0,0,0,0,0,0,0,0,0,0,0,0,0,0,0,0,0,0,0,0,0,0,0,0,0,0,0,0,0,0,0,0,0,0,0,0,0,0,0,0,0,0,0,0,0],"id":16,"left_children":[1,3,5,7,9,11,13,15,17,19,21,23,25,27,29,31,-1,33,35,37,39,41,43,-1,-1,45,47,-1,49,51,53,-1,-1,-1,-1,-1,-1,-1,-1,-1,-1,-1,-1,-1,-1,-1,-1,-1,-1,-1,-1,-1,-1,-1,-1],"loss_changes":[8.62336E1,8.40947E0,2.1933043E1,4.4454293E0,6.29805E0,5.062874E0,3.608986E0,2.2271824E-1,5.170462E0,4.516327E0,4.582311E0,5.1646233E-2,5.3906574E0,1.8261585E0,4.5348096E0,1.4223745E-1,0E0,3.1372247E0,2.6594605E0,7.874275E0,3.5017853E0,2.5086384E0,2.003415E0,0E0,0E0,4.140215E0,4.876793E0,0E0,1.9912822E0,1.0706173E1,3.8030226E0,0E0,0E0,0E0,0E0,0E0,0E0,0E0,0E0,0E0,0E0,0E0,0E0,0E0,0E0,0E0,0E0,0E0,0E0,0E0,0E0,0E0,0E0,0E0,0E0],"parents":[2147483647,0,0,1,1,2,2,3,3,4,4,5,5,6,6,7,7,8,8,9,9,10,10,11,11,12,12,13,13,14,14,15,15,17,17,18,18,19,19,20,20,21,21,22,22,25,25,26,26,28,28,29,29,30,30],"right_children":[2,4,6,8,10,12,14,16,18,20,22,24,26,28,30,32,-1,34,36,38,40,42,44,-1,-1,46,48,-1,50,52,54,-1,-1,-1,-1,-1,-1,-1,-1,-1,-1,-1,-1,-1,-1,-1,-1,-1,-1,-1,-1,-1,-1,-1,-1],"split_conditions":[4.9993903E-3,-1.8109173E-2,-3.0416021E-2,-3.920713E-2,6.988419E1,5.0701117E-3,3.5306736E1,4.7554765E-3,-2.3865854E-2,1.8448349E-3,3.2430485E-2,-2.6547179E-2,8.633047E-3,-4.1382905E-2,3.8623014E-3,4.4993944E-3,4.7058593E-2,-8.021438E-3,5.6911236E1,-2.7263563E-3,-1.8631758E-3,1.1476519E-3,7.739108E1,5.8510672E-2,2.3323756E-2,6.971025E-3,-4.48051E-2,2.9097421E-2,-1.0603973E-2,7.4135E-3,7.239759E1,2.386702E-2,1.6232815E-3,-1.064347E-2,2.23648E-2,3.8146114E-3,-2.2198362E-2,-2.966362E-2,-1.2542269E-2,-8.865876E-3,-1.2664887E-2,3.656591E-2,-3.5330087E-3,-2.4635954E-2,-9.385219E-3,1.5067381E-2,2.7191467E-3,3.0325238E-2,6.386002E-3,-1.1138878E-2,-6.285905E-4,6.3388376E-4,1.696611E-2,-3.388378E-3,3.8508207E-3],"split_indices":[2,3,3,1,0,2,0,2,3,2,3,1,2,1,3,2,0,1,0,1,3,2,0,0,0,2,3,0,1,2,0,0,0,0,0,0,0,0,0,0,0,0,0,0,0,0,0,0,0,0,0,0,0,0,0],"split_type":[0,0,0,0,0,0,0,0,0,0,0,0,0,0,0,0,0,0,0,0,0,0,0,0,0,0,0,0,0,0,0,0,0,0,0,0,0,0,0,0,0,0,0,0,0,0,0,0,0,0,0,0,0,0,0],"sum_hessian":[5.7700947E3,3.7599932E3,2.0101018E3,3.7975797E2,3.380235E3,3.7661774E2,1.633484E3,5.5760036E0,3.7418198E2,2.9149766E3,4.6525864E2,7.301234E0,3.693165E2,1.9081865E2,1.4426654E3,2.5523014E0,3.0237021E0,1.9706631E2,1.7711566E2,3.3743478E2,2.5775417E3,3.7244556E2,9.281308E1,5.173298E0,2.127936E0,2.7161102E2,9.770548E1,2.5997586E0,1.8821889E2,5.601763E2,8.8248914E2,1.2720077E0,1.2802937E0,1.9049886E2,6.5674543E0,1.6767358E2,9.442078E0,9.34739E1,2.4396088E2,1.012208E3,1.5653337E3,2.9480927E0,3.6949747E2,3.5976063E1,5.6837017E1,1.3429375E2,1.3731728E2,6.5477234E1,3.222825E1,1.1384057E2,7.437832E1,4.302846E2,1.2989165E2,6.2855865E2,2.5393045E2],"tree_param":{"num_deleted":"0","num_feature":"5","num_nodes":"55","size_leaf_vector":"1"}},{"base_weights":[-1.6536336E-1,-3.2010543E-1,-1.2450308E-1,-5.549471E-1,-2.9648456E-1,-1.4825433E-1,6.466813E-3,-1.9792297E-1,-6.291364E-1,-2.0249224E-1,-3.4293306E-1,6.796754E-2,-1.5314035E-1,-6.384028E-2,2.4503776E-1,2.2288683E-1,-3.6266825E-1,-3.3086207E-2,-4.8979974E-1,-1.5152944E-2,-2.4391536E-1,-4.5314378E-1,-2.5080672E-1,8.318471E-1,-2.1392187E-2,-1.5446894E-1,3.487836E-1,1.432176E-1,-9.674097E-2,-2.0335175E-1,3.2133156E-1,-1.6166462E-2,5.4829296E-2,-2.5900284E-2,3.5321733E-4,1.9334542E-2,-2.9009214E-2,3.1289723E-2,-4.632503E-3,-6.975196E-3,-1.4565232E-2,-2.4967987E-2,-1.846381E-2,-1.6294237E-2,-7.562564E-3,-2.1931997E-2,5.9064556E-2,-3.4403594E-3,5.6384273E-2,-7.291061E-3,-1.2742022E-2,4.6555385E-2,-1.1767311E-2,2.5291916E-3,3.1262666E-2,-1.4366035E-2,-3.5410647E-3,3.373879E-2,-2.2556653E-2,1.9388605E-2,3.0772013E-3],"categories":[],"categories_nodes":[],"categories_segments":[],"categories_sizes":[],"default_left":[0,0,0,0,0,0,0,0,0,0,0,0,0,0,0,0,0,0,0,0,0,0,0,0,0,0,0,0,0,0,0,0,0,0,0,0,0,0,0,0,0,0,0,0,0,0,0,0,0,0,0,0,0,0,0,0,0,0,0,0,0],"id":17,"left_children":[1,3,5,7,9,11,13,15,17,19,21,23,25,27,29,31,33,-1,35,37,39,41,43,45,47,49,51,53,55,57,59,-1,-1,-1,-1,-1,-1,-1,-1,-1,-1,-1,-1,-1,-1,-1,-1,-1,-1,-1,-1,-1,-1,-1,-1,-1,-1,-1,-1,-1,-1],"loss_changes":[3.5846832E1,6.4088516E0,1.3973465E1,2.7135963E0,4.6405945E0,4.027359E0,1.1597359E1,1.4600064E0,7.662964E-2,2.784171E0,7.202759E0,5.8004174E0,2.5335922E0,3.6524107E0,5.4490767E0,3.3212407E0,8.466315E-1,0E0,1.8545313E0,3.342162E0,1.4147377E0,1.0825043E0,2.9011593E0,4.468211E0,4.2628713E0,3.1825714E0,3.6628141E0,3.2563877E0,2.2592378E0,5.416839E0,2.3042173E0,0E0,0E0,0E0,0E0,0E0,0E0,0E0,0E0,0E0,0E0,0E0,0E0,0E0,0E0,0E0,0E0,0E0,0E0,0E0,0E0,0E0,0E0,0E0,0E0,0E0,0E0,0E0,0E0,0E0,0E0],"parents":[2147483647,0,0,1,1,2,2,3,3,4,4,5,5,6,6,7,7,8,8,9,9,10,10,11,11,12,12,13,13,14,14,15,15,16,16,18,18,19,19,20,20,21,21,22,22,23,23,24,24,25,25,26,26,27,27,28,28,29,29,30,30],"right_children":[2,4,6,8,10,12,14,16,18,20,22,24,26,28,30,32,34,-1,36,38,40,42,44,46,48,50,52,54,56,58,60,-1,-1,-1,-1,-1,-1,-1,-1,-1,-1,-1,-1,-1,-1,-1,-1,-1,-1,-1,-1,-1,-1,-1,-1,-1,-1,-1,-1,-1,-1],"split_conditions":[2.788609E-3,1.3244695E-3,7.1127443E-3,-1.5318583E-3,4.5070896E1,-3.377215E-2,1.7927362E-2,-5.079527E-3,6.050099E1,1.7374281E-3,2.1515694E-3,4.565937E-3,7.345299E-2,7.4135E-3,7.5037605E-3,4.0993885E1,1.1476519E-3,-3.3086207E-2,6.111868E1,2.4529835E1,-7.4188616E-3,1.9038775E-3,5.821415E-3,-4.48051E-2,4.0577507E1,3.516027E-2,8.528132E1,5.776102E1,-5.073956E-2,5.4532745E1,5.7053085E-2,-1.6166462E-2,5.4829296E-2,-2.5900284E-2,3.5321733E-4,1.9334542E-2,-2.9009214E-2,3.1289723E-2,-4.632503E-3,-6.975196E-3,-1.4565232E-2,-2.4967987E-2,-1.846381E-2,-1.6294237E-2,-7.562564E-3,-2.1931997E-2,5.9064556E-2,-3.4403594E-3,5.6384273E-2,-7.291061E-3,-1.2742022E-2,4.6555385E-2,-1.1767311E-2,2.5291916E-3,3.1262666E-2,-1.4366035E-2,-3.5410647E-3,3.373879E-2,-2.2556653E-2,1.9388605E-2,3.0772013E-3],"split_indices":[2,2,2,3,0,1,1,1,0,2,2,2,3,2,2,0,2,0,0,0,1,2,3,3,0,3,0,0,1,0,1,0,0,0,0,0,0,0,0,0,0,0,0,0,0,0,0,0,0,0,0,0,0,0,0,0,0,0,0,0,0],"split_type":[0,0,0,0,0,0,0,0,0,0,0,0,0,0,0,0,0,0,0,0,0,0,0,0,0,0,0,0,0,0,0,0,0,0,0,0,0,0,0,0,0,0,0,0,0,0,0,0,0,0,0,0,0,0,0,0,0,0,0,0,0],"sum_hessian":[5.674754E3,1.1839977E3,4.490756E3,1.0614983E2,1.0778478E3,3.801268E3,6.894881E2,1.8893892E1,8.725594E1,3.5825302E2,7.195948E2,8.371457E1,3.7175535E3,5.3311194E2,1.5637619E2,5.2164826E0,1.3677409E1,6.7678375E1,1.957757E1,6.511794E1,2.931351E2,3.2585538E2,3.9373944E2,7.8972273E0,7.5817345E1,3.7084294E3,9.123925E0,7.263518E1,4.6047675E2,2.2496376E1,1.3387982E2,3.5974023E0,1.6190803E0,9.348679E0,4.32873E0,1.5236746E0,1.8053896E1,6.2609644E0,5.885698E1,9.2742325E1,2.0039276E2,2.0689171E2,1.1896366E2,2.2316785E2,1.7057158E2,1.6484916E0,6.2487354E0,7.37157E1,2.10165E0,3.4165244E3,2.9190518E2,4.2715607E0,4.852364E0,6.185359E1,1.0781589E1,5.3921646E1,4.0655508E2,4.571584E0,1.7924791E1,1.0622115E2,2.7658665E1],"tree_param":{"num_deleted":"0","num_feature":"5","num_nodes":"61","size_leaf_vector":"1"}},{"base_weights":[2.0713507E-1,3.0712605E-1,3.3465392E-4,5.0580287E-1,2.6982778E-1,4.6291366E-2,-1.736537E-1,4.049567E-1,6.316023E-1,1.263921E-1,2.8605753E-1,1.5214461E-2,1.8154153E-1,-2.373119E-1,5.3067863E-2,-1.9452408E-1,4.25621E-1,6.480477E-1,-2.0525865E-2,2.9273227E-1,1.4027975E-2,-2.7420297E-1,2.8901824E-1,-1.9321717E-1,2.9917957E-2,4.5822632E-1,7.478065E-2,-1.5223622E-1,-4.1054744E-1,2.1784267E-1,-1.7368795E-1,-2.7108535E-2,1.2767072E-2,2.4372628E-2,1.6334796E-2,3.6226805E-2,2.787572E-2,2.0224223E-2,-1.8296167E-2,9.429413E-3,2.1449184E-2,-2.3586227E-2,2.6665851E-3,-2.5780449E-2,4.9345675E-3,1.8162524E-2,1.3218777E-2,6.9282018E-3,-1.2456845E-2,2.485501E-2,9.234273E-4,1.8715526E-3,3.0918246E-2,-7.0591145E-3,9.384213E-3,-9.101988E-3,2.9920196E-2,-2.6343286E-2,-3.4179818E-3,1.3487003E-2,-2.1915356E-2,-2.0435033E-2,7.0592486E-3],"categories":[],"categories_nodes":[],"categories_segments":[],"categories_sizes":[],"default_left":[0,0,0,0,0,0,0,0,0,0,0,0,0,0,0,0,0,0,0,0,0,0,0,0,0,0,0,0,0,0,0,0,0,0,0,0,0,0,0,0,0,0,0,0,0,0,0,0,0,0,0,0,0,0,0,0,0,0,0,0,0,0,0],"id":18,"left_children":[1,3,5,7,9,11,13,15,17,19,21,23,25,27,29,31,33,35,37,39,41,43,45,47,49,51,53,55,57,59,61,-1,-1,-1,-1,-1,-1,-1,-1,-1,-1,-1,-1,-1,-1,-1,-1,-1,-1,-1,-1,-1,-1,-1,-1,-1,-1,-1,-1,-1,-1,-1,-1],"loss_changes":[1.4183264E2,3.4125214E1,1.7891256E1,9.0008545E0,9.030792E0,7.436877E0,6.7602654E0,5.1342926E0,3.4759216E0,7.4291425E0,5.881897E0,4.420109E0,9.731994E0,5.320112E0,3.897888E0,2.3708417E0,2.2538147E0,1.7770996E0,1.4561524E0,2.19355E0,4.5768585E0,1.7524364E0,6.2703857E0,1.7979708E0,7.1923504E0,6.1667747E0,5.8726406E0,5.624027E0,4.7282104E0,2.1707761E0,3.316204E0,0E0,0E0,0E0,0E0,0E0,0E0,0E0,0E0,0E0,0E0,0E0,0E0,0E0,0E0,0E0,0E0,0E0,0E0,0E0,0E0,0E0,0E0,0E0,0E0,0E0,0E0,0E0,0E0,0E0,0E0,0E0,0E0],"parents":[2147483647,0,0,1,1,2,2,3,3,4,4,5,5,6,6,7,7,8,8,9,9,10,10,11,11,12,12,13,13,14,14,15,15,16,16,17,17,18,18,19,19,20,20,21,21,22,22,23,23,24,24,25,25,26,26,27,27,28,28,29,29,30,30],"right_children":[2,4,6,8,10,12,14,16,18,20,22,24,26,28,30,32,34,36,38,40,42,44,46,48,50,52,54,56,58,60,62,-1,-1,-1,-1,-1,-1,-1,-1,-1,-1,-1,-1,-1,-1,-1,-1,-1,-1,-1,-1,-1,-1,-1,-1,-1,-1,-1,-1,-1,-1,-1,-1],"split_conditions":[5.0701117E-3,2.1515694E-3,8.049124E-3,5.3789932E1,-1.5948575E-2,9.466746E-3,4.0501407E-3,-1.1678218E-2,8.171453E1,-1.436073E-3,-2.4210623E-2,-3.7543222E-2,1.2136104E-2,0E0,1.1999511E-2,1.9359366E-3,1.8119747E-3,4.913154E-3,9.122061E-3,4.605448E-3,1.3872471E1,-2.0355752E-3,0E0,-2.0440212E-2,2.0895473E1,4.524643E1,1.4710192E-2,-2.2522199E-4,5.6911236E1,4.2641338E-2,2.9887583E-2,-2.7108535E-2,1.2767072E-2,2.4372628E-2,1.6334796E-2,3.6226805E-2,2.787572E-2,2.0224223E-2,-1.8296167E-2,9.429413E-3,2.1449184E-2,-2.3586227E-2,2.6665851E-3,-2.5780449E-2,4.9345675E-3,1.8162524E-2,1.3218777E-2,6.9282018E-3,-1.2456845E-2,2.485501E-2,9.234273E-4,1.8715526E-3,3.0918246E-2,-7.0591145E-3,9.384213E-3,-9.101988E-3,2.9920196E-2,-2.6343286E-2,-3.4179818E-3,1.3487003E-2,-2.1915356E-2,-2.0435033E-2,7.0592486E-3],"split_indices":[2,2,2,0,1,4,4,1,0,4,4,1,4,4,4,2,2,1,1,2,0,1,4,4,0,0,4,4,0,1,4,0,0,0,0,0,0,0,0,0,0,0,0,0,0,0,0,0,0,0,0,0,0,0,0,0,0,0,0,0,0,0,0],"split_type":[0,0,0,0,0,0,0,0,0,0,0,0,0,0,0,0,0,0,0,0,0,0,0,0,0,0,0,0,0,0,0,0,0,0,0,0,0,0,0,0,0,0,0,0,0,0,0,0,0,0,0,0,0,0,0,0,0,0,0,0,0,0,0],"sum_hessian":[6.8580566E3,4.6225176E3,2.235539E3,7.286506E2,3.893867E3,1.7690121E3,4.665271E2,4.067786E2,3.2187195E2,3.9669843E2,3.4971685E3,1.4393907E3,3.2962137E2,3.6421674E2,1.02310356E2,1.3274203E1,3.935044E2,3.1396075E2,7.911203E0,1.592882E2,2.3741025E2,1.7902138E1,3.4792664E3,9.404868E1,1.345342E3,9.085825E1,2.3876312E2,2.455207E2,1.1869602E2,5.9276035E1,4.3034325E1,7.3720527E0,5.9021506E0,2.3973459E2,1.5376979E2,1.6638493E2,1.4757582E2,3.4701395E0,4.4410634E0,9.163268E1,6.765551E1,1.6948065E1,2.2046217E2,1.0634686E1,7.2674522E0,8.6371643E2,2.6155498E3,1.335187E1,8.069681E1,3.116744E1,1.3141746E3,2.5385818E1,6.5472435E1,8.188409E1,1.5687903E2,2.3687334E2,8.647367E0,8.8181274E1,3.0514746E1,5.5477047E1,3.7989855E0,2.4471481E1,1.8562843E1],"tree_param":{"num_deleted":"0","num_feature":"5","num_nodes":"63","size_leaf_vector":"1"}},{"base_weights":[-1.069615E-1,-1.949525E-1,5.5415746E-2,-2.761438E-1,-1.6726364E-1,2.2926418E-1,6.625277E-3,-2.848363E-1,2.1770757E-1,-1.2828988E-1,-2.5104317E-1,1.606235E-1,4.4743386E-1,7.499262E-2,-6.4948484E-2,-2.893201E-1,2.7996537E-1,5.0424255E-2,6.293574E-2,-1.1831078E-1,-4.4538498E-1,2.0313185E-1,-2.6611E-1,9.152181E-1,1.3706201E-1,4.8552102E-1,-3.84694E-1,-5.3027865E-2,1.4651705E-1,-3.8056582E-1,-4.241493E-2,-4.8367023E-3,-1.5091193E-2,3.528435E-2,-2.440652E-2,-2.474401E-2,1.0345273E-2,-8.834059E-3,-3.747676E-3,-7.4599185E-3,-2.561498E-2,-6.322708E-3,3.602727E-2,-1.4002961E-2,1.1241606E-2,6.0813375E-2,-8.034146E-3,3.9987456E-2,5.5176984E-3,5.863732E-3,2.594464E-2,1.92212E-3,-2.6558671E-2,7.0714543E-4,-1.2912178E-2,8.639018E-3,-2.2609299E-2,1.7513132E-2,-2.124349E-2,-9.5454353E-4,-1.7267726E-2],"categories":[],"categories_nodes":[],"categories_segments":[],"categories_sizes":[],"default_left":[0,0,0,0,0,0,0,0,0,0,0,0,0,0,0,0,0,0,0,0,0,0,0,0,0,0,0,0,0,0,0,0,0,0,0,0,0,0,0,0,0,0,0,0,0,0,0,0,0,0,0,0,0,0,0,0,0,0,0,0,0],"id":19,"left_children":[1,3,5,7,9,11,13,15,17,19,21,23,25,27,29,31,33,-1,35,37,39,41,43,45,47,49,51,53,55,57,59,-1,-1,-1,-1,-1,-1,-1,-1,-1,-1,-1,-1,-1,-1,-1,-1,-1,-1,-1,-1,-1,-1,-1,-1,-1,-1,-1,-1,-1,-1],"loss_changes":[8.2618614E1,8.384125E0,1.7240528E1,4.1492233E0,9.106689E0,6.5987186E0,7.776947E0,2.4515686E0,2.0214949E0,5.9984035E0,6.1278E0,5.9265594E0,3.5476742E0,7.450374E0,5.5062637E0,2.2083435E0,2.9214902E0,0E0,1.3322016E0,4.682125E0,1.0727339E0,5.0479045E0,5.9492035E0,3.4767075E0,5.7748117E0,1.1907272E0,3.426715E-1,4.029793E0,8.281869E0,1.8201408E0,5.1222806E0,0E0,0E0,0E0,0E0,0E0,0E0,0E0,0E0,0E0,0E0,0E0,0E0,0E0,0E0,0E0,0E0,0E0,0E0,0E0,0E0,0E0,0E0,0E0,0E0,0E0,0E0,0E0,0E0,0E0,0E0],"parents":[2147483647,0,0,1,1,2,2,3,3,4,4,5,5,6,6,7,7,8,8,9,9,10,10,11,11,12,12,13,13,14,14,15,15,16,16,18,18,19,19,20,20,21,21,22,22,23,23,24,24,25,25,26,26,27,27,28,28,29,29,30,30],"right_children":[2,4,6,8,10,12,14,16,18,20,22,24,26,28,30,32,34,-1,36,38,40,42,44,46,48,50,52,54,56,58,60,-1,-1,-1,-1,-1,-1,-1,-1,-1,-1,-1,-1,-1,-1,-1,-1,-1,-1,-1,-1,-1,-1,-1,-1,-1,-1,-1,-1,-1,-1],"split_conditions":[4.9993903E-3,2.552921E-3,-2.6641546E-2,8.171453E1,3.4028108E-3,8.633047E-3,1.9349858E-5,2.3352401E-2,1.3969608E-3,3.4216408E-2,2.338163E1,5.0701117E-3,5.1848073E-3,-7.678337E-3,8.7589154E-4,-3.187805E-3,2.5809735E-2,5.0424255E-2,1.5767342E-3,0E0,3.6632167E-3,1.0826885E-2,2.7160985E-2,-3.219468E-2,-3.409062E-2,2.2830956E1,4.192396E1,1.5767163E-2,1.1670706E-2,-2.192281E-2,6.1423425E-2,-4.8367023E-3,-1.5091193E-2,3.528435E-2,-2.440652E-2,-2.474401E-2,1.0345273E-2,-8.834059E-3,-3.747676E-3,-7.4599185E-3,-2.561498E-2,-6.322708E-3,3.602727E-2,-1.4002961E-2,1.1241606E-2,6.0813375E-2,-8.034146E-3,3.9987456E-2,5.5176984E-3,5.863732E-3,2.594464E-2,1.92212E-3,-2.6558671E-2,7.0714543E-4,-1.2912178E-2,8.639018E-3,-2.2609299E-2,1.7513132E-2,-2.124349E-2,-9.5454353E-4,-1.7267726E-2],"split_indices":[2,2,3,0,4,2,4,3,2,3,0,2,4,4,4,4,3,0,2,4,2,4,4,3,4,0,0,3,2,3,3,0,0,0,0,0,0,0,0,0,0,0,0,0,0,0,0,0,0,0,0,0,0,0,0,0,0,0,0,0,0],"split_type":[0,0,0,0,0,0,0,0,0,0,0,0,0,0,0,0,0,0,0,0,0,0,0,0,0,0,0,0,0,0,0,0,0,0,0,0,0,0,0,0,0,0,0,0,0,0,0,0,0,0,0,0,0,0,0,0,0,0,0,0,0],"sum_hessian":[5.780728E3,3.7489822E3,2.0317457E3,9.511064E2,2.7978757E3,4.4443872E2,1.587307E3,9.35071E2,1.6035402E1,1.911287E3,8.8658887E2,3.3939444E2,1.0504426E2,8.118138E2,7.754932E2,9.2819006E2,6.8809257E0,1.7218722E0,1.4313529E1,1.8543044E3,5.6982533E1,2.8066576E1,8.585223E2,9.130539E0,3.3026392E2,1.0084504E2,4.199224E0,2.910774E2,5.207364E2,5.0618202E1,7.2487506E2,5.712176E1,8.710683E2,4.4794273E0,2.4014978E0,2.4363627E0,1.1877167E1,7.8901086E2,1.0652936E3,1.109629E1,4.5886246E1,1.760684E1,1.0459736E1,8.352205E2,2.3301722E1,7.0323443E0,2.0981941E0,1.1673515E1,3.185904E2,8.754658E0,9.209038E1,1.2695168E0,2.9297073E0,2.199989E2,7.107849E1,4.995347E2,2.1201675E1,2.4984493E0,4.8119755E1,6.7404193E2,5.0833115E1],"tree_param":{"num_deleted":"0","num_feature":"5","num_nodes":"61","size_leaf_vector":"1"}},{"base_weights":[-1.5056561E-1,-3.940066E-1,-1.235457E-1,-2.1932474E-1,-4.7017655E-1,-1.4695434E-1,2.6832754E-2,-5.0810343E-1,-1.6131184E-1,-5.195176E-1,-3.470134E-1,-2.2517079E-1,-1.13533415E-1,-3.338257E-2,2.1783891E-1,-5.358772E-1,-8.998119E-4,2.4158981E-1,-2.1618152E-1,-4.7424293E-1,-5.837311E-1,-3.6118126E-1,2.6972536E-2,-2.2958611E-1,5.4626536E-1,7.880426E-3,-1.3801312E-1,1.9143258E-1,-6.8273135E-2,-2.8397825E-1,2.999399E-1,-2.0644275E-2,-3.1002535E-2,-2.6540795E-2,2.2517765E-2,-3.6601156E-3,-1.719961E-2,-2.4449185E-2,1.204273E-2,-3.000016E-2,-7.284022E-4,-1.6325107E-3,-2.0081295E-2,3.4555567E-5,-1.2076122E-2,5.498278E-2,-2.4243927E-2,-1.6325898E-3,1.1723159E-2,-9.477385E-3,-4.993901E-3,-2.0606272E-2,1.3959772E-2,-1.431173E-2,-1.7958051E-3,-1.9557495E-2,3.57382E-2,3.0490229E-2,8.780813E-3],"categories":[],"categories_nodes":[],"categories_segments":[],"categories_sizes":[],"default_left":[0,0,0,0,0,0,0,0,0,0,0,0,0,0,0,0,0,0,0,0,0,0,0,0,0,0,0,0,0,0,0,0,0,0,0,0,0,0,0,0,0,0,0,0,0,0,0,0,0,0,0,0,0,0,0,0,0,0,0],"id":20,"left_children":[1,3,5,7,9,11,13,15,17,19,21,23,25,27,29,31,-1,33,35,37,39,41,-1,43,45,47,49,51,53,55,57,-1,-1,-1,-1,-1,-1,-1,-1,-1,-1,-1,-1,-1,-1,-1,-1,-1,-1,-1,-1,-1,-1,-1,-1,-1,-1,-1,-1],"loss_changes":[3.6667915E1,7.310646E0,1.7695328E1,2.7838593E0,2.1723251E0,1.1342857E1,7.8029723E0,3.735547E-1,3.2337253E0,5.208893E-1,1.6233616E0,4.556526E0,9.063293E0,4.0621386E0,6.7840242E0,1.9440174E-2,0E0,3.096765E0,2.299141E0,1.8703156E0,1.0019798E0,1.4824009E0,0E0,3.5575714E0,4.9266615E0,4.7148166E0,4.9678955E0,3.80247E0,3.1463945E0,2.7815714E0,5.2946568E0,0E0,0E0,0E0,0E0,0E0,0E0,0E0,0E0,0E0,0E0,0E0,0E0,0E0,0E0,0E0,0E0,0E0,0E0,0E0,0E0,0E0,0E0,0E0,0E0,0E0,0E0,0E0,0E0],"parents":[2147483647,0,0,1,1,2,2,3,3,4,4,5,5,6,6,7,7,8,8,9,9,10,10,11,11,12,12,13,13,14,14,15,15,17,17,18,18,19,19,20,20,21,21,23,23,24,24,25,25,26,26,27,27,28,28,29,29,30,30],"right_children":[2,4,6,8,10,12,14,16,18,20,22,24,26,28,30,32,-1,34,36,38,40,42,-1,44,46,48,50,52,54,56,58,-1,-1,-1,-1,-1,-1,-1,-1,-1,-1,-1,-1,-1,-1,-1,-1,-1,-1,-1,-1,-1,-1,-1,-1,-1,-1,-1,-1],"split_conditions":[2.1515694E-3,4.451661E1,7.1127443E-3,1.3244695E-3,1.9038775E-3,0E0,1.7558644E-2,4.392267E1,-1.0083537E-2,3.4657943E-3,1.4710192E-2,6.639749E-2,-1.0083537E-2,7.4135E-3,-9.863962E-3,-2.899861E-3,-8.998119E-4,-1.4449132E-2,1.7736409E-3,3.180969E-3,7.6393643E-4,1.9359366E-3,2.6972536E-2,-2.4210623E-2,8.690421E1,7.978821E-3,3.623618E-3,2.6441816E1,-5.073956E-2,8.233004E1,2.8993236E-2,-2.0644275E-2,-3.1002535E-2,-2.6540795E-2,2.2517765E-2,-3.6601156E-3,-1.719961E-2,-2.4449185E-2,1.204273E-2,-3.000016E-2,-7.284022E-4,-1.6325107E-3,-2.0081295E-2,3.4555567E-5,-1.2076122E-2,5.498278E-2,-2.4243927E-2,-1.6325898E-3,1.1723159E-2,-9.477385E-3,-4.993901E-3,-2.0606272E-2,1.3959772E-2,-1.431173E-2,-1.7958051E-3,-1.9557495E-2,3.57382E-2,3.0490229E-2,8.780813E-3],"split_indices":[2,0,2,2,2,4,1,0,1,1,4,1,1,2,4,1,0,1,2,1,4,2,0,4,0,4,2,0,1,0,1,0,0,0,0,0,0,0,0,0,0,0,0,0,0,0,0,0,0,0,0,0,0,0,0,0,0,0,0],"split_type":[0,0,0,0,0,0,0,0,0,0,0,0,0,0,0,0,0,0,0,0,0,0,0,0,0,0,0,0,0,0,0,0,0,0,0,0,0,0,0,0,0,0,0,0,0,0,0,0,0,0,0,0,0,0,0,0,0,0,0],"sum_hessian":[5.580935E3,5.5619635E2,5.024739E3,1.700643E2,3.8613205E2,4.34794E3,6.767988E2,2.7151272E1,1.4291302E2,2.733898E2,1.1274226E2,1.299927E3,3.048013E3,5.152042E2,1.615946E2,2.5606781E1,1.5444912E0,1.6722046E1,1.2619098E2,1.652578E2,1.08131996E2,1.1155195E2,1.1903119E0,1.2932277E3,6.6993856E0,5.1154483E2,2.536468E3,6.8613144E1,4.4659106E2,2.2375053E1,1.3921954E2,1.280365E1,1.280313E1,3.2297478E0,1.3492297E1,6.0303455E1,6.588753E1,1.6222984E2,3.027948E0,1.0507381E2,3.058191E0,1.242567E1,9.912628E1,6.3776924E1,1.2294507E3,4.3164225E0,2.3829632E0,4.3464865E2,7.689617E1,1.0770316E3,1.4594364E3,8.241212E0,6.0371933E1,5.671369E1,3.8987738E2,2.075614E1,1.6189128E0,3.8745403E1,1.00474144E2],"tree_param":{"num_deleted":"0","num_feature":"5","num_nodes":"59","size_leaf_vector":"1"}},{"base_weights":[2.0765631E-1,3.075437E-1,1.641964E-2,5.073024E-1,2.671464E-1,5.8964394E-2,-1.5035886E-1,4.2648834E-1,6.1713517E-1,1.1747623E-1,2.843342E-1,-1.4212929E-1,8.5928515E-2,-1.9641961E-1,1.2364202E-2,6.978269E-1,3.9737412E-1,8.079717E-1,5.4896444E-1,4.2760164E-2,2.6219103E-1,3.7029105E-1,2.5512135E-1,1.1199077E-1,-2.3865221E-1,3.7530354E-1,7.788743E-2,-1.3267325E-1,-3.434364E-1,4.408571E-1,-1.15193516E-1,2.0528222E-2,3.8490277E-2,2.56972E-2,1.6551057E-2,1.5911007E-3,4.1851144E-2,2.848482E-2,-4.2729336E-3,1.7401384E-2,-1.0284804E-3,1.8120274E-2,9.970132E-4,-8.938717E-3,1.9177925E-2,7.3485705E-3,1.615565E-2,2.0325764E-4,3.1459786E-2,-1.5397385E-2,-1.3915877E-3,3.7540406E-2,1.0446005E-2,2.8370384E-3,7.803388E-3,-8.310879E-3,3.5843313E-2,-2.3048181E-2,-6.5909424E-3,1.3335775E-2,3.6359902E-2,-2.0287327E-2,-1.6391373E-3],"categories":[],"categories_nodes":[],"categories_segments":[],"categories_sizes":[],"default_left":[0,0,0,0,0,0,0,0,0,0,0,0,0,0,0,0,0,0,0,0,0,0,0,0,0,0,0,0,0,0,0,0,0,0,0,0,0,0,0,0,0,0,0,0,0,0,0,0,0,0,0,0,0,0,0,0,0,0,0,0,0,0,0],"id":21,"left_children":[1,3,5,7,9,11,13,15,17,19,21,23,25,27,29,31,33,35,37,39,41,43,45,47,49,51,53,55,57,59,61,-1,-1,-1,-1,-1,-1,-1,-1,-1,-1,-1,-1,-1,-1,-1,-1,-1,-1,-1,-1,-1,-1,-1,-1,-1,-1,-1,-1,-1,-1,-1,-1],"loss_changes":[1.3128696E2,3.6298096E1,1.674941E1,6.4678802E0,9.632782E0,1.0208844E1,3.5986567E0,3.1996002E0,3.7093353E0,4.192267E0,8.367157E0,5.489564E0,3.8305664E0,3.4596167E0,5.887849E0,5.3842926E-1,2.9222107E0,1.820034E0,3.183281E0,4.986878E0,3.2016554E0,6.278946E0,1.8469803E1,3.4576015E0,2.3540754E0,2.6287541E0,2.6614676E0,7.600282E0,2.7370281E0,1.0379562E0,1.9762118E0,0E0,0E0,0E0,0E0,0E0,0E0,0E0,0E0,0E0,0E0,0E0,0E0,0E0,0E0,0E0,0E0,0E0,0E0,0E0,0E0,0E0,0E0,0E0,0E0,0E0,0E0,0E0,0E0,0E0,0E0,0E0,0E0],"parents":[2147483647,0,0,1,1,2,2,3,3,4,4,5,5,6,6,7,7,8,8,9,9,10,10,11,11,12,12,13,13,14,14,15,15,16,16,17,17,18,18,19,19,20,20,21,21,22,22,23,23,24,24,25,25,26,26,27,27,28,28,29,29,30,30],"right_children":[2,4,6,8,10,12,14,16,18,20,22,24,26,28,30,32,34,36,38,40,42,44,46,48,50,52,54,56,58,60,62,-1,-1,-1,-1,-1,-1,-1,-1,-1,-1,-1,-1,-1,-1,-1,-1,-1,-1,-1,-1,-1,-1,-1,-1,-1,-1,-1,-1,-1,-1,-1,-1],"split_conditions":[4.9535404E-3,2.1515694E-3,7.950744E-3,5.4124767E1,-1.5184669E-2,-2.6547179E-2,4.0501407E-3,-4.803607E-5,1.8623356E-3,4.3971282E-3,0E0,5.666552E-3,2.338163E1,0E0,7.151803E-3,-6.048585E-3,1.5434752E-3,-4.625039E-3,8.171453E1,3.0582307E-3,4.802313E-3,-2.4210623E-2,3.5434318E-4,3.7679495E-3,7.5891605E-3,-7.3654167E-3,9.466746E-3,-2.2522199E-4,5.2287643E1,7.0021157E-3,4.472033E1,2.0528222E-2,3.8490277E-2,2.56972E-2,1.6551057E-2,1.5911007E-3,4.1851144E-2,2.848482E-2,-4.2729336E-3,1.7401384E-2,-1.0284804E-3,1.8120274E-2,9.970132E-4,-8.938717E-3,1.9177925E-2,7.3485705E-3,1.615565E-2,2.0325764E-4,3.1459786E-2,-1.5397385E-2,-1.3915877E-3,3.7540406E-2,1.0446005E-2,2.8370384E-3,7.803388E-3,-8.310879E-3,3.5843313E-2,-2.3048181E-2,-6.5909424E-3,1.3335775E-2,3.6359902E-2,-2.0287327E-2,-1.6391373E-3],"split_indices":[2,2,2,0,1,1,4,4,1,2,4,2,0,4,4,1,2,4,0,2,2,4,4,4,2,4,4,4,0,4,0,0,0,0,0,0,0,0,0,0,0,0,0,0,0,0,0,0,0,0,0,0,0,0,0,0,0,0,0,0,0,0,0],"split_type":[0,0,0,0,0,0,0,0,0,0,0,0,0,0,0,0,0,0,0,0,0,0,0,0,0,0,0,0,0,0,0,0,0,0,0,0,0,0,0,0,0,0,0,0,0,0,0,0,0,0,0,0,0,0,0,0,0,0,0,0,0,0,0],"sum_hessian":[6.8721606E3,4.513859E3,2.3583018E3,7.573441E2,3.7565146E3,1.8794943E3,4.788076E2,4.3912363E2,3.1822052E2,3.8776028E2,3.3687544E3,2.2171463E2,1.6577797E3,3.7301425E2,1.0579333E2,4.0325867E1,3.9879773E2,8.089939E1,2.3732112E2,2.5658252E2,1.3117776E2,8.51525E2,2.5172292E3,6.0988186E1,1.6072644E2,4.3585693E1,1.614194E3,2.6152127E2,1.1149296E2,2.3705496E1,8.208783E1,9.423034E0,3.0902834E1,1.4221207E2,2.565857E2,2.9944E0,7.790499E1,2.2991005E2,7.41107E0,4.331181E1,2.1327072E2,9.24408E1,3.873696E1,1.9796167E1,8.317288E2,9.728855E2,1.5443438E3,5.1292744E1,9.695442E0,1.2061897E2,4.010747E1,1.2304228E1,3.1281467E1,1.2718914E3,3.4230264E2,2.5236108E2,9.160206E0,7.092479E1,4.0568172E1,1.5941778E1,7.763719E0,1.7271341E1,6.481649E1],"tree_param":{"num_deleted":"0","num_feature":"5","num_nodes":"63","size_leaf_vector":"1"}},{"base_weights":[-1.0396376E-1,-1.9272085E-1,5.805649E-2,-2.8213042E-1,-1.6063648E-1,3.2397053E-1,1.6811112E-2,-2.9010084E-1,1.4752133E-1,-1.2211637E-1,-2.4047604E-1,2.3557214E-1,5.0720197E-1,8.858855E-2,-5.951267E-2,-5.6412514E-2,-3.056988E-1,3.6076078E-1,-2.7600115E-2,-2.2264735E-1,-8.301019E-2,-2.5118032E-1,1.5388282E-1,1.3901329E-2,3.448858E-1,-1.4734748E-1,5.6143075E-1,4.1402847E-2,2.6237315E-1,-4.5805603E-1,-4.798955E-2,-1.2815811E-2,7.565405E-3,-2.7889593E-2,-1.44901415E-2,4.20247E-3,4.6373196E-2,-6.3276137E-3,-1.7463647E-2,-7.9303375E-4,-6.8243193E-3,-6.77106E-3,-1.4327168E-2,-9.222946E-3,3.1242419E-2,2.4721865E-2,-8.625021E-3,2.1422299E-2,2.6207538E-3,3.899395E-2,-2.4518585E-2,3.0513892E-2,2.7537236E-3,3.9354744E-3,-6.7266333E-3,1.5612639E-2,-1.4793388E-2,-7.504613E-3,-2.9483918E-2,1.1599532E-3,-5.1925033E-3],"categories":[],"categories_nodes":[],"categories_segments":[],"categories_sizes":[],"default_left":[0,0,0,0,0,0,0,0,0,0,0,0,0,0,0,0,0,0,0,0,0,0,0,0,0,0,0,0,0,0,0,0,0,0,0,0,0,0,0,0,0,0,0,0,0,0,0,0,0,0,0,0,0,0,0,0,0,0,0,0,0],"id":22,"left_children":[1,3,5,7,9,11,13,15,17,19,21,23,25,27,29,31,33,35,-1,37,39,41,43,45,47,49,51,53,55,57,59,-1,-1,-1,-1,-1,-1,-1,-1,-1,-1,-1,-1,-1,-1,-1,-1,-1,-1,-1,-1,-1,-1,-1,-1,-1,-1,-1,-1,-1,-1],"loss_changes":[8.2062965E1,1.0530182E1,2.2151615E1,3.3722458E0,8.32148E0,4.2735443E0,9.592274E0,3.4633026E0,2.9393718E0,7.1903706E0,3.7647133E0,4.473729E0,3.184929E0,7.3877673E0,3.875787E0,2.5706263E0,3.4244385E0,2.2246027E0,0E0,6.1972427E0,4.744047E0,3.4805908E0,3.9309685E0,5.646199E0,3.0015812E0,2.7611785E0,1.9678307E0,4.675815E0,5.451935E0,8.735032E-1,3.2871037E0,0E0,0E0,0E0,0E0,0E0,0E0,0E0,0E0,0E0,0E0,0E0,0E0,0E0,0E0,0E0,0E0,0E0,0E0,0E0,0E0,0E0,0E0,0E0,0E0,0E0,0E0,0E0,0E0,0E0,0E0],"parents":[2147483647,0,0,1,1,2,2,3,3,4,4,5,5,6,6,7,7,8,8,9,9,10,10,11,11,12,12,13,13,14,14,15,15,16,16,17,17,19,19,20,20,21,21,22,22,23,23,24,24,25,25,26,26,27,27,28,28,29,29,30,30],"right_children":[2,4,6,8,10,12,14,16,18,20,22,24,26,28,30,32,34,36,-1,38,40,42,44,46,48,50,52,54,56,58,60,-1,-1,-1,-1,-1,-1,-1,-1,-1,-1,-1,-1,-1,-1,-1,-1,-1,-1,-1,-1,-1,-1,-1,-1,-1,-1,-1,-1,-1,-1],"split_conditions":[4.9993903E-3,2.6025053E-3,-3.743731E-2,8.171453E1,3.4028108E-3,8.633047E-3,1.9349858E-5,-3.187805E-3,1.9397257E-2,-2.9950757E-3,2.7160985E-2,-1.4239831E-2,2.2830956E1,0E0,3.5434318E-4,4.5385315E1,0E0,1.6143579E-2,-2.7600115E-2,-6.6357087E-3,-1.0719654E-3,-6.961037E-3,9.161324E-3,2.3938814E1,7.950744E-3,1.5697641E1,1.9349858E-5,3.2430485E-2,1.2527184E-2,-1.2741929E-2,7.0285187E-3,-1.2815811E-2,7.565405E-3,-2.7889593E-2,-1.44901415E-2,4.20247E-3,4.6373196E-2,-6.3276137E-3,-1.7463647E-2,-7.9303375E-4,-6.8243193E-3,-6.77106E-3,-1.4327168E-2,-9.222946E-3,3.1242419E-2,2.4721865E-2,-8.625021E-3,2.1422299E-2,2.6207538E-3,3.899395E-2,-2.4518585E-2,3.0513892E-2,2.7537236E-3,3.9354744E-3,-6.7266333E-3,1.5612639E-2,-1.4793388E-2,-7.504613E-3,-2.9483918E-2,1.1599532E-3,-5.1925033E-3],"split_indices":[2,2,3,0,4,2,4,4,3,4,4,4,0,4,4,0,4,3,0,4,3,3,3,0,2,0,4,3,2,3,3,0,0,0,0,0,0,0,0,0,0,0,0,0,0,0,0,0,0,0,0,0,0,0,0,0,0,0,0,0,0],"split_type":[0,0,0,0,0,0,0,0,0,0,0,0,0,0,0,0,0,0,0,0,0,0,0,0,0,0,0,0,0,0,0,0,0,0,0,0,0,0,0,0,0,0,0,0,0,0,0,0,0,0,0,0,0,0,0,0,0,0,0,0,0],"sum_hessian":[5.7047886E3,3.6855828E3,2.019206E3,9.71238E2,2.7143447E3,2.702186E2,1.7489874E3,9.538677E2,1.7370342E1,1.8326687E3,8.8167615E2,1.838213E2,8.639729E1,9.012557E2,8.4773175E2,5.997284E1,8.9389484E2,1.3683428E1,3.6869144E0,5.119349E2,1.3207338E3,8.587303E2,2.2945868E1,6.1082603E1,1.2273871E2,6.4789023E0,7.9918396E1,7.097766E2,1.9147911E2,2.2732855E1,8.249989E2,3.0442245E1,2.9530594E1,5.100007E1,8.428948E2,9.965673E0,3.7177541E0,2.921922E2,2.1974272E2,5.860869E2,7.3464685E2,2.0207565E2,6.566546E2,1.3707055E1,9.238812E0,1.661005E1,4.4472553E1,9.510256E1,2.763614E1,1.4056797E0,5.073222E0,7.269995E1,7.21844E0,5.860574E2,1.237192E2,1.7617801E2,1.5301102E1,7.44761E0,1.5285245E1,3.629897E2,4.620092E2],"tree_param":{"num_deleted":"0","num_feature":"5","num_nodes":"61","size_leaf_vector":"1"}},{"base_weights":[-1.4165013E-1,-3.0073434E-1,-1.0100618E-1,-3.1021428E-1,4.4690102E-1,-1.2915258E-1,-1.2186505E-2,-9.266354E-3,-3.3539593E-1,1.0282433E-1,5.7857055E-2,-1.9804548E-1,-9.715207E-2,-1.2577407E-1,3.6196575E-2,8.622134E-2,-3.1695718E-1,-5.2974427E-1,-3.0039954E-1,4.74105E-1,-2.6559515E-2,2.0425037E-1,-2.2026835E-1,-3.0834407E-2,-1.22126825E-1,6.648282E-3,-2.2997186E-1,1.1040467E-1,-7.925901E-2,-1.4686798E-2,1.1897482E-2,-2.402927E-2,2.8020501E-2,-9.19971E-3,-2.8197546E-2,2.1179339E-2,-1.5289507E-2,-9.407493E-3,4.110759E-2,-1.9335538E-2,2.3531226E-2,-2.261972E-2,-1.0353206E-2,-3.3536383E-3,7.2120503E-3,1.507839E-2,-6.420143E-3,-9.625643E-3,1.2925543E-2,-1.9958356E-2,-5.1198914E-3,4.0310994E-3,2.616157E-2,-1.566413E-2,3.8473494E-3],"categories":[],"categories_nodes":[],"categories_segments":[],"categories_sizes":[],"default_left":[0,0,0,0,0,0,0,0,0,0,0,0,0,0,0,0,0,0,0,0,0,0,0,0,0,0,0,0,0,0,0,0,0,0,0,0,0,0,0,0,0,0,0,0,0,0,0,0,0,0,0,0,0,0,0],"id":23,"left_children":[1,3,5,7,9,11,13,15,17,19,-1,21,23,25,27,29,31,33,35,37,-1,39,41,43,45,47,49,51,53,-1,-1,-1,-1,-1,-1,-1,-1,-1,-1,-1,-1,-1,-1,-1,-1,-1,-1,-1,-1,-1,-1,-1,-1,-1,-1],"loss_changes":[3.6096687E1,8.193687E0,1.1127953E1,8.506401E0,3.4587262E0,7.4334297E0,5.898134E0,2.6048744E0,6.8881683E0,2.8317559E0,0E0,9.622002E0,3.8226433E0,4.4247093E0,6.4588127E0,3.9750001E0,3.2828948E0,1.750679E0,3.5652466E0,1.8696877E0,0E0,9.091194E0,3.01931E0,4.0279493E0,4.5004883E0,7.179444E0,3.8320875E0,5.597514E0,1.0813065E1,0E0,0E0,0E0,0E0,0E0,0E0,0E0,0E0,0E0,0E0,0E0,0E0,0E0,0E0,0E0,0E0,0E0,0E0,0E0,0E0,0E0,0E0,0E0,0E0,0E0,0E0],"parents":[2147483647,0,0,1,1,2,2,3,3,4,4,5,5,6,6,7,7,8,8,9,9,11,11,12,12,13,13,14,14,15,15,16,16,17,17,18,18,19,19,21,21,22,22,23,23,24,24,25,25,26,26,27,27,28,28],"right_children":[2,4,6,8,10,12,14,16,18,20,-1,22,24,26,28,30,32,34,36,38,-1,40,42,44,46,48,50,52,54,-1,-1,-1,-1,-1,-1,-1,-1,-1,-1,-1,-1,-1,-1,-1,-1,-1,-1,-1,-1,-1,-1,-1,-1,-1,-1],"split_conditions":[2.788609E-3,1.8000184E-2,6.14909E-3,3.0580656E1,2.6858675E-3,0E0,-6.1627063E-3,3.5434318E-4,1.4906025E-3,1.9412221E-2,5.7857055E-2,-2.4210623E-2,-4.3114414E-3,-1.8298777E-2,5.1848073E-3,-2.8911934E-4,2.9556746E1,-4.9335165E-3,-1.3772369E-2,2.3512801E-4,-2.6559515E-2,-2.365694E-2,-1.8736253E-2,7.890526E-3,2.7965702E1,-2.4210623E-2,-1.2696529E-2,3.4028108E-3,2.274471E-3,-1.4686798E-2,1.1897482E-2,-2.402927E-2,2.8020501E-2,-9.19971E-3,-2.8197546E-2,2.1179339E-2,-1.5289507E-2,-9.407493E-3,4.110759E-2,-1.9335538E-2,2.3531226E-2,-2.261972E-2,-1.0353206E-2,-3.3536383E-3,7.2120503E-3,1.507839E-2,-6.420143E-3,-9.625643E-3,1.2925543E-2,-1.9958356E-2,-5.1198914E-3,4.0310994E-3,2.616157E-2,-1.566413E-2,3.8473494E-3],"split_indices":[2,4,2,0,2,4,4,4,2,4,0,4,1,4,4,4,0,1,1,1,0,1,4,4,0,4,4,4,1,0,0,0,0,0,0,0,0,0,0,0,0,0,0,0,0,0,0,0,0,0,0,0,0,0,0],"split_type":[0,0,0,0,0,0,0,0,0,0,0,0,0,0,0,0,0,0,0,0,0,0,0,0,0,0,0,0,0,0,0,0,0,0,0,0,0,0,0,0,0,0,0,0,0,0,0,0,0,0,0,0,0,0,0],"sum_hessian":[5.5864E3,1.1355094E3,4.4508906E3,1.1218694E3,1.3640115E1,3.379495E3,1.0713954E3,8.6729256E1,1.0351401E3,9.959834E0,3.6802802E0,1.0702339E3,2.3092612E3,3.1956418E2,7.5183124E2,6.673785E1,1.9991411E1,1.557979E2,8.7934216E2,6.440486E0,3.5193484E0,5.5596245E1,1.0146377E3,6.3235315E2,1.6769082E3,1.411352E2,1.78429E2,4.5769525E2,2.94136E2,1.8778038E1,4.795981E1,1.7230228E1,2.7611814E0,1.4600394E1,1.411975E2,5.9255595E0,8.734166E2,2.3770003E0,4.0634856E0,1.7133398E1,3.846285E1,5.281997E1,9.618177E2,5.244215E2,1.07931625E2,2.3790112E1,1.653118E3,7.894491E1,6.2190285E1,7.57872E1,1.026418E2,4.2801233E2,2.9682932E1,1.1733793E2,1.7679807E2],"tree_param":{"num_deleted":"0","num_feature":"5","num_nodes":"55","size_leaf_vector":"1"}},{"base_weights":[1.995618E-1,-5.975194E-2,2.3148598E-1,-2.4967988E-1,2.2977373E-2,2.5780857E-1,1.3088875E-1,-1.2068785E-1,-3.5581905E-1,1.279993E-1,-7.507125E-2,1.2925859E-1,2.779673E-1,1.5772279E-1,-5.526084E-2,-1.4579356E-1,4.8645523E-1,-4.7131935E-1,-1.7820823E-1,1.8829983E-2,3.5637328E-1,7.796157E-2,-2.1185572E-1,2.1740921E-1,7.828404E-2,3.6638226E-2,2.857597E-1,3.709108E-1,1.3997234E-1,-1.0325998E-1,3.9537448E-1,-9.084802E-3,8.296348E-3,-4.6338565E-3,4.0197026E-2,-1.7994126E-2,-3.1284936E-2,-1.4522164E-2,1.1918108E-2,-1.264169E-2,3.1012127E-3,2.176599E-2,-6.260079E-4,-4.804989E-3,9.985815E-3,-1.4418912E-2,3.7795366E-3,1.3474449E-2,-5.125261E-3,4.568855E-4,1.1715938E-2,-3.2563393E-3,1.5170398E-2,1.5004252E-2,8.695782E-3,8.247274E-3,3.506645E-2,-2.3488304E-2,7.570216E-3,1.3450096E-2,-9.002007E-3,-2.722656E-4,4.2105753E-2],"categories":[],"categories_nodes":[],"categories_segments":[],"categories_sizes":[],"default_left":[0,0,0,0,0,0,0,0,0,0,0,0,0,0,0,0,0,0,0,0,0,0,0,0,0,0,0,0,0,0,0,0,0,0,0,0,0,0,0,0,0,0,0,0,0,0,0,0,0,0,0,0,0,0,0,0,0,0,0,0,0,0,0],"id":24,"left_children":[1,3,5,7,9,11,13,15,17,19,21,23,25,27,29,31,33,35,37,39,41,43,45,47,49,51,53,55,57,59,61,-1,-1,-1,-1,-1,-1,-1,-1,-1,-1,-1,-1,-1,-1,-1,-1,-1,-1,-1,-1,-1,-1,-1,-1,-1,-1,-1,-1,-1,-1,-1,-1],"loss_changes":[5.675952E1,1.1824364E1,1.6128265E1,3.0828495E0,5.414295E0,1.2497772E1,6.3419247E0,1.6648954E0,2.4748478E0,6.3206677E0,5.7117395E0,2.9374952E0,7.850403E0,4.142435E0,3.512052E0,1.1626143E0,8.8039553E-1,1.0646687E0,2.4424543E0,2.0429618E0,2.3942862E0,2.75607E0,3.1877775E0,4.0320673E0,4.509592E0,3.600537E0,6.435486E0,5.6408844E0,7.214546E0,4.2164764E0,2.807843E0,0E0,0E0,0E0,0E0,0E0,0E0,0E0,0E0,0E0,0E0,0E0,0E0,0E0,0E0,0E0,0E0,0E0,0E0,0E0,0E0,0E0,0E0,0E0,0E0,0E0,0E0,0E0,0E0,0E0,0E0,0E0,0E0],"parents":[2147483647,0,0,1,1,2,2,3,3,4,4,5,5,6,6,7,7,8,8,9,9,10,10,11,11,12,12,13,13,14,14,15,15,16,16,17,17,18,18,19,19,20,20,21,21,22,22,23,23,24,24,25,25,26,26,27,27,28,28,29,29,30,30],"right_children":[2,4,6,8,10,12,14,16,18,20,22,24,26,28,30,32,34,36,38,40,42,44,46,48,50,52,54,56,58,60,62,-1,-1,-1,-1,-1,-1,-1,-1,-1,-1,-1,-1,