{"learner":{"attributes":{"scikit_learn":"{\"_estimator_type\": \"classifier\"}"},"feature_names":["rsi","trend_signal","volatility","momentum_24h","qqq_mom"],"feature_types":["float","float","float","float","float"],"gradient_booster":{"model":{"cats":{"enc":[],"feature_segments":[],"sorted_idx":[]},"gbtree_model_param":{"num_parallel_tree":"1","num_trees":"600"},"iteration_indptr":[0,3,6,9,12,15,18,21,24,27,30,33,36,39,42,45,48,51,54,57,60,63,66,69,72,75,78,81,84,87,90,93,96,99,102,105,108,111,114,117,120,123,126,129,132,135,138,141,144,147,150,153,156,159,162,165,168,171,174,177,180,183,186,189,192,195,198,201,204,207,210,213,216,219,222,225,228,231,234,237,240,243,246,249,252,255,258,261,264,267,270,273,276,279,282,285,288,291,294,297,300,303,306,309,312,315,318,321,324,327,330,333,336,339,342,345,348,351,354,357,360,363,366,369,372,375,378,381,384,387,390,393,396,399,402,405,408,411,414,417,420,423,426,429,432,435,438,441,444,447,450,453,456,459,462,465,468,471,474,477,480,483,486,489,492,495,498,501,504,507,510,513,516,519,522,525,528,531,534,537,540,543,546,549,552,555,558,561,564,567,570,573,576,579,582,585,588,591,594,597,600],"tree_info":[0,1,2,0,1,2,0,1,2,0,1,2,0,1,2,0,1,2,0,1,2,0,1,2,0,1,2,0,1,2,0,1,2,0,1,2,0,1,2,0,1,2,0,1,2,0,1,2,0,1,2,0,1,2,0,1,2,0,1,2,0,1,2,0,1,2,0,1,2,0,1,2,0,1,2,0,1,2,0,1,2,0,1,2,0,1,2,0,1,2,0,1,2,0,1,2,0,1,2,0,1,2,0,1,2,0,1,2,0,1,2,0,1,2,0,1,2,0,1,2,0,1,2,0,1,2,0,1,2,0,1,2,0,1,2,0,1,2,0,1,2,0,1,2,0,1,2,0,1,2,0,1,2,0,1,2,0,1,2,0,1,2,0,1,2,0,1,2,0,1,2,0,1,2,0,1,2,0,1,2,0,1,2,0,1,2,0,1,2,0,1,2,0,1,2,0,1,2,0,1,2,0,1,2,0,1,2,0,1,2,0,1,2,0,1,2,0,1,2,0,1,2,0,1,2,0,1,2,0,1,2,0,1,2,0,1,2,0,1,2,0,1,2,0,1,2,0,1,2,0,1,2,0,1,2,0,1,2,0,1,2,0,1,2,0,1,2,0,1,2,0,1,2,0,1,2,0,1,2,0,1,2,0,1,2,0,1,2,0,1,2,0,1,2,0,1,2,0,1,2,0,1,2,0,1,2,0,1,2,0,1,2,0,1,2,0,1,2,0,1,2,0,1,2,0,1,2,0,1,2,0,1,2,0,1,2,0,1,2,0,1,2,0,1,2,0,1,2,0,1,2,0,1,2,0,1,2,0,1,2,0,1,2,0,1,2,0,1,2,0,1,2,0,1,2,0,1,2,0,1,2,0,1,2,0,1,2,0,1,2,0,1,2,0,1,2,0,1,2,0,1,2,0,1,2,0,1,2,0,1,2,0,1,2,0,1,2,0,1,2,0,1,2,0,1,2,0,1,2,0,1,2,0,1,2,0,1,2,0,1,2,0,1,2,0,1,2,0,1,2,0,1,2,0,1,2,0,1,2,0,1,2,0,1,2,0,1,2,0,1,2,0,1,2,0,1,2,0,1,2,0,1,2,0,1,2,0,1,2,0,1,2,0,1,2,0,1,2,0,1,2,0,1,2,0,1,2,0,1,2,0,1,2,0,1,2,0,1,2,0,1,2,0,1,2,0,1,2,0,1,2,0,1,2,0,1,2,0,1,2,0,1,2,0,1,2,0,1,2,0,1,2,0,1,2,0,1,2,0,1,2,0,1,2,0,1,2,0,1,2,0,1,2,0,1,2,0,1,2,0,1,2,0,1,2,0,1,2,0,1,2,0,1,2,0,1,2,0,1,2],"trees":[{"base_weights":[4.063096E-1,5.3059393E-1,1.5637958E-1,7.675951E-1,4.8592564E-1,2.419519E-1,-1.7880164E-2,6.2803077E-3,8.141714E-3,3.3821138E-3,5.03055E-3,-6.6187687E-4,2.7864813E-3,-3.980267E-3,2.6947437E-4],"categories":[],"categories_nodes":[],"categories_segments":[],"categories_sizes":[],"default_left":[0,0,0,0,0,0,0,0,0,0,0,0,0,0,0],"id":0,"left_children":[1,3,5,7,9,11,13,-1,-1,-1,-1,-1,-1,-1,-1],"loss_changes":[2.6782373E2,6.0603638E1,4.2739937E1,5.415161E0,1.2099609E1,2.1752876E1,1.611069E1,0E0,0E0,0E0,0E0,0E0,0E0,0E0,0E0],"parents":[2147483647,0,0,1,1,2,2,3,3,4,4,5,5,6,6],"right_children":[2,4,6,8,10,12,14,-1,-1,-1,-1,-1,-1,-1,-1],"split_conditions":[5.0230846E-3,2.1505952E-3,7.2427327E-3,4.251978E1,-1.5397791E-2,-2.5535319E-2,-5.5180926E-2,6.2803077E-3,8.141714E-3,3.3821138E-3,5.03055E-3,-6.6187687E-4,2.7864813E-3,-3.980267E-3,2.6947437E-4],"split_indices":[2,2,2,0,1,1,3,0,0,0,0,0,0,0,0],"split_type":[0,0,0,0,0,0,0,0,0,0,0,0,0,0,0],"sum_hessian":[8.623792E3,5.7589023E3,2.8648896E3,9.1070325E2,4.848199E3,1.9211149E3,9.4377484E2,2.3150125E2,6.7920197E2,5.0594623E2,4.342253E3,2.0435292E2,1.716762E3,9.872122E1,8.4505365E2],"tree_param":{"num_deleted":"0","num_feature":"5","num_nodes":"15","size_leaf_vector":"1"}},{"base_weights":[-2.3062779E-1,-3.2982552E-1,-3.467575E-2,-4.1653436E-1,-3.0213368E-1,2.2146156E-1,-1.0338137E-1,-4.24649E-3,8.711107E-4,-3.218699E-3,-1.9159166E-3,1.2217249E-3,5.293506E-3,-2.2132432E-3,-8.441583E-4],"categories":[],"categories_nodes":[],"categories_segments":[],"categories_sizes":[],"default_left":[0,0,0,0,0,0,0,0,0,0,0,0,0,0,0],"id":1,"left_children":[1,3,5,7,9,11,13,-1,-1,-1,-1,-1,-1,-1,-1],"loss_changes":[1.3723407E2,1.1129456E1,4.180357E1,4.663452E0,7.6974487E0,1.5295641E1,4.1702633E0,0E0,0E0,0E0,0E0,0E0,0E0,0E0,0E0],"parents":[2147483647,0,0,1,1,2,2,3,3,4,4,5,5,6,6],"right_children":[2,4,6,8,10,12,14,-1,-1,-1,-1,-1,-1,-1,-1],"split_conditions":[5.002582E-3,2.496845E-3,-2.6353076E-2,8.171453E1,6.825814E1,8.633047E-3,3.7560177E1,-4.24649E-3,8.711107E-4,-3.218699E-3,-1.9159166E-3,1.2217249E-3,5.293506E-3,-2.2132432E-3,-8.441583E-4],"split_indices":[2,2,3,0,0,2,0,0,0,0,0,0,0,0,0],"split_type":[0,0,0,0,0,0,0,0,0,0,0,0,0,0,0],"sum_hessian":[7.0596807E3,4.686519E3,2.3731616E3,1.1310198E3,3.5554995E3,5.014632E2,1.8716982E3,1.1132402E3,1.7779518E1,3.0152446E3,5.402549E2,3.8023923E2,1.2122398E2,2.57803E2,1.6138953E3],"tree_param":{"num_deleted":"0","num_feature":"5","num_nodes":"15","size_leaf_vector":"1"}},{"base_weights":[-2.689131E-1,-3.1171194E-1,-8.357674E-2,-5.1162684E-1,-2.8174114E-1,-1.8416955E-1,-4.016763E-2,-3.453534E-3,-5.745527E-3,5.2876206E-4,-2.8628334E-3,-3.9495958E-4,-2.9956938E-3,-1.2642203E-3,4.49069E-4],"categories":[],"categories_nodes":[],"categories_segments":[],"categories_sizes":[],"default_left":[0,0,0,0,0,0,0,0,0,0,0,0,0,0,0],"id":2,"left_children":[1,3,5,7,9,11,13,-1,-1,-1,-1,-1,-1,-1,-1],"loss_changes":[5.5309113E1,3.3809937E1,5.7133026E0,7.5189056E0,7.508789E0,6.5768957E0,6.7306004E0,0E0,0E0,0E0,0E0,0E0,0E0,0E0,0E0],"parents":[2147483647,0,0,1,1,2,2,3,3,4,4,5,5,6,6],"right_children":[2,4,6,8,10,12,14,-1,-1,-1,-1,-1,-1,-1,-1],"split_conditions":[6.138466E-3,2.1505952E-3,-5.800866E-3,-2.1798266E-3,-2.4210623E-2,-1.8298777E-2,7.315898E-3,-3.453534E-3,-5.745527E-3,5.2876206E-4,-2.8628334E-3,-3.9495958E-4,-2.9956938E-3,-1.2642203E-3,4.49069E-4],"split_indices":[2,2,4,1,4,4,2,0,0,0,0,0,0,0,0],"split_type":[0,0,0,0,0,0,0,0,0,0,0,0,0,0,0],"sum_hessian":[6.97503E3,5.665939E3,1.3090906E3,7.365881E2,4.929351E3,3.9364542E2,9.154452E2,2.0400894E2,5.325791E2,6.5873726E1,4.863477E3,1.7526404E2,2.183814E2,4.543291E2,4.611161E2],"tree_param":{"num_deleted":"0","num_feature":"5","num_nodes":"15","size_leaf_vector":"1"}},{"base_weights":[4.0273747E-1,-2.406903E-2,4.3497902E-1,-2.5458404E-1,8.553395E-2,4.4761816E-1,1.4644548E-1,-1.4297016E-3,-3.888833E-3,2.1021797E-3,-2.6824683E-4,2.8647794E-3,4.683431E-3,4.3497878E-4,3.1436868E-3],"categories":[],"categories_nodes":[],"categories_segments":[],"categories_sizes":[],"default_left":[0,0,0,0,0,0,0,0,0,0,0,0,0,0,0],"id":3,"left_children":[1,3,5,7,9,11,13,-1,-1,-1,-1,-1,-1,-1,-1],"loss_changes":[1.1878186E2,1.5361672E1,2.919983E1,2.880991E0,5.780971E0,2.5539673E1,5.833976E0,0E0,0E0,0E0,0E0,0E0,0E0,0E0,0E0],"parents":[2147483647,0,0,1,1,2,2,3,3,4,4,5,5,6,6],"right_children":[2,4,6,8,10,12,14,-1,-1,-1,-1,-1,-1,-1,-1],"split_conditions":[-2.5535319E-2,-4.9148016E-2,3.5800178E-2,-8.491948E-3,-2.1156616E-4,-1.7987745E-2,8.8848295E-3,-1.4297016E-3,-3.888833E-3,2.1021797E-3,-2.6824683E-4,2.8647794E-3,4.683431E-3,4.3497878E-4,3.1436868E-3],"split_indices":[1,3,1,4,4,3,4,0,0,0,0,0,0,0,0],"split_type":[0,0,0,0,0,0,0,0,0,0,0,0,0,0,0],"sum_hessian":[8.630071E3,6.061568E2,8.023914E3,1.9490765E2,4.112491E2,7.6866514E3,3.372629E2,1.075714E2,8.733626E1,1.9451996E2,2.1672916E2,8.7764246E2,6.809009E3,2.0986273E2,1.2740017E2],"tree_param":{"num_deleted":"0","num_feature":"5","num_nodes":"15","size_leaf_vector":"1"}},{"base_weights":[-2.291173E-1,-3.2792133E-1,-3.434251E-2,-4.1441447E-1,-3.0031964E-1,2.1978527E-1,-1.0264162E-1,-4.4502984E-3,-3.0812656E-3,-2.6484667E-3,-3.854919E-3,1.2124553E-3,5.2473275E-3,-6.3460297E-4,-2.5236022E-3],"categories":[],"categories_nodes":[],"categories_segments":[],"categories_sizes":[],"default_left":[0,0,0,0,0,0,0,0,0,0,0,0,0,0,0],"id":4,"left_children":[1,3,5,7,9,11,13,-1,-1,-1,-1,-1,-1,-1,-1],"loss_changes":[1.3564255E2,1.1040009E1,4.121772E1,3.5357208E0,1.0619934E1,1.5053677E1,1.0961727E1,0E0,0E0,0E0,0E0,0E0,0E0,0E0,0E0],"parents":[2147483647,0,0,1,1,2,2,3,3,4,4,5,5,6,6],"right_children":[2,4,6,8,10,12,14,-1,-1,-1,-1,-1,-1,-1,-1],"split_conditions":[5.002582E-3,2.496845E-3,-2.6353076E-2,6.1303563E-3,4.180022E-3,8.633047E-3,9.310475E-3,-4.4502984E-3,-3.0812656E-3,-2.6484667E-3,-3.854919E-3,1.2124553E-3,5.2473275E-3,-6.3460297E-4,-2.5236022E-3],"split_indices":[2,2,3,1,4,2,4,0,0,0,0,0,0,0,0],"split_type":[0,0,0,0,0,0,0,0,0,0,0,0,0,0,0],"sum_hessian":[7.047953E3,4.6755093E3,2.372444E3,1.1277032E3,3.547806E3,5.0208075E2,1.8703634E3,8.730433E2,2.5465994E2,2.5075557E3,1.0402502E3,3.8051877E2,1.2156198E2,1.4835441E3,3.8681927E2],"tree_param":{"num_deleted":"0","num_feature":"5","num_nodes":"15","size_leaf_vector":"1"}},{"base_weights":[-2.6728806E-1,-3.0992463E-1,-8.295499E-2,-5.0941795E-1,-2.8006697E-1,-1.832731E-1,-3.9687157E-2,-3.432574E-3,-5.7238447E-3,5.323909E-4,-2.8459926E-3,-3.9201244E-4,-2.9833617E-3,-1.2534253E-3,4.4687855E-4],"categories":[],"categories_nodes":[],"categories_segments":[],"categories_sizes":[],"default_left":[0,0,0,0,0,0,0,0,0,0,0,0,0,0,0],"id":5,"left_children":[1,3,5,7,9,11,13,-1,-1,-1,-1,-1,-1,-1,-1],"loss_changes":[5.469568E1,3.353662E1,5.6757994E0,7.4921875E0,7.4481506E0,6.524167E0,6.6259418E0,0E0,0E0,0E0,0E0,0E0,0E0,0E0,0E0],"parents":[2147483647,0,0,1,1,2,2,3,3,4,4,5,5,6,6],"right_children":[2,4,6,8,10,12,14,-1,-1,-1,-1,-1,-1,-1,-1],"split_conditions":[6.138466E-3,2.1505952E-3,-5.800866E-3,-2.1798266E-3,-2.4210623E-2,-1.8298777E-2,7.315898E-3,-3.432574E-3,-5.7238447E-3,5.323909E-4,-2.8459926E-3,-3.9201244E-4,-2.9833617E-3,-1.2534253E-3,4.4687855E-4],"split_indices":[2,2,4,1,4,4,2,0,0,0,0,0,0,0,0],"split_type":[0,0,0,0,0,0,0,0,0,0,0,0,0,0,0],"sum_hessian":[6.961596E3,5.653297E3,1.3082991E3,7.3387366E2,4.9194233E3,3.9326453E2,9.150346E2,2.0344907E2,5.3042456E2,6.585292E1,4.8535703E3,1.7521564E2,2.1804889E2,4.5383118E2,4.6120343E2],"tree_param":{"num_deleted":"0","num_feature":"5","num_nodes":"15","size_leaf_vector":"1"}},{"base_weights":[3.9920408E-1,5.215752E-1,1.5287215E-1,7.550284E-1,4.775467E-1,2.372196E-1,-1.9019539E-2,9.756025E-3,7.3294058E-3,3.318738E-3,4.944331E-3,-6.6403975E-4,2.733405E-3,-3.935983E-3,2.508518E-4],"categories":[],"categories_nodes":[],"categories_segments":[],"categories_sizes":[],"default_left":[0,0,0,0,0,0,0,0,0,0,0,0,0,0,0],"id":6,"left_children":[1,3,5,7,9,11,13,-1,-1,-1,-1,-1,-1,-1,-1],"loss_changes":[2.602765E2,5.894751E1,4.1587097E1,3.7371826E0,1.1784424E1,2.111924E1,1.5622107E1,0E0,0E0,0E0,0E0,0E0,0E0,0E0,0E0],"parents":[2147483647,0,0,1,1,2,2,3,3,4,4,5,5,6,6],"right_children":[2,4,6,8,10,12,14,-1,-1,-1,-1,-1,-1,-1,-1],"split_conditions":[5.0230846E-3,2.1505952E-3,7.2427327E-3,0E0,-1.5397791E-2,-2.5535319E-2,-5.5180926E-2,9.756025E-3,7.3294058E-3,3.318738E-3,4.944331E-3,-6.6403975E-4,2.733405E-3,-3.935983E-3,2.508518E-4],"split_indices":[2,2,2,4,1,1,3,0,0,0,0,0,0,0,0],"split_type":[0,0,0,0,0,0,0,0,0,0,0,0,0,0,0],"sum_hessian":[8.6361045E3,5.7690684E3,2.8670364E3,9.128262E2,4.856242E3,1.9230254E3,9.44011E2,7.9158806E1,8.3366736E2,5.0660553E2,4.349636E3,2.0436275E2,1.7186627E3,9.860873E1,8.454023E2],"tree_param":{"num_deleted":"0","num_feature":"5","num_nodes":"15","size_leaf_vector":"1"}},{"base_weights":[-2.2761378E-1,-3.2620797E-1,-3.352061E-2,-4.127049E-1,-2.9861465E-1,2.1834952E-1,-1.0136769E-1,-4.4329427E-3,-3.0657714E-3,-2.6321511E-3,-3.8365962E-3,1.2049142E-3,5.2062613E-3,-6.234842E-4,-2.5060955E-3],"categories":[],"categories_nodes":[],"categories_segments":[],"categories_sizes":[],"default_left":[0,0,0,0,0,0,0,0,0,0,0,0,0,0,0],"id":7,"left_children":[1,3,5,7,9,11,13,-1,-1,-1,-1,-1,-1,-1,-1],"loss_changes":[1.346572E2,1.1014648E1,4.0550827E1,3.5196075E0,1.0561096E1,1.4834129E1,1.0868511E1,0E0,0E0,0E0,0E0,0E0,0E0,0E0,0E0],"parents":[2147483647,0,0,1,1,2,2,3,3,4,4,5,5,6,6],"right_children":[2,4,6,8,10,12,14,-1,-1,-1,-1,-1,-1,-1,-1],"split_conditions":[5.002582E-3,2.496845E-3,-2.6353076E-2,6.1303563E-3,4.180022E-3,8.633047E-3,9.310475E-3,-4.4329427E-3,-3.0657714E-3,-2.6321511E-3,-3.8365962E-3,1.2049142E-3,5.2062613E-3,-6.234842E-4,-2.5060955E-3],"split_indices":[2,2,3,1,4,2,4,0,0,0,0,0,0,0,0],"split_type":[0,0,0,0,0,0,0,0,0,0,0,0,0,0,0],"sum_hessian":[7.0362544E3,4.6655815E3,2.3706726E3,1.1250197E3,3.540562E3,5.0260895E2,1.8680637E3,8.708392E2,2.5418044E2,2.5028562E3,1.0377057E3,3.80746E2,1.2186292E2,1.4820101E3,3.8605365E2],"tree_param":{"num_deleted":"0","num_feature":"5","num_nodes":"15","size_leaf_vector":"1"}},{"base_weights":[-2.656697E-1,-9.08349E-2,-2.7890524E-1,-3.862146E-1,-4.573926E-2,-2.8440404E-1,1.4399941E-1,-4.5249728E-3,1.2834473E-3,2.7276117E-3,-9.441645E-4,-2.9969122E-3,-1.5445612E-3,2.8679569E-3,-4.1850484E-3],"categories":[],"categories_nodes":[],"categories_segments":[],"categories_sizes":[],"default_left":[0,0,0,0,0,0,0,0,0,0,0,0,0,0,0],"id":8,"left_children":[1,3,5,7,9,11,13,-1,-1,-1,-1,-1,-1,-1,-1],"loss_changes":[1.605539E1,6.516438E0,1.5062592E1,2.2694197E0,6.641172E0,1.2622009E1,6.833226E0,0E0,0E0,0E0,0E0,0E0,0E0,0E0,0E0],"parents":[2147483647,0,0,1,1,2,2,3,3,4,4,5,5,6,6],"right_children":[2,4,6,8,10,12,14,-1,-1,-1,-1,-1,-1,-1,-1],"split_conditions":[-2.5535319E-2,-2.3676157E-2,6.620448E-2,4.6951E1,-1.7706327E-2,1.1469826E-2,8.528132E1,-4.5249728E-3,1.2834473E-3,2.7276117E-3,-9.441645E-4,-2.9969122E-3,-1.5445612E-3,2.8679569E-3,-4.1850484E-3],"split_indices":[1,4,3,0,4,4,0,0,0,0,0,0,0,0,0],"split_type":[0,0,0,0,0,0,0,0,0,0,0,0,0,0,0],"sum_hessian":[6.9481973E3,4.8953583E2,6.458661E3,6.3836674E1,4.2569916E2,6.3760845E3,8.257702E1,5.665881E1,7.1778655E0,5.5825188E1,3.69874E2,5.70378E3,6.7230444E2,6.624925E1,1.6327768E1],"tree_param":{"num_deleted":"0","num_feature":"5","num_nodes":"15","size_leaf_vector":"1"}},{"base_weights":[3.9571184E-1,5.170086E-1,1.5140912E-1,7.486439E-1,4.7330976E-1,2.3513445E-1,-1.927806E-2,6.107174E-3,7.946795E-3,3.2867724E-3,4.900727E-3,-6.604868E-4,2.7094483E-3,-7.078178E-4,1.771668E-3],"categories":[],"categories_nodes":[],"categories_segments":[],"categories_sizes":[],"default_left":[0,0,0,0,0,0,0,0,0,0,0,0,0,0,0],"id":9,"left_children":[1,3,5,7,9,11,13,-1,-1,-1,-1,-1,-1,-1,-1],"loss_changes":[2.56037E2,5.8101074E1,4.1003532E1,5.3234253E0,1.1624512E1,2.0778229E1,9.5743065E0,0E0,0E0,0E0,0E0,0E0,0E0,0E0,0E0],"parents":[2147483647,0,0,1,1,2,2,3,3,4,4,5,5,6,6],"right_children":[2,4,6,8,10,12,14,-1,-1,-1,-1,-1,-1,-1,-1],"split_conditions":[5.0230846E-3,2.1505952E-3,7.2427327E-3,4.251978E1,-1.5397791E-2,-2.5535319E-2,6.4442097E-3,6.107174E-3,7.946795E-3,3.2867724E-3,4.900727E-3,-6.604868E-4,2.7094483E-3,-7.078178E-4,1.771668E-3],"split_indices":[2,2,2,0,1,1,4,0,0,0,0,0,0,0,0],"split_type":[0,0,0,0,0,0,0,0,0,0,0,0,0,0,0],"sum_hessian":[8.641864E3,5.7739634E3,2.8679004E3,9.1383795E2,4.8601255E3,1.9238417E3,9.440587E2,2.3225345E2,6.8158453E2,5.0692627E2,4.353199E3,2.043459E2,1.7194957E3,7.4846625E2,1.9559248E2],"tree_param":{"num_deleted":"0","num_feature":"5","num_nodes":"15","size_leaf_vector":"1"}},{"base_weights":[-2.2611918E-1,-3.2427675E-1,-3.331275E-2,-4.1044307E-1,-2.9681644E-1,4.634017E-1,-6.406413E-2,-4.1858978E-3,9.3143794E-4,-2.6150674E-3,-3.8170198E-3,1.8671562E-3,6.1009387E-3,2.3481084E-4,-1.651447E-3],"categories":[],"categories_nodes":[],"categories_segments":[],"categories_sizes":[],"default_left":[0,0,0,0,0,0,0,0,0,0,0,0,0,0,0],"id":10,"left_children":[1,3,5,7,9,11,13,-1,-1,-1,-1,-1,-1,-1,-1],"loss_changes":[1.3295123E2,1.0893463E1,3.6249176E1,4.6439514E0,1.049231E1,5.501955E0,1.9771496E1,0E0,0E0,0E0,0E0,0E0,0E0,0E0,0E0],"parents":[2147483647,0,0,1,1,2,2,3,3,4,4,5,5,6,6],"right_children":[2,4,6,8,10,12,14,-1,-1,-1,-1,-1,-1,-1,-1],"split_conditions":[5.002582E-3,2.496845E-3,-4.3602113E-2,8.171453E1,4.180022E-3,-1.8298777E-2,4.2044958E-5,-4.1858978E-3,9.3143794E-4,-2.6150674E-3,-3.8170198E-3,1.8671562E-3,6.1009387E-3,2.3481084E-4,-1.651447E-3],"split_indices":[2,2,1,0,4,4,4,0,0,0,0,0,0,0,0],"split_type":[0,0,0,0,0,0,0,0,0,0,0,0,0,0,0],"sum_hessian":[7.0245796E3,4.6543647E3,2.3702146E3,1.1214564E3,3.5329084E3,1.3736383E2,2.2328508E3,1.1037692E3,1.7687296E1,2.497929E3,1.0349794E3,4.838134E1,8.898249E1,1.196949E3,1.0359019E3],"tree_param":{"num_deleted":"0","num_feature":"5","num_nodes":"15","size_leaf_vector":"1"}},{"base_weights":[-2.6405832E-1,-3.065748E-1,-8.059655E-2,-5.060796E-1,-2.7676484E-1,-1.8065685E-1,-3.7474856E-2,-3.3962708E-3,-5.692357E-3,5.616609E-4,-2.8129932E-3,-3.7161543E-4,-2.9545617E-3,-1.2248976E-3,4.6126838E-4],"categories":[],"categories_nodes":[],"categories_segments":[],"categories_sizes":[],"default_left":[0,0,0,0,0,0,0,0,0,0,0,0,0,0,0],"id":11,"left_children":[1,3,5,7,9,11,13,-1,-1,-1,-1,-1,-1,-1,-1],"loss_changes":[5.4075806E1,3.334607E1,5.6295853E0,7.488571E0,7.414398E0,6.465459E0,6.5028186E0,0E0,0E0,0E0,0E0,0E0,0E0,0E0,0E0],"parents":[2147483647,0,0,1,1,2,2,3,3,4,4,5,5,6,6],"right_children":[2,4,6,8,10,12,14,-1,-1,-1,-1,-1,-1,-1,-1],"split_conditions":[6.138466E-3,2.1505952E-3,-5.800866E-3,-2.1798266E-3,-2.4210623E-2,-1.8298777E-2,7.315898E-3,-3.3962708E-3,-5.692357E-3,5.616609E-4,-2.8129932E-3,-3.7161543E-4,-2.9545617E-3,-1.2248976E-3,4.6126838E-4],"split_indices":[2,2,4,1,4,4,2,0,0,0,0,0,0,0,0],"split_type":[0,0,0,0,0,0,0,0,0,0,0,0,0,0,0],"sum_hessian":[6.934837E3,5.6295435E3,1.3052936E3,7.2974E2,4.899803E3,3.9215088E2,9.1314276E2,2.024763E2,5.272637E2,6.568514E1,4.834118E3,1.748802E2,2.1727068E2,4.5251413E2,4.606286E2],"tree_param":{"num_deleted":"0","num_feature":"5","num_nodes":"15","size_leaf_vector":"1"}},{"base_weights":[3.9225867E-1,5.124117E-1,1.5012357E-1,7.417726E-1,4.6912596E-1,2.3316523E-1,-1.9238533E-2,6.050081E-3,7.8741275E-3,3.254849E-3,4.8577157E-3,-6.5998675E-4,2.6871958E-3,-7.044107E-4,1.759939E-3],"categories":[],"categories_nodes":[],"categories_segments":[],"categories_sizes":[],"default_left":[0,0,0,0,0,0,0,0,0,0,0,0,0,0,0],"id":12,"left_children":[1,3,5,7,9,11,13,-1,-1,-1,-1,-1,-1,-1,-1],"loss_changes":[2.5153198E2,5.7033325E1,4.0363495E1,5.2404175E0,1.1473755E1,2.049952E1,9.4594555E0,0E0,0E0,0E0,0E0,0E0,0E0,0E0,0E0],"parents":[2147483647,0,0,1,1,2,2,3,3,4,4,5,5,6,6],"right_children":[2,4,6,8,10,12,14,-1,-1,-1,-1,-1,-1,-1,-1],"split_conditions":[5.0230846E-3,2.1505952E-3,7.2427327E-3,4.251978E1,-1.5397791E-2,-2.5535319E-2,6.4442097E-3,6.050081E-3,7.8741275E-3,3.254849E-3,4.8577157E-3,-6.5998675E-4,2.6871958E-3,-7.044107E-4,1.759939E-3],"split_indices":[2,2,2,0,1,1,4,0,0,0,0,0,0,0,0],"split_type":[0,0,0,0,0,0,0,0,0,0,0,0,0,0,0],"sum_hessian":[8.647355E3,5.77871E3,2.868645E3,9.148733E2,4.863837E3,1.9245985E3,9.4404645E2,2.3248102E2,6.823923E2,5.072386E2,4.356598E3,2.043432E2,1.7202552E3,7.4840546E2,1.95641E2],"tree_param":{"num_deleted":"0","num_feature":"5","num_nodes":"15","size_leaf_vector":"1"}},{"base_weights":[-2.2463068E-1,-3.2239628E-1,-3.2988597E-2,-4.0834758E-1,-2.9502627E-1,2.1581633E-1,-1.0020922E-1,-4.1649225E-3,9.3868276E-4,-3.1488587E-3,-1.8384837E-3,1.1901606E-3,5.13996E-3,-2.1852828E-3,-8.118488E-4],"categories":[],"categories_nodes":[],"categories_segments":[],"categories_sizes":[],"default_left":[0,0,0,0,0,0,0,0,0,0,0,0,0,0,0],"id":13,"left_children":[1,3,5,7,9,11,13,-1,-1,-1,-1,-1,-1,-1,-1],"loss_changes":[1.3140228E2,1.0805511E1,3.966794E1,4.616867E0,7.727936E0,1.450177E1,4.184698E0,0E0,0E0,0E0,0E0,0E0,0E0,0E0,0E0],"parents":[2147483647,0,0,1,1,2,2,3,3,4,4,5,5,6,6],"right_children":[2,4,6,8,10,12,14,-1,-1,-1,-1,-1,-1,-1,-1],"split_conditions":[5.002582E-3,2.496845E-3,-2.6353076E-2,8.171453E1,6.825814E1,8.633047E-3,3.7560177E1,-4.1649225E-3,9.3868276E-4,-3.1488587E-3,-1.8384837E-3,1.1901606E-3,5.13996E-3,-2.1852828E-3,-8.118488E-4],"split_indices":[2,2,3,0,0,2,0,0,0,0,0,0,0,0,0],"split_type":[0,0,0,0,0,0,0,0,0,0,0,0,0,0,0],"sum_hessian":[7.012926E3,4.643419E3,2.3695073E3,1.1181431E3,3.5252756E3,5.035389E2,1.8659684E3,1.1004668E3,1.7676218E1,2.9894421E3,5.358337E2,3.8118964E2,1.22349266E2,2.5701505E2,1.6089532E3],"tree_param":{"num_deleted":"0","num_feature":"5","num_nodes":"15","size_leaf_vector":"1"}},{"base_weights":[-2.6245528E-1,-3.048058E-1,-8.001408E-2,-5.039009E-1,-2.7510798E-1,-1.7980339E-1,-3.7031405E-2,-3.5882252E-3,-5.6662476E-3,5.6622137E-4,-2.7963363E-3,-3.6915208E-4,-2.9426056E-3,-1.2146579E-3,4.5895978E-4],"categories":[],"categories_nodes":[],"categories_segments":[],"categories_sizes":[],"default_left":[0,0,0,0,0,0,0,0,0,0,0,0,0,0,0],"id":14,"left_children":[1,3,5,7,9,11,13,-1,-1,-1,-1,-1,-1,-1,-1],"loss_changes":[5.346222E1,3.3078674E1,5.5931168E0,6.42157E0,7.358612E0,6.413E0,6.4036665E0,0E0,0E0,0E0,0E0,0E0,0E0,0E0,0E0],"parents":[2147483647,0,0,1,1,2,2,3,3,4,4,5,5,6,6],"right_children":[2,4,6,8,10,12,14,-1,-1,-1,-1,-1,-1,-1,-1],"split_conditions":[6.138466E-3,2.1505952E-3,-5.800866E-3,4.4535175E1,-2.4210623E-2,-1.8298777E-2,7.315898E-3,-3.5882252E-3,-5.6662476E-3,5.6622137E-4,-2.7963363E-3,-3.6915208E-4,-2.9426056E-3,-1.2146579E-3,4.5895978E-4],"split_indices":[2,2,4,0,4,4,2,0,0,0,0,0,0,0,0],"split_type":[0,0,0,0,0,0,0,0,0,0,0,0,0,0,0],"sum_hessian":[6.9215107E3,5.616962E3,1.3045488E3,7.270211E2,4.8899404E3,3.917868E2,9.127621E2,2.2147575E2,5.055454E2,6.565898E1,4.8242817E3,1.748397E2,2.169471E2,4.5204126E2,4.607208E2],"tree_param":{"num_deleted":"0","num_feature":"5","num_nodes":"15","size_leaf_vector":"1"}},{"base_weights":[3.8884404E-1,-2.4452109E-2,4.1997892E-1,-2.5011063E-1,8.2658954E-2,4.3224835E-1,1.3949515E-1,-1.5802891E-3,-4.114739E-3,2.0664723E-3,-2.9089526E-4,2.7598839E-3,4.5232796E-3,3.7922856E-4,3.051055E-3],"categories":[],"categories_nodes":[],"categories_segments":[],"categories_sizes":[],"default_left":[0,0,0,0,0,0,0,0,0,0,0,0,0,0,0],"id":15,"left_children":[1,3,5,7,9,11,13,-1,-1,-1,-1,-1,-1,-1,-1],"loss_changes":[1.1136389E2,1.4696453E1,2.7633911E1,2.8425808E0,5.7212925E0,2.4065308E1,5.686648E0,0E0,0E0,0E0,0E0,0E0,0E0,0E0,0E0],"parents":[2147483647,0,0,1,1,2,2,3,3,4,4,5,5,6,6],"right_children":[2,4,6,8,10,12,14,-1,-1,-1,-1,-1,-1,-1,-1],"split_conditions":[-2.5535319E-2,-4.9148016E-2,3.5800178E-2,-2.2974731E-3,-2.1156616E-4,-1.7987745E-2,8.8848295E-3,-1.5802891E-3,-4.114739E-3,2.0664723E-3,-2.9089526E-4,2.7598839E-3,4.5232796E-3,3.7922856E-4,3.051055E-3],"split_indices":[1,3,1,4,4,3,4,0,0,0,0,0,0,0,0],"split_type":[0,0,0,0,0,0,0,0,0,0,0,0,0,0,0],"sum_hessian":[8.652584E3,6.061767E2,8.046407E3,1.9468495E2,4.1149176E2,7.7086597E3,3.3774765E2,1.2521216E2,6.947279E1,1.9466068E2,2.1683107E2,8.7945685E2,6.8292026E3,2.101111E2,1.2763654E2],"tree_param":{"num_deleted":"0","num_feature":"5","num_nodes":"15","size_leaf_vector":"1"}},{"base_weights":[-2.2314958E-1,-3.2052353E-1,-3.2667283E-2,-4.0626004E-1,-2.9324389E-1,2.1427682E-1,-9.950552E-2,-4.3698237E-3,-2.9979667E-3,-2.5792993E-3,-3.7819303E-3,1.1812038E-3,5.0997576E-3,-6.086576E-4,-2.475984E-3],"categories":[],"categories_nodes":[],"categories_segments":[],"categories_sizes":[],"default_left":[0,0,0,0,0,0,0,0,0,0,0,0,0,0,0],"id":16,"left_children":[1,3,5,7,9,11,13,-1,-1,-1,-1,-1,-1,-1,-1],"loss_changes":[1.298682E2,1.0718048E1,3.91356E1,3.5186462E0,1.0458069E1,1.4301571E1,1.0660952E1,0E0,0E0,0E0,0E0,0E0,0E0,0E0,0E0],"parents":[2147483647,0,0,1,1,2,2,3,3,4,4,5,5,6,6],"right_children":[2,4,6,8,10,12,14,-1,-1,-1,-1,-1,-1,-1,-1],"split_conditions":[5.002582E-3,2.496845E-3,-2.6353076E-2,6.1303563E-3,4.180022E-3,8.633047E-3,9.310475E-3,-4.3698237E-3,-2.9979667E-3,-2.5792993E-3,-3.7819303E-3,1.1812038E-3,5.0997576E-3,-6.086576E-4,-2.475984E-3],"split_indices":[2,2,3,1,4,2,4,0,0,0,0,0,0,0,0],"split_type":[0,0,0,0,0,0,0,0,0,0,0,0,0,0,0],"sum_hessian":[7.001296E3,4.632496E3,2.3688E3,1.1148308E3,3.517665E3,5.0410416E2,1.8646958E3,8.627585E2,2.520723E2,2.487592E3,1.0300731E3,3.8145935E2,1.2264481E2,1.4799615E3,3.8473422E2],"tree_param":{"num_deleted":"0","num_feature":"5","num_nodes":"15","size_leaf_vector":"1"}},{"base_weights":[-2.6085952E-1,-3.0304775E-1,-7.9416215E-2,-5.01734E-1,-2.7346227E-1,-1.7897546E-1,-3.6552284E-2,-3.5682647E-3,-5.6447475E-3,5.695449E-4,-2.77978E-3,-3.6586664E-4,-2.9315518E-3,-1.2041804E-3,4.5715395E-4],"categories":[],"categories_nodes":[],"categories_segments":[],"categories_sizes":[],"default_left":[0,0,0,0,0,0,0,0,0,0,0,0,0,0,0],"id":17,"left_children":[1,3,5,7,9,11,13,-1,-1,-1,-1,-1,-1,-1,-1],"loss_changes":[5.286438E1,3.2812866E1,5.5616217E0,6.3927307E0,7.2988586E0,6.369419E0,6.3071094E0,0E0,0E0,0E0,0E0,0E0,0E0,0E0,0E0],"parents":[2147483647,0,0,1,1,2,2,3,3,4,4,5,5,6,6],"right_children":[2,4,6,8,10,12,14,-1,-1,-1,-1,-1,-1,-1,-1],"split_conditions":[6.138466E-3,2.1505952E-3,-5.800866E-3,4.4535175E1,-2.4210623E-2,-1.8298777E-2,7.315898E-3,-3.5682647E-3,-5.6447475E-3,5.695449E-4,-2.77978E-3,-3.6586664E-4,-2.9315518E-3,-1.2041804E-3,4.5715395E-4],"split_indices":[2,2,4,0,4,4,2,0,0,0,0,0,0,0,0],"split_type":[0,0,0,0,0,0,0,0,0,0,0,0,0,0,0],"sum_hessian":[6.908218E3,5.6044346E3,1.3037831E3,7.2430194E2,4.880133E3,3.9143317E2,9.1234985E2,2.2086766E2,5.034343E2,6.56399E1,4.8144927E3,1.7478566E2,2.1664752E2,4.5155722E2,4.6079263E2],"tree_param":{"num_deleted":"0","num_feature":"5","num_nodes":"15","size_leaf_vector":"1"}},{"base_weights":[3.8546264E-1,5.03821E-1,1.4675587E-1,7.2994137E-1,4.6112972E-1,2.286182E-1,-2.0310571E-2,5.94894E-3,7.7500287E-3,5.6899915E-4,4.6640593E-3,-1.7204864E-3,2.5274747E-3,-3.8729475E-3,2.2807525E-4],"categories":[],"categories_nodes":[],"categories_segments":[],"categories_sizes":[],"default_left":[0,0,0,0,0,0,0,0,0,0,0,0,0,0,0],"id":18,"left_children":[1,3,5,7,9,11,13,-1,-1,-1,-1,-1,-1,-1,-1],"loss_changes":[2.4455823E2,5.5538208E1,3.92771E1,5.1224976E0,1.0363647E1,1.867614E1,1.4966121E1,0E0,0E0,0E0,0E0,0E0,0E0,0E0,0E0],"parents":[2147483647,0,0,1,1,2,2,3,3,4,4,5,5,6,6],"right_children":[2,4,6,8,10,12,14,-1,-1,-1,-1,-1,-1,-1,-1],"split_conditions":[5.0230846E-3,2.1505952E-3,7.2427327E-3,4.251978E1,-2.3676157E-2,-4.1223206E-2,-5.5180926E-2,5.94894E-3,7.7500287E-3,5.6899915E-4,4.6640593E-3,-1.7204864E-3,2.5274747E-3,-3.8729475E-3,2.2807525E-4],"split_indices":[2,2,2,0,4,3,3,0,0,0,0,0,0,0,0],"split_type":[0,0,0,0,0,0,0,0,0,0,0,0,0,0,0],"sum_hessian":[8.65764E3,5.7871006E3,2.870539E3,9.1652185E2,4.8705786E3,1.9262909E3,9.442483E2,2.3285811E2,6.836637E2,6.290634E1,4.8076724E3,1.0906895E2,1.8172219E3,9.843888E1,8.458094E2],"tree_param":{"num_deleted":"0","num_feature":"5","num_nodes":"15","size_leaf_vector":"1"}},{"base_weights":[-2.216747E-1,-3.18838E-1,-3.186931E-2,-4.0457517E-1,-2.9156837E-1,2.1288484E-1,-9.826198E-2,-4.3527414E-3,-2.9826462E-3,-2.563273E-3,-3.7639248E-3,1.173814E-3,5.0606495E-3,-5.978334E-4,-2.4587917E-3],"categories":[],"categories_nodes":[],"categories_segments":[],"categories_sizes":[],"default_left":[0,0,0,0,0,0,0,0,0,0,0,0,0,0,0],"id":19,"left_children":[1,3,5,7,9,11,13,-1,-1,-1,-1,-1,-1,-1,-1],"loss_changes":[1.2891333E2,1.06922E1,3.8501617E1,3.5030975E0,1.0400391E1,1.4097633E1,1.056988E1,0E0,0E0,0E0,0E0,0E0,0E0,0E0,0E0],"parents":[2147483647,0,0,1,1,2,2,3,3,4,4,5,5,6,6],"right_children":[2,4,6,8,10,12,14,-1,-1,-1,-1,-1,-1,-1,-1],"split_conditions":[5.002582E-3,2.496845E-3,-2.6353076E-2,6.1303563E-3,4.180022E-3,8.633047E-3,9.310475E-3,-4.3527414E-3,-2.9826462E-3,-2.563273E-3,-3.7639248E-3,1.173814E-3,5.0606495E-3,-5.978334E-4,-2.4587917E-3],"split_indices":[2,2,3,1,4,2,4,0,0,0,0,0,0,0,0],"split_type":[0,0,0,0,0,0,0,0,0,0,0,0,0,0,0],"sum_hessian":[6.989708E3,4.6226475E3,2.3670603E3,1.1121503E3,3.5104973E3,5.046137E2,1.8624465E3,8.6055566E2,2.5159453E2,2.4829512E3,1.0275463E3,3.8168134E2,1.2293237E2,1.4784669E3,3.8397958E2],"tree_param":{"num_deleted":"0","num_feature":"5","num_nodes":"15","size_leaf_vector":"1"}},{"base_weights":[-2.5926998E-1,-3.013941E-1,-7.828292E-2,-5.0005245E-1,-2.718409E-1,-1.7745695E-1,-3.5618767E-2,-3.3335742E-3,-5.6348518E-3,5.7372695E-4,-2.763477E-3,-3.561112E-4,-2.9135593E-3,-1.1914656E-3,4.6247043E-4],"categories":[],"categories_nodes":[],"categories_segments":[],"categories_sizes":[],"default_left":[0,0,0,0,0,0,0,0,0,0,0,0,0,0,0],"id":20,"left_children":[1,3,5,7,9,11,13,-1,-1,-1,-1,-1,-1,-1,-1],"loss_changes":[5.255081E1,3.2704285E1,5.508315E0,7.4590454E0,7.2436523E0,6.319335E0,6.245588E0,0E0,0E0,0E0,0E0,0E0,0E0,0E0,0E0],"parents":[2147483647,0,0,1,1,2,2,3,3,4,4,5,5,6,6],"right_children":[2,4,6,8,10,12,14,-1,-1,-1,-1,-1,-1,-1,-1],"split_conditions":[6.138466E-3,2.1505952E-3,-5.800866E-3,-2.1798266E-3,-2.4210623E-2,-1.8298777E-2,7.315898E-3,-3.3335742E-3,-5.6348518E-3,5.7372695E-4,-2.763477E-3,-3.561112E-4,-2.9135593E-3,-1.1914656E-3,4.6247043E-4],"split_indices":[2,2,4,1,4,4,2,0,0,0,0,0,0,0,0],"split_type":[0,0,0,0,0,0,0,0,0,0,0,0,0,0,0],"sum_hessian":[6.894974E3,5.5926396E3,1.3023341E3,7.2218115E2,4.8704585E3,3.907847E2,9.115494E2,2.0078728E2,5.2139386E2,6.561588E1,4.804843E3,1.746252E2,2.1615952E2,4.5096933E2,4.6058002E2],"tree_param":{"num_deleted":"0","num_feature":"5","num_nodes":"15","size_leaf_vector":"1"}},{"base_weights":[3.821221E-1,-2.4717426E-2,4.1273338E-1,-2.4701943E-1,8.067399E-2,4.248191E-1,1.3628244E-1,-1.554238E-3,-4.0761875E-3,2.0403254E-3,-3.0525247E-4,4.1983783E-4,4.32754E-3,3.5640944E-4,3.0031998E-3],"categories":[],"categories_nodes":[],"categories_segments":[],"categories_sizes":[],"default_left":[0,0,0,0,0,0,0,0,0,0,0,0,0,0,0],"id":21,"left_children":[1,3,5,7,9,11,13,-1,-1,-1,-1,-1,-1,-1,-1],"loss_changes":[1.07902954E2,1.4245296E1,2.686206E1,2.8128386E0,5.6667404E0,2.3430908E1,5.585164E0,0E0,0E0,0E0,0E0,0E0,0E0,0E0,0E0],"parents":[2147483647,0,0,1,1,2,2,3,3,4,4,5,5,6,6],"right_children":[2,4,6,8,10,12,14,-1,-1,-1,-1,-1,-1,-1,-1],"split_conditions":[-2.5535319E-2,-4.9148016E-2,3.5800178E-2,-2.2974731E-3,-2.1156616E-4,-2.3676157E-2,8.8848295E-3,-1.554238E-3,-4.0761875E-3,2.0403254E-3,-3.0525247E-4,4.1983783E-4,4.32754E-3,3.5640944E-4,3.0031998E-3],"split_indices":[1,3,1,4,4,4,4,0,0,0,0,0,0,0,0],"split_type":[0,0,0,0,0,0,0,0,0,0,0,0,0,0,0],"sum_hessian":[8.662376E3,6.061764E2,8.056199E3,1.9452377E2,4.116526E2,7.71824E3,3.3795892E2,1.2512705E2,6.939672E1,1.9476062E2,2.1689198E2,1.5685193E2,7.5613887E3,2.1020792E2,1.2775101E2],"tree_param":{"num_deleted":"0","num_feature":"5","num_nodes":"15","size_leaf_vector":"1"}},{"base_weights":[-2.2020818E-1,1.4183316E-1,-2.5144893E-1,4.6254426E-1,3.2922246E-2,-2.7536047E-1,-1.4075853E-1,2.7083477E-3,6.7651854E-3,8.624757E-5,1.0785309E-2,-1.8253003E-3,-3.0947998E-3,-8.5779227E-4,-3.0456742E-3],"categories":[],"categories_nodes":[],"categories_segments":[],"categories_sizes":[],"default_left":[0,0,0,0,0,0,0,0,0,0,0,0,0,0,0],"id":22,"left_children":[1,3,5,7,9,11,13,-1,-1,-1,-1,-1,-1,-1,-1],"loss_changes":[7.897266E1,1.9371487E1,1.6967072E1,5.5854015E0,1.0544377E1,1.6675415E1,1.0271824E1,0E0,0E0,0E0,0E0,0E0,0E0,0E0,0E0],"parents":[2147483647,0,0,1,1,2,2,3,3,4,4,5,5,6,6],"right_children":[2,4,6,8,10,12,14,-1,-1,-1,-1,-1,-1,-1,-1],"split_conditions":[-3.003366E-2,-5.1921856E-2,6.825814E1,-9.074765E-3,1.244525E-2,-8.909036E-3,6.6503836E-3,2.7083477E-3,6.7651854E-3,8.624757E-5,1.0785309E-2,-1.8253003E-3,-3.0947998E-3,-8.5779227E-4,-3.0456742E-3],"split_indices":[3,3,0,4,4,3,4,0,0,0,0,0,0,0,0],"split_type":[0,0,0,0,0,0,0,0,0,0,0,0,0,0,0],"sum_hessian":[6.97813E3,5.54033E2,6.4240967E3,1.3962648E2,4.1440656E2,5.2816553E3,1.1424415E3,7.483978E1,6.47867E1,4.0598074E2,8.42579E0,1.4212224E3,3.8604329E3,8.5649805E2,2.8594342E2],"tree_param":{"num_deleted":"0","num_feature":"5","num_nodes":"15","size_leaf_vector":"1"}},{"base_weights":[-2.5768843E-1,-2.996492E-1,-7.770218E-2,-4.9790692E-1,-2.7020755E-1,-9.986671E-2,1.11494E-1,-3.3133114E-3,-5.6138695E-3,5.7076034E-4,-2.7469823E-3,-2.0284671E-3,-5.773264E-4,-2.3503865E-3,4.4364226E-3],"categories":[],"categories_nodes":[],"categories_segments":[],"categories_sizes":[],"default_left":[0,0,0,0,0,0,0,0,0,0,0,0,0,0,0],"id":23,"left_children":[1,3,5,7,9,11,13,-1,-1,-1,-1,-1,-1,-1,-1],"loss_changes":[5.1957733E1,3.244287E1,5.4734607E0,7.4323273E0,7.161072E0,5.0497704E0,1.5880998E1,0E0,0E0,0E0,0E0,0E0,0E0,0E0,0E0],"parents":[2147483647,0,0,1,1,2,2,3,3,4,4,5,5,6,6],"right_children":[2,4,6,8,10,12,14,-1,-1,-1,-1,-1,-1,-1,-1],"split_conditions":[6.138466E-3,2.1505952E-3,1.1245813E-2,-2.1798266E-3,-2.4210623E-2,-5.800866E-3,-1.3690278E-2,-3.3133114E-3,-5.6138695E-3,5.7076034E-4,-2.7469823E-3,-2.0284671E-3,-5.773264E-4,-2.3503865E-3,4.4364226E-3],"split_indices":[2,2,2,1,4,4,1,0,0,0,0,0,0,0,0],"split_type":[0,0,0,0,0,0,0,0,0,0,0,0,0,0,0],"sum_hessian":[6.881752E3,5.580165E3,1.3015869E3,7.194612E2,4.860704E3,1.1655175E3,1.3606946E2,2.002393E2,5.1922186E2,6.563284E1,4.7950713E3,3.373021E2,8.282154E2,6.673585E1,6.933361E1],"tree_param":{"num_deleted":"0","num_feature":"5","num_nodes":"15","size_leaf_vector":"1"}},{"base_weights":[3.788115E-1,4.9561504E-1,1.4310099E-1,7.188642E-1,4.5345497E-1,2.2383243E-1,-2.175509E-2,9.378141E-3,6.9697923E-3,3.128899E-3,4.69739E-3,-6.69058E-4,2.5832602E-3,-3.8314117E-3,2.063803E-4],"categories":[],"categories_nodes":[],"categories_segments":[],"categories_sizes":[],"default_left":[0,0,0,0,0,0,0,0,0,0,0,0,0,0,0],"id":24,"left_children":[1,3,5,7,9,11,13,-1,-1,-1,-1,-1,-1,-1,-1],"loss_changes":[2.385752E2,5.4222412E1,3.824851E1,3.7494812E0,1.10177E1,1.9362366E1,1.4493409E1,0E0,0E0,0E0,0E0,0E0,0E0,0E0,0E0],"parents":[2147483647,0,0,1,1,2,2,3,3,4,4,5,5,6,6],"right_children":[2,4,6,8,10,12,14,-1,-1,-1,-1,-1,-1,-1,-1],"split_conditions":[5.0230846E-3,2.1505952E-3,7.2427327E-3,0E0,-1.5397791E-2,-2.5535319E-2,-5.5180926E-2,9.378141E-3,6.9697923E-3,3.128899E-3,4.69739E-3,-6.69058E-4,2.5832602E-3,-3.8314117E-3,2.063803E-4],"split_indices":[2,2,2,4,1,1,3,0,0,0,0,0,0,0,0],"split_type":[0,0,0,0,0,0,0,0,0,0,0,0,0,0,0],"sum_hessian":[8.667011E3,5.794509E3,2.872502E3,9.179034E2,4.8766055E3,1.9279906E3,9.445113E2,7.960799E1,8.382954E2,5.0838626E2,4.368219E3,2.0438008E2,1.7236106E3,9.8321144E1,8.461902E2],"tree_param":{"num_deleted":"0","num_feature":"5","num_nodes":"15","size_leaf_vector":"1"}},{"base_weights":[-2.187451E-1,-3.1555673E-1,-3.0106341E-2,-4.012754E-1,-2.8831437E-1,2.1056308E-1,-9.566595E-2,-4.3197335E-3,-2.9508304E-3,-2.5312335E-3,-3.7308657E-3,1.1616048E-3,4.9951873E-3,-5.7378155E-4,-2.427514E-3],"categories":[],"categories_nodes":[],"categories_segments":[],"categories_sizes":[],"default_left":[0,0,0,0,0,0,0,0,0,0,0,0,0,0,0],"id":25,"left_children":[1,3,5,7,9,11,13,-1,-1,-1,-1,-1,-1,-1,-1],"loss_changes":[1.2723642E2,1.0636414E1,3.732304E1,3.4841003E0,1.0339539E1,1.3757217E1,1.0453754E1,0E0,0E0,0E0,0E0,0E0,0E0,0E0,0E0],"parents":[2147483647,0,0,1,1,2,2,3,3,4,4,5,5,6,6],"right_children":[2,4,6,8,10,12,14,-1,-1,-1,-1,-1,-1,-1,-1],"split_conditions":[5.002582E-3,2.496845E-3,-2.6353076E-2,6.1303563E-3,4.180022E-3,8.633047E-3,9.310475E-3,-4.3197335E-3,-2.9508304E-3,-2.5312335E-3,-3.7308657E-3,1.1616048E-3,4.9951873E-3,-5.7378155E-4,-2.427514E-3],"split_indices":[2,2,3,1,4,2,4,0,0,0,0,0,0,0,0],"split_type":[0,0,0,0,0,0,0,0,0,0,0,0,0,0,0],"sum_hessian":[6.966633E3,4.603427E3,2.363206E3,1.1068788E3,3.496548E3,5.0545782E2,1.8577483E3,8.562789E2,2.5059991E2,2.4736575E3,1.0228905E3,3.8204477E2,1.23413055E2,1.4751439E3,3.8260437E2],"tree_param":{"num_deleted":"0","num_feature":"5","num_nodes":"15","size_leaf_vector":"1"}},{"base_weights":[-2.5611493E-1,-2.9796544E-1,-7.683731E-2,-4.9613035E-1,-2.6857093E-1,-1.7543517E-1,-3.4469675E-2,-3.5114323E-3,-5.590866E-3,5.671332E-4,-2.7304473E-3,-3.4397884E-4,-2.8890753E-3,-1.1732237E-3,4.6606603E-4],"categories":[],"categories_nodes":[],"categories_segments":[],"categories_sizes":[],"default_left":[0,0,0,0,0,0,0,0,0,0,0,0,0,0,0],"id":26,"left_children":[1,3,5,7,9,11,13,-1,-1,-1,-1,-1,-1,-1,-1],"loss_changes":[5.1518646E1,3.2306732E1,5.4307036E0,6.3592834E0,7.0762634E0,6.246273E0,6.1287766E0,0E0,0E0,0E0,0E0,0E0,0E0,0E0,0E0],"parents":[2147483647,0,0,1,1,2,2,3,3,4,4,5,5,6,6],"right_children":[2,4,6,8,10,12,14,-1,-1,-1,-1,-1,-1,-1,-1],"split_conditions":[6.138466E-3,2.1505952E-3,-5.800866E-3,4.4535175E1,-2.4210623E-2,-1.8298777E-2,7.315898E-3,-3.5114323E-3,-5.590866E-3,5.671332E-4,-2.7304473E-3,-3.4397884E-4,-2.8890753E-3,-1.1732237E-3,4.6606603E-4],"split_indices":[2,2,4,0,4,4,2,0,0,0,0,0,0,0,0],"split_type":[0,0,0,0,0,0,0,0,0,0,0,0,0,0,0],"sum_hessian":[6.868598E3,5.5681177E3,1.3004806E3,7.171987E2,4.8509185E3,3.8991965E2,9.105609E2,2.1912822E2,4.9807053E2,6.5653656E1,4.785265E3,1.7442549E2,2.1549416E2,4.501257E2,4.6043518E2],"tree_param":{"num_deleted":"0","num_feature":"5","num_nodes":"15","size_leaf_vector":"1"}},{"base_weights":[3.7554327E-1,4.9127996E-1,1.4188763E-1,7.1247095E-1,4.4950086E-1,2.2193213E-1,-2.1628542E-2,5.7912576E-3,7.5697415E-3,3.098615E-3,4.6567614E-3,-6.686934E-4,2.5618281E-3,-7.195033E-4,1.70079E-3],"categories":[],"categories_nodes":[],"categories_segments":[],"categories_sizes":[],"default_left":[0,0,0,0,0,0,0,0,0,0,0,0,0,0,0],"id":27,"left_children":[1,3,5,7,9,11,13,-1,-1,-1,-1,-1,-1,-1,-1],"loss_changes":[2.3445044E2,5.3270874E1,3.7622772E1,5.0189514E0,1.08793335E1,1.9104477E1,9.133219E0,0E0,0E0,0E0,0E0,0E0,0E0,0E0,0E0],"parents":[2147483647,0,0,1,1,2,2,3,3,4,4,5,5,6,6],"right_children":[2,4,6,8,10,12,14,-1,-1,-1,-1,-1,-1,-1,-1],"split_conditions":[5.0230846E-3,2.1505952E-3,7.2427327E-3,4.251978E1,-1.5397791E-2,-2.5535319E-2,6.4442097E-3,5.7912576E-3,7.5697415E-3,3.098615E-3,4.6567614E-3,-6.686934E-4,2.5618281E-3,-7.195033E-4,1.70079E-3],"split_indices":[2,2,2,0,1,1,4,0,0,0,0,0,0,0,0],"split_type":[0,0,0,0,0,0,0,0,0,0,0,0,0,0,0],"sum_hessian":[8.671273E3,5.7981646E3,2.8731091E3,9.18627E2,4.879537E3,1.9286422E3,9.444668E2,2.3337569E2,6.8525134E2,5.086434E2,4.370894E3,2.0437785E2,1.7242644E3,7.485918E2,1.9587502E2],"tree_param":{"num_deleted":"0","num_feature":"5","num_nodes":"15","size_leaf_vector":"1"}},{"base_weights":[-2.172931E-1,1.4015763E-1,-2.4829055E-1,4.548321E-1,3.2801833E-2,-2.72158E-1,-1.3790722E-1,2.6541187E-3,6.6589448E-3,8.592026E-5,1.0711892E-2,-1.7969673E-3,-3.0617947E-3,-8.309101E-4,-3.0144276E-3],"categories":[],"categories_nodes":[],"categories_segments":[],"categories_sizes":[],"default_left":[0,0,0,0,0,0,0,0,0,0,0,0,0,0,0],"id":28,"left_children":[1,3,5,7,9,11,13,-1,-1,-1,-1,-1,-1,-1,-1],"loss_changes":[7.710901E1,1.8758644E1,1.6827362E1,5.4718513E0,1.04345455E1,1.6498474E1,1.0195108E1,0E0,0E0,0E0,0E0,0E0,0E0,0E0,0E0],"parents":[2147483647,0,0,1,1,2,2,3,3,4,4,5,5,6,6],"right_children":[2,4,6,8,10,12,14,-1,-1,-1,-1,-1,-1,-1,-1],"split_conditions":[-3.003366E-2,-5.1921856E-2,6.825814E1,-9.074765E-3,1.244525E-2,-8.909036E-3,6.6503836E-3,2.6541187E-3,6.6589448E-3,8.592026E-5,1.0711892E-2,-1.7969673E-3,-3.0617947E-3,-8.309101E-4,-3.0144276E-3],"split_indices":[3,3,0,4,4,3,4,0,0,0,0,0,0,0,0],"split_type":[0,0,0,0,0,0,0,0,0,0,0,0,0,0,0],"sum_hessian":[6.9551167E3,5.547247E2,6.400392E3,1.4028716E2,4.144375E2,5.261309E3,1.1390831E3,7.51239E1,6.516325E1,4.059804E2,8.457083E0,1.416882E3,3.8444272E3,8.5425104E2,2.848321E2],"tree_param":{"num_deleted":"0","num_feature":"5","num_nodes":"15","size_leaf_vector":"1"}},{"base_weights":[-2.545481E-1,-2.9623622E-1,-7.626183E-2,-4.940058E-1,-2.669529E-1,-9.830211E-2,1.11588635E-1,-3.4897139E-3,-5.5705244E-3,5.7113724E-4,-2.7141753E-3,-2.0072756E-3,-5.6443946E-4,-1.3108552E-3,5.796126E-3],"categories":[],"categories_nodes":[],"categories_segments":[],"categories_sizes":[],"default_left":[0,0,0,0,0,0,0,0,0,0,0,0,0,0,0],"id":29,"left_children":[1,3,5,7,9,11,13,-1,-1,-1,-1,-1,-1,-1,-1],"loss_changes":[5.093747E1,3.204901E1,5.3963833E0,6.3479156E0,7.0214844E0,4.9820557E0,1.5642506E1,0E0,0E0,0E0,0E0,0E0,0E0,0E0,0E0],"parents":[2147483647,0,0,1,1,2,2,3,3,4,4,5,5,6,6],"right_children":[2,4,6,8,10,12,14,-1,-1,-1,-1,-1,-1,-1,-1],"split_conditions":[6.138466E-3,2.1505952E-3,1.1245813E-2,4.4535175E1,-2.4210623E-2,-5.800866E-3,1.6518967E-2,-3.4897139E-3,-5.5705244E-3,5.7113724E-4,-2.7141753E-3,-2.0072756E-3,-5.6443946E-4,-1.3108552E-3,5.796126E-3],"split_indices":[2,2,2,0,4,4,3,0,0,0,0,0,0,0,0],"split_type":[0,0,0,0,0,0,0,0,0,0,0,0,0,0,0],"sum_hessian":[6.855455E3,5.5557173E3,1.2997377E3,7.144818E2,4.8412354E3,1.163681E3,1.3605664E2,2.1846149E2,4.960203E2,6.563067E1,4.7756045E3,3.3649478E2,8.271863E2,9.0073E1,4.5983646E1],"tree_param":{"num_deleted":"0","num_feature":"5","num_nodes":"15","size_leaf_vector":"1"}},{"base_weights":[3.7230888E-1,4.8718077E-1,1.403312E-1,7.065364E-1,4.457432E-1,2.1974571E-1,-2.1950016E-2,5.7434323E-3,7.506509E-3,3.0726448E-3,4.617818E-3,-6.681402E-4,2.537156E-3,-7.197359E-4,1.6856563E-3],"categories":[],"categories_nodes":[],"categories_segments":[],"categories_sizes":[],"default_left":[0,0,0,0,0,0,0,0,0,0,0,0,0,0,0],"id":30,"left_children":[1,3,5,7,9,11,13,-1,-1,-1,-1,-1,-1,-1,-1],"loss_changes":[2.311366E2,5.2426758E1,3.705497E1,4.9353943E0,1.0703796E1,1.8807983E1,9.023194E0,0E0,0E0,0E0,0E0,0E0,0E0,0E0,0E0],"parents":[2147483647,0,0,1,1,2,2,3,3,4,4,5,5,6,6],"right_children":[2,4,6,8,10,12,14,-1,-1,-1,-1,-1,-1,-1,-1],"split_conditions":[5.0230846E-3,2.1505952E-3,7.2427327E-3,4.251978E1,-1.5397791E-2,-2.5535319E-2,6.4442097E-3,5.7434323E-3,7.506509E-3,3.0726448E-3,4.617818E-3,-6.681402E-4,2.537156E-3,-7.197359E-4,1.6856563E-3],"split_indices":[2,2,2,0,1,1,4,0,0,0,0,0,0,0,0],"split_type":[0,0,0,0,0,0,0,0,0,0,0,0,0,0,0],"sum_hessian":[8.675349E3,5.801455E3,2.8738938E3,9.1924615E2,4.882209E3,1.9293741E3,9.4451965E2,2.3351514E2,6.85731E2,5.0885718E2,4.3733516E3,2.0437361E2,1.7250006E3,7.4858606E2,1.9593356E2],"tree_param":{"num_deleted":"0","num_feature":"5","num_nodes":"15","size_leaf_vector":"1"}},{"base_weights":[-2.1584567E-1,-3.1212482E-1,-2.884617E-2,-3.9758345E-1,-2.8500018E-1,2.0798491E-1,-9.36099E-2,-4.0579587E-3,1.0524937E-3,-2.4985934E-3,-3.6972233E-3,1.1703713E-3,5.0081215E-3,-5.5556715E-4,-2.40009E-3],"categories":[],"categories_nodes":[],"categories_segments":[],"categories_sizes":[],"default_left":[0,0,0,0,0,0,0,0,0,0,0,0,0,0,0],"id":31,"left_children":[1,3,5,7,9,11,13,-1,-1,-1,-1,-1,-1,-1,-1],"loss_changes":[1.250238E2,1.0513092E1,3.6239006E1,4.5931854E0,1.0278137E1,1.3454321E1,1.0320894E1,0E0,0E0,0E0,0E0,0E0,0E0,0E0,0E0],"parents":[2147483647,0,0,1,1,2,2,3,3,4,4,5,5,6,6],"right_children":[2,4,6,8,10,12,14,-1,-1,-1,-1,-1,-1,-1,-1],"split_conditions":[5.002582E-3,2.496845E-3,-2.6353076E-2,8.171453E1,4.180022E-3,8.8003E-3,9.310475E-3,-4.0579587E-3,1.0524937E-3,-2.4985934E-3,-3.6972233E-3,1.1703713E-3,5.0081215E-3,-5.5556715E-4,-2.40009E-3],"split_indices":[2,2,3,0,4,2,4,0,0,0,0,0,0,0,0],"split_type":[0,0,0,0,0,0,0,0,0,0,0,0,0,0,0],"sum_hessian":[6.943664E3,4.583249E3,2.360415E3,1.10095E3,3.4822993E3,5.0639484E2,1.8540201E3,1.0834478E3,1.7502254E1,2.4641677E3,1.01813153E3,3.874564E2,1.1893846E2,1.4726239E3,3.8139624E2],"tree_param":{"num_deleted":"0","num_feature":"5","num_nodes":"15","size_leaf_vector":"1"}},{"base_weights":[-2.5299066E-1,-2.944742E-1,-7.592386E-2,-4.917669E-1,-2.6532015E-1,-1.7394313E-1,-3.3849217E-2,-3.4685684E-3,-5.5485643E-3,5.754934E-4,-2.6977584E-3,-3.342509E-4,-2.871481E-3,-1.1580714E-3,4.6198536E-4],"categories":[],"categories_nodes":[],"categories_segments":[],"categories_sizes":[],"default_left":[0,0,0,0,0,0,0,0,0,0,0,0,0,0,0],"id":32,"left_children":[1,3,5,7,9,11,13,-1,-1,-1,-1,-1,-1,-1,-1],"loss_changes":[5.0244507E1,3.17583E1,5.3567166E0,6.3223724E0,6.9675293E0,6.198717E0,5.9821467E0,0E0,0E0,0E0,0E0,0E0,0E0,0E0,0E0],"parents":[2147483647,0,0,1,1,2,2,3,3,4,4,5,5,6,6],"right_children":[2,4,6,8,10,12,14,-1,-1,-1,-1,-1,-1,-1,-1],"split_conditions":[6.138466E-3,2.1505952E-3,-5.800866E-3,4.4535175E1,-2.4210623E-2,-1.8298777E-2,7.315898E-3,-3.4685684E-3,-5.5485643E-3,5.754934E-4,-2.6977584E-3,-3.342509E-4,-2.871481E-3,-1.1580714E-3,4.6198536E-4],"split_indices":[2,2,4,0,4,4,2,0,0,0,0,0,0,0,0],"split_type":[0,0,0,0,0,0,0,0,0,0,0,0,0,0,0],"sum_hessian":[6.842359E3,5.543058E3,1.2993009E3,7.116025E2,4.8314556E3,3.8927994E2,9.1002094E2,2.1781104E2,4.9379144E2,6.560569E1,4.76585E3,1.7426508E2,2.1501488E2,4.4942477E2,4.6059613E2],"tree_param":{"num_deleted":"0","num_feature":"5","num_nodes":"15","size_leaf_vector":"1"}},{"base_weights":[3.6911014E-1,4.8294565E-1,1.3914286E-1,7.003335E-1,4.4187552E-1,2.1788381E-1,-2.1819793E-2,5.692709E-3,7.440684E-3,3.0429591E-3,4.57809E-3,-6.676749E-4,2.5161528E-3,-3.7863515E-3,1.9976519E-4],"categories":[],"categories_nodes":[],"categories_segments":[],"categories_sizes":[],"default_left":[0,0,0,0,0,0,0,0,0,0,0,0,0,0,0],"id":33,"left_children":[1,3,5,7,9,11,13,-1,-1,-1,-1,-1,-1,-1,-1],"loss_changes":[2.2716553E2,5.1524414E1,3.644937E1,4.854706E0,1.0571106E1,1.855754E1,1.4108015E1,0E0,0E0,0E0,0E0,0E0,0E0,0E0,0E0],"parents":[2147483647,0,0,1,1,2,2,3,3,4,4,5,5,6,6],"right_children":[2,4,6,8,10,12,14,-1,-1,-1,-1,-1,-1,-1,-1],"split_conditions":[5.0230846E-3,2.1505952E-3,7.2427327E-3,4.251978E1,-1.5397791E-2,-2.5535319E-2,-5.5180926E-2,5.692709E-3,7.440684E-3,3.0429591E-3,4.57809E-3,-6.676749E-4,2.5161528E-3,-3.7863515E-3,1.9976519E-4],"split_indices":[2,2,2,0,1,1,3,0,0,0,0,0,0,0,0],"split_type":[0,0,0,0,0,0,0,0,0,0,0,0,0,0,0],"sum_hessian":[8.679146E3,5.8046846E3,2.874462E3,9.1983923E2,4.8848457E3,1.9299838E3,9.4447815E2,2.3365378E2,6.861854E2,5.0909515E2,4.3757505E3,2.043708E2,1.7256129E3,9.818794E1,8.4629016E2],"tree_param":{"num_deleted":"0","num_feature":"5","num_nodes":"15","size_leaf_vector":"1"}},{"base_weights":[-2.1440738E-1,-3.1029493E-1,-2.8553637E-2,-3.9553508E-1,-2.8326267E-1,2.0650502E-1,-9.294329E-2,-4.03746E-3,1.0591347E-3,-2.4818734E-3,-3.678778E-3,1.1372553E-3,4.89334E-3,-5.509269E-4,-2.38717E-3],"categories":[],"categories_nodes":[],"categories_segments":[],"categories_sizes":[],"default_left":[0,0,0,0,0,0,0,0,0,0,0,0,0,0,0],"id":34,"left_children":[1,3,5,7,9,11,13,-1,-1,-1,-1,-1,-1,-1,-1],"loss_changes":[1.2354825E2,1.042627E1,3.574984E1,4.5662994E0,1.0224579E1,1.3272936E1,1.0215454E1,0E0,0E0,0E0,0E0,0E0,0E0,0E0,0E0],"parents":[2147483647,0,0,1,1,2,2,3,3,4,4,5,5,6,6],"right_children":[2,4,6,8,10,12,14,-1,-1,-1,-1,-1,-1,-1,-1],"split_conditions":[5.002582E-3,2.496845E-3,-2.6353076E-2,8.171453E1,4.180022E-3,8.633047E-3,9.310475E-3,-4.03746E-3,1.0591347E-3,-2.4818734E-3,-3.678778E-3,1.1372553E-3,4.89334E-3,-5.509269E-4,-2.38717E-3],"split_indices":[2,2,3,0,4,2,4,0,0,0,0,0,0,0,0],"split_type":[0,0,0,0,0,0,0,0,0,0,0,0,0,0,0],"sum_hessian":[6.932207E3,4.572465E3,2.359742E3,1.0976478E3,3.4748171E3,5.0693512E2,1.8528069E3,1.0801558E3,1.7492102E1,2.4593018E3,1.01551544E3,3.8277228E2,1.2416285E2,1.4719806E3,3.808264E2],"tree_param":{"num_deleted":"0","num_feature":"5","num_nodes":"15","size_leaf_vector":"1"}},{"base_weights":[-2.514386E-1,-2.9276013E-1,-7.535614E-2,-4.896663E-1,-2.6371625E-1,-1.7310905E-1,-3.3417437E-2,-3.449046E-3,-5.5278814E-3,5.793939E-4,-2.6816274E-3,-3.309406E-4,-2.8603324E-3,-1.1482963E-3,4.6003822E-4],"categories":[],"categories_nodes":[],"categories_segments":[],"categories_sizes":[],"default_left":[0,0,0,0,0,0,0,0,0,0,0,0,0,0,0],"id":35,"left_children":[1,3,5,7,9,11,13,-1,-1,-1,-1,-1,-1,-1,-1],"loss_changes":[4.967511E1,3.1506378E1,5.3219576E0,6.296036E0,6.9133606E0,6.155609E0,5.8933897E0,0E0,0E0,0E0,0E0,0E0,0E0,0E0,0E0],"parents":[2147483647,0,0,1,1,2,2,3,3,4,4,5,5,6,6],"right_children":[2,4,6,8,10,12,14,-1,-1,-1,-1,-1,-1,-1,-1],"split_conditions":[6.138466E-3,2.1505952E-3,-5.800866E-3,4.4535175E1,-2.4210623E-2,-1.8298777E-2,7.315898E-3,-3.449046E-3,-5.5278814E-3,5.793939E-4,-2.6816274E-3,-3.309406E-4,-2.8603324E-3,-1.1482963E-3,4.6003822E-4],"split_indices":[2,2,4,0,4,4,2,0,0,0,0,0,0,0,0],"split_type":[0,0,0,0,0,0,0,0,0,0,0,0,0,0,0],"sum_hessian":[6.8292935E3,5.5307266E3,1.2985669E3,7.088872E2,4.8218394E3,3.889213E2,9.096456E2,2.1720943E2,4.9167776E2,6.558327E1,4.7562563E3,1.7421042E2,2.1471088E2,4.4897244E2,4.6067316E2],"tree_param":{"num_deleted":"0","num_feature":"5","num_nodes":"15","size_leaf_vector":"1"}},{"base_weights":[3.6594546E-1,4.787604E-1,1.3796446E-1,6.9422513E-1,4.3805104E-1,2.1603785E-1,-2.1690683E-2,9.120454E-3,6.724797E-3,3.0135752E-3,4.5388103E-3,-6.672339E-4,2.495336E-3,-3.7621113E-3,1.9804861E-4],"categories":[],"categories_nodes":[],"categories_segments":[],"categories_sizes":[],"default_left":[0,0,0,0,0,0,0,0,0,0,0,0,0,0,0],"id":36,"left_children":[1,3,5,7,9,11,13,-1,-1,-1,-1,-1,-1,-1,-1],"loss_changes":[2.2327588E2,5.0646606E1,3.585356E1,3.7507935E0,1.0440918E1,1.8311172E1,1.3915675E1,0E0,0E0,0E0,0E0,0E0,0E0,0E0,0E0],"parents":[2147483647,0,0,1,1,2,2,3,3,4,4,5,5,6,6],"right_children":[2,4,6,8,10,12,14,-1,-1,-1,-1,-1,-1,-1,-1],"split_conditions":[5.0230846E-3,2.1505952E-3,7.2427327E-3,0E0,-1.5397791E-2,-2.5535319E-2,-5.5180926E-2,9.120454E-3,6.724797E-3,3.0135752E-3,4.5388103E-3,-6.672339E-4,2.495336E-3,-3.7621113E-3,1.9804861E-4],"split_indices":[2,2,2,4,1,1,3,0,0,0,0,0,0,0,0],"split_type":[0,0,0,0,0,0,0,0,0,0,0,0,0,0,0],"sum_hessian":[8.682707E3,5.807703E3,2.8750042E3,9.203676E2,4.8873354E3,1.930575E3,9.44429E2,7.98254E1,8.4054224E2,5.0932318E2,4.378012E3,2.0436809E2,1.7262069E3,9.811442E1,8.4631464E2],"tree_param":{"num_deleted":"0","num_feature":"5","num_nodes":"15","size_leaf_vector":"1"}},{"base_weights":[-2.1297623E-1,-3.0847275E-1,-2.8262924E-2,-3.9349437E-1,-2.8153294E-1,2.0495543E-1,-9.226216E-2,-4.0170387E-3,1.0657304E-3,-3.0155503E-3,-1.6963024E-3,1.1525953E-3,4.927998E-3,-2.1180913E-3,-7.303805E-4],"categories":[],"categories_nodes":[],"categories_segments":[],"categories_sizes":[],"default_left":[0,0,0,0,0,0,0,0,0,0,0,0,0,0,0],"id":37,"left_children":[1,3,5,7,9,11,13,-1,-1,-1,-1,-1,-1,-1,-1],"loss_changes":[1.2208774E2,1.0339966E1,3.5244778E1,4.539566E0,7.7197876E0,1.3071846E1,4.242072E0,0E0,0E0,0E0,0E0,0E0,0E0,0E0,0E0],"parents":[2147483647,0,0,1,1,2,2,3,3,4,4,5,5,6,6],"right_children":[2,4,6,8,10,12,14,-1,-1,-1,-1,-1,-1,-1,-1],"split_conditions":[5.002582E-3,2.496845E-3,-2.6353076E-2,8.171453E1,6.825814E1,8.8003E-3,3.7560177E1,-4.0170387E-3,1.0657304E-3,-3.0155503E-3,-1.6963024E-3,1.1525953E-3,4.927998E-3,-2.1180913E-3,-7.303805E-4],"split_indices":[2,2,3,0,0,2,0,0,0,0,0,0,0,0,0],"split_type":[0,0,0,0,0,0,0,0,0,0,0,0,0,0,0],"sum_hessian":[6.9207744E3,4.561708E3,2.3590664E3,1.0943491E3,3.4673591E3,5.074985E2,1.8515679E3,1.0768671E3,1.748202E1,2.9396843E3,5.2767474E2,3.8799487E2,1.1950364E2,2.551119E2,1.5964559E3],"tree_param":{"num_deleted":"0","num_feature":"5","num_nodes":"15","size_leaf_vector":"1"}},{"base_weights":[-2.4989347E-1,-2.9105344E-1,-7.479052E-2,-4.8757672E-1,-2.621194E-1,-9.667887E-2,1.1143461E-1,-3.4295912E-3,-5.5073355E-3,5.8323436E-4,-2.665567E-3,-1.9836016E-3,-5.518626E-4,-1.2953656E-3,5.7382826E-3],"categories":[],"categories_nodes":[],"categories_segments":[],"categories_sizes":[],"default_left":[0,0,0,0,0,0,0,0,0,0,0,0,0,0,0],"id":38,"left_children":[1,3,5,7,9,11,13,-1,-1,-1,-1,-1,-1,-1,-1],"loss_changes":[4.9111908E1,3.1256836E1,5.305028E0,6.2701416E0,6.8595276E0,4.894779E0,1.5347094E1,0E0,0E0,0E0,0E0,0E0,0E0,0E0,0E0],"parents":[2147483647,0,0,1,1,2,2,3,3,4,4,5,5,6,6],"right_children":[2,4,6,8,10,12,14,-1,-1,-1,-1,-1,-1,-1,-1],"split_conditions":[6.138466E-3,2.1505952E-3,1.1245813E-2,4.4535175E1,-2.4210623E-2,-5.800866E-3,1.6518967E-2,-3.4295912E-3,-5.5073355E-3,5.8323436E-4,-2.665567E-3,-1.9836016E-3,-5.518626E-4,-1.2953656E-3,5.7382826E-3],"split_indices":[2,2,2,0,4,4,3,0,0,0,0,0,0,0,0],"split_type":[0,0,0,0,0,0,0,0,0,0,0,0,0,0,0],"sum_hessian":[6.8162646E3,5.518431E3,1.2978334E3,7.061733E2,4.812258E3,1.1617639E3,1.3606943E2,2.1660895E2,4.895643E2,6.5561195E1,4.746697E3,3.3559015E2,8.261738E2,8.992559E1,4.6143837E1],"tree_param":{"num_deleted":"0","num_feature":"5","num_nodes":"15","size_leaf_vector":"1"}},{"base_weights":[3.6281407E-1,4.7462416E-1,1.3679574E-1,6.8820834E-1,4.3426904E-1,2.1425511E-1,-2.1654353E-2,9.048666E-3,6.6658068E-3,2.983511E-3,4.5000887E-3,-6.6692324E-4,2.4752505E-3,-3.7402813E-3,1.956011E-4],"categories":[],"categories_nodes":[],"categories_segments":[],"categories_sizes":[],"default_left":[0,0,0,0,0,0,0,0,0,0,0,0,0,0,0],"id":39,"left_children":[1,3,5,7,9,11,13,-1,-1,-1,-1,-1,-1,-1,-1],"loss_changes":[2.1946667E2,4.979187E1,3.530961E1,3.7163696E0,1.0328552E1,1.8076363E1,1.3737259E1,0E0,0E0,0E0,0E0,0E0,0E0,0E0,0E0],"parents":[2147483647,0,0,1,1,2,2,3,3,4,4,5,5,6,6],"right_children":[2,4,6,8,10,12,14,-1,-1,-1,-1,-1,-1,-1,-1],"split_conditions":[5.0230846E-3,2.1505952E-3,7.2427327E-3,0E0,-1.5397791E-2,-2.5535319E-2,-5.5180926E-2,9.048666E-3,6.6658068E-3,2.983511E-3,4.5000887E-3,-6.6692324E-4,2.4752505E-3,-3.7402813E-3,1.956011E-4],"split_indices":[2,2,2,4,1,1,3,0,0,0,0,0,0,0,0],"split_type":[0,0,0,0,0,0,0,0,0,0,0,0,0,0,0],"sum_hessian":[8.686053E3,5.810519E3,2.8755334E3,9.208353E2,4.8896836E3,1.9311339E3,9.4439966E2,7.987162E1,8.4096375E2,5.0954892E2,4.380135E3,2.0436578E2,1.7267681E3,9.8046906E1,8.463528E2],"tree_param":{"num_deleted":"0","num_feature":"5","num_nodes":"15","size_leaf_vector":"1"}},{"base_weights":[-2.1155255E-1,-3.0665818E-1,-2.7975567E-2,-3.9146224E-1,-2.7981064E-1,2.033404E-1,-9.156913E-2,-3.996695E-3,1.071377E-3,-2.447314E-3,-3.6449223E-3,1.1195304E-3,4.8094066E-3,-5.387683E-4,-2.3687854E-3],"categories":[],"categories_nodes":[],"categories_segments":[],"categories_sizes":[],"default_left":[0,0,0,0,0,0,0,0,0,0,0,0,0,0,0],"id":40,"left_children":[1,3,5,7,9,11,13,-1,-1,-1,-1,-1,-1,-1,-1],"loss_changes":[1.2064114E2,1.02543335E1,3.4725826E1,4.511673E0,1.0191711E1,1.2861212E1,1.0126953E1,0E0,0E0,0E0,0E0,0E0,0E0,0E0,0E0],"parents":[2147483647,0,0,1,1,2,2,3,3,4,4,5,5,6,6],"right_children":[2,4,6,8,10,12,14,-1,-1,-1,-1,-1,-1,-1,-1],"split_conditions":[5.002582E-3,2.496845E-3,-2.6353076E-2,8.171453E1,4.180022E-3,8.633047E-3,9.310475E-3,-3.996695E-3,1.071377E-3,-2.447314E-3,-3.6449223E-3,1.1195304E-3,4.8094066E-3,-5.387683E-4,-2.3687854E-3],"split_indices":[2,2,3,0,4,2,4,0,0,0,0,0,0,0,0],"split_type":[0,0,0,0,0,0,0,0,0,0,0,0,0,0,0],"sum_hessian":[6.9093794E3,4.5509834E3,2.358396E3,1.091055E3,3.459928E3,5.080849E2,1.8503112E3,1.0735817E3,1.7473389E1,2.449229E3,1.01069916E3,3.8330298E2,1.24781906E2,1.4702966E3,3.8001453E2],"tree_param":{"num_deleted":"0","num_feature":"5","num_nodes":"15","size_leaf_vector":"1"}},{"base_weights":[-2.4835502E-1,-4.1311535E-1,-2.0481013E-1,-4.8549655E-1,-3.415181E-1,-2.4623835E-1,-7.422547E-2,-3.1761888E-3,-5.4981546E-3,-3.5309559E-3,3.5221195E-3,5.8618357E-4,-2.5122196E-3,-9.601812E-4,1.1099816E-3],"categories":[],"categories_nodes":[],"categories_segments":[],"categories_sizes":[],"default_left":[0,0,0,0,0,0,0,0,0,0,0,0,0,0,0],"id":41,"left_children":[1,3,5,7,9,11,13,-1,-1,-1,-1,-1,-1,-1,-1],"loss_changes":[4.8732483E1,7.200348E0,2.910788E1,7.4319305E0,5.8906403E0,6.223694E0,5.2504687E0,0E0,0E0,0E0,0E0,0E0,0E0,0E0,0E0],"parents":[2147483647,0,0,1,1,2,2,3,3,4,4,5,5,6,6],"right_children":[2,4,6,8,10,12,14,-1,-1,-1,-1,-1,-1,-1,-1],"split_conditions":[2.7844394E-3,2.1505952E-3,6.138466E-3,-2.1798266E-3,1.8506818E-2,-2.4210623E-2,1.1245813E-2,-3.1761888E-3,-5.4981546E-3,-3.5309559E-3,3.5221195E-3,5.8618357E-4,-2.5122196E-3,-9.601812E-4,1.1099816E-3],"split_indices":[2,2,2,1,4,4,2,0,0,0,0,0,0,0,0],"split_type":[0,0,0,0,0,0,0,0,0,0,0,0,0,0,0],"sum_hessian":[6.8032773E3,1.420408E3,5.3828696E3,7.034624E2,7.1694556E2,4.0857668E3,1.2971027E3,1.9650537E2,5.0695703E2,7.0566003E2,1.1285547E1,6.5544205E1,4.0202227E3,1.1609872E3,1.361154E2],"tree_param":{"num_deleted":"0","num_feature":"5","num_nodes":"15","size_leaf_vector":"1"}},{"base_weights":[3.5971558E-1,-2.5242768E-2,3.8857844E-1,-2.3858218E-1,7.5568445E-2,4.0011173E-1,1.2443502E-1,-1.4786507E-3,-3.9786273E-3,4.1689677E-3,3.5776352E-4,3.2928327E-4,4.077094E-3,2.589201E-4,2.8500524E-3],"categories":[],"categories_nodes":[],"categories_segments":[],"categories_sizes":[],"default_left":[0,0,0,0,0,0,0,0,0,0,0,0,0,0,0],"id":42,"left_children":[1,3,5,7,9,11,13,-1,-1,-1,-1,-1,-1,-1,-1],"loss_changes":[9.656616E1,1.3073937E1,2.4578125E1,2.7594643E0,5.5946436E0,2.1594238E1,5.3670964E0,0E0,0E0,0E0,0E0,0E0,0E0,0E0,0E0],"parents":[2147483647,0,0,1,1,2,2,3,3,4,4,5,5,6,6],"right_children":[2,4,6,8,10,12,14,-1,-1,-1,-1,-1,-1,-1,-1],"split_conditions":[-2.5535319E-2,-4.9148016E-2,3.5800178E-2,-2.2974731E-3,-2.3676157E-2,-2.3676157E-2,8.8848295E-3,-1.4786507E-3,-3.9786273E-3,4.1689677E-3,3.5776352E-4,3.2928327E-4,4.077094E-3,2.589201E-4,2.8500524E-3],"split_indices":[1,3,1,4,4,4,4,0,0,0,0,0,0,0,0],"split_type":[0,0,0,0,0,0,0,0,0,0,0,0,0,0,0],"sum_hessian":[8.689168E3,6.0605383E2,8.0831143E3,1.9404466E2,4.1200916E2,7.744453E3,3.3866077E2,1.2485992E2,6.918474E1,4.2027664E1,3.699815E2,1.5710628E2,7.587347E3,2.1058475E2,1.2807602E2],"tree_param":{"num_deleted":"0","num_feature":"5","num_nodes":"15","size_leaf_vector":"1"}},{"base_weights":[-2.101357E-1,-3.0485538E-1,-2.7678665E-2,-3.8946953E-1,-2.7808997E-1,2.0184492E-1,-9.0889E-2,-3.9767376E-3,1.0760006E-3,-2.981402E-3,-1.6609277E-3,1.1347696E-3,4.8444066E-3,-2.103289E-3,-7.168946E-4],"categories":[],"categories_nodes":[],"categories_segments":[],"categories_sizes":[],"default_left":[0,0,0,0,0,0,0,0,0,0,0,0,0,0,0],"id":43,"left_children":[1,3,5,7,9,11,13,-1,-1,-1,-1,-1,-1,-1,-1],"loss_changes":[1.1922208E2,1.0176544E1,3.4238983E1,4.4830627E0,7.7055664E0,1.267164E1,4.2274942E0,0E0,0E0,0E0,0E0,0E0,0E0,0E0,0E0],"parents":[2147483647,0,0,1,1,2,2,3,3,4,4,5,5,6,6],"right_children":[2,4,6,8,10,12,14,-1,-1,-1,-1,-1,-1,-1,-1],"split_conditions":[5.002582E-3,2.496845E-3,-2.6353076E-2,8.171453E1,6.825814E1,8.8003E-3,3.7560177E1,-3.9767376E-3,1.0760006E-3,-2.981402E-3,-1.6609277E-3,1.1347696E-3,4.8444066E-3,-2.103289E-3,-7.168946E-4],"split_indices":[2,2,3,0,0,2,0,0,0,0,0,0,0,0,0],"split_type":[0,0,0,0,0,0,0,0,0,0,0,0,0,0,0],"sum_hessian":[6.898009E3,4.5403086E3,2.3577002E3,1.0878162E3,3.4524924E3,5.0862704E2,1.8490732E3,1.0703499E3,1.7466318E1,2.9268525E3,5.256398E2,3.8853375E2,1.2009329E2,2.5469112E2,1.5943821E3],"tree_param":{"num_deleted":"0","num_feature":"5","num_nodes":"15","size_leaf_vector":"1"}},{"base_weights":[-2.4682346E-1,-4.1117278E-1,-2.0345369E-1,-4.8342654E-1,-3.398056E-1,-2.4468513E-1,-7.366532E-2,-3.1546678E-3,-5.4785586E-3,4.230632E-3,-3.458251E-3,-2.455367E-3,5.793312E-3,-9.536121E-4,1.1054467E-3],"categories":[],"categories_nodes":[],"categories_segments":[],"categories_sizes":[],"default_left":[0,0,0,0,0,0,0,0,0,0,0,0,0,0,0],"id":44,"left_children":[1,3,5,7,9,11,13,-1,-1,-1,-1,-1,-1,-1,-1],"loss_changes":[4.8323578E1,7.1424713E0,2.8747406E1,7.421219E0,3.4353256E0,3.0045166E0,5.195658E0,0E0,0E0,0E0,0E0,0E0,0E0,0E0,0E0],"parents":[2147483647,0,0,1,1,2,2,3,3,4,4,5,5,6,6],"right_children":[2,4,6,8,10,12,14,-1,-1,-1,-1,-1,-1,-1,-1],"split_conditions":[2.7844394E-3,2.1505952E-3,6.138466E-3,-2.1798266E-3,-2.366516E-2,6.639749E-2,1.1245813E-2,-3.1546678E-3,-5.4785586E-3,4.230632E-3,-3.458251E-3,-2.455367E-3,5.793312E-3,-9.536121E-4,1.1054467E-3],"split_indices":[2,2,2,1,3,1,2,0,0,0,0,0,0,0,0],"split_type":[0,0,0,0,0,0,0,0,0,0,0,0,0,0,0],"sum_hessian":[6.790335E3,1.4159868E3,5.374348E3,7.007538E2,7.1523303E2,4.077966E3,1.2963821E3,1.9591699E2,5.048368E2,5.057051E0,7.1017596E2,4.0744573E3,3.5087202E0,1.1602164E3,1.3616568E2],"tree_param":{"num_deleted":"0","num_feature":"5","num_nodes":"15","size_leaf_vector":"1"}},{"base_weights":[3.5663992E-1,4.6686408E-1,1.3374817E-1,6.7786574E-1,4.2700237E-1,2.1018547E-1,-2.2684863E-2,5.487317E-3,7.209851E-3,3.8611697E-4,4.3206713E-3,-1.7068095E-3,2.3303926E-3,-3.6990813E-3,1.7861571E-4],"categories":[],"categories_nodes":[],"categories_segments":[],"categories_sizes":[],"default_left":[0,0,0,0,0,0,0,0,0,0,0,0,0,0,0],"id":45,"left_children":[1,3,5,7,9,11,13,-1,-1,-1,-1,-1,-1,-1,-1],"loss_changes":[2.1351453E2,4.8631226E1,3.4416782E1,4.741028E0,9.612061E0,1.6868195E1,1.331862E1,0E0,0E0,0E0,0E0,0E0,0E0,0E0,0E0],"parents":[2147483647,0,0,1,1,2,2,3,3,4,4,5,5,6,6],"right_children":[2,4,6,8,10,12,14,-1,-1,-1,-1,-1,-1,-1,-1],"split_conditions":[5.0230846E-3,2.1505952E-3,7.2427327E-3,4.251978E1,-2.3676157E-2,-4.1223206E-2,-5.5180926E-2,5.487317E-3,7.209851E-3,3.8611697E-4,4.3206713E-3,-1.7068095E-3,2.3303926E-3,-3.6990813E-3,1.7861571E-4],"split_indices":[2,2,2,0,4,3,3,0,0,0,0,0,0,0,0],"split_type":[0,0,0,0,0,0,0,0,0,0,0,0,0,0,0],"sum_hessian":[8.692274E3,5.8153696E3,2.8769045E3,9.215077E2,4.8938623E3,1.9323594E3,9.4454517E2,2.341126E2,6.873951E2,6.310731E1,4.830755E3,1.09020775E2,1.8233386E3,9.7915276E1,8.466299E2],"tree_param":{"num_deleted":"0","num_feature":"5","num_nodes":"15","size_leaf_vector":"1"}},{"base_weights":[-2.0872332E-1,-3.032315E-1,-2.693073E-2,-3.8788027E-1,-2.764646E-1,2.0069845E-1,-8.9740895E-2,-3.9607873E-3,1.0763601E-3,-2.4139143E-3,-3.611915E-3,1.1054943E-3,4.7367252E-3,-1.7009207E-4,-1.6466486E-3],"categories":[],"categories_nodes":[],"categories_segments":[],"categories_sizes":[],"default_left":[0,0,0,0,0,0,0,0,0,0,0,0,0,0,0],"id":46,"left_children":[1,3,5,7,9,11,13,-1,-1,-1,-1,-1,-1,-1,-1],"loss_changes":[1.183291E2,1.0160645E1,3.3717503E1,4.455414E0,1.0154449E1,1.2498848E1,1.0067556E1,0E0,0E0,0E0,0E0,0E0,0E0,0E0,0E0],"parents":[2147483647,0,0,1,1,2,2,3,3,4,4,5,5,6,6],"right_children":[2,4,6,8,10,12,14,-1,-1,-1,-1,-1,-1,-1,-1],"split_conditions":[5.002582E-3,2.496845E-3,-2.6353076E-2,8.171453E1,4.180022E-3,8.633047E-3,4.2044958E-5,-3.9607873E-3,1.0763601E-3,-2.4139143E-3,-3.611915E-3,1.1054943E-3,4.7367252E-3,-1.7009207E-4,-1.6466486E-3],"split_indices":[2,2,3,0,4,2,4,0,0,0,0,0,0,0,0],"split_type":[0,0,0,0,0,0,0,0,0,0,0,0,0,0,0],"sum_hessian":[6.8867266E3,4.5306943E3,2.3560322E3,1.0852289E3,3.4454653E3,5.0903876E2,1.8469934E3,1.0677631E3,1.7465775E1,2.4394783E3,1.00598706E3,3.837209E2,1.2531787E2,9.378307E2,9.091627E2],"tree_param":{"num_deleted":"0","num_feature":"5","num_nodes":"15","size_leaf_vector":"1"}},{"base_weights":[-2.4529673E-1,-8.059032E-2,-2.5796473E-1,-3.811005E-1,-3.457898E-2,-2.7469164E-1,-1.22276224E-1,-4.477969E-3,1.3523459E-3,2.8247715E-3,-8.3261146E-4,2.2066651E-4,-2.8150491E-3,3.2957017E-3,-1.603107E-3],"categories":[],"categories_nodes":[],"categories_segments":[],"categories_sizes":[],"default_left":[0,0,0,0,0,0,0,0,0,0,0,0,0,0,0],"id":47,"left_children":[1,3,5,7,9,11,13,-1,-1,-1,-1,-1,-1,-1,-1],"loss_changes":[1.4122528E1,6.700738E0,1.4251373E1,2.2774668E0,6.540097E0,1.1333649E1,1.1954494E1,0E0,0E0,0E0,0E0,0E0,0E0,0E0,0E0],"parents":[2147483647,0,0,1,1,2,2,3,3,4,4,5,5,6,6],"right_children":[2,4,6,8,10,12,14,-1,-1,-1,-1,-1,-1,-1,-1],"split_conditions":[-2.5535319E-2,-2.3676157E-2,1.1469826E-2,4.6951E1,-1.7706327E-2,-2.3676157E-2,1.2088384E-2,-4.477969E-3,1.3523459E-3,2.8247715E-3,-8.3261146E-4,2.2066651E-4,-2.8150491E-3,3.2957017E-3,-1.603107E-3],"split_indices":[1,4,4,0,4,4,4,0,0,0,0,0,0,0,0],"split_type":[0,0,0,0,0,0,0,0,0,0,0,0,0,0,0],"sum_hessian":[6.777481E3,4.8456998E2,6.292911E3,6.3374493E1,4.211955E2,5.60138E3,6.915312E2,5.624227E1,7.132223E0,5.5424637E1,3.6577084E2,1.25665474E2,5.4757144E3,5.3095547E1,6.3843567E2],"tree_param":{"num_deleted":"0","num_feature":"5","num_nodes":"15","size_leaf_vector":"1"}},{"base_weights":[3.536044E-1,-2.538986E-2,3.8199648E-1,-2.355685E-1,7.3809676E-2,3.933718E-1,1.2140933E-1,-1.4513669E-3,-3.9442903E-3,1.9608575E-3,-3.6423886E-4,3.160584E-4,4.0085344E-3,-4.116829E-3,1.5046693E-3],"categories":[],"categories_nodes":[],"categories_segments":[],"categories_sizes":[],"default_left":[0,0,0,0,0,0,0,0,0,0,0,0,0,0,0],"id":48,"left_children":[1,3,5,7,9,11,13,-1,-1,-1,-1,-1,-1,-1,-1],"loss_changes":[9.3582886E1,1.2672965E1,2.3933105E1,2.7422056E0,5.575655E0,2.0966919E1,5.325991E0,0E0,0E0,0E0,0E0,0E0,0E0,0E0,0E0],"parents":[2147483647,0,0,1,1,2,2,3,3,4,4,5,5,6,6],"right_children":[2,4,6,8,10,12,14,-1,-1,-1,-1,-1,-1,-1,-1],"split_conditions":[-2.5535319E-2,-4.9148016E-2,3.5800178E-2,-2.2974731E-3,-2.1156616E-4,-2.3676157E-2,5.358411E1,-1.4513669E-3,-3.9442903E-3,1.9608575E-3,-3.6423886E-4,3.160584E-4,4.0085344E-3,-4.116829E-3,1.5046693E-3],"split_indices":[1,3,1,4,4,4,0,0,0,0,0,0,0,0,0],"split_type":[0,0,0,0,0,0,0,0,0,0,0,0,0,0,0],"sum_hessian":[8.69504E3,6.059931E2,8.089047E3,1.9386586E2,4.1212726E2,7.75022E3,3.3882672E2,1.2475969E2,6.910617E1,1.9502159E2,2.1710567E2,1.5714018E2,7.59308E3,1.6833359E1,3.2199338E2],"tree_param":{"num_deleted":"0","num_feature":"5","num_nodes":"15","size_leaf_vector":"1"}},{"base_weights":[-2.0732334E-1,-3.0139974E-1,-2.6763419E-2,-3.8573632E-1,-2.7476037E-1,4.2586207E-1,-5.566544E-2,-3.9393455E-3,1.0842928E-3,-2.3977302E-3,-3.5933927E-3,1.5659818E-3,5.688534E-3,2.8476812E-4,-1.5357166E-3],"categories":[],"categories_nodes":[],"categories_segments":[],"categories_sizes":[],"default_left":[0,0,0,0,0,0,0,0,0,0,0,0,0,0,0],"id":49,"left_children":[1,3,5,7,9,11,13,-1,-1,-1,-1,-1,-1,-1,-1],"loss_changes":[1.1679785E2,1.0050842E1,3.08524E1,4.4291687E0,1.0090759E1,5.361433E0,1.8260288E1,0E0,0E0,0E0,0E0,0E0,0E0,0E0,0E0],"parents":[2147483647,0,0,1,1,2,2,3,3,4,4,5,5,6,6],"right_children":[2,4,6,8,10,12,14,-1,-1,-1,-1,-1,-1,-1,-1],"split_conditions":[5.002582E-3,2.496845E-3,-4.3602113E-2,8.171453E1,4.180022E-3,-1.8298777E-2,4.2044958E-5,-3.9393455E-3,1.0842928E-3,-2.3977302E-3,-3.5933927E-3,1.5659818E-3,5.688534E-3,2.8476812E-4,-1.5357166E-3],"split_indices":[2,2,1,0,4,4,4,0,0,0,0,0,0,0,0],"split_type":[0,0,0,0,0,0,0,0,0,0,0,0,0,0,0],"sum_hessian":[6.8754287E3,4.519818E3,2.3556108E3,1.0817296E3,3.4380881E3,1.4056302E2,2.2150479E3,1.064276E3,1.7453636E1,2.4347512E3,1.0033369E3,4.9481205E1,9.108182E1,1.1916409E3,1.02340704E3],"tree_param":{"num_deleted":"0","num_feature":"5","num_nodes":"15","size_leaf_vector":"1"}},{"base_weights":[-2.4377672E-1,-4.0801162E-1,-2.0050906E-1,-4.8030585E-1,-3.3671522E-1,-2.4156532E-1,-7.149339E-2,-3.1207865E-3,-5.449426E-3,-3.4832736E-3,3.5591715E-3,6.076704E-4,-2.4652788E-3,-1.692954E-3,-2.9561375E-4],"categories":[],"categories_nodes":[],"categories_segments":[],"categories_sizes":[],"default_left":[0,0,0,0,0,0,0,0,0,0,0,0,0,0,0],"id":50,"left_children":[1,3,5,7,9,11,13,-1,-1,-1,-1,-1,-1,-1,-1],"loss_changes":[4.7995453E1,7.104782E0,2.835765E1,7.4159393E0,5.8596954E0,6.111313E0,5.304199E0,0E0,0E0,0E0,0E0,0E0,0E0,0E0,0E0],"parents":[2147483647,0,0,1,1,2,2,3,3,4,4,5,5,6,6],"right_children":[2,4,6,8,10,12,14,-1,-1,-1,-1,-1,-1,-1,-1],"split_conditions":[2.7844394E-3,2.1505952E-3,6.138466E-3,-2.1798266E-3,1.8506818E-2,-2.4210623E-2,-5.800866E-3,-3.1207865E-3,-5.449426E-3,-3.4832736E-3,3.5591715E-3,6.076704E-4,-2.4652788E-3,-1.692954E-3,-2.9561375E-4],"split_indices":[2,2,2,1,4,4,4,0,0,0,0,0,0,0,0],"split_type":[0,0,0,0,0,0,0,0,0,0,0,0,0,0,0],"sum_hessian":[6.764674E3,1.408787E3,5.355887E3,6.9664996E2,7.1213696E2,4.062286E3,1.293601E3,1.9498898E2,5.01661E2,7.008836E2,1.1253381E1,6.542114E1,3.9968647E3,3.872781E2,9.063229E2],"tree_param":{"num_deleted":"0","num_feature":"5","num_nodes":"15","size_leaf_vector":"1"}},{"base_weights":[3.5059094E-1,4.5936155E-1,1.3058777E-1,6.682944E-1,4.1990083E-1,2.0613292E-1,-2.4075836E-2,5.400381E-3,7.111344E-3,2.8614688E-3,4.3539223E-3,-6.687789E-4,2.3841923E-3,-3.6619604E-3,1.5811404E-4],"categories":[],"categories_nodes":[],"categories_segments":[],"categories_sizes":[],"default_left":[0,0,0,0,0,0,0,0,0,0,0,0,0,0,0],"id":51,"left_children":[1,3,5,7,9,11,13,-1,-1,-1,-1,-1,-1,-1,-1],"loss_changes":[2.0810022E2,4.7707275E1,3.3646614E1,4.687256E0,1.002533E1,1.7067764E1,1.2911783E1,0E0,0E0,0E0,0E0,0E0,0E0,0E0,0E0],"parents":[2147483647,0,0,1,1,2,2,3,3,4,4,5,5,6,6],"right_children":[2,4,6,8,10,12,14,-1,-1,-1,-1,-1,-1,-1,-1],"split_conditions":[5.0230846E-3,2.1505952E-3,7.2427327E-3,4.251978E1,-1.5397791E-2,-2.5535319E-2,-5.5180926E-2,5.400381E-3,7.111344E-3,2.8614688E-3,4.3539223E-3,-6.687789E-4,2.3841923E-3,-3.6619604E-3,1.5811404E-4],"split_indices":[2,2,2,0,1,1,3,0,0,0,0,0,0,0,0],"split_type":[0,0,0,0,0,0,0,0,0,0,0,0,0,0,0],"sum_hessian":[8.697763E3,5.8194917E3,2.8782715E3,9.219741E2,4.8975176E3,1.9335165E3,9.4475507E2,2.342554E2,6.877187E2,5.10375E2,4.3871426E3,2.0436334E2,1.7291531E3,9.7792244E1,8.469628E2],"tree_param":{"num_deleted":"0","num_feature":"5","num_nodes":"15","size_leaf_vector":"1"}},{"base_weights":[-2.0592433E-1,-2.9979008E-1,-2.6023638E-2,-3.8416007E-1,-2.7314982E-1,4.2207307E-1,-5.472803E-2,-3.9235256E-3,1.084537E-3,-2.382325E-3,-3.576121E-3,1.5508005E-3,5.636073E-3,2.8971708E-4,-1.5221655E-3],"categories":[],"categories_nodes":[],"categories_segments":[],"categories_sizes":[],"default_left":[0,0,0,0,0,0,0,0,0,0,0,0,0,0,0],"id":52,"left_children":[1,3,5,7,9,11,13,-1,-1,-1,-1,-1,-1,-1,-1],"loss_changes":[1.15921844E2,1.00347595E1,3.0313396E1,4.401764E0,1.0036774E1,5.274357E0,1.8070705E1,0E0,0E0,0E0,0E0,0E0,0E0,0E0,0E0],"parents":[2147483647,0,0,1,1,2,2,3,3,4,4,5,5,6,6],"right_children":[2,4,6,8,10,12,14,-1,-1,-1,-1,-1,-1,-1,-1],"split_conditions":[5.002582E-3,2.496845E-3,-4.3602113E-2,8.171453E1,4.180022E-3,-1.8298777E-2,4.2044958E-5,-3.9235256E-3,1.084537E-3,-2.382325E-3,-3.576121E-3,1.5508005E-3,5.636073E-3,2.8971708E-4,-1.5221655E-3],"split_indices":[2,2,1,0,4,4,4,0,0,0,0,0,0,0,0],"split_type":[0,0,0,0,0,0,0,0,0,0,0,0,0,0,0],"sum_hessian":[6.86422E3,4.5102607E3,2.3539595E3,1.0791528E3,3.431108E3,1.408881E2,2.2130713E3,1.0616996E3,1.745327E1,2.4302468E3,1.00086096E3,4.9536743E1,9.135137E1,1.1911234E3,1.021948E3],"tree_param":{"num_deleted":"0","num_feature":"5","num_nodes":"15","size_leaf_vector":"1"}},{"base_weights":[-2.4226461E-1,-4.0638462E-1,-1.9906841E-1,-4.7872314E-1,-3.3509707E-1,-2.4002618E-1,-7.0478894E-2,-3.1056975E-3,-5.4341196E-3,4.266159E-3,-3.4113778E-3,-2.4087923E-3,5.804158E-3,-9.208977E-4,1.1271237E-3],"categories":[],"categories_nodes":[],"categories_segments":[],"categories_sizes":[],"default_left":[0,0,0,0,0,0,0,0,0,0,0,0,0,0,0],"id":53,"left_children":[1,3,5,7,9,11,13,-1,-1,-1,-1,-1,-1,-1,-1],"loss_changes":[4.779294E1,7.090439E0,2.8148743E1,7.3972626E0,3.4194183E0,2.9782867E0,5.1304593E0,0E0,0E0,0E0,0E0,0E0,0E0,0E0,0E0],"parents":[2147483647,0,0,1,1,2,2,3,3,4,4,5,5,6,6],"right_children":[2,4,6,8,10,12,14,-1,-1,-1,-1,-1,-1,-1,-1],"split_conditions":[2.7844394E-3,2.1505952E-3,6.138466E-3,-2.1798266E-3,-2.366516E-2,6.639749E-2,1.1245813E-2,-3.1056975E-3,-5.4341196E-3,4.266159E-3,-3.4113778E-3,-2.4087923E-3,5.804158E-3,-9.208977E-4,1.1271237E-3],"split_indices":[2,2,2,1,3,1,2,0,0,0,0,0,0,0,0],"split_type":[0,0,0,0,0,0,0,0,0,0,0,0,0,0,0],"sum_hessian":[6.7519136E3,1.4050703E3,5.3468433E3,6.945577E2,7.105126E2,4.0545422E3,1.2923014E3,1.9457545E2,4.999822E2,5.0425525E0,7.0547003E2,4.0510364E3,3.5057473E0,1.1563816E3,1.3591975E2],"tree_param":{"num_deleted":"0","num_feature":"5","num_nodes":"15","size_leaf_vector":"1"}},{"base_weights":[3.4761778E-1,-2.5528083E-2,3.7555125E-1,-2.3276328E-1,7.217198E-2,3.8676143E-1,1.18691295E-1,-1.4307642E-3,-3.90439E-3,1.9387903E-3,-3.756346E-4,2.4283682E-3,4.0523848E-3,2.1104264E-4,2.7770172E-3],"categories":[],"categories_nodes":[],"categories_segments":[],"categories_sizes":[],"default_left":[0,0,0,0,0,0,0,0,0,0,0,0,0,0,0],"id":54,"left_children":[1,3,5,7,9,11,13,-1,-1,-1,-1,-1,-1,-1,-1],"loss_changes":[9.0703E1,1.2305224E1,2.326355E1,2.6973972E0,5.526271E0,2.0527588E1,5.2695107E0,0E0,0E0,0E0,0E0,0E0,0E0,0E0,0E0],"parents":[2147483647,0,0,1,1,2,2,3,3,4,4,5,5,6,6],"right_children":[2,4,6,8,10,12,14,-1,-1,-1,-1,-1,-1,-1,-1],"split_conditions":[-2.5535319E-2,-4.9148016E-2,3.5800178E-2,-2.2974731E-3,-2.1156616E-4,-1.7987745E-2,8.8848295E-3,-1.4307642E-3,-3.90439E-3,1.9387903E-3,-3.756346E-4,2.4283682E-3,4.0523848E-3,2.1104264E-4,2.7770172E-3],"split_indices":[1,3,1,4,4,3,4,0,0,0,0,0,0,0,0],"split_type":[0,0,0,0,0,0,0,0,0,0,0,0,0,0,0],"sum_hessian":[8.70007E3,6.059291E2,8.0941416E3,1.9369438E2,4.1223468E2,7.755176E3,3.3896585E2,1.2468197E2,6.9012405E1,1.9509215E2,2.1714255E2,8.839447E2,6.871231E3,2.107551E2,1.2821075E2],"tree_param":{"num_deleted":"0","num_feature":"5","num_nodes":"15","size_leaf_vector":"1"}},{"base_weights":[-2.0453511E-1,-2.980162E-1,-2.5740284E-2,-3.8219202E-1,-2.7145994E-1,1.97784E-1,-8.7669745E-2,-4.1341586E-3,-2.7454542E-3,-2.3661114E-3,-3.5581037E-3,1.1125024E-3,4.731866E-3,-5.041775E-4,-2.316882E-3],"categories":[],"categories_nodes":[],"categories_segments":[],"categories_sizes":[],"default_left":[0,0,0,0,0,0,0,0,0,0,0,0,0,0,0],"id":55,"left_children":[1,3,5,7,9,11,13,-1,-1,-1,-1,-1,-1,-1,-1],"loss_changes":[1.1454965E2,9.957062E0,3.2607197E1,3.506195E0,9.983002E0,1.212706E1,9.882508E0,0E0,0E0,0E0,0E0,0E0,0E0,0E0,0E0],"parents":[2147483647,0,0,1,1,2,2,3,3,4,4,5,5,6,6],"right_children":[2,4,6,8,10,12,14,-1,-1,-1,-1,-1,-1,-1,-1],"split_conditions":[5.002582E-3,2.496845E-3,-2.6353076E-2,6.1303563E-3,4.180022E-3,8.8003E-3,9.310475E-3,-4.1341586E-3,-2.7454542E-3,-2.3661114E-3,-3.5581037E-3,1.1125024E-3,4.731866E-3,-5.041775E-4,-2.316882E-3],"split_indices":[2,2,3,1,4,2,4,0,0,0,0,0,0,0,0],"split_type":[0,0,0,0,0,0,0,0,0,0,0,0,0,0,0],"sum_hessian":[6.852998E3,4.499705E3,2.3532925E3,1.0759277E3,3.4237776E3,5.1007315E2,1.8432195E3,8.3181274E2,2.4411499E2,2.4255032E3,9.9827423E2,3.891903E2,1.20882835E2,1.4655011E3,3.7771835E2],"tree_param":{"num_deleted":"0","num_feature":"5","num_nodes":"15","size_leaf_vector":"1"}},{"base_weights":[-2.4076064E-1,-4.0446982E-1,-1.9774014E-1,-4.766871E-1,-3.334082E-1,-2.3849641E-1,-6.995981E-2,-3.3112029E-3,-5.4058284E-3,-3.4503643E-3,3.5752305E-3,6.231708E-4,-2.4344684E-3,-1.6757428E-3,-2.8132726E-4],"categories":[],"categories_nodes":[],"categories_segments":[],"categories_sizes":[],"default_left":[0,0,0,0,0,0,0,0,0,0,0,0,0,0,0],"id":56,"left_children":[1,3,5,7,9,11,13,-1,-1,-1,-1,-1,-1,-1,-1],"loss_changes":[4.7389862E1,7.0342712E0,2.7790543E1,6.265335E0,5.8262405E0,6.0430603E0,5.2730126E0,0E0,0E0,0E0,0E0,0E0,0E0,0E0,0E0],"parents":[2147483647,0,0,1,1,2,2,3,3,4,4,5,5,6,6],"right_children":[2,4,6,8,10,12,14,-1,-1,-1,-1,-1,-1,-1,-1],"split_conditions":[2.7844394E-3,2.1505952E-3,6.138466E-3,4.4535175E1,1.8506818E-2,-2.4210623E-2,-5.800866E-3,-3.3112029E-3,-5.4058284E-3,-3.4503643E-3,3.5752305E-3,6.231708E-4,-2.4344684E-3,-1.6757428E-3,-2.8132726E-4],"split_indices":[2,2,2,0,4,4,4,0,0,0,0,0,0,0,0],"split_type":[0,0,0,0,0,0,0,0,0,0,0,0,0,0,0],"sum_hessian":[6.739153E3,1.4006711E3,5.338482E3,6.918556E2,7.0881555E2,4.0468494E3,1.2916324E3,2.1293376E2,4.7892184E2,6.975761E2,1.1239454E1,6.533229E1,3.981517E3,3.8653806E2,9.0509436E2],"tree_param":{"num_deleted":"0","num_feature":"5","num_nodes":"15","size_leaf_vector":"1"}},{"base_weights":[3.4466583E-1,4.5193037E-1,1.2766808E-1,6.584081E-1,4.1294548E-1,2.0230006E-1,-2.5182744E-2,5.313091E-3,7.0087486E-3,3.1697046E-4,4.1791657E-3,-1.6889117E-3,2.245354E-3,-3.6245836E-3,1.4078105E-4],"categories":[],"categories_nodes":[],"categories_segments":[],"categories_sizes":[],"default_left":[0,0,0,0,0,0,0,0,0,0,0,0,0,0,0],"id":57,"left_children":[1,3,5,7,9,11,13,-1,-1,-1,-1,-1,-1,-1,-1],"loss_changes":[2.0252417E2,4.6608154E1,3.2863903E1,4.611084E0,9.27655E0,1.601307E1,1.2530416E1,0E0,0E0,0E0,0E0,0E0,0E0,0E0,0E0],"parents":[2147483647,0,0,1,1,2,2,3,3,4,4,5,5,6,6],"right_children":[2,4,6,8,10,12,14,-1,-1,-1,-1,-1,-1,-1,-1],"split_conditions":[5.0230846E-3,2.1505952E-3,7.2427327E-3,4.251978E1,-2.3676157E-2,-4.1223206E-2,-5.5180926E-2,5.313091E-3,7.0087486E-3,3.1697046E-4,4.1791657E-3,-1.6889117E-3,2.245354E-3,-3.6245836E-3,1.4078105E-4],"split_indices":[2,2,2,0,4,3,3,0,0,0,0,0,0,0,0],"split_type":[0,0,0,0,0,0,0,0,0,0,0,0,0,0,0],"sum_hessian":[8.702405E3,5.8229634E3,2.8794417E3,9.222915E2,4.900672E3,1.9345446E3,9.4489716E2,2.3436649E2,6.8792505E2,6.3172657E1,4.8374995E3,1.0896217E2,1.8255824E3,9.766456E1,8.472326E2],"tree_param":{"num_deleted":"0","num_feature":"5","num_nodes":"15","size_leaf_vector":"1"}},{"base_weights":[-2.0315151E-1,-2.964192E-1,-2.5017738E-2,-3.806076E-1,-2.6986977E-1,1.9648209E-1,-8.651275E-2,-4.118094E-3,-2.73117E-3,-2.3509657E-3,-3.540922E-3,1.1055666E-3,4.695146E-3,-4.942159E-4,-2.300512E-3],"categories":[],"categories_nodes":[],"categories_segments":[],"categories_sizes":[],"default_left":[0,0,0,0,0,0,0,0,0,0,0,0,0,0,0],"id":58,"left_children":[1,3,5,7,9,11,13,-1,-1,-1,-1,-1,-1,-1,-1],"loss_changes":[1.13680664E2,9.935791E0,3.2062817E1,3.4907074E0,9.926636E0,1.194903E1,9.796062E0,0E0,0E0,0E0,0E0,0E0,0E0,0E0,0E0],"parents":[2147483647,0,0,1,1,2,2,3,3,4,4,5,5,6,6],"right_children":[2,4,6,8,10,12,14,-1,-1,-1,-1,-1,-1,-1,-1],"split_conditions":[5.002582E-3,2.496845E-3,-2.6353076E-2,6.1303563E-3,4.180022E-3,8.8003E-3,9.310475E-3,-4.118094E-3,-2.73117E-3,-2.3509657E-3,-3.540922E-3,1.1055666E-3,4.695146E-3,-4.942159E-4,-2.300512E-3],"split_indices":[2,2,3,1,4,2,4,0,0,0,0,0,0,0,0],"split_type":[0,0,0,0,0,0,0,0,0,0,0,0,0,0,0],"sum_hessian":[6.8418555E3,4.490201E3,2.351654E3,1.0733297E3,3.4168716E3,5.1053937E2,1.8411147E3,8.296671E2,2.4366264E2,2.421068E3,9.958032E2,3.893978E2,1.2114157E2,1.4641217E3,3.7699307E2],"tree_param":{"num_deleted":"0","num_feature":"5","num_nodes":"15","size_leaf_vector":"1"}},{"base_weights":[-2.3926179E-1,-4.02839E-1,-1.9631906E-1,-4.7510147E-1,-3.3178714E-1,-2.3698641E-1,-6.892707E-2,-3.068166E-3,-5.3999214E-3,-3.4340443E-3,3.5616842E-3,6.266609E-4,-2.4192578E-3,-1.6615263E-3,-2.729991E-4],"categories":[],"categories_nodes":[],"categories_segments":[],"categories_sizes":[],"default_left":[0,0,0,0,0,0,0,0,0,0,0,0,0,0,0],"id":59,"left_children":[1,3,5,7,9,11,13,-1,-1,-1,-1,-1,-1,-1,-1],"loss_changes":[4.7177765E1,7.019882E0,2.7599655E1,7.37735E0,5.7822723E0,5.9950714E0,5.221682E0,0E0,0E0,0E0,0E0,0E0,0E0,0E0,0E0],"parents":[2147483647,0,0,1,1,2,2,3,3,4,4,5,5,6,6],"right_children":[2,4,6,8,10,12,14,-1,-1,-1,-1,-1,-1,-1,-1],"split_conditions":[2.7844394E-3,2.1505952E-3,6.138466E-3,-2.1798266E-3,1.8506818E-2,-2.4210623E-2,-5.800866E-3,-3.068166E-3,-5.3999214E-3,-3.4340443E-3,3.5616842E-3,6.266609E-4,-2.4192578E-3,-1.6615263E-3,-2.729991E-4],"split_indices":[2,2,2,1,4,4,4,0,0,0,0,0,0,0,0],"split_type":[0,0,0,0,0,0,0,0,0,0,0,0,0,0,0],"sum_hessian":[6.726486E3,1.3969297E3,5.329556E3,6.897453E2,7.071843E2,4.0392468E3,1.2903094E3,1.9354407E2,4.9620123E2,6.959331E2,1.12512E1,6.531222E1,3.9739348E3,3.8592972E2,9.043797E2],"tree_param":{"num_deleted":"0","num_feature":"5","num_nodes":"15","size_leaf_vector":"1"}},{"base_weights":[3.417531E-1,4.4809034E-1,1.2660277E-1,6.5291154E-1,4.0942544E-1,2.0067564E-1,-2.5142835E-2,5.265834E-3,6.951281E-3,3.1035065E-4,4.1435836E-3,-1.6815392E-3,2.2276028E-3,-3.6032307E-3,1.3843557E-4],"categories":[],"categories_nodes":[],"categories_segments":[],"categories_sizes":[],"default_left":[0,0,0,0,0,0,0,0,0,0,0,0,0,0,0],"id":60,"left_children":[1,3,5,7,9,11,13,-1,-1,-1,-1,-1,-1,-1,-1],"loss_changes":[1.991081E2,4.5867188E1,3.2386158E1,4.558502E0,9.13916E0,1.5806831E1,1.2364918E1,0E0,0E0,0E0,0E0,0E0,0E0,0E0,0E0],"parents":[2147483647,0,0,1,1,2,2,3,3,4,4,5,5,6,6],"right_children":[2,4,6,8,10,12,14,-1,-1,-1,-1,-1,-1,-1,-1],"split_conditions":[5.0230846E-3,2.1505952E-3,7.2427327E-3,4.251978E1,-2.3676157E-2,-4.1223206E-2,-5.5180926E-2,5.265834E-3,6.951281E-3,3.1035065E-4,4.1435836E-3,-1.6815392E-3,2.2276028E-3,-3.6032307E-3,1.3843557E-4],"split_indices":[2,2,2,0,4,3,3,0,0,0,0,0,0,0,0],"split_type":[0,0,0,0,0,0,0,0,0,0,0,0,0,0,0],"sum_hessian":[8.704329E3,5.824506E3,2.8798232E3,9.223927E2,4.9021133E3,1.9349685E3,9.4485486E2,2.3441261E2,6.879801E2,6.317847E1,4.8389346E3,1.0894209E2,1.8260264E3,9.759059E1,8.472643E2],"tree_param":{"num_deleted":"0","num_feature":"5","num_nodes":"15","size_leaf_vector":"1"}},{"base_weights":[-2.017769E-1,1.3279338E-1,-2.3153138E-1,4.215746E-1,3.2289557E-2,-2.553722E-1,-1.2168974E-1,2.3945079E-3,6.2391427E-3,7.932944E-5,1.0831005E-2,-1.6431715E-3,-2.890531E-3,-6.647635E-4,-2.8681094E-3],"categories":[],"categories_nodes":[],"categories_segments":[],"categories_sizes":[],"default_left":[0,0,0,0,0,0,0,0,0,0,0,0,0,0,0],"id":61,"left_children":[1,3,5,7,9,11,13,-1,-1,-1,-1,-1,-1,-1,-1],"loss_changes":[6.804001E1,1.6198437E1,1.6398987E1,5.1618786E0,1.0624575E1,1.5759766E1,1.0199427E1,0E0,0E0,0E0,0E0,0E0,0E0,0E0,0E0],"parents":[2147483647,0,0,1,1,2,2,3,3,4,4,5,5,6,6],"right_children":[2,4,6,8,10,12,14,-1,-1,-1,-1,-1,-1,-1,-1],"split_conditions":[-3.003366E-2,-5.1921856E-2,6.825814E1,-9.074765E-3,1.244525E-2,-8.909036E-3,6.6503836E-3,2.3945079E-3,6.2391427E-3,7.932944E-5,1.0831005E-2,-1.6431715E-3,-2.890531E-3,-6.647635E-4,-2.8681094E-3],"split_indices":[3,3,0,4,4,3,4,0,0,0,0,0,0,0,0],"split_type":[0,0,0,0,0,0,0,0,0,0,0,0,0,0,0],"sum_hessian":[6.8306934E3,5.5758124E2,6.2731123E3,1.4312898E2,4.1445224E2,5.1532827E3,1.1198297E3,7.647661E1,6.665238E1,4.0604807E2,8.404186E0,1.3930658E3,3.7602168E3,8.4026404E2,2.795657E2],"tree_param":{"num_deleted":"0","num_feature":"5","num_nodes":"15","size_leaf_vector":"1"}},{"base_weights":[-2.3777205E-1,-4.009453E-1,-1.950027E-1,-4.730834E-1,-3.301246E-1,-2.35471E-1,-6.840808E-2,-3.0488106E-3,-5.3804847E-3,4.3002097E-3,-3.3618682E-3,-2.3632555E-3,5.8149723E-3,-8.9945254E-4,1.139355E-3],"categories":[],"categories_nodes":[],"categories_segments":[],"categories_sizes":[],"default_left":[0,0,0,0,0,0,0,0,0,0,0,0,0,0,0],"id":62,"left_children":[1,3,5,7,9,11,13,-1,-1,-1,-1,-1,-1,-1,-1],"loss_changes":[4.6783264E1,6.963333E0,2.7250153E1,7.3544617E0,3.400299E0,2.9528046E0,5.0788035E0,0E0,0E0,0E0,0E0,0E0,0E0,0E0,0E0],"parents":[2147483647,0,0,1,1,2,2,3,3,4,4,5,5,6,6],"right_children":[2,4,6,8,10,12,14,-1,-1,-1,-1,-1,-1,-1,-1],"split_conditions":[2.7844394E-3,2.1505952E-3,6.138466E-3,-2.1798266E-3,-2.366516E-2,6.639749E-2,1.1245813E-2,-3.0488106E-3,-5.3804847E-3,4.3002097E-3,-3.3618682E-3,-2.3632555E-3,5.8149723E-3,-8.9945254E-4,1.139355E-3],"split_indices":[2,2,2,1,3,1,2,0,0,0,0,0,0,0,0],"split_type":[0,0,0,0,0,0,0,0,0,0,0,0,0,0,0],"sum_hessian":[6.713814E3,1.3925591E3,5.3212544E3,6.870494E2,7.0550977E2,4.0316147E3,1.2896398E3,1.9301186E2,4.9403754E2,5.028676E0,7.004811E2,4.028112E3,3.502784E0,1.1538605E3,1.3577939E2],"tree_param":{"num_deleted":"0","num_feature":"5","num_nodes":"15","size_leaf_vector":"1"}},{"base_weights":[3.3886808E-1,4.444619E-1,1.2521169E-1,6.4781773E-1,4.060818E-1,1.9870794E-1,-2.5389945E-2,8.64123E-3,6.26278E-3,2.747549E-3,4.2129485E-3,-6.7599176E-4,2.3016997E-3,-3.578526E-3,1.3242615E-4],"categories":[],"categories_nodes":[],"categories_segments":[],"categories_sizes":[],"default_left":[0,0,0,0,0,0,0,0,0,0,0,0,0,0,0],"id":63,"left_children":[1,3,5,7,9,11,13,-1,-1,-1,-1,-1,-1,-1,-1],"loss_changes":[1.9638452E2,4.5214233E1,3.18975E1,3.761261E0,9.682617E0,1.6240387E1,1.2153282E1,0E0,0E0,0E0,0E0,0E0,0E0,0E0,0E0],"parents":[2147483647,0,0,1,1,2,2,3,3,4,4,5,5,6,6],"right_children":[2,4,6,8,10,12,14,-1,-1,-1,-1,-1,-1,-1,-1],"split_conditions":[5.0230846E-3,2.1505952E-3,7.2427327E-3,0E0,-1.5397791E-2,-2.5535319E-2,-5.5180926E-2,8.64123E-3,6.26278E-3,2.747549E-3,4.2129485E-3,-6.7599176E-4,2.3016997E-3,-3.578526E-3,1.3242615E-4],"split_indices":[2,2,2,4,1,1,3,0,0,0,0,0,0,0,0],"split_type":[0,0,0,0,0,0,0,0,0,0,0,0,0,0,0],"sum_hessian":[8.7061455E3,5.8258154E3,2.8803303E3,9.224367E2,4.9033784E3,1.9354683E3,9.448621E2,7.9994965E1,8.424418E2,5.1102396E2,4.3923545E3,2.043786E2,1.7310897E3,9.7503876E1,8.473582E2],"tree_param":{"num_deleted":"0","num_feature":"5","num_nodes":"15","size_leaf_vector":"1"}},{"base_weights":[-2.0040487E-1,-2.93146E-1,-2.384506E-2,-3.7712464E-1,-2.6669762E-1,1.9410183E-1,-8.457046E-2,-3.853597E-3,1.1519489E-3,-2.8691723E-3,-1.5390278E-3,1.0686486E-3,4.5636944E-3,-2.0479192E-3,-6.524846E-4],"categories":[],"categories_nodes":[],"categories_segments":[],"categories_sizes":[],"default_left":[0,0,0,0,0,0,0,0,0,0,0,0,0,0,0],"id":64,"left_children":[1,3,5,7,9,11,13,-1,-1,-1,-1,-1,-1,-1,-1],"loss_changes":[1.1167673E2,9.831451E0,3.1117996E1,4.3767853E0,7.7194366E0,1.1674276E1,4.257516E0,0E0,0E0,0E0,0E0,0E0,0E0,0E0,0E0],"parents":[2147483647,0,0,1,1,2,2,3,3,4,4,5,5,6,6],"right_children":[2,4,6,8,10,12,14,-1,-1,-1,-1,-1,-1,-1,-1],"split_conditions":[5.002582E-3,2.496845E-3,-2.6353076E-2,8.171453E1,6.825814E1,8.633047E-3,3.7560177E1,-3.853597E-3,1.1519489E-3,-2.8691723E-3,-1.5390278E-3,1.0686486E-3,4.5636944E-3,-2.0479192E-3,-6.524846E-4],"split_indices":[2,2,3,0,0,2,0,0,0,0,0,0,0,0,0],"split_type":[0,0,0,0,0,0,0,0,0,0,0,0,0,0,0],"sum_hessian":[6.8196475E3,4.4706826E3,2.348965E3,1.0675984E3,3.4030842E3,5.1138373E2,1.8375813E3,1.050248E3,1.73503E1,2.8844702E3,5.186139E2,3.847976E2,1.2658611E2,2.5311316E2,1.5844681E3],"tree_param":{"num_deleted":"0","num_feature":"5","num_nodes":"15","size_leaf_vector":"1"}},{"base_weights":[-2.3629294E-1,-7.60921E-2,-2.4870504E-1,-3.7794065E-1,-2.988476E-2,-2.6533887E-1,-1.1426798E-1,-4.4473642E-3,1.3735557E-3,2.8589026E-3,-7.8494445E-4,2.6572522E-4,-2.7209774E-3,3.3765554E-3,-1.5243345E-3],"categories":[],"categories_nodes":[],"categories_segments":[],"categories_sizes":[],"default_left":[0,0,0,0,0,0,0,0,0,0,0,0,0,0,0],"id":65,"left_children":[1,3,5,7,9,11,13,-1,-1,-1,-1,-1,-1,-1,-1],"loss_changes":[1.3307953E1,6.7306647E0,1.38784485E1,2.2669191E0,6.4737844E0,1.0926239E1,1.1893802E1,0E0,0E0,0E0,0E0,0E0,0E0,0E0,0E0],"parents":[2147483647,0,0,1,1,2,2,3,3,4,4,5,5,6,6],"right_children":[2,4,6,8,10,12,14,-1,-1,-1,-1,-1,-1,-1,-1],"split_conditions":[-2.5535319E-2,-2.3676157E-2,1.1469826E-2,4.6951E1,-1.7706327E-2,-2.3676157E-2,1.2088384E-2,-4.4473642E-3,1.3735557E-3,2.8589026E-3,-7.8494445E-4,2.6572522E-4,-2.7209774E-3,3.3765554E-3,-1.5243345E-3],"split_indices":[1,4,4,0,4,4,4,0,0,0,0,0,0,0,0],"split_type":[0,0,0,0,0,0,0,0,0,0,0,0,0,0,0],"sum_hessian":[6.7012007E3,4.8237708E2,6.2188237E3,6.3086502E1,4.1929056E2,5.533227E3,6.855966E2,5.5968468E1,7.118037E0,5.5283062E1,3.640075E2,1.251502E2,5.408077E3,5.2779446E1,6.328172E2],"tree_param":{"num_deleted":"0","num_feature":"5","num_nodes":"15","size_leaf_vector":"1"}},{"base_weights":[3.360133E-1,-2.588641E-2,3.6307117E-1,-2.2701153E-1,6.870902E-2,3.7400654E-1,1.1249485E-1,-1.3781642E-3,-3.839876E-3,4.0761107E-3,2.919465E-4,2.4236612E-4,3.812378E-3,-4.14786E-3,1.4123439E-3],"categories":[],"categories_nodes":[],"categories_segments":[],"categories_sizes":[],"default_left":[0,0,0,0,0,0,0,0,0,0,0,0,0,0,0],"id":66,"left_children":[1,3,5,7,9,11,13,-1,-1,-1,-1,-1,-1,-1,-1],"loss_changes":[8.528766E1,1.1559512E1,2.2161499E1,2.6678972E0,5.5246325E0,1.962732E1,5.2149086E0,0E0,0E0,0E0,0E0,0E0,0E0,0E0,0E0],"parents":[2147483647,0,0,1,1,2,2,3,3,4,4,5,5,6,6],"right_children":[2,4,6,8,10,12,14,-1,-1,-1,-1,-1,-1,-1,-1],"split_conditions":[-2.5535319E-2,-4.9148016E-2,3.5800178E-2,-2.2974731E-3,-2.3676157E-2,-2.3676157E-2,5.358411E1,-1.3781642E-3,-3.839876E-3,4.0761107E-3,2.919465E-4,2.4236612E-4,3.812378E-3,-4.14786E-3,1.4123439E-3],"split_indices":[1,3,1,4,4,4,0,0,0,0,0,0,0,0,0],"split_type":[0,0,0,0,0,0,0,0,0,0,0,0,0,0,0],"sum_hessian":[8.707767E3,6.057596E2,8.102007E3,1.9332329E2,4.1243628E2,7.762741E3,3.392658E2,1.2447404E2,6.884925E1,4.2094006E1,3.7034225E2,1.5732654E2,7.6054146E3,1.6841648E1,3.2242413E2],"tree_param":{"num_deleted":"0","num_feature":"5","num_nodes":"15","size_leaf_vector":"1"}},{"base_weights":[-1.9904776E-1,1.3125958E-1,-2.285608E-1,4.1494069E-1,3.2146834E-2,-2.5230032E-1,-1.1933535E-1,2.3470165E-3,6.149327E-3,7.86646E-5,1.0766161E-2,-1.6163739E-3,-2.8587691E-3,-6.4120366E-4,-2.8455858E-3],"categories":[],"categories_nodes":[],"categories_segments":[],"categories_sizes":[],"default_left":[0,0,0,0,0,0,0,0,0,0,0,0,0,0,0],"id":67,"left_children":[1,3,5,7,9,11,13,-1,-1,-1,-1,-1,-1,-1,-1],"loss_changes":[6.641229E1,1.5708448E1,1.6179504E1,5.071415E0,1.0527952E1,1.5583679E1,1.0181238E1,0E0,0E0,0E0,0E0,0E0,0E0,0E0,0E0],"parents":[2147483647,0,0,1,1,2,2,3,3,4,4,5,5,6,6],"right_children":[2,4,6,8,10,12,14,-1,-1,-1,-1,-1,-1,-1,-1],"split_conditions":[-3.003366E-2,-5.1921856E-2,6.825814E1,-9.074765E-3,1.244525E-2,-8.909036E-3,6.6503836E-3,2.3470165E-3,6.149327E-3,7.86646E-5,1.0766161E-2,-1.6163739E-3,-2.8587691E-3,-6.4120366E-4,-2.8455858E-3],"split_indices":[3,3,0,4,4,3,4,0,0,0,0,0,0,0,0],"split_type":[0,0,0,0,0,0,0,0,0,0,0,0,0,0,0],"sum_hessian":[6.8085747E3,5.581676E2,6.250407E3,1.4369534E2,4.144723E2,5.1333857E3,1.1170216E3,7.672339E1,6.6971954E1,4.0604074E2,8.4315405E0,1.3889047E3,3.744481E3,8.3827234E2,2.7874924E2],"tree_param":{"num_deleted":"0","num_feature":"5","num_nodes":"15","size_leaf_vector":"1"}},{"base_weights":[-2.3481388E-1,-3.9746195E-1,-1.9229184E-1,-4.694772E-1,-3.2693714E-1,-2.3243253E-1,-6.7026384E-2,-3.2338807E-3,-5.3385487E-3,-3.3859217E-3,3.6002495E-3,6.461725E-4,-2.373495E-3,-1.6444882E-3,-2.531784E-4],"categories":[],"categories_nodes":[],"categories_segments":[],"categories_sizes":[],"default_left":[0,0,0,0,0,0,0,0,0,0,0,0,0,0,0],"id":68,"left_children":[1,3,5,7,9,11,13,-1,-1,-1,-1,-1,-1,-1,-1],"loss_changes":[4.6190247E1,6.883377E0,2.666008E1,6.25296E0,5.752899E0,5.88295E0,5.232927E0,0E0,0E0,0E0,0E0,0E0,0E0,0E0,0E0],"parents":[2147483647,0,0,1,1,2,2,3,3,4,4,5,5,6,6],"right_children":[2,4,6,8,10,12,14,-1,-1,-1,-1,-1,-1,-1,-1],"split_conditions":[2.7844394E-3,2.1505952E-3,6.138466E-3,4.4535175E1,1.8506818E-2,-2.4210623E-2,-5.800866E-3,-3.2338807E-3,-5.3385487E-3,-3.3859217E-3,3.6002495E-3,6.461725E-4,-2.373495E-3,-1.6444882E-3,-2.531784E-4],"split_indices":[2,2,2,0,4,4,4,0,0,0,0,0,0,0,0],"split_type":[0,0,0,0,0,0,0,0,0,0,0,0,0,0,0],"sum_hessian":[6.6886846E3,1.3845175E3,5.304167E3,6.8222125E2,7.0229614E2,4.0163062E3,1.287861E3,2.1052054E2,4.717007E2,6.9107837E2,1.1217775E1,6.5200386E1,3.9511057E3,3.8519144E2,9.0266956E2],"tree_param":{"num_deleted":"0","num_feature":"5","num_nodes":"15","size_leaf_vector":"1"}},{"base_weights":[3.3317524E-1,-2.5856735E-2,3.6001083E-1,-2.2536784E-1,6.791662E-2,3.7087214E-1,1.1112764E-1,-1.3683891E-3,-3.8127368E-3,4.0522953E-3,2.8576347E-4,2.437676E-3,3.9059338E-3,-4.1372837E-3,1.3972494E-3],"categories":[],"categories_nodes":[],"categories_segments":[],"categories_sizes":[],"default_left":[0,0,0,0,0,0,0,0,0,0,0,0,0,0,0],"id":69,"left_children":[1,3,5,7,9,11,13,-1,-1,-1,-1,-1,-1,-1,-1],"loss_changes":[8.393341E1,1.1366206E1,2.1867676E1,2.6284761E0,5.4754834E0,1.9370117E1,5.1660123E0,0E0,0E0,0E0,0E0,0E0,0E0,0E0,0E0],"parents":[2147483647,0,0,1,1,2,2,3,3,4,4,5,5,6,6],"right_children":[2,4,6,8,10,12,14,-1,-1,-1,-1,-1,-1,-1,-1],"split_conditions":[-2.5535319E-2,-4.9148016E-2,3.5800178E-2,-2.2974731E-3,-2.3676157E-2,-1.6105313E-2,5.358411E1,-1.3683891E-3,-3.8127368E-3,4.0522953E-3,2.8576347E-4,2.437676E-3,3.9059338E-3,-4.1372837E-3,1.3972494E-3],"split_indices":[1,3,1,4,4,3,0,0,0,0,0,0,0,0,0],"split_type":[0,0,0,0,0,0,0,0,0,0,0,0,0,0,0],"sum_hessian":[8.709491E3,6.057137E2,8.1037773E3,1.9321927E2,4.1249445E2,7.7644453E3,3.393322E2,1.244371E2,6.878216E1,4.2112354E1,3.7038208E2,1.044694E3,6.719751E3,1.6837652E1,3.2249457E2],"tree_param":{"num_deleted":"0","num_feature":"5","num_nodes":"15","size_leaf_vector":"1"}},{"base_weights":[-1.976868E-1,-2.9002658E-1,-2.237447E-2,-3.7388456E-1,-2.6364574E-1,4.0432015E-1,-5.0122947E-2,-3.8212491E-3,1.1684889E-3,-2.2886596E-3,-3.4799736E-3,1.4202722E-3,5.4326258E-3,3.1802407E-4,-1.469723E-3],"categories":[],"categories_nodes":[],"categories_segments":[],"categories_sizes":[],"default_left":[0,0,0,0,0,0,0,0,0,0,0,0,0,0,0],"id":70,"left_children":[1,3,5,7,9,11,13,-1,-1,-1,-1,-1,-1,-1,-1],"loss_changes":[1.1005243E2,9.752686E0,2.7804535E1,4.3442383E0,9.868057E0,5.1487064E0,1.7493906E1,0E0,0E0,0E0,0E0,0E0,0E0,0E0,0E0],"parents":[2147483647,0,0,1,1,2,2,3,3,4,4,5,5,6,6],"right_children":[2,4,6,8,10,12,14,-1,-1,-1,-1,-1,-1,-1,-1],"split_conditions":[5.002582E-3,2.496845E-3,-4.3602113E-2,8.171453E1,4.180022E-3,-1.8298777E-2,2.2207598E-4,-3.8212491E-3,1.1684889E-3,-2.2886596E-3,-3.4799736E-3,1.4202722E-3,5.4326258E-3,3.1802407E-4,-1.469723E-3],"split_indices":[2,2,1,0,4,4,4,0,0,0,0,0,0,0,0],"split_type":[0,0,0,0,0,0,0,0,0,0,0,0,0,0,0],"sum_hessian":[6.797671E3,4.4520513E3,2.3456196E3,1.0622512E3,3.3898E3,1.4239583E2,2.2032239E3,1.0449263E3,1.7325052E1,2.402795E3,9.8700507E2,5.001003E1,9.2385796E1,1.1939376E3,1.0092862E3],"tree_param":{"num_deleted":"0","num_feature":"5","num_nodes":"15","size_leaf_vector":"1"}},{"base_weights":[-2.3334724E-1,-3.9576647E-1,-1.9093691E-1,-4.678231E-1,-3.252624E-1,-2.3093413E-1,-6.625872E-2,-2.9887187E-3,-5.3324136E-3,4.339371E-3,-3.313486E-3,-2.3179038E-3,5.8285515E-3,-8.7670545E-4,1.1471023E-3],"categories":[],"categories_nodes":[],"categories_segments":[],"categories_sizes":[],"default_left":[0,0,0,0,0,0,0,0,0,0,0,0,0,0,0],"id":71,"left_children":[1,3,5,7,9,11,13,-1,-1,-1,-1,-1,-1,-1,-1],"loss_changes":[4.5918884E1,6.8667297E0,2.6397812E1,7.367325E0,3.3856583E0,2.9291382E0,5.0004144E0,0E0,0E0,0E0,0E0,0E0,0E0,0E0,0E0],"parents":[2147483647,0,0,1,1,2,2,3,3,4,4,5,5,6,6],"right_children":[2,4,6,8,10,12,14,-1,-1,-1,-1,-1,-1,-1,-1],"split_conditions":[2.7844394E-3,2.1505952E-3,6.138466E-3,-2.1798266E-3,-2.366516E-2,6.639749E-2,1.1245813E-2,-2.9887187E-3,-5.3324136E-3,4.339371E-3,-3.313486E-3,-2.3179038E-3,5.8285515E-3,-8.7670545E-4,1.1471023E-3],"split_indices":[2,2,2,1,3,1,2,0,0,0,0,0,0,0,0],"split_type":[0,0,0,0,0,0,0,0,0,0,0,0,0,0,0],"sum_hessian":[6.676226E3,1.3805999E3,5.2956265E3,6.799952E2,7.0060474E2,4.0087515E3,1.2868749E3,1.9135768E2,4.886375E2,5.012737E0,6.95592E2,4.0052522E3,3.499065E0,1.1511848E3,1.3569E2],"tree_param":{"num_deleted":"0","num_feature":"5","num_nodes":"15","size_leaf_vector":"1"}},{"base_weights":[3.3036524E-1,4.342644E-1,1.20162606E-1,6.352761E-1,3.9635512E-1,1.9246465E-1,-2.8044535E-2,8.508588E-3,6.138229E-3,2.6730003E-3,4.1130674E-3,-6.725659E-4,2.2311842E-3,-3.524865E-3,9.559771E-5],"categories":[],"categories_nodes":[],"categories_segments":[],"categories_sizes":[],"default_left":[0,0,0,0,0,0,0,0,0,0,0,0,0,0,0],"id":72,"left_children":[1,3,5,7,9,11,13,-1,-1,-1,-1,-1,-1,-1,-1],"loss_changes":[1.9021588E2,4.4172607E1,3.0900204E1,3.748169E0,9.359436E0,1.5443665E1,1.1547602E1,0E0,0E0,0E0,0E0,0E0,0E0,0E0,0E0],"parents":[2147483647,0,0,1,1,2,2,3,3,4,4,5,5,6,6],"right_children":[2,4,6,8,10,12,14,-1,-1,-1,-1,-1,-1,-1,-1],"split_conditions":[5.0230846E-3,2.1505952E-3,7.2427327E-3,0E0,-1.5397791E-2,-2.5535319E-2,-5.5180926E-2,8.508588E-3,6.138229E-3,2.6730003E-3,4.1130674E-3,-6.725659E-4,2.2311842E-3,-3.524865E-3,9.559771E-5],"split_indices":[2,2,2,4,1,1,3,0,0,0,0,0,0,0,0],"split_type":[0,0,0,0,0,0,0,0,0,0,0,0,0,0,0],"sum_hessian":[8.710961E3,5.828821E3,2.8821401E3,9.2235095E2,4.90647E3,1.936924E3,9.452163E2,7.997924E1,8.423717E2,5.1137924E2,4.395091E3,2.0434761E2,1.7325763E3,9.730612E1,8.4791016E2],"tree_param":{"num_deleted":"0","num_feature":"5","num_nodes":"15","size_leaf_vector":"1"}},{"base_weights":[-1.963362E-1,-2.9084787E-1,-2.6071386E-2,-3.1117344E-1,-1.7388816E-1,4.0091538E-1,-5.2953772E-2,-1.6302329E-3,-3.2809603E-3,5.5042664E-3,-1.853041E-3,1.4092384E-3,5.3837956E-3,2.319224E-4,-1.4236231E-3],"categories":[],"categories_nodes":[],"categories_segments":[],"categories_sizes":[],"default_left":[0,0,0,0,0,0,0,0,0,0,0,0,0,0,0],"id":73,"left_children":[1,3,5,7,9,11,13,-1,-1,-1,-1,-1,-1,-1,-1],"loss_changes":[1.09220856E2,1.0322144E1,2.7844648E1,9.266052E0,5.464155E0,5.0594425E0,1.5534554E1,0E0,0E0,0E0,0E0,0E0,0E0,0E0,0E0],"parents":[2147483647,0,0,1,1,2,2,3,3,4,4,5,5,6,6],"right_children":[2,4,6,8,10,12,14,-1,-1,-1,-1,-1,-1,-1,-1],"split_conditions":[4.936065E-3,6.825814E1,-4.3602113E-2,-1.5397791E-2,-1.568016E-2,-1.8298777E-2,4.2044958E-5,-1.6302329E-3,-3.2809603E-3,5.5042664E-3,-1.853041E-3,1.4092384E-3,5.3837956E-3,2.319224E-4,-1.4236231E-3],"split_indices":[2,0,1,1,4,4,4,0,0,0,0,0,0,0,0],"split_type":[0,0,0,0,0,0,0,0,0,0,0,0,0,0,0],"sum_hessian":[6.7867427E3,4.3637666E3,2.422976E3,3.716281E3,6.474856E2,1.4268726E2,2.2802888E3,3.8206796E2,3.334213E3,9.314069E0,6.381715E2,5.005029E1,9.263696E1,1.231881E3,1.0484077E3],"tree_param":{"num_deleted":"0","num_feature":"5","num_nodes":"15","size_leaf_vector":"1"}},{"base_weights":[-2.3188205E-1,-3.94165E-1,-1.8955144E-1,-4.6626857E-1,-3.236718E-1,-2.2945434E-1,-6.527759E-2,-2.973842E-3,-5.3174836E-3,-3.3534362E-3,3.615996E-3,6.6428E-4,-2.3436323E-3,-1.6248891E-3,-2.3687325E-4],"categories":[],"categories_nodes":[],"categories_segments":[],"categories_sizes":[],"default_left":[0,0,0,0,0,0,0,0,0,0,0,0,0,0,0],"id":74,"left_children":[1,3,5,7,9,11,13,-1,-1,-1,-1,-1,-1,-1,-1],"loss_changes":[4.5709442E1,6.852661E0,2.6207184E1,7.349457E0,5.720093E0,5.8287506E0,5.198001E0,0E0,0E0,0E0,0E0,0E0,0E0,0E0,0E0],"parents":[2147483647,0,0,1,1,2,2,3,3,4,4,5,5,6,6],"right_children":[2,4,6,8,10,12,14,-1,-1,-1,-1,-1,-1,-1,-1],"split_conditions":[2.7844394E-3,2.1505952E-3,6.138466E-3,-2.1798266E-3,1.8506818E-2,-2.4210623E-2,-5.800866E-3,-2.973842E-3,-5.3174836E-3,-3.3534362E-3,3.615996E-3,6.6428E-4,-2.3436323E-3,-1.6248891E-3,-2.3687325E-4],"split_indices":[2,2,2,1,4,4,4,0,0,0,0,0,0,0,0],"split_type":[0,0,0,0,0,0,0,0,0,0,0,0,0,0,0],"sum_hessian":[6.663809E3,1.3768942E3,5.286915E3,6.7789703E2,6.989972E2,4.0012983E3,1.2856167E3,1.9094829E2,4.8694873E2,6.87793E2,1.12041445E1,6.509661E1,3.9362017E3,3.843489E2,9.012678E2],"tree_param":{"num_deleted":"0","num_feature":"5","num_nodes":"15","size_leaf_vector":"1"}},{"base_weights":[3.275945E-1,4.2523724E-1,1.0765308E-1,6.302594E-1,3.881238E-1,1.7958665E-1,-3.2014072E-2,5.052443E-3,6.7208963E-3,1.5455902E-4,3.929017E-3,-1.6251275E-3,2.0375524E-3,-3.4262293E-3,4.8489932E-5],"categories":[],"categories_nodes":[],"categories_segments":[],"categories_sizes":[],"default_left":[0,0,0,0,0,0,0,0,0,0,0,0,0,0,0],"id":75,"left_children":[1,3,5,7,9,11,13,-1,-1,-1,-1,-1,-1,-1,-1],"loss_changes":[1.8707202E2,4.5667114E1,2.6933006E1,4.4884033E0,9.095459E0,1.46610985E1,1.0443821E1,0E0,0E0,0E0,0E0,0E0,0E0,0E0,0E0],"parents":[2147483647,0,0,1,1,2,2,3,3,4,4,5,5,6,6],"right_children":[2,4,6,8,10,12,14,-1,-1,-1,-1,-1,-1,-1,-1],"split_conditions":[5.1554376E-3,2.1505952E-3,7.315898E-3,4.251978E1,-2.3676157E-2,-3.981174E-2,-5.5180926E-2,5.052443E-3,6.7208963E-3,1.5455902E-4,3.929017E-3,-1.6251275E-3,2.0375524E-3,-3.4262293E-3,4.8489932E-5],"split_indices":[2,2,2,0,4,3,3,0,0,0,0,0,0,0,0],"split_type":[0,0,0,0,0,0,0,0,0,0,0,0,0,0,0],"sum_hessian":[8.712006E3,6.032812E3,2.6791938E3,9.222323E2,5.1105796E3,1.7682145E3,9.109794E2,2.3449442E2,6.8773785E2,6.474593E1,5.0458335E3,1.162999E2,1.6519146E3,9.576524E1,8.152141E2],"tree_param":{"num_deleted":"0","num_feature":"5","num_nodes":"15","size_leaf_vector":"1"}},{"base_weights":[-1.9499496E-1,-2.8911602E-1,-2.5778683E-2,-3.0942124E-1,-1.7235292E-1,1.870537E-1,-8.4253415E-2,-1.9281865E-3,-3.3305907E-3,5.47997E-3,-1.8374558E-3,1.0435719E-3,4.542941E-3,-4.8427106E-4,-2.2288763E-3],"categories":[],"categories_nodes":[],"categories_segments":[],"categories_sizes":[],"default_left":[0,0,0,0,0,0,0,0,0,0,0,0,0,0,0],"id":76,"left_children":[1,3,5,7,9,11,13,-1,-1,-1,-1,-1,-1,-1,-1],"loss_changes":[1.0792526E2,1.0270905E1,3.0173674E1,1.0156494E1,5.413208E0,1.15017395E1,9.434206E0,0E0,0E0,0E0,0E0,0E0,0E0,0E0,0E0],"parents":[2147483647,0,0,1,1,2,2,3,3,4,4,5,5,6,6],"right_children":[2,4,6,8,10,12,14,-1,-1,-1,-1,-1,-1,-1,-1],"split_conditions":[4.936065E-3,6.825814E1,-2.6353076E-2,-1.3970341E-2,-1.568016E-2,8.8003E-3,9.310475E-3,-1.9281865E-3,-3.3305907E-3,5.47997E-3,-1.8374558E-3,1.0435719E-3,4.542941E-3,-4.8427106E-4,-2.2288763E-3],"split_indices":[2,0,3,3,4,2,4,0,0,0,0,0,0,0,0],"split_type":[0,0,0,0,0,0,0,0,0,0,0,0,0,0,0],"sum_hessian":[6.775792E3,4.353558E3,2.4222341E3,3.7072185E3,6.463395E2,5.2158936E2,1.9006447E3,6.2640295E2,3.0808154E3,9.329667E0,6.370098E2,3.9939017E2,1.2219922E2,1.5114104E3,3.892342E2],"tree_param":{"num_deleted":"0","num_feature":"5","num_nodes":"15","size_leaf_vector":"1"}},{"base_weights":[-2.3042761E-1,-3.9226153E-1,-1.8828607E-1,-4.6423328E-1,-3.2201335E-1,-2.2799005E-1,-6.480054E-2,-2.9523533E-3,-5.298474E-3,-3.3367602E-3,3.6042451E-3,6.6764455E-4,-2.328881E-3,-1.6169351E-3,-2.3370904E-4],"categories":[],"categories_nodes":[],"categories_segments":[],"categories_sizes":[],"default_left":[0,0,0,0,0,0,0,0,0,0,0,0,0,0,0],"id":77,"left_children":[1,3,5,7,9,11,13,-1,-1,-1,-1,-1,-1,-1,-1],"loss_changes":[4.529489E1,6.7946014E0,2.5871964E1,7.34111E0,5.6782303E0,5.783127E0,5.1585345E0,0E0,0E0,0E0,0E0,0E0,0E0,0E0,0E0],"parents":[2147483647,0,0,1,1,2,2,3,3,4,4,5,5,6,6],"right_children":[2,4,6,8,10,12,14,-1,-1,-1,-1,-1,-1,-1,-1],"split_conditions":[2.7844394E-3,2.1505952E-3,6.138466E-3,-2.1798266E-3,1.8506818E-2,-2.4210623E-2,-5.800866E-3,-2.9523533E-3,-5.298474E-3,-3.3367602E-3,3.6042451E-3,6.6764455E-4,-2.328881E-3,-1.6169351E-3,-2.3370904E-4],"split_indices":[2,2,2,1,4,4,4,0,0,0,0,0,0,0,0],"split_type":[0,0,0,0,0,0,0,0,0,0,0,0,0,0,0],"sum_hessian":[6.6513813E3,1.3724657E3,5.278916E3,6.751462E2,6.9731946E2,3.993916E3,1.2849998E3,1.9035661E2,4.8478955E2,6.8610516E2,1.1214315E1,6.507732E1,3.9288386E3,3.8400665E2,9.009931E2],"tree_param":{"num_deleted":"0","num_feature":"5","num_nodes":"15","size_leaf_vector":"1"}},{"base_weights":[3.2485032E-1,4.2703578E-1,1.1810912E-1,6.253008E-1,3.8966882E-1,1.8935652E-1,-2.800005E-2,8.402507E-3,6.0392283E-3,2.620224E-3,4.044595E-3,-6.750632E-4,2.1966207E-3,-3.4851148E-3,9.089858E-5],"categories":[],"categories_nodes":[],"categories_segments":[],"categories_sizes":[],"default_left":[0,0,0,0,0,0,0,0,0,0,0,0,0,0,0],"id":78,