{"learner":{"attributes":{"scikit_learn":"{\"_estimator_type\": \"classifier\"}"},"feature_names":["rsi","trend_signal","volatility","momentum_24h","qqq_mom"],"feature_types":["float","float","float","float","float"],"gradient_booster":{"model":{"cats":{"enc":[],"feature_segments":[],"sorted_idx":[]},"gbtree_model_param":{"num_parallel_tree":"1","num_trees":"600"},"iteration_indptr":[0,3,6,9,12,15,18,21,24,27,30,33,36,39,42,45,48,51,54,57,60,63,66,69,72,75,78,81,84,87,90,93,96,99,102,105,108,111,114,117,120,123,126,129,132,135,138,141,144,147,150,153,156,159,162,165,168,171,174,177,180,183,186,189,192,195,198,201,204,207,210,213,216,219,222,225,228,231,234,237,240,243,246,249,252,255,258,261,264,267,270,273,276,279,282,285,288,291,294,297,300,303,306,309,312,315,318,321,324,327,330,333,336,339,342,345,348,351,354,357,360,363,366,369,372,375,378,381,384,387,390,393,396,399,402,405,408,411,414,417,420,423,426,429,432,435,438,441,444,447,450,453,456,459,462,465,468,471,474,477,480,483,486,489,492,495,498,501,504,507,510,513,516,519,522,525,528,531,534,537,540,543,546,549,552,555,558,561,564,567,570,573,576,579,582,585,588,591,594,597,600],"tree_info":[0,1,2,0,1,2,0,1,2,0,1,2,0,1,2,0,1,2,0,1,2,0,1,2,0,1,2,0,1,2,0,1,2,0,1,2,0,1,2,0,1,2,0,1,2,0,1,2,0,1,2,0,1,2,0,1,2,0,1,2,0,1,2,0,1,2,0,1,2,0,1,2,0,1,2,0,1,2,0,1,2,0,1,2,0,1,2,0,1,2,0,1,2,0,1,2,0,1,2,0,1,2,0,1,2,0,1,2,0,1,2,0,1,2,0,1,2,0,1,2,0,1,2,0,1,2,0,1,2,0,1,2,0,1,2,0,1,2,0,1,2,0,1,2,0,1,2,0,1,2,0,1,2,0,1,2,0,1,2,0,1,2,0,1,2,0,1,2,0,1,2,0,1,2,0,1,2,0,1,2,0,1,2,0,1,2,0,1,2,0,1,2,0,1,2,0,1,2,0,1,2,0,1,2,0,1,2,0,1,2,0,1,2,0,1,2,0,1,2,0,1,2,0,1,2,0,1,2,0,1,2,0,1,2,0,1,2,0,1,2,0,1,2,0,1,2,0,1,2,0,1,2,0,1,2,0,1,2,0,1,2,0,1,2,0,1,2,0,1,2,0,1,2,0,1,2,0,1,2,0,1,2,0,1,2,0,1,2,0,1,2,0,1,2,0,1,2,0,1,2,0,1,2,0,1,2,0,1,2,0,1,2,0,1,2,0,1,2,0,1,2,0,1,2,0,1,2,0,1,2,0,1,2,0,1,2,0,1,2,0,1,2,0,1,2,0,1,2,0,1,2,0,1,2,0,1,2,0,1,2,0,1,2,0,1,2,0,1,2,0,1,2,0,1,2,0,1,2,0,1,2,0,1,2,0,1,2,0,1,2,0,1,2,0,1,2,0,1,2,0,1,2,0,1,2,0,1,2,0,1,2,0,1,2,0,1,2,0,1,2,0,1,2,0,1,2,0,1,2,0,1,2,0,1,2,0,1,2,0,1,2,0,1,2,0,1,2,0,1,2,0,1,2,0,1,2,0,1,2,0,1,2,0,1,2,0,1,2,0,1,2,0,1,2,0,1,2,0,1,2,0,1,2,0,1,2,0,1,2,0,1,2,0,1,2,0,1,2,0,1,2,0,1,2,0,1,2,0,1,2,0,1,2,0,1,2,0,1,2,0,1,2,0,1,2,0,1,2,0,1,2,0,1,2,0,1,2,0,1,2,0,1,2,0,1,2,0,1,2,0,1,2,0,1,2,0,1,2,0,1,2,0,1,2,0,1,2,0,1,2,0,1,2,0,1,2,0,1,2,0,1,2,0,1,2,0,1,2,0,1,2,0,1,2,0,1,2,0,1,2],"trees":[{"base_weights":[6.1891127E-2,1.3220353E-1,-1.625468E-1,6.1776435E-1,1.1128029E-1,-9.543135E-2,-3.87235E-1,-1.6678278E-3,6.4657233E-3,1.4509278E-3,3.0213353E-4,-1.2933186E-3,5.602717E-4,-3.449503E-3,-6.2851235E-3],"categories":[],"categories_nodes":[],"categories_segments":[],"categories_sizes":[],"default_left":[0,0,0,0,0,0,0,0,0,0,0,0,0,0,0],"id":0,"left_children":[1,3,5,7,9,11,13,-1,-1,-1,-1,-1,-1,-1,-1],"loss_changes":[1.250795E2,6.124212E1,2.84776E1,5.7374344E0,1.5857521E1,7.489786E0,4.2169266E0,0E0,0E0,0E0,0E0,0E0,0E0,0E0,0E0],"parents":[2147483647,0,0,1,1,2,2,3,3,4,4,5,5,6,6],"right_children":[2,4,6,8,10,12,14,-1,-1,-1,-1,-1,-1,-1,-1],"split_conditions":[1.0111407E-2,3.6541522E-3,1.5521577E-2,-1.9965356E-2,7.923815E-3,3.850965E-2,2.6426611E-2,-1.6678278E-3,6.4657233E-3,1.4509278E-3,3.0213353E-4,-1.2933186E-3,5.602717E-4,-3.449503E-3,-6.2851235E-3],"split_indices":[2,2,2,1,2,1,2,0,0,0,0,0,0,0,0],"split_type":[0,0,0,0,0,0,0,0,0,0,0,0,0,0,0],"sum_hessian":[7.9237085E3,6.033828E3,1.8898799E3,2.4808359E2,5.7857446E3,1.4563005E3,4.3357938E2,8.617163E0,2.3946643E2,4.0822676E3,1.703477E3,1.1900756E3,2.6622498E2,3.7099155E2,6.258782E1],"tree_param":{"num_deleted":"0","num_feature":"5","num_nodes":"15","size_leaf_vector":"1"}},{"base_weights":[-1.9389762E-2,-7.4659035E-2,1.4615604E-1,-3.6660963E-1,-6.1872344E-2,1.01504564E-1,3.384725E-1,-2.0993045E-4,-3.9885635E-3,1.4077808E-3,-7.2355574E-4,3.933731E-3,7.990456E-4,4.256323E-3,-2.8545773E-3],"categories":[],"categories_nodes":[],"categories_segments":[],"categories_sizes":[],"default_left":[0,0,0,0,0,0,0,0,0,0,0,0,0,0,0],"id":1,"left_children":[1,3,5,7,9,11,13,-1,-1,-1,-1,-1,-1,-1,-1],"loss_changes":[7.05828E1,2.156652E1,1.6546738E1,2.6938286E0,1.1783251E1,9.8569355E0,1.9884285E1,0E0,0E0,0E0,0E0,0E0,0E0,0E0,0E0],"parents":[2147483647,0,0,1,1,2,2,3,3,4,4,5,5,6,6],"right_children":[2,4,6,8,10,12,14,-1,-1,-1,-1,-1,-1,-1,-1],"split_conditions":[9.948127E-3,3.6541522E-3,1.603357E-2,-1.5459616E-2,-1.2696529E-2,-6.836635E-2,9.152722E-3,-2.0993045E-4,-3.9885635E-3,1.4077808E-3,-7.2355574E-4,3.933731E-3,7.990456E-4,4.256323E-3,-2.8545773E-3],"split_indices":[2,2,2,1,4,1,4,0,0,0,0,0,0,0,0],"split_type":[0,0,0,0,0,0,0,0,0,0,0,0,0,0,0],"sum_hessian":[7.712116E3,5.7822114E3,1.9299052E3,2.4145885E2,5.5407524E3,1.5674961E3,3.62409E2,2.0746922E1,2.2071193E2,2.719171E2,5.2688354E3,1.0682458E2,1.4606715E3,3.182666E2,4.4142387E1],"tree_param":{"num_deleted":"0","num_feature":"5","num_nodes":"15","size_leaf_vector":"1"}},{"base_weights":[-4.4571266E-2,-1.2831211E-1,8.796287E-4,-2.693081E-1,-1.10604994E-1,-8.481779E-3,2.538782E-1,4.5922664E-3,-2.9509284E-3,-9.749591E-4,-2.2776062E-3,-4.673517E-4,3.3582095E-4,2.278074E-3,1.2020524E-2],"categories":[],"categories_nodes":[],"categories_segments":[],"categories_sizes":[],"default_left":[0,0,0,0,0,0,0,0,0,0,0,0,0,0,0],"id":2,"left_children":[1,3,5,7,9,11,13,-1,-1,-1,-1,-1,-1,-1,-1],"loss_changes":[2.9111862E1,6.6884003E0,1.1746731E1,5.762354E0,3.651989E0,7.6975803E0,4.100813E0,0E0,0E0,0E0,0E0,0E0,0E0,0E0,0E0],"parents":[2147483647,0,0,1,1,2,2,3,3,4,4,5,5,6,6],"right_children":[2,4,6,8,10,12,14,-1,-1,-1,-1,-1,-1,-1,-1],"split_conditions":[6.599898E-3,3.7952163E-3,7.1346335E-2,-2.353216E-2,6.390094E-3,4.0273863E-4,3.1675734E-2,4.5922664E-3,-2.9509284E-3,-9.749591E-4,-2.2776062E-3,-4.673517E-4,3.3582095E-4,2.278074E-3,1.2020524E-2],"split_indices":[2,2,1,1,2,3,2,0,0,0,0,0,0,0,0],"split_type":[0,0,0,0,0,0,0,0,0,0,0,0,0,0,0],"sum_hessian":[7.647716E3,2.6898984E3,4.9578174E3,2.9853714E2,2.3913613E3,4.781847E3,1.7597057E2,9.63023E0,2.889069E2,2.1523564E3,2.390048E2,2.5042976E3,2.2775493E3,1.7246867E2,3.5019019E0],"tree_param":{"num_deleted":"0","num_feature":"5","num_nodes":"15","size_leaf_vector":"1"}},{"base_weights":[6.140355E-2,-5.5443387E-2,9.565117E-2,-2.7932504E-1,-2.9468449E-2,1.1730943E-1,-1.2097222E-1,-8.6464296E-4,-3.77857E-3,5.950717E-4,-8.8915665E-4,-3.4359156E-3,1.2298758E-3,-1.4418983E-3,2.5004384E-3],"categories":[],"categories_nodes":[],"categories_segments":[],"categories_sizes":[],"default_left":[0,0,0,0,0,0,0,0,0,0,0,0,0,0,0],"id":3,"left_children":[1,3,5,7,9,11,13,-1,-1,-1,-1,-1,-1,-1,-1],"loss_changes":[3.1726881E1,1.0444135E1,2.8776936E1,3.515891E0,8.529876E0,1.4629417E1,4.840331E0,0E0,0E0,0E0,0E0,0E0,0E0,0E0,0E0],"parents":[2147483647,0,0,1,1,2,2,3,3,4,4,5,5,6,6],"right_children":[2,4,6,8,10,12,14,-1,-1,-1,-1,-1,-1,-1,-1],"split_conditions":[-2.1197034E-2,-7.0922405E-2,6.357896E-2,2.4724602E1,3.1987442E1,-2.6608013E-2,8.769367E1,-8.6464296E-4,-3.77857E-3,5.950717E-4,-8.8915665E-4,-3.4359156E-3,1.2298758E-3,-1.4418983E-3,2.5004384E-3],"split_indices":[1,1,3,0,0,4,0,0,0,0,0,0,0,0,0],"split_type":[0,0,0,0,0,0,0,0,0,0,0,0,0,0,0],"sum_hessian":[7.925966E3,1.7963871E3,6.1295786E3,1.8573734E2,1.6106498E3,5.5728564E3,5.567221E2,6.344038E1,1.2229694E2,6.451069E2,9.6554285E2,6.70961E1,5.5057603E3,5.245104E2,3.2211685E1],"tree_param":{"num_deleted":"0","num_feature":"5","num_nodes":"15","size_leaf_vector":"1"}},{"base_weights":[-1.9242028E-2,-7.4118845E-2,1.4494015E-1,-3.6453632E-1,-6.1419368E-2,1.0069592E-1,3.352619E-1,-2.020343E-4,-3.967131E-3,1.4012617E-3,-7.185348E-4,3.9030227E-3,7.9237286E-4,4.216753E-3,-2.8489546E-3],"categories":[],"categories_nodes":[],"categories_segments":[],"categories_sizes":[],"default_left":[0,0,0,0,0,0,0,0,0,0,0,0,0,0,0],"id":4,"left_children":[1,3,5,7,9,11,13,-1,-1,-1,-1,-1,-1,-1,-1],"loss_changes":[6.9497154E1,2.1298645E1,1.623798E1,2.673214E0,1.166032E1,9.721622E0,1.9629883E1,0E0,0E0,0E0,0E0,0E0,0E0,0E0,0E0],"parents":[2147483647,0,0,1,1,2,2,3,3,4,4,5,5,6,6],"right_children":[2,4,6,8,10,12,14,-1,-1,-1,-1,-1,-1,-1,-1],"split_conditions":[9.948127E-3,3.6541522E-3,1.603357E-2,-1.5459616E-2,-1.2696529E-2,-6.836635E-2,9.152722E-3,-2.020343E-4,-3.967131E-3,1.4012617E-3,-7.185348E-4,3.9030227E-3,7.9237286E-4,4.216753E-3,-2.8489546E-3],"split_indices":[2,2,2,1,4,1,4,0,0,0,0,0,0,0,0],"split_type":[0,0,0,0,0,0,0,0,0,0,0,0,0,0,0],"sum_hessian":[7.711319E3,5.779955E3,1.9313636E3,2.4099802E2,5.538957E3,1.5683073E3,3.6305637E2,2.0734985E1,2.2026303E2,2.7202814E2,5.2669287E3,1.07003E2,1.4613042E3,3.1893558E2,4.4120773E1],"tree_param":{"num_deleted":"0","num_feature":"5","num_nodes":"15","size_leaf_vector":"1"}},{"base_weights":[-4.4245843E-2,-1.2749878E-1,9.127381E-4,-1.5405458E-1,3.2625623E-2,-4.4803703E-3,6.298474E-1,-1.1686158E-3,-2.6935893E-3,8.2668074E-4,-4.277656E-3,-1.306159E-4,2.3130195E-3,8.577328E-4,9.102238E-3],"categories":[],"categories_nodes":[],"categories_segments":[],"categories_sizes":[],"default_left":[0,0,0,0,0,0,0,0,0,0,0,0,0,0,0],"id":5,"left_children":[1,3,5,7,9,11,13,-1,-1,-1,-1,-1,-1,-1,-1],"loss_changes":[2.8749275E1,1.14401245E1,1.6822302E1,9.861378E0,8.8679E0,9.952668E0,6.3542175E0,0E0,0E0,0E0,0E0,0E0,0E0,0E0,0E0],"parents":[2147483647,0,0,1,1,2,2,3,3,4,4,5,5,6,6],"right_children":[2,4,6,8,10,12,14,-1,-1,-1,-1,-1,-1,-1,-1],"split_conditions":[6.599898E-3,7.223283E-3,2.9887583E-2,4.2044958E-5,4.5751825E-2,7.1346335E-2,-8.56996E-3,-1.1686158E-3,-2.6935893E-3,8.2668074E-4,-4.277656E-3,-1.306159E-4,2.3130195E-3,8.577328E-4,9.102238E-3],"split_indices":[2,4,4,4,3,1,3,0,0,0,0,0,0,0,0],"split_type":[0,0,0,0,0,0,0,0,0,0,0,0,0,0,0],"sum_hessian":[7.6458984E3,2.688198E3,4.9577E3,2.3058264E3,3.8237152E2,4.916534E3,4.1166355E1,1.7449745E3,5.60852E2,3.4562415E2,3.6747353E1,4.7447935E3,1.7174057E2,1.4443832E1,2.6722523E1],"tree_param":{"num_deleted":"0","num_feature":"5","num_nodes":"15","size_leaf_vector":"1"}},{"base_weights":[6.091997E-2,1.3030455E-1,-1.6102287E-1,6.0885674E-1,1.0962189E-1,-9.453044E-2,-3.8406336E-1,-1.6579784E-3,6.3716928E-3,1.4300868E-3,2.9515947E-4,-1.283692E-3,5.660471E-4,-3.4191518E-3,-6.2488453E-3],"categories":[],"categories_nodes":[],"categories_segments":[],"categories_sizes":[],"default_left":[0,0,0,0,0,0,0,0,0,0,0,0,0,0,0],"id":6,"left_children":[1,3,5,7,9,11,13,-1,-1,-1,-1,-1,-1,-1,-1],"loss_changes":[1.22125946E2,5.9728172E1,2.7977333E1,5.5901413E0,1.5486931E1,7.4558725E0,4.186161E0,0E0,0E0,0E0,0E0,0E0,0E0,0E0,0E0],"parents":[2147483647,0,0,1,1,2,2,3,3,4,4,5,5,6,6],"right_children":[2,4,6,8,10,12,14,-1,-1,-1,-1,-1,-1,-1,-1],"split_conditions":[1.0111407E-2,3.6541522E-3,1.5521577E-2,-1.9965356E-2,7.923815E-3,3.850965E-2,2.6426611E-2,-1.6579784E-3,6.3716928E-3,1.4300868E-3,2.9515947E-4,-1.283692E-3,5.660471E-4,-3.4191518E-3,-6.2488453E-3],"split_indices":[2,2,2,1,2,1,2,0,0,0,0,0,0,0,0],"split_type":[0,0,0,0,0,0,0,0,0,0,0,0,0,0,0],"sum_hessian":[7.928197E3,6.0402764E3,1.8879203E3,2.4906271E2,5.791214E3,1.4554485E3,4.3247183E2,8.61072E0,2.40452E2,4.0870264E3,1.7041876E3,1.1893147E3,2.6613376E2,3.7011465E2,6.2357178E1],"tree_param":{"num_deleted":"0","num_feature":"5","num_nodes":"15","size_leaf_vector":"1"}},{"base_weights":[-1.9095005E-2,-7.370072E-2,1.4414653E-1,-3.6317912E-1,-6.105488E-2,1.0019021E-1,3.3306125E-1,-2.0207389E-4,-3.9527244E-3,1.3929463E-3,-7.143559E-4,3.8706013E-3,7.8901765E-4,4.1870973E-3,-2.8337464E-3],"categories":[],"categories_nodes":[],"categories_segments":[],"categories_sizes":[],"default_left":[0,0,0,0,0,0,0,0,0,0,0,0,0,0,0],"id":7,"left_children":[1,3,5,7,9,11,13,-1,-1,-1,-1,-1,-1,-1,-1],"loss_changes":[6.8750465E1,2.113374E1,1.602084E1,2.6523724E0,1.1528786E1,9.556328E0,1.9362988E1,0E0,0E0,0E0,0E0,0E0,0E0,0E0,0E0],"parents":[2147483647,0,0,1,1,2,2,3,3,4,4,5,5,6,6],"right_children":[2,4,6,8,10,12,14,-1,-1,-1,-1,-1,-1,-1,-1],"split_conditions":[9.948127E-3,3.6541522E-3,1.603357E-2,-1.5459616E-2,-1.2696529E-2,-6.836635E-2,9.152722E-3,-2.0207389E-4,-3.9527244E-3,1.3929463E-3,-7.143559E-4,3.8706013E-3,7.8901765E-4,4.1870973E-3,-2.8337464E-3],"split_indices":[2,2,2,1,4,1,4,0,0,0,0,0,0,0,0],"split_type":[0,0,0,0,0,0,0,0,0,0,0,0,0,0,0],"sum_hessian":[7.710516E3,5.778205E3,1.9323113E3,2.4069469E2,5.5375103E3,1.5688131E3,3.6349817E2,2.0735043E1,2.1995964E2,2.7216968E2,5.2653403E3,1.0719103E2,1.4616221E3,3.1943604E2,4.4062138E1],"tree_param":{"num_deleted":"0","num_feature":"5","num_nodes":"15","size_leaf_vector":"1"}},{"base_weights":[-4.3922953E-2,-4.7752935E-2,5.993718E-1,-5.537157E-2,1.89895E-1,8.542692E-2,8.3710706E-1,-7.4821454E-4,3.18529E-4,3.6362677E-3,2.0323669E-4,6.276779E-3,-6.35465E-3,9.22949E-3,-1.957907E-3],"categories":[],"categories_nodes":[],"categories_segments":[],"categories_sizes":[],"default_left":[0,0,0,0,0,0,0,0,0,0,0,0,0,0,0],"id":8,"left_children":[1,3,5,7,9,11,13,-1,-1,-1,-1,-1,-1,-1,-1],"loss_changes":[1.886465E1,1.37721195E1,5.465933E0,1.2497902E1,6.9547596E0,6.4373207E0,2.9181366E0,0E0,0E0,0E0,0E0,0E0,0E0,0E0,0E0],"parents":[2147483647,0,0,1,1,2,2,3,3,4,4,5,5,6,6],"right_children":[2,4,6,8,10,12,14,-1,-1,-1,-1,-1,-1,-1,-1],"split_conditions":[2.9887583E-2,6.572964E-2,-8.56996E-3,6.6503836E-3,5.198542E-3,-3.3735532E-2,7.821524E1,-7.4821454E-4,3.18529E-4,3.6362677E-3,2.0323669E-4,6.276779E-3,-6.35465E-3,9.22949E-3,-1.957907E-3],"split_indices":[4,1,3,4,4,1,0,0,0,0,0,0,0,0,0],"split_type":[0,0,0,0,0,0,0,0,0,0,0,0,0,0,0],"sum_hessian":[7.6440933E3,7.599772E3,4.4320953E1,7.364446E3,2.3532611E2,1.44473915E1,2.9873562E1,6.0218066E3,1.3426395E3,1.1567185E2,1.1965427E2,8.319108E0,6.128284E0,2.7679615E1,2.1939468E0],"tree_param":{"num_deleted":"0","num_feature":"5","num_nodes":"15","size_leaf_vector":"1"}},{"base_weights":[6.0440175E-2,-5.5111855E-2,9.4274424E-2,-2.7597433E-1,-2.9552035E-2,1.15618706E-1,-1.1960742E-1,-8.412581E-4,-3.741451E-3,5.85631E-4,-8.847358E-4,-3.416369E-3,1.2123797E-3,-1.4265461E-3,2.478709E-3],"categories":[],"categories_nodes":[],"categories_segments":[],"categories_sizes":[],"default_left":[0,0,0,0,0,0,0,0,0,0,0,0,0,0,0],"id":9,"left_children":[1,3,5,7,9,11,13,-1,-1,-1,-1,-1,-1,-1,-1],"loss_changes":[3.1013859E1,1.0136259E1,2.8022816E1,3.476738E0,8.373068E0,1.4376755E1,4.7545877E0,0E0,0E0,0E0,0E0,0E0,0E0,0E0,0E0],"parents":[2147483647,0,0,1,1,2,2,3,3,4,4,5,5,6,6],"right_children":[2,4,6,8,10,12,14,-1,-1,-1,-1,-1,-1,-1,-1],"split_conditions":[-2.1197034E-2,-7.0922405E-2,6.357896E-2,2.4724602E1,3.1987442E1,-2.6608013E-2,8.769367E1,-8.412581E-4,-3.741451E-3,5.85631E-4,-8.847358E-4,-3.416369E-3,1.2123797E-3,-1.4265461E-3,2.478709E-3],"split_indices":[1,1,3,0,0,4,0,0,0,0,0,0,0,0,0],"split_type":[0,0,0,0,0,0,0,0,0,0,0,0,0,0,0],"sum_hessian":[7.930383E3,1.7959967E3,6.134386E3,1.8527113E2,1.6107256E3,5.5781733E3,5.56213E2,6.334237E1,1.21928764E2,6.454634E2,9.6526215E2,6.6992584E1,5.5111807E3,5.239633E2,3.2249676E1],"tree_param":{"num_deleted":"0","num_feature":"5","num_nodes":"15","size_leaf_vector":"1"}},{"base_weights":[-1.8949743E-2,-7.3143095E-2,1.4286567E-1,-3.6077395E-1,-6.060198E-2,2.4734999E-1,4.549642E-2,7.220664E-4,-3.9155977E-3,1.3857421E-3,-7.0930313E-4,2.0124032E-3,4.67442E-3,-3.5083387E-4,2.1095125E-3],"categories":[],"categories_nodes":[],"categories_segments":[],"categories_sizes":[],"default_left":[0,0,0,0,0,0,0,0,0,0,0,0,0,0,0],"id":10,"left_children":[1,3,5,7,9,11,13,-1,-1,-1,-1,-1,-1,-1,-1],"loss_changes":[6.762808E1,2.0816517E1,1.967294E1,3.2427807E0,1.1399725E1,9.375313E0,1.3376314E1,0E0,0E0,0E0,0E0,0E0,0E0,0E0,0E0],"parents":[2147483647,0,0,1,1,2,2,3,3,4,4,5,5,6,6],"right_children":[2,4,6,8,10,12,14,-1,-1,-1,-1,-1,-1,-1,-1],"split_conditions":[9.948127E-3,3.6541522E-3,-4.080756E-3,-1.6670275E-2,-1.2696529E-2,1.603357E-2,1.3807281E-2,7.220664E-4,-3.9155977E-3,1.3857421E-3,-7.0930313E-4,2.0124032E-3,4.67442E-3,-3.5083387E-4,2.1095125E-3],"split_indices":[2,2,3,3,4,2,2,0,0,0,0,0,0,0,0],"split_type":[0,0,0,0,0,0,0,0,0,0,0,0,0,0,0],"sum_hessian":[7.709704E3,5.7758657E3,1.9338384E3,2.4015427E2,5.5357114E3,9.320936E2,1.00174475E3,1.5852656E1,2.2430162E2,2.7229224E2,5.2634194E3,7.722254E2,1.5986823E2,6.7418915E2,3.275556E2],"tree_param":{"num_deleted":"0","num_feature":"5","num_nodes":"15","size_leaf_vector":"1"}},{"base_weights":[-4.3601416E-2,-1.2639251E-1,1.2795789E-3,-1.5278539E-1,3.2584034E-2,-4.054966E-3,6.2032664E-1,-1.1570876E-3,-2.6778611E-3,8.2384347E-4,-4.263364E-3,-4.747468E-4,4.040856E-4,8.488455E-4,8.945728E-3],"categories":[],"categories_nodes":[],"categories_segments":[],"categories_sizes":[],"default_left":[0,0,0,0,0,0,0,0,0,0,0,0,0,0,0],"id":11,"left_children":[1,3,5,7,9,11,13,-1,-1,-1,-1,-1,-1,-1,-1],"loss_changes":[2.84007E1,1.1278732E1,1.6373539E1,9.795029E0,8.79709E0,9.492811E0,6.144514E0,0E0,0E0,0E0,0E0,0E0,0E0,0E0,0E0],"parents":[2147483647,0,0,1,1,2,2,3,3,4,4,5,5,6,6],"right_children":[2,4,6,8,10,12,14,-1,-1,-1,-1,-1,-1,-1,-1],"split_conditions":[6.599898E-3,7.223283E-3,2.9887583E-2,4.2044958E-5,4.5751825E-2,4.0273863E-4,-8.56996E-3,-1.1570876E-3,-2.6778611E-3,8.2384347E-4,-4.263364E-3,-4.747468E-4,4.040856E-4,8.488455E-4,8.945728E-3],"split_indices":[2,4,4,4,3,3,3,0,0,0,0,0,0,0,0],"split_type":[0,0,0,0,0,0,0,0,0,0,0,0,0,0,0],"sum_hessian":[7.6422915E3,2.6858818E3,4.9564097E3,2.3034995E3,3.8238232E2,4.9150483E3,4.136124E1,1.7434209E3,5.600787E2,3.4568985E2,3.6692474E1,2.4866785E3,2.4283699E3,1.4452835E1,2.6908403E1],"tree_param":{"num_deleted":"0","num_feature":"5","num_nodes":"15","size_leaf_vector":"1"}},{"base_weights":[5.9964E-2,1.2846738E-1,-1.5959986E-1,6.008017E-1,1.0800061E-1,-9.3737595E-2,-3.8097015E-1,-1.9075361E-3,6.2518665E-3,1.4101635E-3,2.8734273E-4,-1.8197348E-3,-4.886726E-4,-3.3890738E-3,-6.2157298E-3],"categories":[],"categories_nodes":[],"categories_segments":[],"categories_sizes":[],"default_left":[0,0,0,0,0,0,0,0,0,0,0,0,0,0,0],"id":12,"left_children":[1,3,5,7,9,11,13,-1,-1,-1,-1,-1,-1,-1,-1],"loss_changes":[1.1934806E2,5.8397087E1,2.747771E1,4.9629517E0,1.5168327E1,5.7544546E0,4.165203E0,0E0,0E0,0E0,0E0,0E0,0E0,0E0,0E0],"parents":[2147483647,0,0,1,1,2,2,3,3,4,4,5,5,6,6],"right_children":[2,4,6,8,10,12,14,-1,-1,-1,-1,-1,-1,-1,-1],"split_conditions":[1.0111407E-2,3.6541522E-3,1.5521577E-2,-2.1109207E-2,7.923815E-3,-2.7595967E-2,2.6426611E-2,-1.9075361E-3,6.2518665E-3,1.4101635E-3,2.8734273E-4,-1.8197348E-3,-4.886726E-4,-3.3890738E-3,-6.2157298E-3],"split_indices":[2,2,2,3,2,3,2,0,0,0,0,0,0,0,0],"split_type":[0,0,0,0,0,0,0,0,0,0,0,0,0,0,0],"sum_hessian":[7.9325566E3,6.046484E3,1.886073E3,2.499419E2,5.796542E3,1.4546946E3,4.3137836E2,7.265795E0,2.426761E2,4.0915603E3,1.7049814E3,4.8935E2,9.653446E2,3.6923615E2,6.214221E1],"tree_param":{"num_deleted":"0","num_feature":"5","num_nodes":"15","size_leaf_vector":"1"}},{"base_weights":[-1.8804623E-2,1.1422152E-1,-4.962159E-2,3.4577549E-1,7.50136E-2,1.21927135E-1,-5.926868E-2,1.5652984E-3,4.175194E-3,5.3948043E-3,5.755481E-4,8.251925E-4,6.9486657E-3,-7.1341667E-4,4.5833053E-4],"categories":[],"categories_nodes":[],"categories_segments":[],"categories_sizes":[],"default_left":[0,0,0,0,0,0,0,0,0,0,0,0,0,0,0],"id":13,"left_children":[1,3,5,7,9,11,13,-1,-1,-1,-1,-1,-1,-1,-1],"loss_changes":[3.1612083E1,1.3142269E1,1.0367935E1,2.782545E0,1.003783E1,7.475726E0,7.5250187E0,0E0,0E0,0E0,0E0,0E0,0E0,0E0,0E0],"parents":[2147483647,0,0,1,1,2,2,3,3,4,4,5,5,6,6],"right_children":[2,4,6,8,10,12,14,-1,-1,-1,-1,-1,-1,-1,-1],"split_conditions":[-3.21069E-2,-6.836635E-2,-1.2696529E-2,-1.1775E-1,-2.6608013E-2,-1.3377766E-2,5.9656713E-2,1.5652984E-3,4.175194E-3,5.3948043E-3,5.755481E-4,8.251925E-4,6.9486657E-3,-7.1341667E-4,4.5833053E-4],"split_indices":[3,1,4,3,4,4,3,0,0,0,0,0,0,0,0],"split_type":[0,0,0,0,0,0,0,0,0,0,0,0,0,0,0],"sum_hessian":[7.708893E3,1.4494432E3,6.2594497E3,2.087557E2,1.2406876E3,3.326413E2,5.9268086E3,5.825992E1,1.5049579E2,4.3863377E1,1.1968242E3,3.123044E2,2.0336878E1,5.3164336E3,6.1037524E2],"tree_param":{"num_deleted":"0","num_feature":"5","num_nodes":"15","size_leaf_vector":"1"}},{"base_weights":[-4.328286E-2,-1.2577826E-1,1.4208663E-3,-1.5207508E-1,3.252335E-2,-3.8889078E-3,6.163384E-1,-1.1515107E-3,-2.6666587E-3,8.206991E-4,-4.248518E-3,-4.7067567E-4,4.0311593E-4,8.463077E-4,8.879436E-3],"categories":[],"categories_nodes":[],"categories_segments":[],"categories_sizes":[],"default_left":[0,0,0,0,0,0,0,0,0,0,0,0,0,0,0],"id":14,"left_children":[1,3,5,7,9,11,13,-1,-1,-1,-1,-1,-1,-1,-1],"loss_changes":[2.8180908E1,1.1184608E1,1.618707E1,9.714455E0,8.723188E0,9.383158E0,6.0541573E0,0E0,0E0,0E0,0E0,0E0,0E0,0E0,0E0],"parents":[2147483647,0,0,1,1,2,2,3,3,4,4,5,5,6,6],"right_children":[2,4,6,8,10,12,14,-1,-1,-1,-1,-1,-1,-1,-1],"split_conditions":[6.599898E-3,7.223283E-3,2.9887583E-2,4.2044958E-5,4.5751825E-2,4.0273863E-4,-8.56996E-3,-1.1515107E-3,-2.6666587E-3,8.206991E-4,-4.248518E-3,-4.7067567E-4,4.0311593E-4,8.463077E-4,8.879436E-3],"split_indices":[2,4,4,4,3,3,3,0,0,0,0,0,0,0,0],"split_type":[0,0,0,0,0,0,0,0,0,0,0,0,0,0,0],"sum_hessian":[7.640503E3,2.6845928E3,4.95591E3,2.3021948E3,3.8239786E2,4.914468E3,4.1442444E1,1.7426685E3,5.595265E2,3.4576263E2,3.663523E1,2.4859368E3,2.428531E3,1.4455417E1,2.6987028E1],"tree_param":{"num_deleted":"0","num_feature":"5","num_nodes":"15","size_leaf_vector":"1"}},{"base_weights":[5.949152E-2,1.2751678E-1,-1.5877888E-1,5.9610593E-1,1.07180506E-1,-9.3228415E-2,-3.7932658E-1,-1.6678729E-3,6.2386445E-3,1.3991101E-3,2.855895E-4,-1.2693176E-3,5.720831E-4,-3.373623E-3,-6.1957655E-3],"categories":[],"categories_nodes":[],"categories_segments":[],"categories_sizes":[],"default_left":[0,0,0,0,0,0,0,0,0,0,0,0,0,0,0],"id":15,"left_children":[1,3,5,7,9,11,13,-1,-1,-1,-1,-1,-1,-1,-1],"loss_changes":[1.17848495E2,5.7595184E1,2.7230587E1,5.429001E0,1.4921867E1,7.385495E0,4.1442795E0,0E0,0E0,0E0,0E0,0E0,0E0,0E0,0E0],"parents":[2147483647,0,0,1,1,2,2,3,3,4,4,5,5,6,6],"right_children":[2,4,6,8,10,12,14,-1,-1,-1,-1,-1,-1,-1,-1],"split_conditions":[1.0111407E-2,3.6541522E-3,1.5521577E-2,-1.9965356E-2,7.923815E-3,3.850965E-2,2.6426611E-2,-1.6678729E-3,6.2386445E-3,1.3991101E-3,2.855895E-4,-1.2693176E-3,5.720831E-4,-3.373623E-3,-6.1957655E-3],"split_indices":[2,2,2,1,2,1,2,0,0,0,0,0,0,0,0],"split_type":[0,0,0,0,0,0,0,0,0,0,0,0,0,0,0],"sum_hessian":[7.934683E3,6.04968E3,1.8850028E3,2.5045166E2,5.7992285E3,1.45421E3,4.3079285E2,8.617137E0,2.4183452E2,4.0940696E3,1.7051592E3,1.1881721E3,2.660379E2,3.6878214E2,6.2010693E1],"tree_param":{"num_deleted":"0","num_feature":"5","num_nodes":"15","size_leaf_vector":"1"}},{"base_weights":[-1.8659959E-2,-7.235586E-2,1.4143826E-1,-3.5823172E-1,-5.9914872E-2,2.4442138E-1,4.5316327E-2,7.247389E-4,-3.8893078E-3,4.980692E-4,-7.249439E-4,2.023758E-3,4.8234467E-3,-3.4604894E-4,2.0919335E-3],"categories":[],"categories_nodes":[],"categories_segments":[],"categories_sizes":[],"default_left":[0,0,0,0,0,0,0,0,0,0,0,0,0,0,0],"id":16,"left_children":[1,3,5,7,9,11,13,-1,-1,-1,-1,-1,-1,-1,-1],"loss_changes":[6.628227E1,2.0512629E1,1.9158493E1,3.2091866E0,7.641861E0,9.25248E0,1.3141929E1,0E0,0E0,0E0,0E0,0E0,0E0,0E0,0E0],"parents":[2147483647,0,0,1,1,2,2,3,3,4,4,5,5,6,6],"right_children":[2,4,6,8,10,12,14,-1,-1,-1,-1,-1,-1,-1,-1],"split_conditions":[9.948127E-3,3.6541522E-3,-4.080756E-3,-1.6670275E-2,-3.9876055E-2,5.437151E1,1.3807281E-2,7.247389E-4,-3.8893078E-3,4.980692E-4,-7.249439E-4,2.023758E-3,4.8234467E-3,-3.4604894E-4,2.0919335E-3],"split_indices":[2,2,3,3,3,0,2,0,0,0,0,0,0,0,0],"split_type":[0,0,0,0,0,0,0,0,0,0,0,0,0,0,0],"sum_hessian":[7.7080815E3,5.772553E3,1.9355287E3,2.3957909E2,5.532974E3,9.336703E2,1.00185846E3,1.5849602E1,2.2372948E2,5.687993E2,4.964175E3,7.9502484E2,1.3864543E2,6.7396246E2,3.2789603E2],"tree_param":{"num_deleted":"0","num_feature":"5","num_nodes":"15","size_leaf_vector":"1"}},{"base_weights":[-4.296687E-2,-1.2490191E-1,1.4022217E-3,-2.6512283E-1,-1.0731312E-1,-7.781851E-3,2.4872106E-1,4.5827813E-3,-2.9084506E-3,-9.424708E-4,-2.2416196E-3,-4.530724E-4,3.3434137E-4,2.2288805E-3,1.1861646E-2],"categories":[],"categories_nodes":[],"categories_segments":[],"categories_sizes":[],"default_left":[0,0,0,0,0,0,0,0,0,0,0,0,0,0,0],"id":17,"left_children":[1,3,5,7,9,11,13,-1,-1,-1,-1,-1,-1,-1,-1],"loss_changes":[2.7773483E1,6.5905266E0,1.1261165E1,5.6864967E0,3.622179E0,7.3951855E0,4.034483E0,0E0,0E0,0E0,0E0,0E0,0E0,0E0,0E0],"parents":[2147483647,0,0,1,1,2,2,3,3,4,4,5,5,6,6],"right_children":[2,4,6,8,10,12,14,-1,-1,-1,-1,-1,-1,-1,-1],"split_conditions":[6.599898E-3,3.7952163E-3,7.1346335E-2,-2.353216E-2,6.390094E-3,4.0273863E-4,3.1675734E-2,4.5827813E-3,-2.9084506E-3,-9.424708E-4,-2.2416196E-3,-4.530724E-4,3.3434137E-4,2.2288805E-3,1.1861646E-2],"split_indices":[2,2,1,1,2,3,2,0,0,0,0,0,0,0,0],"split_type":[0,0,0,0,0,0,0,0,0,0,0,0,0,0,0],"sum_hessian":[7.6387188E3,2.6827505E3,4.9559683E3,2.9743927E2,2.3853113E3,4.779454E3,1.7651431E2,9.635599E0,2.8780368E2,2.1470361E3,2.3827505E2,2.5016812E3,2.2777727E3,1.7298514E2,3.52917E0],"tree_param":{"num_deleted":"0","num_feature":"5","num_nodes":"15","size_leaf_vector":"1"}},{"base_weights":[5.902223E-2,1.2648295E-1,-1.5771948E-1,5.9002423E-1,1.0632299E-1,-9.25038E-2,-3.7739018E-1,-1.6568328E-3,6.174258E-3,1.3879032E-3,2.829739E-4,-1.2604785E-3,5.712548E-4,-3.3554216E-3,-6.1722845E-3],"categories":[],"categories_nodes":[],"categories_segments":[],"categories_sizes":[],"default_left":[0,0,0,0,0,0,0,0,0,0,0,0,0,0,0],"id":18,"left_children":[1,3,5,7,9,11,13,-1,-1,-1,-1,-1,-1,-1,-1],"loss_changes":[1.1608236E2,5.6513046E1,2.6964115E1,5.3228455E0,1.4696808E1,7.3076906E0,4.1197243E0,0E0,0E0,0E0,0E0,0E0,0E0,0E0,0E0],"parents":[2147483647,0,0,1,1,2,2,3,3,4,4,5,5,6,6],"right_children":[2,4,6,8,10,12,14,-1,-1,-1,-1,-1,-1,-1,-1],"split_conditions":[1.0111407E-2,3.6541522E-3,1.5521577E-2,-1.9965356E-2,7.923815E-3,3.850965E-2,2.6426611E-2,-1.6568328E-3,6.174258E-3,1.3879032E-3,2.829739E-4,-1.2604785E-3,5.712548E-4,-3.3554216E-3,-6.1722845E-3],"split_indices":[2,2,2,1,2,1,2,0,0,0,0,0,0,0,0],"split_type":[0,0,0,0,0,0,0,0,0,0,0,0,0,0,0],"sum_hessian":[7.936764E3,6.0531436E3,1.8836205E3,2.5110794E2,5.8020356E3,1.4535214E3,4.300992E2,8.609871E0,2.4249806E2,4.096611E3,1.7054249E3,1.1874706E3,2.6605078E2,3.6824527E2,6.1853947E1],"tree_param":{"num_deleted":"0","num_feature":"5","num_nodes":"15","size_leaf_vector":"1"}},{"base_weights":[-1.8517414E-2,-7.183093E-2,1.4026575E-1,-3.5620412E-1,-5.9475176E-2,2.4235934E-1,4.4887383E-2,7.292286E-4,-3.8684653E-3,1.374794E-3,-6.9704425E-4,2.0060546E-3,4.7841147E-3,-3.4474253E-4,2.0743376E-3],"categories":[],"categories_nodes":[],"categories_segments":[],"categories_sizes":[],"default_left":[0,0,0,0,0,0,0,0,0,0,0,0,0,0,0],"id":19,"left_children":[1,3,5,7,9,11,13,-1,-1,-1,-1,-1,-1,-1,-1],"loss_changes":[6.526273E1,2.0257265E1,1.8859657E1,3.1856384E0,1.1155344E1,9.127178E0,1.2947576E1,0E0,0E0,0E0,0E0,0E0,0E0,0E0,0E0],"parents":[2147483647,0,0,1,1,2,2,3,3,4,4,5,5,6,6],"right_children":[2,4,6,8,10,12,14,-1,-1,-1,-1,-1,-1,-1,-1],"split_conditions":[9.948127E-3,3.6541522E-3,-4.080756E-3,-1.6670275E-2,-1.2696529E-2,5.437151E1,1.3807281E-2,7.292286E-4,-3.8684653E-3,1.374794E-3,-6.9704425E-4,2.0060546E-3,4.7841147E-3,-3.4474253E-4,2.0743376E-3],"split_indices":[2,2,3,3,4,0,2,0,0,0,0,0,0,0,0],"split_type":[0,0,0,0,0,0,0,0,0,0,0,0,0,0,0],"sum_hessian":[7.707262E3,5.7703423E3,1.93692E3,2.3911751E2,5.5312246E3,9.347822E2,1.0021378E3,1.58446E1,2.232729E2,2.7247794E2,5.2587466E3,7.9585754E2,1.3892471E2,6.739005E2,3.2823727E2],"tree_param":{"num_deleted":"0","num_feature":"5","num_nodes":"15","size_leaf_vector":"1"}},{"base_weights":[-4.265124E-2,-1.2410969E-1,1.43341E-3,-1.5029107E-1,3.336134E-2,-3.8463431E-3,6.114247E-1,-1.1344206E-3,-2.6469836E-3,6.74804E-4,-5.576614E-3,-1.2263974E-4,2.266607E-3,2.9033767E-3,9.408116E-3],"categories":[],"categories_nodes":[],"categories_segments":[],"categories_sizes":[],"default_left":[0,0,0,0,0,0,0,0,0,0,0,0,0,0,0],"id":20,"left_children":[1,3,5,7,9,11,13,-1,-1,-1,-1,-1,-1,-1,-1],"loss_changes":[2.7428528E1,1.1062733E1,1.5966409E1,9.665924E0,7.764402E0,9.540072E0,4.226159E0,0E0,0E0,0E0,0E0,0E0,0E0,0E0,0E0],"parents":[2147483647,0,0,1,1,2,2,3,3,4,4,5,5,6,6],"right_children":[2,4,6,8,10,12,14,-1,-1,-1,-1,-1,-1,-1,-1],"split_conditions":[6.599898E-3,7.223283E-3,2.9887583E-2,4.2044958E-5,4.3704253E-2,7.1346335E-2,1.0910879E-2,-1.1344206E-3,-2.6469836E-3,6.74804E-4,-5.576614E-3,-1.2263974E-4,2.266607E-3,2.9033767E-3,9.408116E-3],"split_indices":[2,4,4,4,1,1,2,0,0,0,0,0,0,0,0],"split_type":[0,0,0,0,0,0,0,0,0,0,0,0,0,0,0],"sum_hessian":[7.6369375E3,2.6810847E3,4.955853E3,2.29891E3,3.8217468E2,4.914311E3,4.1541912E1,1.7403567E3,5.585532E2,3.6215378E2,2.0020895E1,4.742087E3,1.7222424E2,2.1988718E1,1.9553194E1],"tree_param":{"num_deleted":"0","num_feature":"5","num_nodes":"15","size_leaf_vector":"1"}},{"base_weights":[5.85568E-2,1.2545279E-1,-1.5665245E-1,5.844996E-1,1.0545119E-1,-9.177739E-2,-3.7543082E-1,-1.6550402E-3,6.1162887E-3,1.4579371E-3,4.3574444E-4,-1.2514562E-3,5.6962925E-4,-3.336747E-3,-6.1497306E-3],"categories":[],"categories_nodes":[],"categories_segments":[],"categories_sizes":[],"default_left":[0,0,0,0,0,0,0,0,0,0,0,0,0,0,0],"id":21,"left_children":[1,3,5,7,9,11,13,-1,-1,-1,-1,-1,-1,-1,-1],"loss_changes":[1.1432612E2,5.5557083E1,2.6694588E1,5.242935E0,1.4486656E1,7.2227745E0,4.099743E0,0E0,0E0,0E0,0E0,0E0,0E0,0E0,0E0],"parents":[2147483647,0,0,1,1,2,2,3,3,4,4,5,5,6,6],"right_children":[2,4,6,8,10,12,14,-1,-1,-1,-1,-1,-1,-1,-1],"split_conditions":[1.0111407E-2,3.6541522E-3,1.5521577E-2,-1.9965356E-2,7.419044E-3,3.850965E-2,2.6426611E-2,-1.6550402E-3,6.1162887E-3,1.4579371E-3,4.3574444E-4,-1.2514562E-3,5.6962925E-4,-3.336747E-3,-6.1497306E-3],"split_indices":[2,2,2,1,2,1,2,0,0,0,0,0,0,0,0],"split_type":[0,0,0,0,0,0,0,0,0,0,0,0,0,0,0],"sum_hessian":[7.938804E3,6.056583E3,1.882221E3,2.517007E2,5.8048823E3,1.4528286E3,4.293924E2,8.608663E0,2.4309204E2,3.5130688E3,2.2918135E3,1.1867524E3,2.660761E2,3.6769083E2,6.1701538E1],"tree_param":{"num_deleted":"0","num_feature":"5","num_nodes":"15","size_leaf_vector":"1"}},{"base_weights":[-1.8375782E-2,-7.1314156E-2,1.3912034E-1,-3.5394153E-1,-5.905706E-2,2.4041331E-1,4.441324E-2,7.327337E-4,-3.8451299E-3,1.3687202E-3,-6.9240335E-4,1.9894491E-3,4.746369E-3,-3.440909E-4,2.056823E-3],"categories":[],"categories_nodes":[],"categories_segments":[],"categories_sizes":[],"default_left":[0,0,0,0,0,0,0,0,0,0,0,0,0,0,0],"id":22,"left_children":[1,3,5,7,9,11,13,-1,-1,-1,-1,-1,-1,-1,-1],"loss_changes":[6.427131E1,1.9964558E1,1.8593102E1,3.1574745E0,1.1044048E1,9.004879E0,1.2762468E1,0E0,0E0,0E0,0E0,0E0,0E0,0E0,0E0],"parents":[2147483647,0,0,1,1,2,2,3,3,4,4,5,5,6,6],"right_children":[2,4,6,8,10,12,14,-1,-1,-1,-1,-1,-1,-1,-1],"split_conditions":[9.948127E-3,3.6541522E-3,-4.080756E-3,-1.6670275E-2,-1.2696529E-2,5.437151E1,1.3807281E-2,7.327337E-4,-3.8451299E-3,1.3687202E-3,-6.9240335E-4,1.9894491E-3,4.746369E-3,-3.440909E-4,2.056823E-3],"split_indices":[2,2,3,3,4,0,2,0,0,0,0,0,0,0,0],"split_type":[0,0,0,0,0,0,0,0,0,0,0,0,0,0,0],"sum_hessian":[7.7064307E3,5.7681562E3,1.938274E3,2.3859909E2,5.5295576E3,9.358293E2,1.00244476E3,1.584061E1,2.2275848E2,2.725811E2,5.256976E3,7.9663715E2,1.3919215E2,6.738692E2,3.285756E2],"tree_param":{"num_deleted":"0","num_feature":"5","num_nodes":"15","size_leaf_vector":"1"}},{"base_weights":[-4.2337976E-2,-1.2332051E-1,1.4629031E-3,-1.4939275E-1,3.338338E-2,-3.7902393E-3,6.071103E-1,-1.1267315E-3,-2.6345619E-3,6.733226E-4,-5.559656E-3,-1.21620615E-4,2.2525156E-3,2.886977E-3,9.330118E-3],"categories":[],"categories_nodes":[],"categories_segments":[],"categories_sizes":[],"default_left":[0,0,0,0,0,0,0,0,0,0,0,0,0,0,0],"id":23,"left_children":[1,3,5,7,9,11,13,-1,-1,-1,-1,-1,-1,-1,-1],"loss_changes":[2.7086452E1,1.0956169E1,1.5772428E1,9.59623E0,7.7037606E0,9.427449E0,4.1543293E0,0E0,0E0,0E0,0E0,0E0,0E0,0E0,0E0],"parents":[2147483647,0,0,1,1,2,2,3,3,4,4,5,5,6,6],"right_children":[2,4,6,8,10,12,14,-1,-1,-1,-1,-1,-1,-1,-1],"split_conditions":[6.599898E-3,7.223283E-3,2.9887583E-2,4.2044958E-5,4.3704253E-2,7.1346335E-2,1.0910879E-2,-1.1267315E-3,-2.6345619E-3,6.733226E-4,-5.559656E-3,-1.21620615E-4,2.2525156E-3,2.886977E-3,9.330118E-3],"split_indices":[2,4,4,4,1,1,2,0,0,0,0,0,0,0,0],"split_type":[0,0,0,0,0,0,0,0,0,0,0,0,0,0,0],"sum_hessian":[7.6351597E3,2.67942E3,4.9557393E3,2.297252E3,3.8216797E2,4.9141104E3,4.1629272E1,1.7393151E3,5.57937E2,3.621901E2,1.9977863E1,4.7417393E3,1.723708E2,2.2010447E1,1.9618828E1],"tree_param":{"num_deleted":"0","num_feature":"5","num_nodes":"15","size_leaf_vector":"1"}},{"base_weights":[5.8094908E-2,-5.4341603E-2,9.09382E-2,-2.692478E-1,-2.959744E-2,1.1158957E-1,-1.168569E-1,-7.892967E-4,-3.6691262E-3,5.677897E-4,-8.7455375E-4,-3.384487E-3,1.1709385E-3,-1.3955509E-3,2.4341797E-3],"categories":[],"categories_nodes":[],"categories_segments":[],"categories_sizes":[],"default_left":[0,0,0,0,0,0,0,0,0,0,0,0,0,0,0],"id":24,"left_children":[1,3,5,7,9,11,13,-1,-1,-1,-1,-1,-1,-1,-1],"loss_changes":[2.9332325E1,9.5427E0,2.6390438E1,3.415617E0,8.059565E0,1.3890854E1,4.5819564E0,0E0,0E0,0E0,0E0,0E0,0E0,0E0,0E0],"parents":[2147483647,0,0,1,1,2,2,3,3,4,4,5,5,6,6],"right_children":[2,4,6,8,10,12,14,-1,-1,-1,-1,-1,-1,-1,-1],"split_conditions":[-2.1197034E-2,-7.0922405E-2,6.357896E-2,2.4724602E1,3.1987442E1,-2.6608013E-2,8.769367E1,-7.892967E-4,-3.6691262E-3,5.677897E-4,-8.7455375E-4,-3.384487E-3,1.1709385E-3,-1.3955509E-3,2.4341797E-3],"split_indices":[1,1,3,0,0,4,0,0,0,0,0,0,0,0,0],"split_type":[0,0,0,0,0,0,0,0,0,0,0,0,0,0,0],"sum_hessian":[7.9408057E3,1.7950239E3,6.1457817E3,1.8431795E2,1.610706E3,5.5906294E3,5.551524E2,6.3121708E1,1.21196236E2,6.4612354E2,9.6458246E2,6.68202E1,5.523809E3,5.2282574E2,3.232665E1],"tree_param":{"num_deleted":"0","num_feature":"5","num_nodes":"15","size_leaf_vector":"1"}},{"base_weights":[-1.8235197E-2,-7.08015E-2,1.3798754E-1,-3.5169348E-1,-5.8642365E-2,9.56802E-2,3.1893775E-1,-1.4606811E-4,-3.834927E-3,1.3627583E-3,-6.878026E-4,3.734254E-3,7.49727E-4,4.026131E-3,-2.8654807E-3],"categories":[],"categories_nodes":[],"categories_segments":[],"categories_sizes":[],"default_left":[0,0,0,0,0,0,0,0,0,0,0,0,0,0,0],"id":25,"left_children":[1,3,5,7,9,11,13,-1,-1,-1,-1,-1,-1,-1,-1],"loss_changes":[6.329669E1,1.9675953E1,1.4825859E1,2.557129E0,1.0934818E1,9.026394E0,1.8725204E1,0E0,0E0,0E0,0E0,0E0,0E0,0E0,0E0],"parents":[2147483647,0,0,1,1,2,2,3,3,4,4,5,5,6,6],"right_children":[2,4,6,8,10,12,14,-1,-1,-1,-1,-1,-1,-1,-1],"split_conditions":[9.948127E-3,3.6541522E-3,1.603357E-2,-1.5459616E-2,-1.2696529E-2,-6.836635E-2,9.152722E-3,-1.4606811E-4,-3.834927E-3,1.3627583E-3,-6.878026E-4,3.734254E-3,7.49727E-4,4.026131E-3,-2.8654807E-3],"split_indices":[2,2,2,1,4,1,4,0,0,0,0,0,0,0,0],"split_type":[0,0,0,0,0,0,0,0,0,0,0,0,0,0,0],"sum_hessian":[7.7055913E3,5.765983E3,1.9396086E3,2.3808073E2,5.527902E3,1.5732916E3,3.6631705E2,2.0649181E1,2.1743155E2,2.7268225E2,5.2552197E3,1.0797758E2,1.4653141E3,3.221346E2,4.418246E1],"tree_param":{"num_deleted":"0","num_feature":"5","num_nodes":"15","size_leaf_vector":"1"}},{"base_weights":[-4.20266E-2,-1.2251815E-1,1.4818639E-3,-1.4848216E-1,3.3425357E-2,-3.744915E-3,6.028597E-1,-1.118914E-3,-2.6220337E-3,8.242327E-4,-4.2074556E-3,-4.6140395E-4,3.9603407E-4,8.198417E-4,8.671516E-3],"categories":[],"categories_nodes":[],"categories_segments":[],"categories_sizes":[],"default_left":[0,0,0,0,0,0,0,0,0,0,0,0,0,0,0],"id":26,"left_children":[1,3,5,7,9,11,13,-1,-1,-1,-1,-1,-1,-1,-1],"loss_changes":[2.6736282E1,1.0850903E1,1.5582375E1,9.527012E0,8.561206E0,9.034382E0,5.8091908E0,0E0,0E0,0E0,0E0,0E0,0E0,0E0,0E0],"parents":[2147483647,0,0,1,1,2,2,3,3,4,4,5,5,6,6],"right_children":[2,4,6,8,10,12,14,-1,-1,-1,-1,-1,-1,-1,-1],"split_conditions":[6.599898E-3,7.223283E-3,2.9887583E-2,4.2044958E-5,4.5751825E-2,4.0273863E-4,-8.56996E-3,-1.118914E-3,-2.6220337E-3,8.242327E-4,-4.2074556E-3,-4.6140395E-4,3.9603407E-4,8.198417E-4,8.671516E-3],"split_indices":[2,4,4,4,3,3,3,0,0,0,0,0,0,0,0],"split_type":[0,0,0,0,0,0,0,0,0,0,0,0,0,0,0],"sum_hessian":[7.6333853E3,2.6777244E3,4.955661E3,2.2955686E3,3.8215567E2,4.913946E3,4.1715E1,1.7382546E3,5.57314E2,3.4568066E2,3.6475E1,2.484244E3,2.4297021E3,1.4482533E1,2.7232468E1],"tree_param":{"num_deleted":"0","num_feature":"5","num_nodes":"15","size_leaf_vector":"1"}},{"base_weights":[5.7636485E-2,1.2365782E-1,-1.5518776E-1,5.7674235E-1,1.038691E-1,-9.0859026E-2,-3.725268E-1,-1.6561736E-3,6.035141E-3,1.3569318E-3,2.7304285E-4,-1.2409565E-3,5.720987E-4,-3.3084573E-3,-6.119124E-3],"categories":[],"categories_nodes":[],"categories_segments":[],"categories_sizes":[],"default_left":[0,0,0,0,0,0,0,0,0,0,0,0,0,0,0],"id":27,"left_children":[1,3,5,7,9,11,13,-1,-1,-1,-1,-1,-1,-1,-1],"loss_changes":[1.1163759E2,5.4305733E1,2.6268585E1,5.138626E0,1.4155476E1,7.1574974E0,4.0813828E0,0E0,0E0,0E0,0E0,0E0,0E0,0E0,0E0],"parents":[2147483647,0,0,1,1,2,2,3,3,4,4,5,5,6,6],"right_children":[2,4,6,8,10,12,14,-1,-1,-1,-1,-1,-1,-1,-1],"split_conditions":[1.0111407E-2,3.6541522E-3,1.5521577E-2,-1.9965356E-2,7.923815E-3,3.850965E-2,2.6426611E-2,-1.6561736E-3,6.035141E-3,1.3569318E-3,2.7304285E-4,-1.2409565E-3,5.720987E-4,-3.3084573E-3,-6.119124E-3],"split_indices":[2,2,2,1,2,1,2,0,0,0,0,0,0,0,0],"split_type":[0,0,0,0,0,0,0,0,0,0,0,0,0,0,0],"sum_hessian":[7.9428374E3,6.062558E3,1.8802794E3,2.5252708E2,5.810031E3,1.4519457E3,4.2833365E2,8.609376E0,2.4391771E2,4.1036016E3,1.7064292E3,1.1859097E3,2.6603604E2,3.6684232E2,6.149132E1],"tree_param":{"num_deleted":"0","num_feature":"5","num_nodes":"15","size_leaf_vector":"1"}},{"base_weights":[-1.809537E-2,-7.0394106E-2,1.3721327E-1,-3.5038084E-1,-5.8286477E-2,2.3728284E-1,4.3535892E-2,7.418007E-4,-3.8085952E-3,5.042312E-4,-7.076073E-4,1.9605123E-3,4.700406E-3,-3.4493388E-4,2.0293896E-3],"categories":[],"categories_nodes":[],"categories_segments":[],"categories_sizes":[],"default_left":[0,0,0,0,0,0,0,0,0,0,0,0,0,0,0],"id":28,"left_children":[1,3,5,7,9,11,13,-1,-1,-1,-1,-1,-1,-1,-1],"loss_changes":[6.2599304E1,1.9523647E1,1.8189896E1,3.1180344E0,7.49922E0,8.914642E0,1.2494961E1,0E0,0E0,0E0,0E0,0E0,0E0,0E0,0E0],"parents":[2147483647,0,0,1,1,2,2,3,3,4,4,5,5,6,6],"right_children":[2,4,6,8,10,12,14,-1,-1,-1,-1,-1,-1,-1,-1],"split_conditions":[9.948127E-3,3.6541522E-3,-4.080756E-3,-1.6670275E-2,-3.9876055E-2,5.437151E1,1.3807281E-2,7.418007E-4,-3.8085952E-3,5.042312E-4,-7.076073E-4,1.9605123E-3,4.700406E-3,-3.4493388E-4,2.0293896E-3],"split_indices":[2,2,3,3,3,0,2,0,0,0,0,0,0,0,0],"split_type":[0,0,0,0,0,0,0,0,0,0,0,0,0,0,0],"sum_hessian":[7.704764E3,5.764253E3,1.9405115E3,2.3777646E2,5.526476E3,9.3750336E2,1.0030082E3,1.5830297E1,2.2194617E2,5.685638E2,4.9579126E3,7.979871E2,1.3951625E2,6.739077E2,3.2910046E2],"tree_param":{"num_deleted":"0","num_feature":"5","num_nodes":"15","size_leaf_vector":"1"}},{"base_weights":[-4.171776E-2,-1.2191932E-1,1.6176644E-3,-2.613612E-1,-1.0444863E-1,-7.4044154E-3,2.4380322E-1,4.55958E-3,-2.8699462E-3,-9.143066E-4,-2.209457E-3,-4.4339668E-4,3.312613E-4,2.18199E-3,1.171002E-2],"categories":[],"categories_nodes":[],"categories_segments":[],"categories_sizes":[],"default_left":[0,0,0,0,0,0,0,0,0,0,0,0,0,0,0],"id":29,"left_children":[1,3,5,7,9,11,13,-1,-1,-1,-1,-1,-1,-1,-1],"loss_changes":[2.6527925E1,6.4953766E0,1.083113E1,5.600048E0,3.5907364E0,7.1558757E0,3.9709463E0,0E0,0E0,0E0,0E0,0E0,0E0,0E0,0E0],"parents":[2147483647,0,0,1,1,2,2,3,3,4,4,5,5,6,6],"right_children":[2,4,6,8,10,12,14,-1,-1,-1,-1,-1,-1,-1,-1],"split_conditions":[6.599898E-3,3.7952163E-3,7.1346335E-2,-2.353216E-2,6.390094E-3,4.0273863E-4,3.1675734E-2,4.55958E-3,-2.8699462E-3,-9.143066E-4,-2.209457E-3,-4.4339668E-4,3.312613E-4,2.18199E-3,1.171002E-2],"split_indices":[2,2,1,1,2,3,2,0,0,0,0,0,0,0,0],"split_type":[0,0,0,0,0,0,0,0,0,0,0,0,0,0,0],"sum_hessian":[7.63163E3,2.6764565E3,4.9551733E3,2.9644302E2,2.3800134E3,4.778144E3,1.7702962E2,9.648699E0,2.867943E2,2.1423962E3,2.3761717E2,2.4999028E3,2.2782412E3,1.7347452E2,3.5550942E0],"tree_param":{"num_deleted":"0","num_feature":"5","num_nodes":"15","size_leaf_vector":"1"}},{"base_weights":[5.7181213E-2,1.2265678E-1,-1.5415291E-1,5.7094854E-1,1.0303925E-1,-9.015227E-2,-3.7063318E-1,-1.6450954E-3,5.9738425E-3,1.3460855E-3,2.7053495E-4,-1.2323157E-3,5.7121646E-4,-3.2906532E-3,-6.0963416E-3],"categories":[],"categories_nodes":[],"categories_segments":[],"categories_sizes":[],"default_left":[0,0,0,0,0,0,0,0,0,0,0,0,0,0,0],"id":30,"left_children":[1,3,5,7,9,11,13,-1,-1,-1,-1,-1,-1,-1,-1],"loss_changes":[1.0996634E2,5.3295486E1,2.6012474E1,5.039345E0,1.3942432E1,7.082081E0,4.057823E0,0E0,0E0,0E0,0E0,0E0,0E0,0E0,0E0],"parents":[2147483647,0,0,1,1,2,2,3,3,4,4,5,5,6,6],"right_children":[2,4,6,8,10,12,14,-1,-1,-1,-1,-1,-1,-1,-1],"split_conditions":[1.0111407E-2,3.6541522E-3,1.5521577E-2,-1.9965356E-2,7.923815E-3,3.850965E-2,2.6426611E-2,-1.6450954E-3,5.9738425E-3,1.3460855E-3,2.7053495E-4,-1.2323157E-3,5.7121646E-4,-3.2906532E-3,-6.0963416E-3],"split_indices":[2,2,2,1,2,1,2,0,0,0,0,0,0,0,0],"split_type":[0,0,0,0,0,0,0,0,0,0,0,0,0,0,0],"sum_hessian":[7.9447744E3,6.0658667E3,1.878908E3,2.5313881E2,5.8127275E3,1.4512686E3,4.2763937E2,8.602033E0,2.4453677E2,4.1060444E3,1.7066831E3,1.185219E3,2.660496E2,3.663069E2,6.1332474E1],"tree_param":{"num_deleted":"0","num_feature":"5","num_nodes":"15","size_leaf_vector":"1"}},{"base_weights":[-1.795698E-2,-6.9882184E-2,1.360788E-1,-3.4839666E-1,-5.7857767E-2,9.431201E-2,3.1443915E-1,-1.3346465E-4,-3.8008746E-3,1.357533E-3,-6.7937194E-4,3.6850467E-3,7.3831604E-4,3.9723883E-3,-2.8640481E-3],"categories":[],"categories_nodes":[],"categories_segments":[],"categories_sizes":[],"default_left":[0,0,0,0,0,0,0,0,0,0,0,0,0,0,0],"id":31,"left_children":[1,3,5,7,9,11,13,-1,-1,-1,-1,-1,-1,-1,-1],"loss_changes":[6.1636097E1,1.928025E1,1.4443615E1,2.52536E0,1.079269E1,8.820904E0,1.8431866E1,0E0,0E0,0E0,0E0,0E0,0E0,0E0,0E0],"parents":[2147483647,0,0,1,1,2,2,3,3,4,4,5,5,6,6],"right_children":[2,4,6,8,10,12,14,-1,-1,-1,-1,-1,-1,-1,-1],"split_conditions":[9.948127E-3,3.6541522E-3,1.603357E-2,-1.5459616E-2,-1.2696529E-2,-6.836635E-2,9.152722E-3,-1.3346465E-4,-3.8008746E-3,1.357533E-3,-6.7937194E-4,3.6850467E-3,7.3831604E-4,3.9723883E-3,-2.8640481E-3],"split_indices":[2,2,2,1,4,1,4,0,0,0,0,0,0,0,0],"split_type":[0,0,0,0,0,0,0,0,0,0,0,0,0,0,0],"sum_hessian":[7.703922E3,5.7620806E3,1.9418414E3,2.3731519E2,5.5247656E3,1.5746364E3,3.672051E2,2.062967E1,2.1668552E2,2.7277057E2,5.2519946E3,1.0825957E2,1.4663767E3,3.2302878E2,4.4176327E1],"tree_param":{"num_deleted":"0","num_feature":"5","num_nodes":"15","size_leaf_vector":"1"}},{"base_weights":[-4.1409668E-2,-1.2114308E-1,1.6473997E-3,-2.5980622E-1,-1.0378522E-1,-7.3264916E-3,2.4231492E-1,4.5272517E-3,-2.853515E-3,-9.082211E-4,-2.1984717E-3,-4.400369E-4,3.2904823E-4,7.429733E-3,1.963094E-3],"categories":[],"categories_nodes":[],"categories_segments":[],"categories_sizes":[],"default_left":[0,0,0,0,0,0,0,0,0,0,0,0,0,0,0],"id":32,"left_children":[1,3,5,7,9,11,13,-1,-1,-1,-1,-1,-1,-1,-1],"loss_changes":[2.619765E1,6.4134483E0,1.0705493E1,5.535639E0,3.5604782E0,7.053018E0,3.9582987E0,0E0,0E0,0E0,0E0,0E0,0E0,0E0,0E0],"parents":[2147483647,0,0,1,1,2,2,3,3,4,4,5,5,6,6],"right_children":[2,4,6,8,10,12,14,-1,-1,-1,-1,-1,-1,-1,-1],"split_conditions":[6.599898E-3,3.7952163E-3,7.1346335E-2,-2.353216E-2,6.390094E-3,4.0273863E-4,6.0782243E-2,4.5272517E-3,-2.853515E-3,-9.082211E-4,-2.1984717E-3,-4.400369E-4,3.2904823E-4,7.429733E-3,1.963094E-3],"split_indices":[2,2,1,1,2,3,3,0,0,0,0,0,0,0,0],"split_type":[0,0,0,0,0,0,0,0,0,0,0,0,0,0,0],"sum_hessian":[7.6298735E3,2.6748157E3,4.955058E3,2.9602835E2,2.378787E3,4.7778726E3,1.771854E2,9.66695E0,2.8636142E2,2.1413948E3,2.3739252E2,2.4992854E3,2.2785874E3,1.3636413E1,1.6354898E2],"tree_param":{"num_deleted":"0","num_feature":"5","num_nodes":"15","size_leaf_vector":"1"}},{"base_weights":[5.672954E-2,1.2166416E-1,-1.5312442E-1,5.652404E-1,1.0221622E-1,-7.7658914E-2,-3.3480304E-1,-1.6319872E-3,5.913346E-3,1.4143992E-3,4.1969147E-4,-1.1540283E-3,9.4880525E-4,-2.9954852E-3,-6.072228E-3],"categories":[],"categories_nodes":[],"categories_segments":[],"categories_sizes":[],"default_left":[0,0,0,0,0,0,0,0,0,0,0,0,0,0,0],"id":33,"left_children":[1,3,5,7,9,11,13,-1,-1,-1,-1,-1,-1,-1,-1],"loss_changes":[1.0831987E2,5.230709E1,2.5729633E1,4.938568E0,1.3738865E1,8.6627865E0,5.109947E0,0E0,0E0,0E0,0E0,0E0,0E0,0E0,0E0],"parents":[2147483647,0,0,1,1,2,2,3,3,4,4,5,5,6,6],"right_children":[2,4,6,8,10,12,14,-1,-1,-1,-1,-1,-1,-1,-1],"split_conditions":[1.0111407E-2,3.6541522E-3,1.4234046E-2,-1.9965356E-2,7.419044E-3,3.850965E-2,2.6426611E-2,-1.6319872E-3,5.913346E-3,1.4143992E-3,4.1969147E-4,-1.1540283E-3,9.4880525E-4,-2.9954852E-3,-6.072228E-3],"split_indices":[2,2,2,1,2,1,2,0,0,0,0,0,0,0,0],"split_type":[0,0,0,0,0,0,0,0,0,0,0,0,0,0,0],"sum_hessian":[7.9466714E3,6.069134E3,1.8775376E3,2.5373694E2,5.8153965E3,1.3275348E3,5.500028E2,8.593364E0,2.4514359E2,3.5214307E3,2.293966E3,1.0895262E3,2.3800853E2,4.8884033E2,6.116245E1],"tree_param":{"num_deleted":"0","num_feature":"5","num_nodes":"15","size_leaf_vector":"1"}},{"base_weights":[-1.7819684E-2,1.098615E-1,-4.7523323E-2,3.3030316E-1,7.228913E-2,1.1747081E-1,-5.6844085E-2,1.4136812E-3,4.0212222E-3,5.239893E-3,5.520791E-4,7.8229967E-4,6.8789874E-3,-6.856869E-4,4.4962432E-4],"categories":[],"categories_nodes":[],"categories_segments":[],"categories_sizes":[],"default_left":[0,0,0,0,0,0,0,0,0,0,0,0,0,0,0],"id":34,"left_children":[1,3,5,7,9,11,13,-1,-1,-1,-1,-1,-1,-1,-1],"loss_changes":[2.9223642E1,1.2021475E1,9.619536E0,2.8130074E0,9.567814E0,7.4349823E0,7.066099E0,0E0,0E0,0E0,0E0,0E0,0E0,0E0,0E0],"parents":[2147483647,0,0,1,1,2,2,3,3,4,4,5,5,6,6],"right_children":[2,4,6,8,10,12,14,-1,-1,-1,-1,-1,-1,-1,-1],"split_conditions":[-3.21069E-2,-6.836635E-2,-1.2696529E-2,-1.1775E-1,-2.6608013E-2,-1.3377766E-2,5.9656713E-2,1.4136812E-3,4.0212222E-3,5.239893E-3,5.520791E-4,7.8229967E-4,6.8789874E-3,-6.856869E-4,4.4962432E-4],"split_indices":[3,1,4,3,4,4,3,0,0,0,0,0,0,0,0],"split_type":[0,0,0,0,0,0,0,0,0,0,0,0,0,0,0],"sum_hessian":[7.7030693E3,1.4533107E3,6.249759E3,2.1049863E2,1.242812E3,3.3355927E2,5.916199E3,5.8794872E1,1.5170377E2,4.420362E1,1.1986084E3,3.1315396E2,2.040532E1,5.305513E3,6.1068616E2],"tree_param":{"num_deleted":"0","num_feature":"5","num_nodes":"15","size_leaf_vector":"1"}},{"base_weights":[-4.110348E-2,-1.203684E-1,1.6752931E-3,-1.4623615E-1,3.4867346E-2,-3.5165802E-3,5.9742576E-1,-1.097034E-3,-2.5982729E-3,6.854889E-4,-5.5217533E-3,-1.1742449E-4,2.2087558E-3,2.854974E-3,9.148487E-3],"categories":[],"categories_nodes":[],"categories_segments":[],"categories_sizes":[],"default_left":[0,0,0,0,0,0,0,0,0,0,0,0,0,0,0],"id":35,"left_children":[1,3,5,7,9,11,13,-1,-1,-1,-1,-1,-1,-1,-1],"loss_changes":[2.5869461E1,1.0743515E1,1.5331151E1,9.484512E0,7.60619E0,9.073187E0,3.9788609E0,0E0,0E0,0E0,0E0,0E0,0E0,0E0,0E0],"parents":[2147483647,0,0,1,1,2,2,3,3,4,4,5,5,6,6],"right_children":[2,4,6,8,10,12,14,-1,-1,-1,-1,-1,-1,-1,-1],"split_conditions":[6.599898E-3,7.223283E-3,2.9887583E-2,4.2044958E-5,4.3704253E-2,7.1346335E-2,1.0910879E-2,-1.097034E-3,-2.5982729E-3,6.854889E-4,-5.5217533E-3,-1.1742449E-4,2.2087558E-3,2.854974E-3,9.148487E-3],"split_indices":[2,4,4,4,1,1,2,0,0,0,0,0,0,0,0],"split_type":[0,0,0,0,0,0,0,0,0,0,0,0,0,0,0],"sum_hessian":[7.6281235E3,2.673175E3,4.954948E3,2.2914043E3,3.817709E2,4.9131255E3,4.1823032E1,1.7352767E3,5.561275E2,3.6189066E2,1.9880228E1,4.740301E3,1.7282442E2,2.2052092E1,1.977094E1],"tree_param":{"num_deleted":"0","num_feature":"5","num_nodes":"15","size_leaf_vector":"1"}},{"base_weights":[5.6282446E-2,1.2075836E-1,-1.5231238E-1,5.6097376E-1,1.0143254E-1,-8.8960394E-2,-3.670881E-1,-1.6285056E-3,5.868517E-3,1.325152E-3,2.6554687E-4,-1.2180781E-3,5.7140883E-4,-3.257569E-3,-6.052684E-3],"categories":[],"categories_nodes":[],"categories_segments":[],"categories_sizes":[],"default_left":[0,0,0,0,0,0,0,0,0,0,0,0,0,0,0],"id":36,"left_children":[1,3,5,7,9,11,13,-1,-1,-1,-1,-1,-1,-1,-1],"loss_changes":[1.0693473E2,5.161023E1,2.5512768E1,4.8754044E0,1.35394745E1,6.9709635E0,4.0095367E0,0E0,0E0,0E0,0E0,0E0,0E0,0E0,0E0],"parents":[2147483647,0,0,1,1,2,2,3,3,4,4,5,5,6,6],"right_children":[2,4,6,8,10,12,14,-1,-1,-1,-1,-1,-1,-1,-1],"split_conditions":[1.0111407E-2,3.6541522E-3,1.5521577E-2,-1.9965356E-2,7.923815E-3,3.850965E-2,2.6426611E-2,-1.6285056E-3,5.868517E-3,1.325152E-3,2.6554687E-4,-1.2180781E-3,5.7140883E-4,-3.257569E-3,-6.052684E-3],"split_indices":[2,2,2,1,2,1,2,0,0,0,0,0,0,0,0],"split_type":[0,0,0,0,0,0,0,0,0,0,0,0,0,0,0],"sum_hessian":[7.9485576E3,6.072111E3,1.8764467E3,2.541815E2,5.8179297E3,1.4501213E3,4.2632535E2,8.591057E0,2.4559045E2,4.1107427E3,1.7071866E3,1.184076E3,2.6604523E2,3.6530246E2,6.1022892E1],"tree_param":{"num_deleted":"0","num_feature":"5","num_nodes":"15","size_leaf_vector":"1"}},{"base_weights":[-1.7682236E-2,-6.90285E-2,1.3438606E-1,-3.452674E-1,-5.713272E-2,2.3270431E-1,4.21892E-2,7.690773E-4,-3.7568929E-3,1.3460513E-3,-6.7127636E-4,1.917213E-3,4.639663E-3,-3.4708253E-4,1.9894328E-3],"categories":[],"categories_nodes":[],"categories_segments":[],"categories_sizes":[],"default_left":[0,0,0,0,0,0,0,0,0,0,0,0,0,0,0],"id":37,"left_children":[1,3,5,7,9,11,13,-1,-1,-1,-1,-1,-1,-1,-1],"loss_changes":[6.015731E1,1.8906237E1,1.7619148E1,3.0802631E0,1.0593063E1,8.829086E0,1.2119586E1,0E0,0E0,0E0,0E0,0E0,0E0,0E0,0E0],"parents":[2147483647,0,0,1,1,2,2,3,3,4,4,5,5,6,6],"right_children":[2,4,6,8,10,12,14,-1,-1,-1,-1,-1,-1,-1,-1],"split_conditions":[9.948127E-3,3.6541522E-3,-4.080756E-3,-1.6670275E-2,-1.2696529E-2,5.437151E1,1.3807281E-2,7.690773E-4,-3.7568929E-3,1.3460513E-3,-6.7127636E-4,1.917213E-3,4.639663E-3,-3.4708253E-4,1.9894328E-3],"split_indices":[2,2,3,3,4,0,2,0,0,0,0,0,0,0,0],"split_type":[0,0,0,0,0,0,0,0,0,0,0,0,0,0,0],"sum_hessian":[7.7022485E3,5.7584414E3,1.943807E3,2.3658301E2,5.5218584E3,9.39938E2,1.003869E3,1.5799545E1,2.2078346E2,2.7296466E2,5.248894E3,7.99996E2,1.3994199E2,6.7400635E2,3.298627E2],"tree_param":{"num_deleted":"0","num_feature":"5","num_nodes":"15","size_leaf_vector":"1"}},{"base_weights":[-4.0801696E-2,-4.4498928E-2,5.7001036E-1,-5.1823683E-2,1.823198E-1,8.083336E-2,7.927538E-1,-7.0728525E-4,3.2746568E-4,3.5362558E-3,1.4862098E-4,6.1795376E-3,-6.3576554E-3,8.752292E-3,-2.0441448E-3],"categories":[],"categories_nodes":[],"categories_segments":[],"categories_sizes":[],"default_left":[0,0,0,0,0,0,0,0,0,0,0,0,0,0,0],"id":38,"left_children":[1,3,5,7,9,11,13,-1,-1,-1,-1,-1,-1,-1,-1],"loss_changes":[1.7250378E1,1.2606818E1,4.9440937E0,1.1746994E1,6.8055897E0,6.3566294E0,2.7669525E0,0E0,0E0,0E0,0E0,0E0,0E0,0E0,0E0],"parents":[2147483647,0,0,1,1,2,2,3,3,4,4,5,5,6,6],"right_children":[2,4,6,8,10,12,14,-1,-1,-1,-1,-1,-1,-1,-1],"split_conditions":[2.9887583E-2,6.572964E-2,-8.56996E-3,6.6503836E-3,5.198542E-3,-3.3735532E-2,7.821524E1,-7.0728525E-4,3.2746568E-4,3.5362558E-3,1.4862098E-4,6.1795376E-3,-6.3576554E-3,8.752292E-3,-2.0441448E-3],"split_indices":[4,1,3,4,4,1,0,0,0,0,0,0,0,0,0],"split_type":[0,0,0,0,0,0,0,0,0,0,0,0,0,0,0],"sum_hessian":[7.6263794E3,7.5814165E3,4.4962997E1,7.3449927E3,2.3642357E2,1.4494303E1,3.0468693E1,6.0032007E3,1.3417922E3,1.1631944E2,1.20104126E2,8.363313E0,6.13099E0,2.8254093E1,2.2146003E0],"tree_param":{"num_deleted":"0","num_feature":"5","num_nodes":"15","size_leaf_vector":"1"}},{"base_weights":[5.5838507E-2,1.1980608E-1,-1.5135959E-1,5.5602384E-1,1.0062593E-1,-8.83505E-2,-3.6523306E-1,-1.6256606E-3,5.816592E-3,1.3150519E-3,2.6212286E-4,-1.2103284E-3,5.6921097E-4,-3.239951E-3,-6.0312753E-3],"categories":[],"categories_nodes":[],"categories_segments":[],"categories_sizes":[],"default_left":[0,0,0,0,0,0,0,0,0,0,0,0,0,0,0],"id":39,"left_children":[1,3,5,7,9,11,13,-1,-1,-1,-1,-1,-1,-1,-1],"loss_changes":[1.0540563E2,5.078222E1,2.5250881E1,4.804779E0,1.3373508E1,6.893749E0,3.9899712E0,0E0,0E0,0E0,0E0,0E0,0E0,0E0,0E0],"parents":[2147483647,0,0,1,1,2,2,3,3,4,4,5,5,6,6],"right_children":[2,4,6,8,10,12,14,-1,-1,-1,-1,-1,-1,-1,-1],"split_conditions":[1.0111407E-2,3.6541522E-3,1.5521577E-2,-1.9965356E-2,7.923815E-3,3.850965E-2,2.6426611E-2,-1.6256606E-3,5.816592E-3,1.3150519E-3,2.6212286E-4,-1.2103284E-3,5.6921097E-4,-3.239951E-3,-6.0312753E-3],"split_indices":[2,2,2,1,2,1,2,0,0,0,0,0,0,0,0],"split_type":[0,0,0,0,0,0,0,0,0,0,0,0,0,0,0],"sum_hessian":[7.9503975E3,6.075233E3,1.8751646E3,2.546939E2,5.820539E3,1.4495321E3,4.256324E2,8.58913E0,2.4610477E2,4.113007E3,1.7075322E3,1.1834528E3,2.6607938E2,3.6476407E2,6.0868313E1],"tree_param":{"num_deleted":"0","num_feature":"5","num_nodes":"15","size_leaf_vector":"1"}},{"base_weights":[-1.7547866E-2,-6.850452E-2,1.332009E-1,-3.4298387E-1,-5.6707643E-2,2.3071301E-1,4.168625E-2,7.7318464E-4,-3.733382E-3,1.3390786E-3,-6.665181E-4,1.8714815E-3,4.3728473E-3,-3.4696996E-4,1.9723808E-3],"categories":[],"categories_nodes":[],"categories_segments":[],"categories_sizes":[],"default_left":[0,0,0,0,0,0,0,0,0,0,0,0,0,0,0],"id":40,"left_children":[1,3,5,7,9,11,13,-1,-1,-1,-1,-1,-1,-1,-1],"loss_changes":[5.917618E1,1.8622349E1,1.735773E1,3.0530834E0,1.0474344E1,8.395454E0,1.1950041E1,0E0,0E0,0E0,0E0,0E0,0E0,0E0,0E0],"parents":[2147483647,0,0,1,1,2,2,3,3,4,4,5,5,6,6],"right_children":[2,4,6,8,10,12,14,-1,-1,-1,-1,-1,-1,-1,-1],"split_conditions":[9.948127E-3,3.6541522E-3,-4.080756E-3,-1.6670275E-2,-1.2696529E-2,1.603357E-2,1.3807281E-2,7.7318464E-4,-3.733382E-3,1.3390786E-3,-6.665181E-4,1.8714815E-3,4.3728473E-3,-3.4696996E-4,1.9723808E-3],"split_indices":[2,2,3,3,4,2,2,0,0,0,0,0,0,0,0],"split_type":[0,0,0,0,0,0,0,0,0,0,0,0,0,0,0],"sum_hessian":[7.701386E3,5.7561997E3,1.9451864E3,2.360447E2,5.5201553E3,9.409982E2,1.0041881E3,1.5794771E1,2.2024992E2,2.730827E2,5.2470723E3,7.7868396E2,1.6231424E2,6.7399963E2,3.301885E2],"tree_param":{"num_deleted":"0","num_feature":"5","num_nodes":"15","size_leaf_vector":"1"}},{"base_weights":[-4.0499322E-2,-1.1904729E-1,1.8536221E-3,-1.4473562E-1,3.4930654E-2,-3.2847207E-3,5.8908856E-1,-1.0828575E-3,-2.5811887E-3,8.35615E-4,-4.1722474E-3,-4.475024E-4,3.90536E-4,8.0465473E-4,8.450785E-3],"categories":[],"categories_nodes":[],"categories_segments":[],"categories_sizes":[],"default_left":[0,0,0,0,0,0,0,0,0,0,0,0,0,0,0],"id":41,"left_children":[1,3,5,7,9,11,13,-1,-1,-1,-1,-1,-1,-1,-1],"loss_changes":[2.5368755E1,1.0571472E1,1.4954081E1,9.434578E0,8.451086E0,8.627433E0,5.5292034E0,0E0,0E0,0E0,0E0,0E0,0E0,0E0,0E0],"parents":[2147483647,0,0,1,1,2,2,3,3,4,4,5,5,6,6],"right_children":[2,4,6,8,10,12,14,-1,-1,-1,-1,-1,-1,-1,-1],"split_conditions":[6.599898E-3,7.223283E-3,2.9887583E-2,4.2044958E-5,4.5751825E-2,4.0273863E-4,-8.56996E-3,-1.0828575E-3,-2.5811887E-3,8.35615E-4,-4.1722474E-3,-4.475024E-4,3.90536E-4,8.0465473E-4,8.450785E-3],"split_indices":[2,4,4,4,3,3,3,0,0,0,0,0,0,0,0],"split_type":[0,0,0,0,0,0,0,0,0,0,0,0,0,0,0],"sum_hessian":[7.6246494E3,2.6703657E3,4.9542837E3,2.2886135E3,3.8175217E2,4.9122954E3,4.1988487E1,1.7333423E3,5.5527124E2,3.4541663E2,3.633554E1,2.4816992E3,2.4305962E3,1.4497644E1,2.7490845E1],"tree_param":{"num_deleted":"0","num_feature":"5","num_nodes":"15","size_leaf_vector":"1"}},{"base_weights":[5.5397563E-2,1.1884008E-1,-1.5035509E-1,5.5097437E-1,9.980953E-2,-7.600755E-2,-3.298908E-1,-1.6237142E-3,5.7636932E-3,1.3817907E-3,4.081024E-4,-1.1326526E-3,9.397288E-4,-2.9494432E-3,-6.009198E-3],"categories":[],"categories_nodes":[],"categories_segments":[],"categories_sizes":[],"default_left":[0,0,0,0,0,0,0,0,0,0,0,0,0,0,0],"id":42,"left_children":[1,3,5,7,9,11,13,-1,-1,-1,-1,-1,-1,-1,-1],"loss_changes":[1.0383459E2,4.9940376E1,2.4999939E1,4.7349854E0,1.3178974E1,8.415186E0,5.019985E0,0E0,0E0,0E0,0E0,0E0,0E0,0E0,0E0],"parents":[2147483647,0,0,1,1,2,2,3,3,4,4,5,5,6,6],"right_children":[2,4,6,8,10,12,14,-1,-1,-1,-1,-1,-1,-1,-1],"split_conditions":[1.0111407E-2,3.6541522E-3,1.4234046E-2,-1.9965356E-2,7.419044E-3,3.850965E-2,2.6426611E-2,-1.6237142E-3,5.7636932E-3,1.3817907E-3,4.081024E-4,-1.1326526E-3,9.397288E-4,-2.9494432E-3,-6.009198E-3],"split_indices":[2,2,2,1,2,1,2,0,0,0,0,0,0,0,0],"split_type":[0,0,0,0,0,0,0,0,0,0,0,0,0,0,0],"sum_hessian":[7.9521904E3,6.0783823E3,1.8738082E3,2.5521288E2,5.8231694E3,1.3260859E3,5.477222E2,8.587785E0,2.4662509E2,3.527655E3,2.2955144E3,1.0879531E3,2.3813287E2,4.8701483E2,6.0707413E1],"tree_param":{"num_deleted":"0","num_feature":"5","num_nodes":"15","size_leaf_vector":"1"}},{"base_weights":[-1.7413748E-2,-6.8003416E-2,1.320954E-1,-3.408039E-1,-5.630079E-2,9.147237E-2,3.050108E-1,-9.699928E-5,-3.7230083E-3,1.3329107E-3,-6.6198624E-4,3.5939913E-3,7.139653E-4,3.8637784E-3,-2.8787418E-3],"categories":[],"categories_nodes":[],"categories_segments":[],"categories_sizes":[],"default_left":[0,0,0,0,0,0,0,0,0,0,0,0,0,0,0],"id":43,"left_children":[1,3,5,7,9,11,13,-1,-1,-1,-1,-1,-1,-1,-1],"loss_changes":[5.826027E1,1.83537E1,1.3651752E1,2.4630795E0,1.0366472E1,8.464378E0,1.7963028E1,0E0,0E0,0E0,0E0,0E0,0E0,0E0,0E0],"parents":[2147483647,0,0,1,1,2,2,3,3,4,4,5,5,6,6],"right_children":[2,4,6,8,10,12,14,-1,-1,-1,-1,-1,-1,-1,-1],"split_conditions":[9.948127E-3,3.6541522E-3,1.603357E-2,-1.5459616E-2,-1.2696529E-2,-6.836635E-2,9.152722E-3,-9.699928E-5,-3.7230083E-3,1.3329107E-3,-6.6198624E-4,3.5939913E-3,7.139653E-4,3.8637784E-3,-2.8787418E-3],"split_indices":[2,2,2,1,4,1,4,0,0,0,0,0,0,0,0],"split_type":[0,0,0,0,0,0,0,0,0,0,0,0,0,0,0],"sum_hessian":[7.7005107E3,5.7540483E3,1.9464622E3,2.3552777E2,5.5185205E3,1.57741E3,3.6905212E2,2.0572477E1,2.1495529E2,2.73187E2,5.2453335E3,1.0877856E2,1.4686315E3,3.248221E2,4.423001E1],"tree_param":{"num_deleted":"0","num_feature":"5","num_nodes":"15","size_leaf_vector":"1"}},{"base_weights":[-4.0199198E-2,-1.1828582E-1,1.8803541E-3,-1.4386636E-1,3.493883E-2,-3.2316176E-3,5.849786E-1,-1.0754509E-3,-2.5690775E-3,6.8328955E-4,-5.4926067E-3,-1.1359198E-4,2.1804501E-3,2.8001838E-3,8.936855E-3],"categories":[],"categories_nodes":[],"categories_segments":[],"categories_sizes":[],"default_left":[0,0,0,0,0,0,0,0,0,0,0,0,0,0,0],"id":44,"left_children":[1,3,5,7,9,11,13,-1,-1,-1,-1,-1,-1,-1,-1],"loss_changes":[2.505125E1,1.0469265E1,1.4772168E1,9.366428E0,7.503597E0,8.83841E0,3.8044586E0,0E0,0E0,0E0,0E0,0E0,0E0,0E0,0E0],"parents":[2147483647,0,0,1,1,2,2,3,3,4,4,5,5,6,6],"right_children":[2,4,6,8,10,12,14,-1,-1,-1,-1,-1,-1,-1,-1],"split_conditions":[6.599898E-3,7.223283E-3,2.9887583E-2,4.2044958E-5,4.3704253E-2,7.1346335E-2,1.0910879E-2,-1.0754509E-3,-2.5690775E-3,6.8328955E-4,-5.4926067E-3,-1.1359198E-4,2.1804501E-3,2.8001838E-3,8.936855E-3],"split_indices":[2,4,4,4,1,1,2,0,0,0,0,0,0,0,0],"split_type":[0,0,0,0,0,0,0,0,0,0,0,0,0,0,0],"sum_hessian":[7.6229106E3,2.6687415E3,4.9541694E3,2.2869937E3,3.8174774E2,4.9120996E3,4.2069496E1,1.7323308E3,5.546629E2,3.6194376E2,1.980398E1,4.7389834E3,1.7311612E2,2.2122532E1,1.9946964E1],"tree_param":{"num_deleted":"0","num_feature":"5","num_nodes":"15","size_leaf_vector":"1"}},{"base_weights":[5.495967E-2,1.1787486E-1,-1.4933832E-1,5.4599404E-1,9.899229E-2,-7.5423345E-2,-3.2804242E-1,-1.9313599E-3,5.6832517E-3,1.2940143E-3,2.5652282E-4,-1.0566389E-3,1.0888068E-3,-2.9320826E-3,-5.9857955E-3],"categories":[],"categories_nodes":[],"categories_segments":[],"categories_sizes":[],"default_left":[0,0,0,0,0,0,0,0,0,0,0,0,0,0,0],"id":45,"left_children":[1,3,5,7,9,11,13,-1,-1,-1,-1,-1,-1,-1,-1],"loss_changes":[1.02266106E2,4.9116974E1,2.4721207E1,4.3470917E0,1.2991646E1,7.405096E0,4.9874573E0,0E0,0E0,0E0,0E0,0E0,0E0,0E0,0E0],"parents":[2147483647,0,0,1,1,2,2,3,3,4,4,5,5,6,6],"right_children":[2,4,6,8,10,12,14,-1,-1,-1,-1,-1,-1,-1,-1],"split_conditions":[1.0111407E-2,3.6541522E-3,1.4234046E-2,-2.1109207E-2,7.923815E-3,5.725427E-2,2.6426611E-2,-1.9313599E-3,5.6832517E-3,1.2940143E-3,2.5652282E-4,-1.0566389E-3,1.0888068E-3,-2.9320826E-3,-5.9857955E-3],"split_indices":[2,2,2,3,2,3,2,0,0,0,0,0,0,0,0],"split_type":[0,0,0,0,0,0,0,0,0,0,0,0,0,0,0],"sum_hessian":[7.9539478E3,6.0815186E3,1.8724291E3,2.557207E2,5.825798E3,1.3255725E3,5.468566E2,7.2751064E0,2.484456E2,4.117701E3,1.7080966E3,1.1390966E3,1.8647592E2,4.86322E2,6.0534622E1],"tree_param":{"num_deleted":"0","num_feature":"5","num_nodes":"15","size_leaf_vector":"1"}},{"base_weights":[-1.7280584E-2,-6.7513235E-2,1.310252E-1,-3.38639E-1,-5.590446E-2,9.074345E-2,3.023251E-1,-9.19852E-5,-3.7004142E-3,1.327091E-3,-6.575795E-4,3.5669955E-3,7.079521E-4,3.8295656E-3,-2.867683E-3],"categories":[],"categories_nodes":[],"categories_segments":[],"categories_sizes":[],"default_left":[0,0,0,0,0,0,0,0,0,0,0,0,0,0,0],"id":46,"left_children":[1,3,5,7,9,11,13,-1,-1,-1,-1,-1,-1,-1,-1],"loss_changes":[5.7376976E1,1.808809E1,1.3419064E1,2.4381924E0,1.0263809E1,8.352562E0,1.7711761E1,0E0,0E0,0E0,0E0,0E0,0E0,0E0,0E0],"parents":[2147483647,0,0,1,1,2,2,3,3,4,4,5,5,6,6],"right_children":[2,4,6,8,10,12,14,-1,-1,-1,-1,-1,-1,-1,-1],"split_conditions":[9.948127E-3,3.6541522E-3,1.603357E-2,-1.5459616E-2,-1.2696529E-2,-6.836635E-2,9.152722E-3,-9.19852E-5,-3.7004142E-3,1.327091E-3,-6.575795E-4,3.5669955E-3,7.079521E-4,3.8295656E-3,-2.867683E-3],"split_indices":[2,2,2,1,4,1,4,0,0,0,0,0,0,0,0],"split_type":[0,0,0,0,0,0,0,0,0,0,0,0,0,0,0],"sum_hessian":[7.699635E3,5.75194E3,1.9476947E3,2.3501178E2,5.516928E3,1.5781234E3,3.695713E2,2.0564474E1,2.1444731E2,2.732854E2,5.2436426E3,1.0893167E2,1.4691918E3,3.2538458E2,4.418672E1],"tree_param":{"num_deleted":"0","num_feature":"5","num_nodes":"15","size_leaf_vector":"1"}},{"base_weights":[-3.9900646E-2,-1.1751184E-1,1.8974917E-3,-2.3020916E-1,-9.674132E-2,-6.878171E-3,2.3635596E-1,3.7098825E-3,-2.467315E-3,-8.262681E-4,-2.1619145E-3,-4.2910548E-4,3.2606313E-4,7.329486E-3,1.9069905E-3],"categories":[],"categories_nodes":[],"categories_segments":[],"categories_sizes":[],"default_left":[0,0,0,0,0,0,0,0,0,0,0,0,0,0,0],"id":47,"left_children":[1,3,5,7,9,11,13,-1,-1,-1,-1,-1,-1,-1,-1],"loss_changes":[2.472659E1,6.2231407E0,1.019686E1,4.208727E0,3.78335E0,6.798137E0,3.9142122E0,0E0,0E0,0E0,0E0,0E0,0E0,0E0,0E0],"parents":[2147483647,0,0,1,1,2,2,3,3,4,4,5,5,6,6],"right_children":[2,4,6,8,10,12,14,-1,-1,-1,-1,-1,-1,-1,-1],"split_conditions":[6.599898E-3,4.097226E-3,7.1346335E-2,1.9768152E1,6.390094E-3,4.0273863E-4,6.0782243E-2,3.7098825E-3,-2.467315E-3,-8.262681E-4,-2.1619145E-3,-4.2910548E-4,3.2606313E-4,7.329486E-3,1.9069905E-3],"split_indices":[2,2,1,0,2,3,3,0,0,0,0,0,0,0,0],"split_type":[0,0,0,0,0,0,0,0,0,0,0,0,0,0,0],"sum_hessian":[7.621176E3,2.6670884E3,4.954088E3,4.1348822E2,2.2536E3,4.7762847E3,1.7780327E2,1.0485876E1,4.0300235E2,2.0169628E3,2.3663734E2,2.497266E3,2.2790183E3,1.3703384E1,1.6409988E2],"tree_param":{"num_deleted":"0","num_feature":"5","num_nodes":"15","size_leaf_vector":"1"}},{"base_weights":[5.452477E-2,1.169223E-1,-1.4834139E-1,5.407127E-1,9.8199904E-2,-8.637391E-2,-3.5947996E-1,-1.6236058E-3,5.656452E-3,1.2836613E-3,2.5415164E-4,-1.1872114E-3,5.7203346E-4,-3.1858543E-3,-5.9627043E-3],"categories":[],"categories_nodes":[],"categories_segments":[],"categories_sizes":[],"default_left":[0,0,0,0,0,0,0,0,0,0,0,0,0,0,0],"id":48,"left_children":[1,3,5,7,9,11,13,-1,-1,-1,-1,-1,-1,-1,-1],"loss_changes":[1.0073569E2,4.8232285E1,2.4462677E1,4.6013565E0,1.2795883E1,6.7346573E0,3.9202309E0,0E0,0E0,0E0,0E0,0E0,0E0,0E0,0E0],"parents":[2147483647,0,0,1,1,2,2,3,3,4,4,5,5,6,6],"right_children":[2,4,6,8,10,12,14,-1,-1,-1,-1,-1,-1,-1,-1],"split_conditions":[1.0111407E-2,3.6541522E-3,1.5521577E-2,-1.9965356E-2,7.923815E-3,3.850965E-2,2.6426611E-2,-1.6236058E-3,5.656452E-3,1.2836613E-3,2.5415164E-4,-1.1872114E-3,5.7203346E-4,-3.1858543E-3,-5.9627043E-3],"split_indices":[2,2,2,1,2,1,2,0,0,0,0,0,0,0,0],"split_type":[0,0,0,0,0,0,0,0,0,0,0,0,0,0,0],"sum_hessian":[7.955675E3,6.0845986E3,1.8710759E3,2.5625525E2,5.8283433E3,1.4476201E3,4.234558E2,8.587373E0,2.476679E2,4.1200083E3,1.7083353E3,1.1815875E3,2.6603262E2,3.6309372E2,6.036208E1],"tree_param":{"num_deleted":"0","num_feature":"5","num_nodes":"15","size_leaf_vector":"1"}},{"base_weights":[-1.7148308E-2,1.0705263E-1,-4.6121046E-2,3.1871238E-1,7.078947E-2,1.1348743E-1,-5.517097E-2,1.2969691E-3,3.9072335E-3,5.127147E-3,5.399993E-4,7.445429E-4,6.804789E-3,-6.665732E-4,4.4392736E-4],"categories":[],"categories_nodes":[],"categories_segments":[],"categories_sizes":[],"default_left":[0,0,0,0,0,0,0,0,0,0,0,0,0,0,0],"id":49,"left_children":[1,3,5,7,9,11,13,-1,-1,-1,-1,-1,-1,-1,-1],"loss_changes":[2.7712063E1,1.1158321E1,9.025442E0,2.8455658E0,9.209295E0,7.3716106E0,6.761406E0,0E0,0E0,0E0,0E0,0E0,0E0,0E0,0E0],"parents":[2147483647,0,0,1,1,2,2,3,3,4,4,5,5,6,6],"right_children":[2,4,6,8,10,12,14,-1,-1,-1,-1,-1,-1,-1,-1],"split_conditions":[-3.21069E-2,-6.836635E-2,-1.2696529E-2,-1.1775E-1,-2.6608013E-2,-1.3377766E-2,5.9656713E-2,1.2969691E-3,3.9072335E-3,5.127147E-3,5.399993E-4,7.445429E-4,6.804789E-3,-6.665732E-4,4.4392736E-4],"split_indices":[3,1,4,3,4,4,3,0,0,0,0,0,0,0,0],"split_type":[0,0,0,0,0,0,0,0,0,0,0,0,0,0,0],"sum_hessian":[7.698757E3,1.4557069E3,6.24305E3,2.1178392E2,1.2439231E3,3.3437216E2,5.9086777E3,5.9198883E1,1.5258504E2,4.444803E1,1.199475E3,3.138942E2,2.047796E1,5.297816E3,6.108619E2],"tree_param":{"num_deleted":"0","num_feature":"5","num_nodes":"15","size_leaf_vector":"1"}},{"base_weights":[-3.960364E-2,-1.167573E-1,1.9239777E-3,-1.4222841E-1,3.568565E-2,-3.1539935E-3,5.797317E-1,-1.0598908E-3,-2.5506658E-3,8.3933637E-4,-4.1425726E-3,-4.408779E-4,3.8608428E-4,7.878295E-4,8.307113E-3],"categories":[],"categories_nodes":[],"categories_segments":[],"categories_sizes":[],"default_left":[0,0,0,0,0,0,0,0,0,0,0,0,0,0,0],"id":50,"left_children":[1,3,5,7,9,11,13,-1,-1,-1,-1,-1,-1,-1,-1],"loss_changes":[2.4416233E1,1.0358734E1,1.4540184E1,9.316467E0,8.339418E0,8.400115E0,5.362488E0,0E0,0E0,0E0,0E0,0E0,0E0,0E0,0E0],"parents":[2147483647,0,0,1,1,2,2,3,3,4,4,5,5,6,6],"right_children":[2,4,6,8,10,12,14,-1,-1,-1,-1,-1,-1,-1,-1],"split_conditions":[6.599898E-3,7.223283E-3,2.9887583E-2,4.2044958E-5,4.5751825E-2,4.0273863E-4,-8.56996E-3,-1.0598908E-3,-2.5506658E-3,8.3933637E-4,-4.1425726E-3,-4.408779E-4,3.8608428E-4,7.878295E-4,8.307113E-3],"split_indices":[2,4,4,4,3,3,3,0,0,0,0,0,0,0,0],"split_type":[0,0,0,0,0,0,0,0,0,0,0,0,0,0,0],"sum_hessian":[7.619459E3,2.6654814E3,4.9539775E3,2.2839346E3,3.8154678E2,4.911805E3,4.217208E1,1.7301998E3,5.537348E2,3.4533002E2,3.6216747E1,2.4804832E3,2.4313223E3,1.4514808E1,2.7657274E1],"tree_param":{"num_deleted":"0","num_feature":"5","num_nodes":"15","size_leaf_vector":"1"}},{"base_weights":[5.409544E-2,-5.3402696E-2,8.537893E-2,-2.5682423E-1,-3.0214276E-2,1.04892194E-1,-1.1232589E-1,-6.890508E-4,-3.5375645E-3,5.3432275E-4,-8.6395186E-4,-3.3335611E-3,1.1021079E-3,-1.3448002E-3,2.3676853E-3],"categories":[],"categories_nodes":[],"categories_segments":[],"categories_sizes":[],"default_left":[0,0,0,0,0,0,0,0,0,0,0,0,0,0,0],"id":51,"left_children":[1,3,5,7,9,11,13,-1,-1,-1,-1,-1,-1,-1,-1],"loss_changes":[2.6767994E1,8.457222E0,2.3794918E1,3.318143E0,7.5802355E0,1.3116531E1,4.3186316E0,0E0,0E0,0E0,0E0,0E0,0E0,0E0,0E0],"parents":[2147483647,0,0,1,1,2,2,3,3,4,4,5,5,6,6],"right_children":[2,4,6,8,10,12,14,-1,-1,-1,-1,-1,-1,-1,-1],"split_conditions":[-2.1197034E-2,-7.0922405E-2,6.357896E-2,2.4724602E1,3.1987442E1,-2.6608013E-2,8.769367E1,-6.890508E-4,-3.5375645E-3,5.3432275E-4,-8.6395186E-4,-3.3335611E-3,1.1021079E-3,-1.3448002E-3,2.3676853E-3],"split_indices":[1,1,3,0,0,4,0,0,0,0,0,0,0,0,0],"split_type":[0,0,0,0,0,0,0,0,0,0,0,0,0,0,0],"sum_hessian":[7.957401E3,1.7935598E3,6.163841E3,1.824994E2,1.6110603E3,5.610554E3,5.532866E2,6.2685024E1,1.19814384E2,6.4732336E2,9.6373694E2,6.653395E1,5.5440205E3,5.208475E2,3.2439117E1],"tree_param":{"num_deleted":"0","num_feature":"5","num_nodes":"15","size_leaf_vector":"1"}},{"base_weights":[-1.7016184E-2,-6.667904E-2,1.2937422E-1,-3.3555198E-1,-5.5196863E-2,2.248101E-1,3.9630435E-2,8.0813235E-4,-3.658021E-3,1.3155884E-3,-6.4965885E-4,1.8265916E-3,4.2389063E-3,-3.5241977E-4,1.9168765E-3],"categories":[],"categories_nodes":[],"categories_segments":[],"categories_sizes":[],"default_left":[0,0,0,0,0,0,0,0,0,0,0,0,0,0,0],"id":52,"left_children":[1,3,5,7,9,11,13,-1,-1,-1,-1,-1,-1,-1,-1],"loss_changes":[5.5981087E1,1.7731121E1,1.6697365E1,2.9928417E0,1.0070368E1,7.853283E0,1.1465443E1,0E0,0E0,0E0,0E0,0E0,0E0,0E0,0E0],"parents":[2147483647,0,0,1,1,2,2,3,3,4,4,5,5,6,6],"right_children":[2,4,6,8,10,12,14,-1,-1,-1,-1,-1,-1,-1,-1],"split_conditions":[9.948127E-3,3.6541522E-3,-4.080756E-3,-1.6670275E-2,-1.2696529E-2,1.603357E-2,1.3807281E-2,8.0813235E-4,-3.658021E-3,1.3155884E-3,-6.4965885E-4,1.8265916E-3,4.2389063E-3,-3.5241977E-4,1.9168765E-3],"split_indices":[2,2,3,3,4,2,2,0,0,0,0,0,0,0,0],"split_type":[0,0,0,0,0,0,0,0,0,0,0,0,0,0,0],"sum_hessian":[7.697926E3,5.7483467E3,1.9495786E3,2.3427231E2,5.5140747E3,9.440966E2,1.005482E3,1.5754511E1,2.1851779E2,2.7347888E2,5.2405957E3,7.807149E2,1.633817E2,6.7425134E2,3.3123065E2],"tree_param":{"num_deleted":"0","num_feature":"5","num_nodes":"15","size_leaf_vector":"1"}},{"base_weights":[-3.9311863E-2,-4.293352E-2,5.5388194E-1,-5.0126497E-2,1.7908266E-1,7.840321E-2,7.685971E-1,-6.870646E-4,3.2869197E-4,3.486193E-3,1.3108642E-4,6.114953E-3,-6.352369E-3,8.490485E-3,-2.0806303E-3],"categories":[],"categories_nodes":[],"categories_segments":[],"categories_sizes":[],"default_left":[0,0,0,0,0,0,0,0,0,0,0,0,0,0,0],"id":53,"left_children":[1,3,5,7,9,11,13,-1,-1,-1,-1,-1,-1,-1,-1],"loss_changes":[1.6391449E1,1.2103435E1,4.6671066E0,1.13156395E1,6.6892323E0,6.2923245E0,2.6741982E0,0E0,0E0,0E0,0E0,0E0,0E0,0E0,0E0],"parents":[2147483647,0,0,1,1,2,2,3,3,4,4,5,5,6,6],"right_children":[2,4,6,8,10,12,14,-1,-1,-1,-1,-1,-1,-1,-1],"split_conditions":[2.9887583E-2,6.572964E-2,-8.56996E-3,6.6503836E-3,5.198542E-3,-3.3735532E-2,7.821524E1,-6.870646E-4,3.2869197E-4,3.486193E-3,1.3108642E-4,6.114953E-3,-6.352369E-3,8.490485E-3,-2.0806303E-3],"split_indices":[4,1,3,4,4,1,0,0,0,0,0,0,0,0,0],"split_type":[0,0,0,0,0,0,0,0,0,0,0,0,0,0,0],"sum_hessian":[7.617743E3,7.572438E3,4.5304737E1,7.3355522E3,2.3688618E2,1.45187235E1,3.0786013E1,5.993892E3,1.3416599E3,1.1664103E2,1.20245155E2,8.3925705E0,6.126153E0,2.8563763E1,2.2222493E0],"tree_param":{"num_deleted":"0","num_feature":"5","num_nodes":"15","size_leaf_vector":"1"}},{"base_weights":[5.3667303E-2,1.153589E-1,-1.4723553E-1,5.347898E-1,9.6800685E-2,-7.431406E-2,-3.2402217E-1,-1.6238004E-3,5.594597E-3,1.3416435E-3,3.9275512E-4,-1.1124825E-3,9.3954074E-4,-2.8939324E-3,-5.9373253E-3],"categories":[],"categories_nodes":[],"categories_segments":[],"categories_sizes":[],"default_left":[0,0,0,0,0,0,0,0,0,0,0,0,0,0,0],"id":54,"left_children":[1,3,5,7,9,11,13,-1,-1,-1,-1,-1,-1,-1,-1],"loss_changes":[9.867596E1,4.7357315E1,2.4090073E1,4.525635E0,1.2533665E1,8.248793E0,4.927227E0,0E0,0E0,0E0,0E0,0E0,0E0,0E0,0E0],"parents":[2147483647,0,0,1,1,2,2,3,3,4,4,5,5,6,6],"right_children":[2,4,6,8,10,12,14,-1,-1,-1,-1,-1,-1,-1,-1],"split_conditions":[1.0111407E-2,3.6541522E-3,1.4234046E-2,-1.9965356E-2,7.419044E-3,3.850965E-2,2.6426611E-2,-1.6238004E-3,5.594597E-3,1.3416435E-3,3.9275512E-4,-1.1124825E-3,9.3954074E-4,-2.8939324E-3,-5.9373253E-3],"split_indices":[2,2,2,1,2,1,2,0,0,0,0,0,0,0,0],"split_type":[0,0,0,0,0,0,0,0,0,0,0,0,0,0,0],"sum_hessian":[7.9592104E3,6.0896704E3,1.8695402E3,2.5684918E2,5.8328213E3,1.3245898E3,5.449503E2,8.587435E0,2.4826175E2,3.5352673E3,2.297554E3,1.0864559E3,2.3813396E2,4.8478085E2,6.016948E1],"tree_param":{"num_deleted":"0","num_feature":"5","num_nodes":"15","size_leaf_vector":"1"}},{"base_weights":[-1.688587E-2,-6.6274464E-2,1.2858534E-1,-3.3420473E-1,-5.484542E-2,2.2323552E-1,3.950858E-2,8.050153E-4,-3.6438608E-3,1.3067924E-3,-6.45582E-4,1.644679E-3,3.8173727E-3,-3.4994114E-4,1.9070331E-3],"categories":[],"categories_nodes":[],"categories_segments":[],"categories_sizes":[],"default_left":[0,0,0,0,0,0,0,0,0,0,0,0,0,0,0],"id":55,"left_children":[1,3,5,7,9,11,13,-1,-1,-1,-1,-1,-1,-1,-1],"loss_changes":[5.5316242E1,1.7581902E1,1.644429E1,2.970028E0,9.943825E0,8.748257E0,1.13448715E1,0E0,0E0,0E0,0E0,0E0,0E0,0E0,0E0],"parents":[2147483647,0,0,1,1,2,2,3,3,4,4,5,5,6,6],"right_children":[2,4,6,8,10,12,14,-1,-1,-1,-1,-1,-1,-1,-1],"split_conditions":[9.948127E-3,3.6541522E-3,-4.080756E-3,-1.6670275E-2,-1.2696529E-2,4.802986E1,1.3807281E-2,8.050153E-4,-3.6438608E-3,1.3067924E-3,-6.45582E-4,1.644679E-3,3.8173727E-3,-3.4994114E-4,1.9070331E-3],"split_indices":[2,2,3,3,4,0,2,0,0,0,0,0,0,0,0],"split_type":[0,0,0,0,0,0,0,0,0,0,0,0,0,0,0],"sum_hessian":[7.697074E3,5.746603E3,1.9504713E3,2.3394742E2,5.5126553E3,9.449213E2,1.00555005E3,1.575797E1,2.1818944E2,2.7362714E2,5.2390283E3,6.9082294E2,2.5409837E2,6.7413293E2,3.3141708E2],"tree_param":{"num_deleted":"0","num_feature":"5","num_nodes":"15","size_leaf_vector":"1"}},{"base_weights":[-3.9019495E-2,-4.2624906E-2,5.5046415E-1,-4.9780115E-2,1.7802672E-1,7.812998E-2,7.633175E-1,-6.8278913E-4,3.282369E-4,3.4649628E-3,1.2925989E-4,6.075506E-3,-6.3352734E-3,8.43092E-3,-2.0758514E-3],"categories":[],"categories_nodes":[],"categories_segments":[],"categories_sizes":[],"default_left":[0,0,0,0,0,0,0,0,0,0,0,0,0,0,0],"id":56,"left_children":[1,3,5,7,9,11,13,-1,-1,-1,-1,-1,-1,-1,-1],"loss_changes":[1.6212265E1,1.1963129E1,4.6029425E0,1.1210125E1,6.61644E0,6.232621E0,2.6423264E0,0E0,0E0,0E0,0E0,0E0,0E0,0E0,0E0],"parents":[2147483647,0,0,1,1,2,2,3,3,4,4,5,5,6,6],"right_children":[2,4,6,8,10,12,14,-1,-1,-1,-1,-1,-1,-1,-1],"split_conditions":[2.9887583E-2,6.572964E-2,-8.56996E-3,6.6503836E-3,5.198542E-3,-3.3735532E-2,7.821524E1,-6.8278913E-4,3.282369E-4,3.4649628E-3,1.2925989E-4,6.075506E-3,-6.3352734E-3,8.43092E-3,-2.0758514E-3],"split_indices":[4,1,3,4,4,1,0,0,0,0,0,0,0,0,0],"split_type":[0,0,0,0,0,0,0,0,0,0,0,0,0,0,0],"sum_hessian":[7.616075E3,7.570699E3,4.5376343E1,7.33366E3,2.3703883E2,1.4520826E1,3.0855516E1,5.991958E3,1.3417023E3,1.16778656E2,1.20260185E2,8.410398E0,6.110429E0,2.8634405E1,2.2211108E0],"tree_param":{"num_deleted":"0","num_feature":"5","num_nodes":"15","size_leaf_vector":"1"}},{"base_weights":[5.3243667E-2,-5.3065337E-2,8.415301E-2,-2.543383E-1,-3.0166643E-2,1.03398785E-1,-1.1116413E-1,-6.7491835E-4,-3.5087583E-3,5.2664237E-4,-8.584533E-4,-3.3162807E-3,1.0866656E-3,-1.3316701E-3,2.3486286E-3],"categories":[],"categories_nodes":[],"categories_segments":[],"categories_sizes":[],"default_left":[0,0,0,0,0,0,0,0,0,0,0,0,0,0,0],"id":57,"left_children":[1,3,5,7,9,11,13,-1,-1,-1,-1,-1,-1,-1,-1],"loss_changes":[2.6166677E1,8.261023E0,2.3200138E1,3.279502E0,7.4386916E0,1.2905746E1,4.2477355E0,0E0,0E0,0E0,0E0,0E0,0E0,0E0,0E0],"parents":[2147483647,0,0,1,1,2,2,3,3,4,4,5,5,6,6],"right_children":[2,4,6,8,10,12,14,-1,-1,-1,-1,-1,-1,-1,-1],"split_conditions":[-2.1197034E-2,-7.0922405E-2,6.357896E-2,2.4724602E1,3.1987442E1,-2.6608013E-2,8.769367E1,-6.7491835E-4,-3.5087583E-3,5.2664237E-4,-8.584533E-4,-3.3162807E-3,1.0866656E-3,-1.3316701E-3,2.3486286E-3],"split_indices":[1,1,3,0,0,4,0,0,0,0,0,0,0,0,0],"split_type":[0,0,0,0,0,0,0,0,0,0,0,0,0,0,0],"sum_hessian":[7.9608613E3,1.7930754E3,6.1677856E3,1.8212671E2,1.6109487E3,5.614979E3,5.528069E2,6.2622066E1,1.1950465E2,6.475981E2,9.6335065E2,6.6437546E1,5.5485415E3,5.203354E2,3.247151E1],"tree_param":{"num_deleted":"0","num_feature":"5","num_nodes":"15","size_leaf_vector":"1"}},{"base_weights":[-1.6757952E-2,-6.577086E-2,1.2745649E-1,-3.3199355E-1,-5.443712E-2,2.2133054E-1,3.9041944E-2,8.086757E-4,-3.6210853E-3,1.3001085E-3,-6.410076E-4,1.8086596E-3,4.495364E-3,-3.4930225E-4,1.890088E-3],"categories":[],"categories_nodes":[],"categories_segments":[],"categories_sizes":[],"default_left":[0,0,0,0,0,0,0,0,0,0,0,0,0,0,0],"id":58,"left_children":[1,3,5,7,9,11,13,-1,-1,-1,-1,-1,-1,-1,-1],"loss_changes":[5.4414932E1,1.7317575E1,1.6198961E1,2.9438038E0,9.833157E0,8.662838E0,1.1175834E1,0E0,0E0,0E0,0E0,0E0,0E0,0E0,0E0],"parents":[2147483647,0,0,1,1,2,2,3,3,4,4,5,5,6,6],"right_children":[2,4,6,8,10,12,14,-1,-1,-1,-1,-1,-1,-1,-1],"split_conditions":[9.948127E-3,3.6541522E-3,-4.080756E-3,-1.6670275E-2,-1.2696529E-2,5.437151E1,1.3807281E-2,8.086757E-4,-3.6210853E-3,1.3001085E-3,-6.410076E-4,1.8086596E-3,4.495364E-3,-3.4930225E-4,1.890088E-3],"split_indices":[2,2,3,3,4,0,2,0,0,0,0,0,0,0,0],"split_type":[0,0,0,0,0,0,0,0,0,0,0,0,0,0,0],"sum_hessian":[7.696186E3,5.744423E3,1.951763E3,2.3341238E2,5.5110103E3,9.4592487E2,1.00583813E3,1.5753575E1,2.1765881E2,2.7373984E2,5.2372705E3,8.049813E2,1.4094354E2,6.741005E2,3.3173758E2],"tree_param":{"num_deleted":"0","num_feature":"5","num_nodes":"15","size_leaf_vector":"1"}},{"base_weights":[-3.8728148E-2,-1.1519498E-1,2.392389E-3,-1.404367E-1,3.565027E-2,-2.6092108E-3,5.684218E-1,-1.0426565E-3,-2.531118E-3,8.4900355E-4,-4.0159957E-3,-4.3051585E-4,3.8620704E-4,7.781317E-4,8.125588E-3],"categories":[],"categories_nodes":[],"categories_segments":[],"categories_sizes":[],"default_left":[0,0,0,0,0,0,0,0,0,0,0,0,0,0,0],"id":59,"left_children":[1,3,5,7,9,11,13,-1,-1,-1,-1,-1,-1,-1,-1],"loss_changes":[2.3945774E1,1.0145142E1,1.4024394E1,9.272381E0,8.272217E0,8.190208E0,5.133792E0,0E0,0E0,0E0,0E0,0E0,0E0,0E0,0E0],"parents":[2147483647,0,0,1,1,2,2,3,3,4,4,5,5,6,6],"right_children":[2,4,6,8,10,12,14,-1,-1,-1,-1,-1,-1,-1,-1],"split_conditions":[6.599898E-3,7.223283E-3,2.9887583E-2,4.2044958E-5,4.1907296E-2,4.0273863E-4,-8.56996E-3,-1.0426565E-3,-2.531118E-3,8.4900355E-4,-4.0159957E-3,-4.3051585E-4,3.8620704E-4,7.781317E-4,8.125588E-3],"split_indices":[2,4,4,4,3,3,3,0,0,0,0,0,0,0,0],"split_type":[0,0,0,0,0,0,0,0,0,0,0,0,0,0,0],"sum_hessian":[7.6143867E3,2.6621362E3,4.9522505E3,2.2805835E3,3.815529E2,4.909861E3,4.2389565E1,1.727837E3,5.5274634E2,3.4365118E2,3.7901676E1,2.4785803E3,2.4312808E3,1.452314E1,2.7866423E1],"tree_param":{"num_deleted":"0","num_feature":"5","num_nodes":"15","size_leaf_vector":"1"}},{"base_weights":[5.2821886E-2,1.13740824E-1,-1.459272E-1,5.281268E-1,9.537329E-2,-8.492398E-2,-3.5451496E-1,-1.6253544E-3,5.5251103E-3,1.2490086E-3,2.4054109E-4,-1.1698904E-3,5.7232805E-4,-3.1374926E-3,-5.9112674E-3],"categories":[],"categories_nodes":[],"categories_segments":[],"categories_sizes":[],"default_left":[0,0,0,0,0,0,0,0,0,0,0,0,0,0,0],"id":60,"left_children":[1,3,5,7,9,11,13,-1,-1,-1,-1,-1,-1,-1,-1],"loss_changes":[9.643671E1,4.6346924E1,2.3748554E1,4.4434586E0,1.2291927E1,6.6033487E0,3.8902245E0,0E0,0E0,0E0,0E0,0E0,0E0,0E0,0E0],"parents":[2147483647,0,0,1,1,2,2,3,3,4,4,5,5,6,6],"right_children":[2,4,6,8,10,12,14,-1,-1,-1,-1,-1,-1,-1,-1],"split_conditions":[1.0111407E-2,3.6541522E-3,1.5521577E-2,-1.9965356E-2,7.923815E-3,3.850965E-2,2.6426611E-2,-1.6253544E-3,5.5251103E-3,1.2490086E-3,2.4054109E-4,-1.1698904E-3,5.7232805E-4,-3.1374926E-3,-5.9112674E-3],"split_indices":[2,2,2,1,2,1,2,0,0,0,0,0,0,0,0],"split_type":[0,0,0,0,0,0,0,0,0,0,0,0,0,0,0],"sum_hessian":[7.962613E3,6.094886E3,1.8677267E3,2.5750986E2,5.837376E3,1.4461849E3,4.215417E2,8.588314E0,2.4892152E2,4.1276816E3,1.7096945E3,1.180163E3,2.6602197E2,3.6157257E2,5.9969124E1],"tree_param":{"num_deleted":"0","num_feature":"5","num_nodes":"15","size_leaf_vector":"1"}},{"base_weights":[-1.6628465E-2,-6.53898E-2,1.2674586E-1,-3.3074468E-1,-5.410491E-2,8.759622E-2,2.9272515E-1,-5.702514E-5,-3.6192646E-3,1.2921649E-3,-6.3716917E-4,3.4573218E-3,6.815815E-4,3.718752E-3,-2.8804536E-3],"categories":[],"categories_nodes":[],"categories_segments":[],"categories_sizes":[],"default_left":[0,0,0,0,0,0,0,0,0,0,0,0,0,0,0],"id":61,"left_children":[1,3,5,7,9,11,13,-1,-1,-1,-1,-1,-1,-1,-1],"loss_changes":[5.3814297E1,1.7181831E1,1.2668652E1,2.370718E0,9.718502E0,7.9151077E0,1.7226423E1,0E0,0E0,0E0,0E0,0E0,0E0,0E0,0E0],"parents":[2147483647,0,0,1,1,2,2,3,3,4,4,5,5,6,6],"right_children":[2,4,6,8,10,12,14,-1,-1,-1,-1,-1,-1,-1,-1],"split_conditions":[9.948127E-3,3.6541522E-3,1.603357E-2,-1.5459616E-2,-1.2696529E-2,-6.836635E-2,9.152722E-3,-5.702514E-5,-3.6192646E-3,1.2921649E-3,-6.3716917E-4,3.4573218E-3,6.815815E-4,3.718752E-3,-2.8804536E-3],"split_indices":[2,2,2,1,4,1,4,0,0,0,0,0,0,0,0],"split_type":[0,0,0,0,0,0,0,0,0,0,0,0,0,0,0],"sum_hessian":[7.6953325E3,5.742771E3,1.9525615E3,2.331085E2,5.5096626E3,1.5811438E3,3.7141763E2,2.0508507E1,2.126E2,2.7387338E2,5.235789E3,1.0954952E2,1.4715944E3,3.271868E2,4.4230827E1],"tree_param":{"num_deleted":"0","num_feature":"5","num_nodes":"15","size_leaf_vector":"1"}},{"base_weights":[-3.8440466E-2,-5.497258E-2,8.7759785E-2,-6.267242E-2,2.2363746E-1,8.163121E-1,6.1410166E-2,-3.4633602E-5,-7.341161E-4,-1.3458171E-3,3.0880405E-3,9.795684E-3,2.29762E-3,3.3533643E-4,5.4373955E-3],"categories":[],"categories_nodes":[],"categories_segments":[],"categories_sizes":[],"default_left":[0,0,0,0,0,0,0,0,0,0,0,0,0,0,0],"id":62,"left_children":[1,3,5,7,9,11,13,-1,-1,-1,-1,-1,-1,-1,-1],"loss_changes":[1.5889752E1,1.445685E1,1.6886509E1,4.1660023E0,5.572032E0,2.7159824E0,1.1444704E1,0E0,0E0,0E0,0E0,0E0,0E0,0E0,0E0],"parents":[2147483647,0,0,1,1,2,2,3,3,4,4,5,5,6,6],"right_children":[2,4,6,8,10,12,14,-1,-1,-1,-1,-1,-1,-1,-1],"split_conditions":[1.0457344E-2,6.359164E-2,1.0930233E-2,-3.3735532E-2,-2.8497586E-3,2.806276E-2,2.9887583E-2,-3.4633602E-5,-7.341161E-4,-1.3458171E-3,3.0880405E-3,9.795684E-3,2.29762E-3,3.3533643E-4,5.4373955E-3],"split_indices":[4,1,4,1,4,3,4,0,0,0,0,0,0,0,0],"split_type":[0,0,0,0,0,0,0,0,0,0,0,0,0,0,0],"sum_hessian":[7.6127144E3,6.7314634E3,8.8125104E2,6.5511855E3,1.802776E2,2.9713352E1,8.515377E2,1.0060098E3,5.545176E3,3.4516705E1,1.4576091E2,2.2719662E1,6.9936905E0,8.0602264E2,4.5515053E1],"tree_param":{"num_deleted":"0","num_feature":"5","num_nodes":"15","size_leaf_vector":"1"}},{"base_weights":[5.2404042E-2,1.1284258E-1,-1.450056E-1,5.235914E-1,9.4612546E-2,-8.43666E-2,-3.5263008E-1,-1.9397531E-3,5.4511065E-3,1.3134454E-3,3.8016262E-4,8.659146E-4,-1.0531748E-3,-3.1198144E-3,-5.8887987E-3],"categories":[],"categories_nodes":[],"categories_segments":[],"categories_sizes":[],"default_left":[0,0,0,0,0,0,0,0,0,0,0,0,0,0,0],"id":63,"left_children":[1,3,5,7,9,11,13,-1,-1,-1,-1,-1,-1,-1,-1],"loss_changes":[9.505043E1,4.561776E1,2.3481693E1,4.1043777E0,1.2137417E1,5.1905823E0,3.8670044E0,0E0,0E0,0E0,0E0,0E0,0E0,0E0,0E0],"parents":[2147483647,0,0,1,1,2,2,3,3,4,4,5,5,6,6],"right_children":[2,4,6,8,10,12,14,-1,-1,-1,-1,-1,-1,-1,-1],"split_conditions":[1.0111407E-2,3.6541522E-3,1.5521577E-2,-2.1109207E-2,7.419044E-3,2.8198246E1,2.6426611E-2,-1.9397531E-3,5.4511065E-3,1.3134454E-3,3.8016262E-4,8.659146E-4,-1.0531748E-3,-3.1198144E-3,-5.8887987E-3],"split_indices":[2,2,2,3,2,0,2,0,0,0,0,0,0,0,0],"split_type":[0,0,0,0,0,0,0,0,0,0,0,0,0,0,0],"sum_hessian":[7.964206E3,6.0977573E3,1.866449E3,2.5795438E2,5.8398027E3,1.4456403E3,4.2080865E2,7.2772636E0,2.5067712E2,3.5405818E3,2.299221E3,1.5747984E2,1.2881604E3,3.6101395E2,5.979472E1],"tree_param":{"num_deleted":"0","num_feature":"5","num_nodes":"15","size_leaf_vector":"1"}},{"base_weights":[-1.6502785E-2,-6.489597E-2,1.2564492E-1,-3.2856527E-1,-5.3704917E-2,2.1843788E-1,3.8157396E-2,8.17465E-4,-3.5859433E-3,1.2857922E-3,-6.3269434E-4,1.7727418E-3,4.1240305E-3,-3.5073268E-4,1.8642315E-3],"categories":[],"categories_nodes":[],"categories_segments":[],"categories_sizes":[],"default_left":[0,0,0,0,0,0,0,0,0,0,0,0,0,0,0],"id":64,"left_children":[1,3,5,7,9,11,13,-1,-1,-1,-1,-1,-1,-1,-1],"loss_changes":[5.2944927E1,1.6924385E1,1.5861277E1,2.9072857E0,9.612942E0,7.499466E0,1.0944286E1,0E0,0E0,0E0,0E0,0E0,0E0,0E0,0E0],"parents":[2147483647,0,0,1,1,2,2,3,3,4,4,5,5,6,6],"right_children":[2,4,6,8,10,12,14,-1,-1,-1,-1,-1,-1,-1,-1],"split_conditions":[9.948127E-3,3.6541522E-3,-4.080756E-3,-1.6670275E-2,-1.2696529E-2,1.603357E-2,1.3807281E-2,8.17465E-4,-3.5859433E-3,1.2857922E-3,-6.3269434E-4,1.7727418E-3,4.1240305E-3,-3.5073268E-4,1.8642315E-3],"split_indices":[2,2,3,3,4,2,2,0,0,0,0,0,0,0,0],"split_type":[0,0,0,0,0,0,0,0,0,0,0,0,0,0,0],"sum_hessian":[7.694438E3,5.7406255E3,1.9538124E3,2.3257736E2,5.5080483E3,9.4743066E2,1.0063818E3,1.5743167E1,2.168342E2,2.7398068E2,5.234068E3,7.8314404E2,1.6428658E2,6.7416504E2,3.322167E2],"tree_param":{"num_deleted":"0","num_feature":"5","num_nodes":"15","size_leaf_vector":"1"}},{"base_weights":[-3.8151775E-2,-1.1414352E-1,2.687588E-3,-1.3924234E-1,3.5707027E-2,-2.261973E-3,5.60768E-1,-1.0319272E-3,-2.5160008E-3,6.8701606E-4,-5.447967E-3,-1.0165266E-4,2.1194755E-3,-5.171712E-3,6.312571E-3],"categories":[],"categories_nodes":[],"categories_segments":[],"categories_sizes":[],"default_left":[0,0,0,0,0,0,0,0,0,0,0,0,0,0,0],"id":65,"left_children":[1,3,5,7,9,11,13,-1,-1,-1,-1,-1,-1,-1,-1],"loss_changes":[2.3623932E1,1.0012733E1,1.3680391E1,9.206425E0,7.3642964E0,8.313954E0,3.6346283E0,0E0,0E0,0E0,0E0,0E0,0E0,0E0,0E0],"parents":[2147483647,0,0,1,1,2,2,3,3,4,4,5,5,6,6],"right_children":[2,4,6,8,10,12,14,-1,-1,-1,-1,-1,-1,-1,-1],"split_conditions":[6.599898E-3,7.223283E-3,2.9887583E-2,4.2044958E-5,4.3704253E-2,7.1346335E-2,-5.518396E-2,-1.0319272E-3,-2.5160008E-3,6.8701606E-4,-5.447967E-3,-1.0165266E-4,2.1194755E-3,-5.171712E-3,6.312571E-3],"split_indices":[2,4,4,4,1,1,1,0,0,0,0,0,0,0,0],"split_type":[0,0,0,0,0,0,0,0,0,0,0,0,0,0,0],"sum_hessian":[7.6110425E3,2.6598809E3,4.9511616E3,2.2783462E3,3.8153464E2,4.9086235E3,4.2538162E1,1.7263661E3,5.5198016E2,3.6184955E2,1.9685097E1,4.734882E3,1.7374164E2,2.221989E0,4.031617E1],"tree_param":{"num_deleted":"0","num_feature":"5","num_nodes":"15","size_leaf_vector":"1"}},{"base_weights":[5.198908E-2,1.11929014E-1,-1.4402711E-1,5.189718E-1,9.383969E-2,-7.2466336E-2,-3.181945E-1,-1.6292387E-3,5.4297643E-3,1.2296041E-3,2.3455096E-4,-1.0907958E-3,9.4102666E-4,-2.8386493E-3,-5.867372E-3],"categories":[],"categories_nodes":[],"categories_segments":[],"categories_sizes":[],"default_left":[0,0,0,0,0,0,0,0,0,0,0,0,0,0,0],"id":66,"left_children":[1,3,5,7,9,11,13,-1,-1,-1,-1,-1,-1,-1,-1],"loss_changes":[9.361913E1,4.487861E1,2.3235134E1,4.334564E0,1.1973747E1,8.084539E0,4.840706E0,0E0,0E0,0E0,0E0,0E0,0E0,0E0,0E0],"parents":[2147483647,0,0,1,1,2,2,3,3,4,4,5,5,6,6],"right_children":[2,4,6,8,10,12,14,-1,-1,-1,-1,-1,-1,-1,-1],"split_conditions":[1.0111407E-2,3.6541522E-3,1.4234046E-2,-1.9965356E-2,7.923815E-3,3.850965E-2,2.6426611E-2,-1.6292387E-3,5.4297643E-3,1.2296041E-3,2.3455096E-4,-1.0907958E-3,9.4102666E-4,-2.8386493E-3,-5.867372E-3],"split_indices":[2,2,2,1,2,1,2,0,0,0,0,0,0,0,0],"split_type":[0,0,0,0,0,0,0,0,0,0,0,0,0,0,0],"sum_hessian":[7.9657573E3,6.1006606E3,1.8650966E3,2.5840424E2,5.8422563E3,1.3229482E3,5.421483E2,8.590408E0,2.4981383E2,4.131963E3,1.7102936E3,1.0848372E3,2.3811111E2,4.825215E2,5.9626823E1],"tree_param":{"num_deleted":"0","num_feature":"5","num_nodes":"15","size_leaf_vector":"1"}},{"base_weights":[-1.637571E-2,-6.442543E-2,1.2462998E-1,-3.264725E-1,-5.3324524E-2,2.168309E-1,3.7651595E-2,8.16933E-4,-3.5641717E-3,5.220921E-4,-6.5467396E-4,1.5621724E-3,3.6654377E-3,-3.5098894E-4,1.8481496E-3],"categories":[],"categories_nodes":[],"categories_segments":[],"categories_sizes":[],"default_left":[0,0,0,0,0,0,0,0,0,0,0,0,0,0,0],"id":67,"left_children":[1,3,5,7,9,11,13,-1,-1,-1,-1,-1,-1,-1,-1],"loss_changes":[5.2140682E1,1.6678778E1,1.5677616E1,2.8777256E0,7.0611973E0,8.556976E0,1.07950735E1,0E0,0E0,0E0,0E0,0E0,0E0,0E0,0E0],"parents":[2147483647,0,0,1,1,2,2,3,3,4,4,5,5,6,6],"right_children":[2,4,6,8,10,12,14,-1,-1,-1,-1,-1,-1,-1,-1],"split_conditions":[9.948127E-3,3.6541522E-3,-4.080756E-3,-1.6670275E-2,-3.9876055E-2,4.736225E1,1.3807281E-2,8.16933E-4,-3.5641717E-3,5.220921E-4,-6.5467396E-4,1.5621724E-3,3.6654377E-3,-3.5098894E-4,1.8481496E-3],"split_indices":[2,2,3,3,3,0,2,0,0,0,0,0,0,0,0],"split_type":[0,0,0,0,0,0,0,0,0,0,0,0,0,0,0],"sum_hessian":[7.693533E3,5.738574E3,1.9549587E3,2.320647E2,5.50651E3,9.482642E2,1.0066946E3,1.5743422E1,2.1632127E2,5.67868E2,4.9386416E3,6.7644006E2,2.7182413E2,6.7417596E2,3.3251865E2],"tree_param":{"num_deleted":"0","num_feature":"5","num_nodes":"15","size_leaf_vector":"1"}},{"base_weights":[-3.786692E-2,-1.1339324E-1,2.698219E-3,-1.3838603E-1,3.5720974E-2,-2.2252772E-3,5.5684465E-1,-1.0246442E-3,-2.5040354E-3,6.855056E-4,-5.431708E-3,-1.00804566E-4,2.1048384E-3,3.919251E-3,1.120953E-2],"categories":[],"categories_nodes":[],"categories_segments":[],"categories_sizes":[],"default_left":[0,0,0,0,0,0,0,0,0,0,0,0,0,0,0],"id":68,"left_children":[1,3,5,7,9,11,13,-1,-1,-1,-1,-1,-1,-1,-1],"loss_changes":[2.3316437E1,9.915436E0,1.3512224E1,9.13961E0,7.3070955E0,8.205214E0,3.6182842E0,0E0,0E0,0E0,0E0,0E0,0E0,0E0,0E0],"parents":[2147483647,0,0,1,1,2,2,3,3,4,4,5,5,6,6],"right_children":[2,4,6,8,10,12,14,-1,-1,-1,-1,-1,-1,-1,-1],"split_conditions":[6.599898E-3,7.223283E-3,2.9887583E-2,4.2044958E-5,4.3704253E-2,7.1346335E-2,1.1752839E-1,-1.0246442E-3,-2.5040354E-3,6.855056E-4,-5.431708E-3,-1.00804566E-4,2.1048384E-3,3.919251E-3,1.120953E-2],"split_indices":[2,4,4,4,1,1,4,0,0,0,0,0,0,0,0],"split_type":[0,0,0,0,0,0,0,0,0,0,0,0,0,0,0],"sum_hessian":[7.609359E3,2.6582651E3,4.9510938E3,2.276737E3,3.81528E2,4.908479E3,4.2615013E1,1.7253649E3,5.513723E2,3.6188663E2,1.9641405E1,4.734587E3,1.7389194E2,3.4286095E1,8.328919E0],"tree_param":{"num_deleted":"0","num_feature":"5","num_nodes":"15","size_leaf_vector":"1"}},{"base_weights":[5.15771E-2,1.1102359E-1,-1.4305736E-1,5.1441514E-1,9.307369E-2,-8.3065376E-2,-3.4898314E-1,-1.6269763E-3,5.382089E-3,1.2195597E-3,2.323701E-4,-1.1484975E-3,5.767431E-4,-3.0852284E-3,-5.8471262E-3],"categories":[],"categories_nodes":[],"categories_segments":[],"categories_sizes":[],"default_left":[0,0,0,0,0,0,0,0,0,0,0,0,0,0,0],"id":69,"left_children":[1,3,5,7,9,11,13,-1,-1,-1,-1,-1,-1,-1,-1],"loss_changes":[9.2211525E1,4.4154022E1,2.300792E1,4.2739105E0,1.1788158E1,6.4722166E0,3.8290672E0,0E0,0E0,0E0,0E0,0E0,0E0,0E0,0E0],"parents":[2147483647,0,0,1,1,2,2,3,3,4,4,5,5,6,6],"right_children":[2,4,6,8,10,12,14,-1,-1,-1,-1,-1,-1,-1,-1],"split_conditions":[1.0111407E-2,3.6541522E-3,1.5521577E-2,-1.9965356E-2,7.923815E-3,3.850965E-2,2.6426611E-2,-1.6269763E-3,5.382089E-3,1.2195597E-3,2.323701E-4,-1.1484975E-3,5.767431E-4,-3.0852284E-3,-5.8471262E-3],"split_indices":[2,2,2,1,2,1,2,0,0,0,0,0,0,0,0],"split_type":[0,0,0,0,0,0,0,0,0,0,0,0,0,0,0],"sum_hessian":[7.9672764E3,6.1035273E3,1.8637487E3,2.5884296E2,5.8446846E3,1.4443672E3,4.193815E2,8.588791E0,2.5025418E2,4.134173E3,1.7105117E3,1.1784193E3,2.659479E2,3.5991498E2,5.9466503E1],"tree_param":{"num_deleted":"0","num_feature":"5","num_nodes":"15","size_leaf_vector":"1"}},{"base_weights":[-1.6250484E-2,1.0310441E-1,-4.4197924E-2,3.0498183E-1,6.832405E-2,-1.7297378E-2,-9.72252E-2,1.1548385E-3,3.7738702E-3,4.9809427E-3,5.1905157E-4,1.0856035E-3,-2.8427E-4,-1.492956E-3,9.2063274E-4],"categories":[],"categories_nodes":[],"categories_segments":[],"categories_sizes":[],"default_left":[0,0,0,0,0,0,0,0,0,0,0,0,0,0,0],"id":70,"left_children":[1,3,5,7,9,11,13,-1,-1,-1,-1,-1,-1,-1,-1],"loss_changes":[2.5667942E1,1.0230372E1,8.891793E0,2.8964767E0,8.771454E0,5.7987123E0,2.0693449E1,0E0,0E0,0E0,0E0,0E0,0E0,0E0,0E0],"parents":[2147483647,0,0,1,1,2,2,3,3,4,4,5,5,6,6],"right_children":[2,4,6,8,10,12,14,-1,-1,-1,-1,-1,-1,-1,-1],"split_conditions":[-3.21069E-2,-6.836635E-2,2.3354392E-3,-1.1775E-1,-2.6608013E-2,-1.2696529E-2,5.0483126E-2,1.1548385E-3,3.7738702E-3,4.9809427E-3,5.1905157E-4,1.0856035E-3,-2.8427E-4,-1.492956E-3,9.2063274E-4],"split_indices":[3,1,4,3,4,4,3,0,0,0,0,0,0,0,0],"split_type":[0,0,0,0,0,0,0,0,0,0,0,0,0,0,0],"sum_hessian":[7.692636E3,1.4590016E3,6.233635E3,2.132801E2,1.2457214E3,4.136519E3,2.0971155E3,5.9680363E1,1.5359975E2,4.476061E1,1.2009609E3,3.3536285E2,3.8011562E3,1.6448527E3,4.5226282E2],"tree_param":{"num_deleted":"0","num_feature":"5","num_nodes":"15","size_leaf_vector":"1"}},{"base_weights":[-3.7582774E-2,-1.1266637E-1,2.7216994E-3,-1.3755311E-1,3.5713065E-2,-2.1778925E-3,5.532948E-1,-1.0176295E-3,-2.4922057E-3,8.3218556E-4,-4.0974147E-3,-9.9899225E-5,2.091882E-3,7.09398E-4,7.928246E-3],"categories":[],"categories_nodes":[],"categories_segments":[],"categories_sizes":[],"default_left":[0,0,0,0,0,0,0,0,0,0,0,0,0,0,0],"id":71,"left_children":[1,3,5,7,9,11,13,-1,-1,-1,-1,-1,-1,-1,-1],"loss_changes":[2.302572E1,9.818935E0,1.3359586E1,9.071571E0,8.128957E0,8.108314E0,4.9908524E0,0E0,0E0,0E0,0E0,0E0,0E0,0E0,0E0],"parents":[2147483647,0,0,1,1,2,2,3,3,4,4,5,5,6,6],"right_children":[2,4,6,8,10,12,14,-1,-1,-1,-1,-1,-1,-1,-1],"split_conditions":[6.599898E-3,7.223283E-3,2.9887583E-2,4.2044958E-5,4.5751825E-2,7.1346335E-2,-8.56996E-3,-1.0176295E-3,-2.4922057E-3,8.3218556E-4,-4.0974147E-3,-9.9899225E-5,2.091882E-3,7.09398E-4,7.928246E-3],"split_indices":[2,4,4,4,3,1,3,0,0,0,0,0,0,0,0],"split_type":[0,0,0,0,0,0,0,0,0,0,0,0,0,0,0],"sum_hessian":[7.607677E3,2.6566963E3,4.9509805E3,2.2751694E3,3.8152692E2,4.9082974E3,4.268327E1,1.7243993E3,5.507701E2,3.454948E2,3.603211E1,4.734273E3,1.7402463E2,1.4592891E1,2.8090378E1],"tree_param":{"num_deleted":"0","num_feature":"5","num_nodes":"15","size_leaf_vector":"1"}},{"base_weights":[5.117088E-2,1.1020459E-1,-1.4230397E-1,5.1080614E-1,9.236209E-2,-7.142878E-2,-3.1515315E-1,-1.6227739E-3,5.3442037E-3,1.2099764E-3,2.3092564E-4,-1.0772588E-3,9.3489286E-4,-2.8101082E-3,-5.8292835E-3],"categories":[],"categories_nodes":[],"categories_segments":[],"categories_sizes":[],"default_left":[0,0,0,0,0,0,0,0,0,0,0,0,0,0,0],"id":72,"left_children":[1,3,5,7,9,11,13,-1,-1,-1,-1,-1,-1,-1,-1],"loss_changes":[9.104314E1,4.360486E1,2.2809025E1,4.2222366E0,1.1596985E1,7.929735E0,4.788372E0,0E0,0E0,0E0,0E0,0E0,0E0,0E0,0E0],"parents":[2147483647,0,0,1,1,2,2,3,3,4,4,5,5,6,6],"right_children":[2,4,6,8,10,12,14,-1,-1,-1,-1,-1,-1,-1,-1],"split_conditions":[1.0111407E-2,3.6541522E-3,1.4234046E-2,-1.9965356E-2,7.923815E-3,3.850965E-2,2.6426611E-2,-1.6227739E-3,5.3442037E-3,1.2099764E-3,2.3092564E-4,-1.0772588E-3,9.3489286E-4,-2.8101082E-3,-5.8292835E-3],"split_indices":[2,2,2,1,2,1,2,0,0,0,0,0,0,0,0],"split_type":[0,0,0,0,0,0,0,0,0,0,0,0,0,0,0],"sum_hessian":[7.9688066E3,6.1061177E3,1.8626892E3,2.5918744E2,5.84693E3,1.3220203E3,5.406688E2,8.585998E0,2.5060144E2,4.136276E3,1.7106543E3,1.0838259E3,2.3819437E2,4.8134506E2,5.932379E1],"tree_param":{"num_deleted":"0","num_feature":"5","num_nodes":"15","size_leaf_vector":"1"}},{"base_weights":[-1.6125266E-2,-6.364248E-2,1.23114236E-1,-3.234086E-1,-5.2668523E-2,2.1417026E-1,3.7118252E-2,8.2687667E-4,-3.5328774E-3,5.18048E-4,-6.4699445E-4,1.7414923E-3,4.3969327E-3,-3.4951328E-4,1.827187E-3],"categories":[],"categories_nodes":[],"categories_segments":[],"categories_sizes":[],"default_left":[0,0,0,0,0,0,0,0,0,0,0,0,0,0,0],"id":73,"left_children":[1,3,5,7,9,11,13,-1,-1,-1,-1,-1,-1,-1,-1],"loss_changes":[5.090556E1,1.6334814E1,1.5321348E1,2.8480225E0,6.922454E0,8.503601E0,1.0583797E1,0E0,0E0,0E0,0E0,0E0,0E0,0E0,0E0],"parents":[2147483647,0,0,1,1,2,2,3,3,4,4,5,5,6,6],"right_children":[2,4,6,8,10,12,14,-1,-1,-1,-1,-1,-1,-1,-1],"split_conditions":[9.948127E-3,3.6541522E-3,-4.080756E-3,-1.6670275E-2,-3.9876055E-2,5.437151E1,1.3807281E-2,8.2687667E-4,-3.5328774E-3,5.18048E-4,-6.4699445E-4,1.7414923E-3,4.3969327E-3,-3.4951328E-4,1.827187E-3],"split_indices":[2,2,3,3,3,0,2,0,0,0,0,0,0,0,0],"split_type":[0,0,0,0,0,0,0,0,0,0,0,0,0,0,0],"sum_hessian":[7.691809E3,5.7351577E3,1.9566511E3,2.313102E2,5.5038477E3,9.496416E2,1.0070095E3,1.5731498E1,2.1557869E2,5.6801874E2,4.935829E3,8.08023E2,1.4161858E2,6.741015E2,3.3290805E2],"tree_param":{"num_deleted":"0","num_feature":"5","num_nodes":"15","size_leaf_vector":"1"}},{"base_weights":[-3.7304234E-2,-1.1186758E-1,2.6944513E-3,-1.366171E-1,3.5565645E-2,-2.178407E-3,5.4932976E-1,-1.0091328E-3,-2.4806E-3,8.277828E-4,-4.080802E-3,-1.1202646E-3,1.2717534E-4,7.0512545E-4,7.866009E-3],"categories":[],"categories_nodes":[],"categories_segments":[],"categories_sizes":[],"default_left":[0,0,0,0,0,0,0,0,0,0,0,0,0,0,0],"id":74,"left_children":[1,3,5,7,9,11,13,-1,-1,-1,-1,-1,-1,-1,-1],"loss_changes":[2.2687704E1,9.696213E0,1.3191823E1,9.024681E0,8.046797E0,8.034433E0,4.9158325E0,0E0,0E0,0E0,0E0,0E0,0E0,0E0,0E0],"parents":[2147483647,0,0,1,1,2,2,3,3,4,4,5,5,6,6],"right_children":[2,4,6,8,10,12,14,-1,-1,-1,-1,-1,-1,-1,-1],"split_conditions":[6.599898E-3,7.223283E-3,2.9887583E-2,4.2044958E-5,4.5751825E-2,2.996231E1,-8.56996E-3,-1.0091328E-3,-2.4806E-3,8.277828E-4,-4.080802E-3,-1.1202646E-3,1.2717534E-4,7.0512545E-4,7.866009E-3],"split_indices":[2,4,4,4,3,0,3,0,0,0,0,0,0,0,0],"split_type":[0,0,0,0,0,0,0,0,0,0,0,0,0,0,0],"sum_hessian":[7.606004E3,2.6549658E3,4.951038E3,2.2734043E3,3.8156155E2,4.9082803E3,4.275775E1,1.7232266E3,5.501777E2,3.455967E2,3.5964863E1,5.8532935E2,4.322951E3,1.4597309E1,2.8160442E1],"tree_param":{"num_deleted":"0","num_feature":"5","num_nodes":"15","size_leaf_vector":"1"}},{"base_weights":[5.076568E-2,1.0931955E-1,-1.4136007E-1,5.063527E-1,9.1614515E-2,-8.19291E-2,-3.458122E-1,-1.6204653E-3,5.2976245E-3,1.2720457E-3,3.6699278E-4,-1.1340685E-3,5.728143E-4,-3.0554037E-3,-5.8099353E-3],"categories":[],"categories_nodes":[],"categories_segments":[],"categories_sizes":[],"default_left":[0,0,0,0,0,0,0,0,0,0,0,0,0,0,0],"id":75,"left_children":[1,3,5,7,9,11,13,-1,-1,-1,-1,-1,-1,-1,-1],"loss_changes":[8.968989E1,4.290307E1,2.2600922E1,4.163597E0,1.1429344E1,6.3352137E0,3.7921028E0,0E0,0E0,0E0,0E0,0E0,0E0,0E0,0E0],"parents":[2147483647,0,0,1,1,2,2,3,3,4,4,5,5,6,6],"right_children":[2,4,6,8,10,12,14,-1,-1,-1,-1,-1,-1,-1,-1],"split_conditions":[1.0111407E-2,3.6541522E-3,1.5521577E-2,-1.9965356E-2,7.419044E-3,3.850965E-2,2.6426611E-2,-1.6204653E-3,5.2976245E-3,1.2720457E-3,3.6699278E-4,-1.1340685E-3,5.728143E-4,-3.0554037E-3,-5.8099353E-3],"split_indices":[2,2,2,1,2,1,2,0,0,0,0,0,0,0,0],"split_type":[0,0,0,0,0,0,0,0,0,0,0,0,0,0,0],"sum_hessian":[7.9702676E3,6.1088984E3,1.8613689E3,2.5960873E2,5.84929E3,1.4432422E3,4.1812674E2,8.584342E0,2.5102438E2,3.5483325E3,2.3009575E3,1.1772356E3,2.660066E2,3.5895877E2,5.9167965E1],"tree_param":{"num_deleted":"0","num_feature":"5","num_nodes":"15","size_leaf_vector":"1"}},{"base_weights":[-1.600191E-2,-6.317523E-2,1.22100495E-1,-3.2134604E-1,-5.228961E-2,2.1246162E-1,3.6702223E-2,8.2927576E-4,-3.5115804E-3,1.2812609E-3,-6.1769364E-4,1.7220144E-3,4.017849E-3,-3.4817788E-4,1.8104358E-3],"categories":[],"categories_nodes":[],"categories_segments":[],"categories_sizes":[],"default_left":[0,0,0,0,0,0,0,0,0,0,0,0,0,0,0],"id":76,"left_children":[1,3,5,7,9,11,13,-1,-1,-1,-1,-1,-1,-1,-1],"loss_changes":[5.011853E1,1.6098068E1,1.5107544E1,2.822815E0,9.420216E0,7.1835556E0,1.0414841E1,0E0,0E0,0E0,0E0,0E0,0E0,0E0,0E0],"parents":[2147483647,0,0,1,1,2,2,3,3,4,4,5,5,6,6],"right_children":[2,4,6,8,10,12,14,-1,-1,-1,-1,-1,-1,-1,-1],"split_conditions":[9.948127E-3,3.6541522E-3,-4.080756E-3,-1.6670275E-2,-1.2696529E-2,1.603357E-2,1.3807281E-2,8.2927576E-4,-3.5115804E-3,1.2812609E-3,-6.1769364E-4,1.7220144E-3,4.017849E-3,-3.4817788E-4,1.8104358E-3],"split_indices":[2,2,3,3,4,2,2,0,0,0,0,0,0,0,0],"split_type":[0,0,0,0,0,0,0,0,0,0,0,0,0,0,0],"sum_hessian":[7.6909023E3,5.7331147E3,1.9577874E3,2.3079941E2,5.5023154E3,9.505301E2,1.0072573E3,1.5728405E1,2.15071E2,2.7405588E2,5.22826E3,7.85418E2,1.6511203E2,6.740364E2,3.3322098E2],"tree_param":{"num_deleted":"0","num_feature":"5","num_nodes":"15","size_leaf_vector":"1"}},{"base_weights":[-3.702422E-2,-1.11149326E-1,2.716954E-3,-1.357938E-1,3.5558198E-2,-2.1315904E-3,5.4578996E-1,-1.0022087E-3,-2.4688786E-3,8.2527497E-4,-4.0659923E-3,-1.1138543E-3,1.267592E-4,7.035353E-4,7.8088352E-3],"categories":[],"categories_nodes":[],"categories_segments":[],"categories_sizes":[],"default_left":[0,0,0,0,0,0,0,0,0,0,0,0,0,0,0],"id":77,"left_children":[1,3,5,7,9,11,13,-1,-1,-1,-1,-1,-1,-1,-1],"loss_changes":[2.2404247E1,9.601921E0,1.304015E1,8.957428E0,7.9784822E0,7.94325E0,4.843293E0,0E0,0E0,0E0,0E0,0E0,0E0,0E0,0E0],"parents":[2147483647,0,0,1,1,2,2,3,3,4,4,5,5,6,6],"right_children":[2,4,6,8,10,12,14,-1,-1,-1,-1,-1,-1,-1,-1],"split_conditions":[6.599898E-3,7.223283E-3,2.9887583E-2,4.2044958E-5,4.5751825E-2,2.996231E1,-8.56996E-3,-1.0022087E-3,-2.4688786E-3,8.2527497E-4,-4.0659923E-3,-1.1138543E-3,1.267592E-4,7.035353E-4,7.8088352E-3],"split_indices":[2,4,4,4,3,0,3,0,0,0,0,0,0,0,0],"split_type":[0,0,0,0,0,0,0,0,0,0,0,0,0,0,0],"sum_hessian":[7.6043364E3,2.6534092E3,4.9509272E3,2.2718499E3,3.8155942E2,4.908104E3,4.2823376E1,1.7222712E3,5.495786E2,3.4565472E2,3.5904697E1,5.8503485E2,4.323069E3,1.45988865E1,2.8224487E1],"tree_param":{"num_deleted":"0","num_feature":"5","num_nodes":"15","size_leaf_vector":"1"}},{"base_weights":[5.0363224E-2,1.08441055E-1,-1.4042172E-1,5.019559E-1,9.087222E-2,-7.0278056E-2,-3.1186366E-1,-1.6181284E-3,5.2516446E-3,1.1907355E-3,2.2603254E-4,-1.0619041E-3,9.26382E-4,-2.7790032E-3,-5.789582E-3],"categories":[],"categories_nodes":[],"categories_segments":[],"categories_sizes":[],"default_left":[0,0,0,0,0,0,0,0,0,0,0,0,0,0,0],"id":78,"left_children":[1,3,5,7,9,11,13,-1,-1,-1,-1,-1,-1,-1,-1],"loss_changes":[8.835568E1,4.2214775E1,2.235822E1,4.1060257E0,1.1265232E1,7.7444034E0,4.738205E0,0E0,